y u v w 
0.0 8.4028993854 0.00251797790602 0.00074554394216
0.00200133422282 8.40289477481 0.000104813330519 0.00036261276362
0.00400266844563 8.40289016423 -0.00230835124502 -2.03184149189e-05
0.00600400266845 8.40288555364 -0.00472151582055 -0.000403249593459
0.00800533689126 8.40288094306 -0.00713468039606 -0.000786180771998
0.0100066711141 8.40287633247 -0.00954784497158 -0.00116911195054
0.0120080053369 8.40287172188 -0.0119610095471 -0.00155204312908
0.0140093395597 8.40286711129 -0.0143741741226 -0.00193497430762
0.0160106737825 8.40286250071 -0.0167873386982 -0.00231790548615
0.0180120080053 8.40285789012 -0.0192005032737 -0.00270083666469
0.0200133422282 8.40273882401 -0.0220685441435 -0.00299594032266
0.022014676451 8.40255289774 -0.0252023048287 -0.00323973879533
0.0240160106738 8.40236697146 -0.028336065514 -0.00348353726802
0.0260173448966 8.40218104519 -0.0314698261992 -0.00372733574068
0.0280186791194 8.40199511892 -0.0346035868845 -0.00397113421338
0.0300200133422 8.40180919265 -0.0377373475698 -0.00421493268606
0.032021347565 8.40162326637 -0.040871108255 -0.00445873115873
0.0340226817879 8.4014373401 -0.0440048689403 -0.0047025296314
0.0360240160107 8.40099868095 -0.0470018229855 -0.00466583257231
0.0380253502335 8.40022987526 -0.0498200656542 -0.00426272243115
0.0400266844563 8.39946106956 -0.0526383083229 -0.00385961228999
0.0420280186791 8.39869226386 -0.0554565509916 -0.00345650214884
0.0440293529019 8.39792345816 -0.0582747936603 -0.00305339200769
0.0460306871247 8.39715465247 -0.061093036329 -0.00265028186655
0.0480320213476 8.39638584677 -0.0639112789977 -0.00224717172541
0.0500333555704 8.39561704107 -0.0667295216664 -0.00184406158426
0.0520346897932 8.39492774885 -0.0694849832084 -0.0016017205807
0.054036024016 8.39449595392 -0.0720371336845 -0.00188001605593
0.0560373582388 8.39406415899 -0.0745892841607 -0.00215831153116
0.0580386924616 8.39363236405 -0.0771414346368 -0.00243660700642
0.0600400266845 8.39320056912 -0.079693585113 -0.00271490248162
0.0620413609073 8.39276877419 -0.0822457355891 -0.00299319795684
0.0640426951301 8.39233697926 -0.0847978860653 -0.00327149343209
0.0660440293529 8.39190518433 -0.0873500365415 -0.0035497889073
0.0680453635757 8.3914733894 -0.0899021870175 -0.00382808438252
0.0700466977985 8.39104159447 -0.0924543374937 -0.00410637985775
0.0720480320213 8.39014950302 -0.0948288180685 -0.003979374262
0.0740493662442 8.38918691573 -0.0971760879374 -0.00379029552925
0.076050700467 8.38822432843 -0.0995233578064 -0.00360121679648
0.0780520346898 8.38726174113 -0.101870627675 -0.00341213806373
0.0800533689126 8.38629915383 -0.104217897545 -0.00322305933097
0.0820547031354 8.38533656653 -0.106565167414 -0.00303398059822
0.0840560373582 8.38437397923 -0.108912437283 -0.00284490186546
0.0860573715811 8.38341139193 -0.111259707152 -0.00265582313271
0.0880587058039 8.38244880464 -0.113606977021 -0.00246674439995
0.0900600400267 8.3814958202 -0.116126246953 -0.00241436846661
0.0920613742495 8.38055249884 -0.11881859532 -0.00249955240355
0.0940627084723 8.37960917749 -0.121510943687 -0.00258473634048
0.0960640426951 8.37866585613 -0.124203292054 -0.0026699202774
0.0980653769179 8.37772253477 -0.126895640421 -0.00275510421435
0.100066711141 8.37677921341 -0.129587988787 -0.00284028815127
0.102068045364 8.37583589205 -0.132280337154 -0.0029254720882
0.104069379586 8.37489257069 -0.134972685521 -0.00301065602512
0.106070713809 8.37376875966 -0.137675041345 -0.00317757469946
0.108072048032 8.37222536873 -0.140400661259 -0.003534500101
0.110073382255 8.37068197781 -0.143126281173 -0.00389142550255
0.112074716478 8.36913858689 -0.145851901087 -0.00424835090412
0.1140760507 8.36759519597 -0.148577521001 -0.00460527630566
0.116077384923 8.36605180504 -0.151303140914 -0.00496220170722
0.118078719146 8.36450841412 -0.154028760828 -0.00531912710875
0.120080053369 8.3629650232 -0.156754380742 -0.00567605251031
0.122081387592 8.36142440226 -0.159432780577 -0.00596600970377
0.124082721815 8.35990787178 -0.161700508812 -0.00567354642061
0.126084056037 8.3583913413 -0.163968237048 -0.0053810831375
0.12808539026 8.35687481082 -0.166235965284 -0.00508861985438
0.130086724483 8.35535828034 -0.168503693519 -0.00479615657123
0.132088058706 8.35384174987 -0.170771421755 -0.0045036932881
0.134089392929 8.35232521939 -0.173039149991 -0.00421123000496
0.136090727151 8.35080868891 -0.175306878226 -0.00391876672184
0.138092061374 8.34929215843 -0.177574606462 -0.00362630343872
0.140093395597 8.34777562795 -0.179842334698 -0.00333384015558
0.14209472982 8.34589467979 -0.182173591099 -0.00319313605422
0.144096064043 8.34388192098 -0.184527825772 -0.00310732357172
0.146097398266 8.34186916217 -0.186882060446 -0.00302151108927
0.148098732488 8.33985640336 -0.189236295119 -0.0029356986068
0.150100066711 8.33784364455 -0.191590529793 -0.00284988612432
0.152101400934 8.33583088574 -0.193944764466 -0.00276407364187
0.154102735157 8.33381812693 -0.19629899914 -0.00267826115941
0.15610406938 8.33180536812 -0.198653233813 -0.00259244867696
0.158105403602 8.32979260931 -0.201007468487 -0.00250663619449
0.160106737825 8.32776745064 -0.203278150645 -0.00235904418896
0.162108072048 8.32572077771 -0.205403865617 -0.0021042620708
0.164109406271 8.32367410478 -0.207529580589 -0.00184947995265
0.166110740494 8.32162743185 -0.209655295561 -0.00159469783445
0.168112074716 8.31958075891 -0.211781010533 -0.00133991571627
0.170113408939 8.31753408598 -0.213906725505 -0.00108513359809
0.172114743162 8.31548741305 -0.216032440478 -0.000830351479933
0.174116077385 8.31344074012 -0.21815815545 -0.000575569361758
0.176117411608 8.3113468992 -0.220278301125 -0.000249980284617
0.178118745831 8.30901941218 -0.222370859354 0.000426350240423
0.180120080053 8.30669192516 -0.224463417583 0.00110268076549
0.182121414276 8.30436443814 -0.226555975812 0.00177901129052
0.184122748499 8.30203695113 -0.228648534041 0.00245534181558
0.186124082722 8.29970946411 -0.23074109227 0.00313167234062
0.188125416945 8.29738197709 -0.232833650499 0.00380800286568
0.190126751167 8.29505449008 -0.234926208728 0.00448433339072
0.19212808539 8.29272700306 -0.237018766957 0.00516066391578
0.194129419613 8.29042506481 -0.238890091987 0.00552802816055
0.196130753836 8.28812390824 -0.240754648207 0.00588593933076
0.198132088059 8.28582275166 -0.242619204427 0.00624385050093
0.200133422282 8.28352159509 -0.244483760647 0.00660176167114
0.202134756504 8.28122043852 -0.246348316867 0.00695967284133
0.204136090727 8.27891928195 -0.248212873088 0.00731758401153
0.20613742495 8.27661812538 -0.250077429308 0.00767549518175
0.208138759173 8.27431696881 -0.251941985528 0.00803340635192
0.210140093396 8.27201581224 -0.253806541748 0.00839131752213
0.212141427618 8.26967000875 -0.255400459439 0.0088217792276
0.214142761841 8.26729463394 -0.25681512304 0.00930029388497
0.216144096064 8.26491925912 -0.25822978664 0.00977880854236
0.218145430287 8.26254388431 -0.259644450241 0.0102573231997
0.22014676451 8.2601685095 -0.261059113842 0.0107358378571
0.222148098732 8.25779313468 -0.262473777443 0.0112143525145
0.224149432955 8.25541775987 -0.263888441043 0.0116928671719
0.226150767178 8.25304238506 -0.265303104644 0.0121713818293
0.228152101401 8.25066701024 -0.266717768244 0.0126498964867
0.230153435624 8.24810124306 -0.268341853405 0.0131554470011
0.232154769847 8.24490807555 -0.270656045856 0.0137500888298
0.234156104069 8.24171490802 -0.272970238306 0.0143447306585
0.236157438292 8.23852174051 -0.275284430756 0.0149393724872
0.238158772515 8.23532857299 -0.277598623206 0.0155340143159
0.240160106738 8.23213540547 -0.279912815656 0.0161286561446
0.242161440961 8.22894223795 -0.282227008106 0.0167232979732
0.244162775183 8.22574907044 -0.284541200556 0.0173179398019
0.246164109406 8.22253308908 -0.286839210159 0.0178816890071
0.248165443629 8.21869099457 -0.2886930905 0.017597607321
0.250166777852 8.21484890006 -0.290546970842 0.0173135256348
0.252168112075 8.21100680555 -0.292400851183 0.0170294439487
0.254169446298 8.20716471104 -0.294254731525 0.0167453622626
0.25617078052 8.20332261652 -0.296108611866 0.0164612805765
0.258172114743 8.19948052201 -0.297962492208 0.0161771988903
0.260173448966 8.1956384275 -0.299816372549 0.0158931172042
0.262174783189 8.19179633299 -0.301670252891 0.015609035518
0.264176117412 8.18894452428 -0.302829397975 0.0151241110108
0.266177451634 8.18628486057 -0.303853743682 0.0146002170008
0.268178785857 8.18362519687 -0.304878089388 0.0140763229911
0.27018012008 8.18096553316 -0.305902435094 0.0135524289811
0.272181454303 8.17830586946 -0.306926780801 0.0130285349711
0.274182788526 8.17564620575 -0.307951126507 0.0125046409611
0.276184122748 8.17298654205 -0.308975472213 0.0119807469512
0.278185456971 8.17032687834 -0.30999981792 0.0114568529412
0.280186791194 8.16766721463 -0.311024163626 0.0109329589315
0.282188125417 8.16474313557 -0.311938827413 0.0102364122556
0.28418945964 8.16151938574 -0.312729185025 0.00934419255854
0.286190793863 8.15829563592 -0.313519542637 0.0084519728614
0.288192128085 8.1550718861 -0.314309900249 0.00755975316439
0.290193462308 8.15184813628 -0.315100257861 0.0066675334673
0.292194796531 8.14862438646 -0.315890615473 0.00577531377024
0.294196130754 8.14540063664 -0.316680973085 0.00488309407312
0.296197464977 8.14217688682 -0.317471330697 0.00399087437604
0.298198799199 8.138953137 -0.318261688309 0.00309865467901
0.300200133422 8.13568672977 -0.319114023804 0.00228133681599
0.302201467645 8.13203640586 -0.320524160249 0.00213813545941
0.304202801868 8.12838608196 -0.321934296694 0.00199493410297
0.306204136091 8.12473575805 -0.323344433139 0.00185173274649
0.308205470314 8.12108543414 -0.324754569585 0.00170853138991
0.310206804536 8.11743511023 -0.32616470603 0.0015653300335
0.312208138759 8.11378478633 -0.327574842475 0.00142212867697
0.314209472982 8.11013446242 -0.32898497892 0.00127892732071
0.316210807205 8.10648413851 -0.330395115365 0.00113572596414
0.318212141428 8.10294506955 -0.331100939884 0.00150884525644
0.32021347565 8.09941804117 -0.33173054017 0.00193784340687
0.322214809873 8.09589101279 -0.332360140455 0.00236684155731
0.324216144096 8.09236398441 -0.33298974074 0.00279583970773
0.326217478319 8.08883695603 -0.333619341025 0.00322483785817
0.328218812542 8.08530992765 -0.334248941311 0.0036538360086
0.330220146765 8.08178289927 -0.334878541596 0.00408283415915
0.332221480987 8.07825587089 -0.335508141881 0.00451183230962
0.33422281521 8.07466013373 -0.336347969719 0.00443176497857
0.336224149433 8.07103560286 -0.337275897351 0.00413836421949
0.338225483656 8.06741107198 -0.338203824983 0.00384496346016
0.340226817879 8.06378654111 -0.339131752616 0.00355156270111
0.342228152101 8.06016201024 -0.340059680248 0.00325816194202
0.344229486324 8.05653747937 -0.340987607881 0.00296476118314
0.346230820547 8.0529129485 -0.341915535513 0.00267136042406
0.34823215477 8.04928841763 -0.342843463145 0.00237795966482
0.350233488993 8.04566388676 -0.343771390778 0.00208455890566
0.352234823215 8.04208246065 -0.344656881953 0.00213295790354
0.354236157438 8.03858624164 -0.345458487107 0.00285700758385
0.356237491661 8.03509002263 -0.34626009226 0.00358105726394
0.358238825884 8.03159380362 -0.347061697415 0.00430510694418
0.360240160107 8.02809758461 -0.347863302568 0.00502915662422
0.36224149433 8.0246013656 -0.348664907722 0.00575320630441
0.364242828552 8.02110514659 -0.349466512876 0.00647725598468
0.366244162775 8.01760892758 -0.35026811803 0.00720130566484
0.368245496998 8.01411270857 -0.351069723184 0.00792535534499
0.370246831221 8.01061648956 -0.351871328338 0.00864940502506
0.372248165444 8.00638662398 -0.352070129623 0.00814786091503
0.374249499666 8.00213186893 -0.352248480373 0.00760473769414
0.376250833889 7.99787711388 -0.352426831123 0.00706161447312
0.378252168112 7.99362235884 -0.352605181873 0.00651849125225
0.380253502335 7.98936760379 -0.352783532623 0.00597536803135
0.382254836558 7.98511284874 -0.352961883373 0.00543224481032
0.384256170781 7.9808580937 -0.353140234123 0.00488912158947
0.386257505003 7.97660333865 -0.353318584873 0.00434599836841
0.388258839226 7.97253727623 -0.353081524422 0.0035081865582
0.390260173449 7.96852772581 -0.352720051479 0.00258211775919
0.392261507672 7.9645181754 -0.352358578537 0.00165604896038
0.394262841895 7.96050862498 -0.351997105594 0.000729980161484
0.396264176117 7.95649907456 -0.351635632652 -0.00019608863773
0.39826551034 7.95248952415 -0.351274159709 -0.00112215743651
0.400266844563 7.94847997373 -0.350912686767 -0.00204822623547
0.402268178786 7.94447042331 -0.350551213824 -0.00297429503442
0.404269513009 7.94072836125 -0.350429868484 -0.00273823352406
0.406270847231 7.93718655003 -0.350488290804 -0.00163216189132
0.408272181454 7.9336447388 -0.350546713123 -0.000526090258515
0.410273515677 7.93010292758 -0.350605135443 0.000579981374146
0.4122748499 7.92656111636 -0.350663557762 0.00168605300693
0.414276184123 7.92301930513 -0.350721980082 0.00279212463986
0.416277518346 7.91947749391 -0.350780402401 0.00389819627254
0.418278852568 7.91593568268 -0.35083882472 0.00500426790544
0.420280186791 7.91239387146 -0.35089724704 0.00611033953808
0.422281521014 7.90886970157 -0.350776989885 0.00698383924808
0.424282855237 7.90541473999 -0.349955759412 0.00694494141519
0.42628418946 7.90195977841 -0.349134528938 0.00690604358217
0.428285523682 7.89850481683 -0.348313298464 0.00686714574912
0.430286857905 7.89504985526 -0.34749206799 0.00682824791612
0.432288192128 7.89159489367 -0.346670837516 0.00678935008332
0.434289526351 7.8881399321 -0.345849607043 0.00675045224989
0.436290860574 7.88468497052 -0.345028376569 0.00671155441706
0.438292194797 7.88123000894 -0.344207146095 0.00667265658405
0.440293529019 7.87777504736 -0.343385915621 0.00663375875105
0.442294863242 7.87416631712 -0.343202921338 0.0075015902732
0.444296197465 7.87052706352 -0.343146618135 0.00854940927052
0.446297531688 7.86688780992 -0.343090314931 0.00959722826791
0.448298865911 7.86324855632 -0.343034011728 0.0106450472651
0.450300200133 7.85960930272 -0.342977708524 0.0116928662625
0.452301534356 7.85597004912 -0.342921405321 0.0127406852598
0.454302868579 7.85233079552 -0.342865102117 0.0137885042572
0.456304202802 7.84869154192 -0.342808798914 0.0148363232545
0.458305537025 7.84475923504 -0.342479033675 0.0153912861392
0.460306871248 7.84065972598 -0.341993244084 0.0156650489106
0.46230820547 7.83656021692 -0.341507454493 0.0159388116824
0.464309539693 7.83246070787 -0.341021664902 0.0162125744536
0.466310873916 7.82836119881 -0.340535875311 0.0164863372249
0.468312208139 7.82426168975 -0.34005008572 0.0167600999966
0.470313542362 7.82016218069 -0.33956429613 0.0170338627681
0.472314876584 7.81606267163 -0.339078506539 0.0173076255396
0.474316210807 7.81231903422 -0.338360910073 0.0172056243589
0.47631754503 7.80903005132 -0.337347161763 0.0166235546412
0.478318879253 7.80574106842 -0.336333413453 0.016041484924
0.480320213476 7.80245208552 -0.335319665143 0.0154594152065
0.482321547698 7.79916310262 -0.334305916833 0.0148773454889
0.484322881921 7.79587411972 -0.333292168523 0.0142952757714
0.486324216144 7.79258513682 -0.332278420213 0.0137132060538
0.488325550367 7.78929615392 -0.331264671903 0.0131311363364
0.49032688459 7.78600717102 -0.330250923593 0.0125490666189
0.492328218813 7.78276057754 -0.329243287361 0.0120276911173
0.494329553035 7.78007446634 -0.328316466389 0.0123088280257
0.496330887258 7.77738835514 -0.327389645417 0.0125899649341
0.498332221481 7.77470224394 -0.326462824444 0.0128711018427
0.500333555704 7.77201613274 -0.325536003472 0.013152238751
0.502334889927 7.76933002154 -0.3246091825 0.0134333756594
0.504336224149 7.76664391034 -0.323682361528 0.0137145125678
0.506337558372 7.76395779914 -0.322755540556 0.013995649476
0.508338892595 7.76127168794 -0.321828719583 0.0142767863845
0.510340226818 7.75858557674 -0.320901898611 0.0145579232931
0.512341561041 7.75533045307 -0.319727153258 0.0143803113675
0.514342895264 7.75183327733 -0.318446943413 0.0140075523884
0.516344229486 7.74833610158 -0.317166733569 0.0136347934089
0.518345563709 7.74483892584 -0.315886523724 0.0132620344298
0.520346897932 7.7413417501 -0.314606313879 0.0128892754503
0.522348232155 7.73784457435 -0.313326104034 0.0125165164709
0.524349566378 7.73434739861 -0.312045894189 0.0121437574916
0.5263509006 7.73085022287 -0.310765684345 0.0117709985121
0.528352234823 7.72775608152 -0.30944423297 0.0118418929675
0.530353569046 7.72505872598 -0.308082179469 0.0123495625093
0.532354903269 7.72236137044 -0.306720125967 0.0128572320514
0.534356237492 7.7196640149 -0.305358072466 0.0133649015933
0.536357571714 7.71696665936 -0.303996018965 0.0138725711355
0.538358905937 7.71426930382 -0.302633965463 0.0143802406774
0.54036024016 7.71157194828 -0.301271911962 0.0148879102193
0.542361574383 7.70887459273 -0.299909858461 0.0153955797614
0.544362908606 7.70629973301 -0.298628372225 0.0157742951696
0.546364242829 7.70400236383 -0.297529395511 0.01586088999
0.548365577051 7.70170499465 -0.296430418796 0.01594748481
0.550366911274 7.69940762547 -0.295331442082 0.01603407963
0.552368245497 7.69711025629 -0.294232465367 0.0161206744501
0.55436957972 7.69481288711 -0.293133488653 0.0162072692704
0.556370913943 7.69251551793 -0.292034511938 0.0162938640903
0.558372248165 7.69021814875 -0.290935535224 0.0163804589104
0.560373582388 7.68792077956 -0.289836558509 0.0164670537307
0.562374916611 7.68562341038 -0.288737581795 0.0165536485509
0.564376250834 7.68238524776 -0.28769798288 0.0163692592352
0.566377585057 7.67908436557 -0.286662342484 0.0161668043107
0.56837891928 7.67578348338 -0.285626702088 0.0159643493859
0.570380253502 7.67248260119 -0.284591061692 0.0157618944614
0.572381587725 7.669181719 -0.283555421297 0.0155594395367
0.574382921948 7.66588083681 -0.282519780902 0.0153569846121
0.576384256171 7.66257995462 -0.281484140506 0.0151545296874
0.578385590394 7.65927907243 -0.28044850011 0.0149520747627
0.580386924616 7.65597819024 -0.279412859715 0.0147496198381
0.582388258839 7.65303476703 -0.277961589629 0.0143480204898
0.584389593062 7.65036238414 -0.276195171756 0.0137954215236
0.586390927285 7.64769000125 -0.274428753883 0.0132428225573
0.588392261508 7.64501761835 -0.27266233601 0.0126902235911
0.59039359573 7.64234523547 -0.270895918138 0.012137624625
0.592394929953 7.63967285257 -0.269129500265 0.0115850256588
0.594396264176 7.63700046968 -0.267363082392 0.0110324266924
0.596397598399 7.63432808679 -0.265596664519 0.0104798277263
0.598398932622 7.63153364015 -0.263982918805 0.010105138852
0.600400266845 7.62853232757 -0.26262791222 0.0100319607647
0.602401601067 7.62553101499 -0.261272905636 0.00995878267735
0.60440293529 7.62252970241 -0.259917899052 0.00988560459034
0.606404269513 7.61952838983 -0.258562892468 0.00981242650311
0.608405603736 7.61652707725 -0.257207885884 0.0097392484156
0.610406937959 7.61352576467 -0.2558528793 0.00966607032846
0.612408272181 7.61052445208 -0.254497872716 0.00959289224117
0.614409606404 7.60748652886 -0.253196121356 0.00960448862728
0.616410940627 7.60427412788 -0.25214817192 0.0100201002972
0.61841227485 7.60106172691 -0.251100222484 0.0104357119669
0.620413609073 7.59784932593 -0.250052273048 0.0108513236369
0.622414943296 7.59463692496 -0.249004323612 0.0112669353067
0.624416277518 7.59142452398 -0.247956374176 0.0116825469764
0.626417611741 7.58821212301 -0.24690842474 0.0120981586463
0.628418945964 7.58499972203 -0.245860475304 0.0125137703162
0.630420280187 7.58178732106 -0.244812525868 0.012929381986
0.63242161441 7.57857492008 -0.243764576432 0.0133449936557
0.634422948632 7.57603611596 -0.242359877026 0.0134579936643
0.636424282855 7.57366080621 -0.240868587822 0.013497544241
0.638425617078 7.57128549647 -0.239377298617 0.0135370948175
0.640426951301 7.56891018673 -0.237886009413 0.0135766453937
0.642428285524 7.56653487698 -0.236394720209 0.0136161959702
0.644429619747 7.56415956724 -0.234903431004 0.0136557465469
0.646430953969 7.56178425749 -0.233412141799 0.0136952971233
0.648432288192 7.55940894775 -0.231920852595 0.0137348476998
0.650433622415 7.55703363801 -0.230429563391 0.0137743982759
0.652434956638 7.55434780678 -0.22887299519 0.0138497988801
0.654436290861 7.55126018968 -0.227231962052 0.0139715860788
0.656437625083 7.54817257258 -0.225590928915 0.0140933732775
0.658438959306 7.54508495549 -0.223949895777 0.014215160476
0.660440293529 7.54199733839 -0.222308862639 0.0143369476747
0.662441627752 7.53890972129 -0.220667829501 0.0144587348736
0.664442961975 7.5358221042 -0.219026796364 0.014580522072
0.666444296197 7.5327344871 -0.217385763226 0.0147023092708
0.66844563042 7.52973838034 -0.215752959767 0.0148067989869
0.670446964643 7.52703480663 -0.2141464643 0.0148559934714
0.672448298866 7.52433123291 -0.212539968832 0.0149051879557
0.674449633089 7.5216276592 -0.210933473365 0.0149543824404
0.676450967312 7.51892408549 -0.209326977898 0.015003576925
0.678452301534 7.51622051178 -0.20772048243 0.0150527714094
0.680453635757 7.51351693806 -0.206113986963 0.015101965894
0.68245496998 7.51081336435 -0.204507491496 0.0151511603787
0.684456304203 7.50811961839 -0.202902953833 0.0151909745946
0.686457638426 7.50565795856 -0.201344650486 0.0150092701566
0.688458972648 7.50319629873 -0.199786347138 0.0148275657185
0.690460306871 7.50073463891 -0.19822804379 0.0146458612806
0.692461641094 7.49827297908 -0.196669740443 0.0144641568422
0.694462975317 7.49581131925 -0.195111437095 0.0142824524045
0.69646430954 7.49334965942 -0.193553133747 0.0141007479663
0.698465643763 7.49088799959 -0.1919948304 0.0139190435285
0.700466977985 7.48842633977 -0.190436527052 0.0137373390905
0.702468312208 7.48596467994 -0.188878223705 0.0135556346525
0.704469646431 7.48350902875 -0.187362537872 0.01349815281
0.704469646431 7.48350902875 -0.187362537872 0.01349815281
0.706470980654 7.48105631202 -0.185867665246 0.0135013378166
0.706470980654 7.48105631202 -0.185867665246 0.0135013378166
0.708472314877 7.47860359528 -0.184372792619 0.0135045228233
0.708472314877 7.47860359528 -0.184372792619 0.0135045228233
0.710473649099 7.47615087855 -0.182877919992 0.0135077078299
0.710473649099 7.47615087855 -0.182877919992 0.0135077078299
0.712474983322 7.47369816182 -0.181383047365 0.0135108928365
0.712474983322 7.47369816182 -0.181383047365 0.0135108928365
0.714476317545 7.47124544509 -0.179888174738 0.0135140778432
0.714476317545 7.47124544509 -0.179888174738 0.0135140778432
0.716477651768 7.46879272835 -0.178393302111 0.0135172628498
0.716477651768 7.46879272835 -0.178393302111 0.0135172628498
0.718478985991 7.46634001162 -0.176898429484 0.0135204478565
0.718478985991 7.46634001162 -0.176898429484 0.0135204478565
0.720480320213 7.46388729489 -0.175403556857 0.0135236328628
0.720480320213 7.46388729489 -0.175403556857 0.0135236328628
0.722481654436 7.46140317831 -0.173932494468 0.0135806912729
0.722481654436 7.46140317831 -0.173932494468 0.0135806912729
0.724482988659 7.45884687448 -0.172516171081 0.0137616029706
0.724482988659 7.45884687448 -0.172516171081 0.0137616029706
0.726484322882 7.45629057064 -0.171099847695 0.0139425146686
0.726484322882 7.45629057064 -0.171099847695 0.0139425146686
0.728485657105 7.45373426681 -0.169683524308 0.0141234263665
0.728485657105 7.45373426681 -0.169683524308 0.0141234263665
0.730486991328 7.45117796298 -0.168267200921 0.0143043380643
0.730486991328 7.45117796298 -0.168267200921 0.0143043380643
0.73248832555 7.44862165914 -0.166850877534 0.0144852497623
0.73248832555 7.44862165914 -0.166850877534 0.0144852497623
0.734489659773 7.44606535531 -0.165434554147 0.01466616146
0.734489659773 7.44606535531 -0.165434554147 0.01466616146
0.736490993996 7.44350905148 -0.16401823076 0.0148470731581
0.736490993996 7.44350905148 -0.16401823076 0.0148470731581
0.738492328219 7.44094383788 -0.162587259346 0.0150135049111
0.740493662442 7.43830305627 -0.16103205096 0.0150571252792
0.742494996664 7.43566227467 -0.159476842574 0.0151007456473
0.744496330887 7.43302149306 -0.157921634188 0.0151443660157
0.74649766511 7.43038071146 -0.156366425802 0.0151879863838
0.748498999333 7.42773992985 -0.154811217417 0.0152316067523
0.750500333556 7.42509914825 -0.153256009031 0.0152752271204
0.752501667779 7.42245836664 -0.151700800645 0.0153188474886
0.754503002001 7.41981758504 -0.150145592259 0.0153624678569
0.756504336224 7.41740941315 -0.148589778613 0.015396969112
0.758505670447 7.41502486257 -0.147033903504 0.0154305443292
0.76050700467 7.41264031198 -0.145478028395 0.0154641195466
0.762508338893 7.41025576139 -0.143922153285 0.0154976947642
0.764509673115 7.40787121081 -0.142366278176 0.0155312699818
0.766511007338 7.40548666022 -0.140810403067 0.0155648451995
0.768512341561 7.40310210964 -0.139254527958 0.0155984204168
0.770513675784 7.40071755905 -0.137698652849 0.0156319956342
0.772515010007 7.39833300846 -0.13614277774 0.0156655708517
0.774516344229 7.39587783608 -0.134604170136 0.0157089714655
0.776517678452 7.39336227695 -0.133080327501 0.0157607735045
0.778519012675 7.39084671781 -0.131556484866 0.0158125755435
0.780520346898 7.38833115867 -0.130032642231 0.0158643775827
0.782521681121 7.38581559954 -0.128508799596 0.0159161796218
0.784523015344 7.3833000404 -0.126984956961 0.0159679816609
0.786524349566 7.38078448127 -0.125461114326 0.0160197837001
0.788525683789 7.37826892213 -0.123937271691 0.0160715857391
0.790527018012 7.375753363 -0.122413429056 0.0161233877781
0.792528352235 7.37325678614 -0.120862839092 0.0161677989008
0.794529686458 7.37085268256 -0.119181947918 0.016176204731
0.79653102068 7.36844857899 -0.117501056745 0.0161846105618
0.798532354903 7.36604447542 -0.115820165571 0.0161930163926
0.800533689126 7.36364037185 -0.114139274398 0.0162014222231
0.802535023349 7.36123626827 -0.112458383225 0.0162098280539
0.804536357572 7.3588321647 -0.110777492051 0.0162182338844
0.806537691795 7.35642806113 -0.109096600878 0.0162266397151
0.808539026017 7.35402395756 -0.107415709704 0.0162350455458
0.81054036024 7.35175852224 -0.105683029184 0.0162210940142
0.812541694463 7.34949698522 -0.103948892739 0.0162065139627
0.814543028686 7.34723544821 -0.102214756293 0.0161919339111
0.816544362909 7.34497391119 -0.100480619848 0.0161773538594
0.818545697131 7.34271237418 -0.0987464834023 0.0161627738078
0.820547031354 7.34045083716 -0.0970123469569 0.0161481937563
0.822548365577 7.33818930014 -0.0952782105114 0.0161336137043
0.8245496998 7.33592776313 -0.0935440740658 0.016119033653
0.826551034023 7.33353967162 -0.0919073274474 0.016197960223
0.828552368246 7.33111483849 -0.0902988552952 0.0163040338764
0.830553702468 7.32869000536 -0.0886903831429 0.0164101075301
0.832555036691 7.32626517223 -0.0870819109904 0.0165161811839
0.834556370914 7.32384033909 -0.0854734388383 0.0166222548376
0.836557705137 7.32141550596 -0.083864966686 0.0167283284912
0.83855903936 7.31899067283 -0.0822564945336 0.0168344021449
0.840560373582 7.31656583969 -0.0806480223814 0.0169404757983
0.842561707805 7.31414100656 -0.0790395502291 0.0170465494523
0.844563042028 7.31173909396 -0.0773981982053 0.0171454333386
0.846564376251 7.30937068058 -0.0757087909849 0.0172338091033
0.848565710474 7.30700226721 -0.0740193837645 0.0173221848681
0.850567044696 7.30463385384 -0.0723299765439 0.0174105606328
0.852568378919 7.30226544047 -0.0706405693235 0.0174989363976
0.854569713142 7.2998970271 -0.0689511621031 0.0175873121626
0.856571047365 7.29752861373 -0.0672617548827 0.0176756879272
0.858572381588 7.29516020036 -0.0655723476621 0.0177640636921
0.860573715811 7.29279178699 -0.0638829404417 0.0178524394568
0.862575050033 7.29042190082 -0.0621933585065 0.0179325487573
0.864576384256 7.2880142128 -0.0604992922268 0.0178004854716
0.866577718479 7.28560652478 -0.0588052259472 0.0176684221857
0.868579052702 7.28319883676 -0.0571111596675 0.0175363589002
0.870580386925 7.28079114874 -0.0554170933881 0.0174042956143
0.872581721147 7.27838346073 -0.0537230271083 0.0172722323285
0.87458305537 7.27597577271 -0.0520289608286 0.0171401690428
0.876584389593 7.27356808469 -0.0503348945489 0.0170081057569
0.878585723816 7.27116039667 -0.0486408282693 0.0168760424712
0.880587058039 7.26854993227 -0.0467987195544 0.0167089493835
0.882588392262 7.26590079888 -0.0449283794913 0.0165351761941
0.884589726484 7.26325166549 -0.0430580394284 0.0163614030045
0.886591060707 7.2606025321 -0.0411876993653 0.0161876298147
0.88859239493 7.25795339871 -0.0393173593025 0.0160138566253
0.890593729153 7.25530426532 -0.0374470192395 0.0158400834356
0.892595063376 7.25265513193 -0.0355766791763 0.0156663102462
0.894596397598 7.25000599854 -0.0337063391134 0.0154925370567
0.896597731821 7.24755181381 -0.0318869605257 0.015438729122
0.898599066044 7.2452062501 -0.0300959765313 0.0154517631422
0.900600400267 7.24286068639 -0.0283049925366 0.0154647971623
0.90260173449 7.24051512268 -0.0265140085422 0.0154778311825
0.904603068712 7.23816955898 -0.0247230245479 0.0154908652025
0.906604402935 7.23582399527 -0.0229320405533 0.0155038992226
0.908605737158 7.23347843156 -0.0211410565588 0.0155169332426
0.910607071381 7.23113286785 -0.0193500725642 0.0155299672629
0.912608405604 7.22878730414 -0.0175590885697 0.0155430012829
0.914609739827 7.22645949612 -0.0157270354915 0.0155066703666
0.916611074049 7.2241788675 -0.0137858559904 0.0153391697608
0.918612408272 7.22189823888 -0.0118446764895 0.0151716691553
0.920613742495 7.21961761026 -0.00990349698846 0.0150041685497
0.922615076718 7.21733698164 -0.00796231748714 0.0148366679441
0.924616410941 7.21505635302 -0.00602113798602 0.0146691673386
0.926617745163 7.2127757244 -0.00407995848502 0.0145016667331
0.928619079386 7.21049509577 -0.00213877898374 0.0143341661273
0.930620413609 7.20821446715 -0.000197599482802 0.0141666655217
0.932621747832 7.20593383853 0.00174358001819 0.0139991649162
0.934623082055 7.20339684424 0.00359662515683 0.0141935361462
0.936624416278 7.20083284079 0.00544038498264 0.0144260320429
0.9386257505 7.19826883734 0.00728414480814 0.0146585279395
0.940627084723 7.19570483389 0.00912790463409 0.0148910238361
0.942628418946 7.19314083043 0.0109716644598 0.0151235197327
0.944629753169 7.19057682698 0.0128154242857 0.0153560156294
0.946631087392 7.18801282353 0.0146591841113 0.0155885115261
0.948632421614 7.18544882007 0.0165029439371 0.0158210074227
0.950633755837 7.18307709735 0.0184693603104 0.0158640776268
0.95263509006 7.18078504895 0.0204866012201 0.0158286565214
0.954636424283 7.17849300056 0.0225038421296 0.0157932354161
0.956637758506 7.17620095216 0.0245210830392 0.0157578143108
0.958639092728 7.17390890377 0.0265383239489 0.0157223932055
0.960640426951 7.17161685538 0.0285555648584 0.0156869721003
0.962641761174 7.16932480698 0.0305728057679 0.015651550995
0.964643095397 7.16703275859 0.0325900466775 0.0156161298898
0.96664442962 7.16476362122 0.034553686923 0.0156484879384
0.968645763843 7.16251655154 0.0364656995348 0.0157461302029
0.970647098065 7.16026948185 0.0383777121469 0.0158437724676
0.972648432288 7.15802241216 0.040289724759 0.015941414732
0.974649766511 7.15577534247 0.0422017373707 0.0160390569966
0.976651100734 7.15352827279 0.0441137499828 0.016136699261
0.978652434957 7.1512812031 0.0460257625948 0.0162343415256
0.980653769179 7.14903413341 0.0479377752065 0.0163319837901
0.982655103402 7.14678706372 0.0498497878186 0.0164296260546
0.984656437625 7.1445538402 0.0517881974031 0.0165341337516
0.986657771848 7.14240523216 0.0538879218193 0.0166805968691
0.988659106071 7.14025662411 0.0559876462352 0.0168270599869
0.990660440294 7.13810801606 0.0580873706514 0.0169735231044
0.992661774516 7.13595940801 0.0601870950675 0.0171199862222
0.994663108739 7.13381079997 0.0622868194838 0.0172664493397
0.996664442962 7.13166219192 0.0643865438999 0.0174129124574
0.998665777185 7.12951358387 0.066486268316 0.017559375575
1.00066711141 7.12736497583 0.0685859927322 0.0177058386927
1.00266844563 7.12521636778 0.0706857171482 0.0178523018102
1.00466977985 7.12287188307 0.0727881089242 0.0177729324425
1.00667111408 7.12046950767 0.0748912890289 0.0176268190613
1.0086724483 7.11806713228 0.076994469134 0.01748070568
1.01067378252 7.11566475689 0.0790976492389 0.0173345922986
1.01267511674 7.1132623815 0.0812008293438 0.0171884789171
1.01467645097 7.11086000611 0.0833040094488 0.0170423655357
1.01667778519 7.10845763071 0.0854071895534 0.0168962521544
1.01867911941 7.10605525532 0.0875103696583 0.0167501387731
1.02068045364 7.10363962003 0.0896909714453 0.016720886915
1.02268178786 7.10121415258 0.091928981146 0.0167782874789
1.02468312208 7.09878868512 0.0941669908467 0.0168356880431
1.0266844563 7.09636321766 0.0964050005473 0.0168930886071
1.02868579053 7.0939377502 0.098643010248 0.0169504891709
1.03068712475 7.09151228274 0.100881019949 0.0170078897349
1.03268845897 7.08908681528 0.103119029649 0.017065290299
1.0346897932 7.08666134782 0.10535703935 0.0171226908631
1.03669112742 7.0843305913 0.107609823641 0.0171134568345
1.03869246164 7.08215663837 0.109887068767 0.0169939024639
1.04069379586 7.07998268543 0.112164313892 0.0168743480931
1.04269513009 7.0778087325 0.114441559018 0.0167547937225
1.04469646431 7.07563477958 0.116718804144 0.0166352393519
1.04669779853 7.07346082664 0.11899604927 0.0165156849813
1.04869913276 7.07128687371 0.121273294396 0.0163961306105
1.05070046698 7.06911292078 0.123550539522 0.0162765762399
1.0527018012 7.06693896785 0.125827784647 0.0161570218692
1.05470313542 7.06476294077 0.12810436017 0.0160391343629
1.05670446965 7.06232349676 0.130295896065 0.0161329386311
1.05870580387 7.05988405276 0.132487431959 0.0162267428995
1.06070713809 7.05744460875 0.134678967854 0.0163205471677
1.06270847231 7.05500516475 0.136870503748 0.0164143514358
1.06470980654 7.05256572074 0.139062039643 0.0165081557041
1.06671114076 7.05012627674 0.141253575537 0.0166019599725
1.06871247498 7.04768683273 0.143445111431 0.0166957642409
1.07071380921 7.04524738873 0.145636647326 0.0167895685091
1.07271514343 7.04280794473 0.14782818322 0.0168833727774
1.07471647765 7.04046397043 0.15020173205 0.0169269226106
1.07671781187 7.03817391667 0.15267808036 0.0169420891325
1.0787191461 7.03588386291 0.155154428671 0.0169572556545
1.08072048032 7.03359380915 0.157630776982 0.0169724221765
1.08272181454 7.0313037554 0.160107125293 0.0169875886984
1.08472314877 7.02901370164 0.162583473603 0.0170027552203
1.08672448299 7.02672364788 0.165059821914 0.0170179217422
1.08872581721 7.02443359413 0.167536170225 0.0170330882641
1.09072715143 7.02210407933 0.170040094173 0.0169896963977
1.09272848566 7.01972462712 0.172578914724 0.0168721996691
1.09472981988 7.01734517489 0.175117735275 0.0167547029402
1.0967311541 7.01496572268 0.177656555826 0.0166372062113
1.09873248833 7.01258627046 0.180195376377 0.0165197094825
1.10073382255 7.01020681824 0.182734196928 0.0164022127538
1.10273515677 7.00782736602 0.185273017478 0.016284716025
1.10473649099 7.0054479138 0.187811838029 0.0161672192962
1.10673782522 7.0030436416 0.190306236317 0.0160933479978
1.10873915944 7.0005623638 0.192662811686 0.016154827395
1.11074049366 6.99808108601 0.195019387055 0.0162163067921
1.11274182789 6.99559980821 0.197375962424 0.0162777861892
1.11474316211 6.99311853041 0.199732537793 0.0163392655863
1.11674449633 6.99063725262 0.202089113161 0.0164007449833
1.11874583055 6.98815597482 0.20444568853 0.0164622243804
1.12074716478 6.98567469703 0.206802263899 0.0165237037775
1.122748499 6.98319341923 0.209158839268 0.0165851831745
1.12474983322 6.98071214143 0.211515414637 0.0166466625715
1.12675116744 6.97857781835 0.214139876091 0.016559142548
1.12875250167 6.97649306022 0.216802606986 0.0164503368927
1.13075383589 6.9744083021 0.21946533788 0.0163415312375
1.13275517011 6.97232354397 0.222128068775 0.016232725582
1.13475650434 6.97023878585 0.22479079967 0.0161239199268
1.13675783856 6.96815402772 0.227453530565 0.0160151142713
1.13875917278 6.96606926959 0.230116261459 0.015906308616
1.140760507 6.96398451146 0.232778992354 0.0157975029608
1.14276184123 6.96189975334 0.235441723249 0.0156886973054
1.14476317545 6.95963978685 0.238042142333 0.0156576003885
1.14676450967 6.95720893812 0.240581788169 0.015702293476
1.1487658439 6.95477808939 0.243121434005 0.0157469865631
1.15076717812 6.95234724066 0.245661079841 0.0157916796504
1.15276851234 6.94991639193 0.248200725676 0.0158363727379
1.15476984656 6.94748554321 0.250740371512 0.0158810658251
1.15677118079 6.94505469448 0.253280017348 0.0159257589126
1.15877251501 6.94262384575 0.255819663184 0.0159704519998
1.16077384923 6.94021460005 0.258429683776 0.0160485171817
1.16277518346 6.93785375606 0.261197379452 0.0162013527523
1.16477651768 6.93549291207 0.263965075128 0.0163541883227
1.1667778519 6.93313206808 0.266732770804 0.0165070238932
1.16877918612 6.93077122409 0.26950046648 0.0166598594634
1.17078052035 6.9284103801 0.272268162156 0.0168126950341
1.17278185457 6.92604953611 0.275035857832 0.0169655306044
1.17478318879 6.92368869212 0.277803553508 0.0171183661751
1.17678452302 6.92137790923 0.280579556918 0.0172471847076
1.17878585724 6.91946832019 0.283422139212 0.0171835286693
1.18078719146 6.91755873116 0.286264721507 0.017119872631
1.18278852568 6.91564914212 0.289107303801 0.0170562165925
1.18478985991 6.91373955309 0.291949886095 0.0169925605546
1.18679119413 6.91182996406 0.294792468389 0.016928904516
1.18879252835 6.90992037502 0.297635050683 0.0168652484778
1.19079386258 6.90801078598 0.300477632977 0.0168015924394
1.1927951968 6.90610119695 0.303320215271 0.016737936401
1.19479653102 6.90419160791 0.306162797566 0.0166742803629
1.19679786524 6.90225312831 0.309043371749 0.016721020344
1.19879919947 6.90030461303 0.311937143116 0.0168061084165
1.20080053369 6.89835609775 0.314830914483 0.0168911964884
1.20280186791 6.89640758248 0.317724685849 0.0169762845607
1.20480320213 6.8944590672 0.320618457216 0.0170613726329
1.20680453636 6.89251055192 0.323512228582 0.0171464607052
1.20880587058 6.89056203664 0.326405999949 0.0172315487776
1.2108072048 6.88861352136 0.329299771316 0.0173166368496
1.21280853903 6.88666500609 0.332193542682 0.017401724922
1.21480987325 6.88443965739 0.335064925068 0.0175128700255
1.21681120747 6.88174983087 0.337898742679 0.017667734249
1.21881254169 6.87906000434 0.34073256029 0.0178225984722
1.22081387592 6.87637017782 0.343566377902 0.0179774626953
1.22281521014 6.8736803513 0.346400195513 0.0181323269186
1.22481654436 6.87099052477 0.349234013124 0.0182871911419
1.22681787859 6.86830069825 0.352067830735 0.0184420553653
1.22881921281 6.86561087172 0.354901648347 0.0185969195884
1.23082054703 6.86299726367 0.357780973045 0.0187205609868
1.23282188125 6.86074103555 0.360873675416 0.0186978020278
1.23482321548 6.85848480743 0.363966377787 0.0186750430685
1.2368245497 6.85622857931 0.367059080159 0.0186522841098
1.23882588392 6.85397235119 0.37015178253 0.0186295251505
1.24082721815 6.85171612307 0.373244484901 0.0186067661915
1.24282855237 6.84945989495 0.376337187273 0.0185840072323
1.24482988659 6.84720366683 0.379429889644 0.0185612482733
1.24683122081 6.8449474387 0.382522592015 0.0185384893141
1.24883255504 6.84287995628 0.385586129183 0.0184696091822
1.25083388926 6.840816695 0.388649014094 0.0183996975866
1.25283522348 6.83875343372 0.391711899004 0.0183297859904
1.25483655771 6.83669017244 0.394774783915 0.0182598743945
1.25683789193 6.83462691116 0.397837668826 0.0181899627987
1.25883922615 6.83256364988 0.400900553736 0.0181200512029
1.26084056037 6.83050038861 0.403963438647 0.0180501396068
1.2628418946 6.82843712733 0.407026323558 0.0179802280109
1.26484322882 6.82637386605 0.410089208468 0.0179103164152
1.26684456304 6.82444663172 0.413253585195 0.0178271272295
1.26884589726 6.82260659416 0.416483020778 0.017735426768
1.27084723149 6.8207665566 0.419712456361 0.0176437263069
1.27284856571 6.81892651904 0.422941891945 0.0175520258458
1.27484989993 6.81708648148 0.426171327528 0.0174603253845
1.27685123416 6.81524644392 0.429400763111 0.0173686249234
1.27885256838 6.81340640636 0.432630198694 0.0172769244621
1.2808539026 6.81156636879 0.435859634277 0.017185224001
1.28285523682 6.80972633123 0.439089069861 0.0170935235397
1.28485657105 6.80791204231 0.442346981353 0.0169495483558
1.28685790527 6.80617901208 0.445694758376 0.0166406022948
1.28885923949 6.80444598185 0.449042535399 0.0163316562336
1.29086057372 6.80271295162 0.452390312422 0.0160227101724
1.29286190794 6.80097992139 0.455738089445 0.0157137641113
1.29486324216 6.79924689116 0.459085866468 0.0154048180501
1.29686457638 6.79751386093 0.462433643491 0.0150958719887
1.29886591061 6.7957808307 0.465781420514 0.0147869259275
1.30086724483 6.79404119895 0.469131577349 0.0144814473264
1.30286857905 6.7921545334 0.472534739072 0.0142531985142
1.30486991328 6.79026786785 0.475937900796 0.0140249497025
1.3068712475 6.7883812023 0.479341062519 0.0137967008904
1.30887258172 6.78649453676 0.482744224243 0.0135684520783
1.31087391594 6.78460787121 0.486147385967 0.0133402032663
1.31287525017 6.78272120566 0.48955054769 0.0131119544539
1.31487658439 6.78083454011 0.492953709414 0.0128837056419
1.31687791861 6.77894787457 0.496356871137 0.01265545683
1.31887925284 6.77726307129 0.499607066891 0.0127922238099
1.32088058706 6.77561520769 0.50282927072 0.0129957866557
1.32288192128 6.7739673441 0.506051474549 0.0131993495015
1.3248832555 6.7723194805 0.509273678377 0.0134029123472
1.32688458973 6.7706716169 0.512495882206 0.013606475193
1.32888592395 6.76902375331 0.515718086035 0.0138100380387
1.33088725817 6.76737588971 0.518940289864 0.0140136008845
1.33288859239 6.76572802611 0.522162493693 0.0142171637304
1.33488992662 6.76408016252 0.525384697522 0.014420726576
1.33689126084 6.76243588563 0.528726705011 0.0145168914436
1.33889259506 6.76079554823 0.532200300127 0.014495094598
1.34089392929 6.75915521083 0.535673895242 0.0144732977522
1.34289526351 6.75751487344 0.539147490358 0.014451500906
1.34489659773 6.75587453604 0.542621085473 0.0144297040602
1.34689793195 6.75423419865 0.546094680589 0.0144079072144
1.34889926618 6.75259386125 0.549568275704 0.0143861103686
1.3509006004 6.75095352385 0.55304187082 0.0143643135226
1.35290193462 6.74931318646 0.556515465936 0.0143425166768
1.35490326885 6.74764578713 0.560002654148 0.0143235106837
1.35690460307 6.74575444046 0.563602330161 0.014327600009
1.35890593729 6.74386309379 0.567202006174 0.0143316893346
1.36090727151 6.74197174713 0.570801682187 0.0143357786599
1.36290860574 6.74008040046 0.5744013582 0.0143398679852
1.36490993996 6.73818905379 0.578001034213 0.0143439573106
1.36691127418 6.73629770713 0.581600710226 0.014348046636
1.36891260841 6.73440636046 0.585200386239 0.0143521359614
1.37091394263 6.7325150138 0.588800062253 0.0143562252867
1.37291527685 6.73053697163 0.592479212718 0.0145177757685
1.37491661107 6.72855037153 0.5961662083 0.0146948696261
1.3769179453 6.72656377144 0.599853203883 0.0148719634838
1.37891927952 6.72457717134 0.603540199466 0.0150490573413
1.38092061374 6.72259057125 0.607227195048 0.0152261511992
1.38292194797 6.72060397115 0.610914190631 0.0154032450568
1.38492328219 6.71861737106 0.614601186213 0.0155803389143
1.38692461641 6.71663077096 0.618288181796 0.015757432772
1.38892595063 6.71512726005 0.62198719329 0.0157130757281
1.39092728486 6.71381867985 0.625691053308 0.0155793613027
1.39292861908 6.71251009966 0.629394913327 0.0154456468776
1.3949299533 6.71120151947 0.633098773345 0.0153119324524
1.39693128753 6.70989293928 0.636802633364 0.015178218027
1.39893262175 6.70858435909 0.640506493383 0.0150445036016
1.40093395597 6.7072757789 0.644210353401 0.0149107891766
1.40293529019 6.70596719871 0.64791421342 0.0147770747512
1.40493662442 6.70465861852 0.651618073438 0.0146433603261
1.40693795864 6.70333129415 0.655351625256 0.0144994344913
1.40893929286 6.70196818546 0.659141861419 0.0143360141474
1.41094062708 6.70060507677 0.662932097582 0.0141725938038
1.41294196131 6.69924196807 0.666722333745 0.01400917346
1.41494329553 6.69787885938 0.670512569908 0.0138457531162
1.41694462975 6.69651575069 0.67430280607 0.0136823327725
1.41894596398 6.69515264199 0.678093042233 0.0135189124287
1.4209472982 6.6937895333 0.681883278396 0.013355492085
1.42294863242 6.69242642461 0.685673514559 0.0131920717414
1.42494996664 6.69106331592 0.689463750721 0.0130286513977
1.42695130087 6.68938798323 0.693357160032 0.0132137999867
1.42895263509 6.68770464481 0.697253214808 0.0134078862409
1.43095396931 6.68602130638 0.701149269584 0.0136019724948
1.43295530354 6.68433796795 0.70504532436 0.0137960587491
1.43495663776 6.68265462952 0.708941379137 0.0139901450033
1.43695797198 6.6809712911 0.712837433913 0.0141842312572
1.4389593062 6.67928795267 0.716733488689 0.0143783175115
1.44096064043 6.67760461424 0.720629543465 0.0145724037654
1.44296197465 6.67610543895 0.724644828678 0.01467548026
1.44496330887 6.6746590139 0.728694265323 0.0147524886328
1.4469646431 6.67321258886 0.732743701968 0.0148294970055
1.44896597732 6.67176616381 0.736793138613 0.0149065053782
1.45096731154 6.67031973876 0.740842575258 0.0149835137507
1.45296864576 6.66887331372 0.744892011902 0.0150605221234
1.45496997999 6.66742688867 0.748941448547 0.0151375304962
1.45697131421 6.66598046362 0.752990885192 0.0152145388689
1.45897264843 6.66457873607 0.756929681088 0.0151786749788
1.46097398266 6.66320941721 0.760788254983 0.0150609710924
1.46297531688 6.66184009836 0.764646828879 0.014943267206
1.4649766511 6.6604707795 0.768505402775 0.0148255633195
1.46697798532 6.65910146064 0.772363976671 0.0147078594329
1.46897931955 6.65773214179 0.776222550567 0.0145901555467
1.47098065377 6.65636282293 0.780081124463 0.0144724516602
1.47298198799 6.65499350407 0.783939698359 0.0143547477736
1.47498332221 6.65362418521 0.787798272255 0.0142370438871
1.47698465644 6.65230621964 0.791681795366 0.0141713608822
1.47898599066 6.65118035338 0.795658647024 0.0143002745077
1.48098732488 6.65005448712 0.799635498682 0.0144291881331
1.48298865911 6.64892862087 0.803612350339 0.0145581017587
1.48498999333 6.64780275461 0.807589201997 0.0146870153841
1.48699132755 6.64667688835 0.811566053655 0.0148159290096
1.48899266177 6.64555102209 0.815542905313 0.014944842635
1.490993996 6.64442515583 0.81951975697 0.0150737562606
1.49299533022 6.64329928958 0.823496608628 0.0152026698859
1.49499666444 6.64217342332 0.827473460286 0.0153315835116
1.49699799867 6.64079694405 0.831607191669 0.0152344586662
1.49899933289 6.63937350391 0.83577031981 0.0150949778179
1.50100066711 6.63795006376 0.839933447952 0.01495549697
1.50300200133 6.63652662362 0.844096576092 0.0148160161218
1.50500333556 6.63510318347 0.848259704233 0.0146765352736
1.50700466978 6.63367974333 0.852422832374 0.0145370544251
1.509006004 6.63225630318 0.856585960515 0.0143975735772
1.51100733823 6.63083286304 0.860749088656 0.0142580927288
1.51300867245 6.62942801709 0.864983573051 0.0141359153617
1.51501000667 6.62803342612 0.8692574115 0.0140232811264
1.51701134089 6.62663883514 0.87353124995 0.0139106468913
1.51901267512 6.62524424417 0.8778050884 0.013798012656
1.52101400934 6.6238496532 0.882078926849 0.0136853784208
1.52301534356 6.62245506223 0.886352765299 0.0135727441855
1.52501667779 6.62106047126 0.890626603748 0.0134601099503
1.52701801201 6.61966588028 0.894900442198 0.0133474757153
1.52901934623 6.61851536597 0.899126455901 0.0133534841388
1.53102068045 6.61766696051 0.903293273938 0.0135063439654
1.53302201468 6.61681855506 0.907460091975 0.0136592037921
1.5350233489 6.6159701496 0.911626910012 0.0138120636184
1.53702468312 6.61512174414 0.915793728049 0.0139649234449
1.53902601734 6.61427333869 0.919960546086 0.0141177832715
1.54102735157 6.61342493323 0.924127364124 0.014270643098
1.54302868579 6.61257652777 0.928294182161 0.0144235029244
1.54503002001 6.61172812232 0.932461000198 0.0145763627511
1.54703135424 6.61087617475 0.936636333038 0.0147110251084
1.54903268846 6.60998243023 0.940912140556 0.014630957331
1.55103402268 6.60908868571 0.945187948074 0.0145508895536
1.5530353569 6.60819494119 0.949463755592 0.0144708217761
1.55503669113 6.60730119668 0.95373956311 0.0143907539988
1.55703802535 6.60640745216 0.958015370628 0.0143106862214
1.55903935957 6.60551370764 0.962291178145 0.0142306184438
1.5610406938 6.60461996312 0.966566985664 0.0141505506666
1.56304202802 6.60372621861 0.970842793181 0.0140704828891
1.56504336224 6.60283247409 0.975118600699 0.0139904151117
1.56704469646 6.60194291075 0.979524166435 0.014021207829
1.56904603069 6.60105506042 0.983982893026 0.0140974191628
1.57104736491 6.60016721008 0.988441619617 0.0141736304972
1.57304869913 6.59927935974 0.992900346209 0.0142498418314
1.57505003336 6.5983915094 0.9973590728 0.0143260531655
1.57705136758 6.59750365906 1.00181779939 0.0144022644993
1.5790527018 6.59661580872 1.00627652598 0.0144784758337
1.58105403602 6.59572795838 1.01073525257 0.0145546871677
1.58305537025 6.59501877538 1.01528554307 0.0145895804972
1.58505670447 6.59448007648 1.01992320372 0.0145850482499
1.58705803869 6.59394137757 1.02456086437 0.0145805160028
1.58905937292 6.59340267866 1.02919852501 0.0145759837555
1.59106070714 6.59286397976 1.03383618566 0.0145714515082
1.59306204136 6.59232528085 1.03847384631 0.0145669192607
1.59506337558 6.59178658194 1.04311150696 0.0145623870137
1.59706470981 6.59124788303 1.0477491676 0.0145578547665
1.59906604403 6.59058785572 1.05231278084 0.014532720869
1.60106737825 6.5896628375 1.05671466865 0.0144625913283
1.60306871247 6.58873781928 1.06111655645 0.0143924617873
1.6050700467 6.58781280106 1.06551844426 0.0143223322465
1.60707138092 6.58688778284 1.06992033206 0.0142522027054
1.60907271514 6.58596276462 1.07432221987 0.0141820731647
1.61107404937 6.5850377464 1.07872410767 0.0141119436236
1.61307538359 6.58411272818 1.08312599548 0.0140418140827
1.61507671781 6.58318770995 1.08752788328 0.0139716845418
1.61707805203 6.58226269174 1.09192977109 0.0139015550009
1.61907938626 6.58180128584 1.09648040453 0.013928738667
1.62108072048 6.5813667005 1.10103964308 0.0139615520228
1.6230820547 6.58093211516 1.10559888164 0.0139943653789
1.62508338893 6.58049752982 1.1101581202 0.0140271787348
1.62708472315 6.58006294448 1.11471735876 0.0140599920906
1.62908605737 6.57962835914 1.11927659732 0.0140928054465
1.63108739159 6.57919377379 1.12383583587 0.0141256188023
1.63308872582 6.57875918845 1.12839507443 0.0141584321584
1.63509006004 6.57832460311 1.13295431299 0.0141912455142
1.63709139426 6.57768446209 1.13763096212 0.0141833162457
1.63909272849 6.57689335739 1.14239383963 0.0141454648871
1.64109406271 6.5761022527 1.14715671713 0.0141076135287
1.64309539693 6.57531114801 1.15191959463 0.0140697621704
1.64509673115 6.57452004332 1.15668247214 0.0140319108118
1.64709806538 6.57372893863 1.16144534964 0.0139940594534
1.6490993996 6.57293783394 1.16620822714 0.0139562080949
1.65110073382 6.57214672925 1.17097110464 0.0139183567364
1.65310206805 6.57138176319 1.17577857615 0.0138860307094
1.65510340227 6.57065964293 1.18065914504 0.0138627616688
1.65710473649 6.56993752267 1.18553971393 0.0138394926279
1.65910607071 6.5692154024 1.19042028282 0.013816223587
1.66110740494 6.56849328214 1.19530085171 0.0137929545463
1.66310873916 6.56777116188 1.20018142061 0.0137696855058
1.66511007338 6.56704904162 1.2050619895 0.0137464164648
1.66711140761 6.56632692136 1.20994255839 0.0137231474242
1.66911274183 6.56572017144 1.21480357604 0.013699884155
1.67111407605 6.56563457726 1.21957627599 0.0136766469574
1.67311541027 6.56554898307 1.22434897594 0.0136534097592
1.6751167445 6.56546338888 1.22912167589 0.0136301725616
1.67711807872 6.5653777947 1.23389437585 0.0136069353638
1.67911941294 6.56529220051 1.2386670758 0.013583698166
1.68112074716 6.56520660632 1.24343977575 0.0135604609682
1.68312208139 6.56512101213 1.24821247571 0.0135372237703
1.68512341561 6.56503541795 1.25298517566 0.0135139865724
1.68712474983 6.56494982376 1.25775787561 0.0134907493747
1.68912608406 6.56489180918 1.26267040006 0.0135364428083
1.69112741828 6.56484015913 1.2676151917 0.0135980433107
1.6931287525 6.56478850907 1.27255998333 0.0136596438131
1.69513008672 6.56473685901 1.27750477497 0.0137212443153
1.69713142095 6.56468520896 1.28244956661 0.013782844818
1.69913275517 6.56463355891 1.28739435825 0.01384444532
1.70113408939 6.56458190885 1.29233914989 0.0139060458227
1.70313542362 6.5645302588 1.29728394153 0.0139676463248
1.70513675784 6.56447860874 1.30222873317 0.0140292468273
1.70713809206 6.56431663307 1.30723560382 0.0140163476098
1.70913942628 6.5640163619 1.31232029183 0.0139100614197
1.71114076051 6.56371609073 1.31740497984 0.0138037752299
1.71314209473 6.56341581956 1.32248966785 0.01369748904
1.71514342895 6.56311554839 1.32757435586 0.0135912028496
1.71714476318 6.56281527723 1.33265904387 0.0134849166595
1.7191460974 6.56251500606 1.33774373188 0.0133786304694
1.72114743162 6.56221473489 1.34282841989 0.0132723442795
1.72314876584 6.56196376213 1.34796351331 0.013190813593
1.72515010007 6.56186381463 1.35325302329 0.0131851211955
1.72715143429 6.56176386714 1.35854253328 0.0131794287978
1.72915276851 6.56166391965 1.36383204327 0.0131737364003
1.73115410274 6.56156397216 1.36912155325 0.0131680440027
1.73315543696 6.56146402466 1.37441106324 0.0131623516051
1.73515677118 6.56136407717 1.37970057323 0.0131566592073
1.7371581054 6.56126412968 1.38499008321 0.0131509668098
1.73915943963 6.56117459373 1.39027378887 0.0131431706788
1.74116077385 6.56128959416 1.39544346751 0.0130940463627
1.74316210807 6.56140459459 1.40061314614 0.0130449220465
1.74516344229 6.56151959502 1.40578282478 0.0129957977305
1.74716477652 6.56163459545 1.41095250341 0.0129466734143
1.74916611074 6.56174959588 1.41612218205 0.0128975490984
1.75116744496 6.56186459631 1.42129186068 0.0128484247822
1.75316877919 6.56197959673 1.42646153932 0.0127993004664
1.75517011341 6.56209459716 1.43163121795 0.0127501761502
1.75717144763 6.56220959759 1.43680089659 0.0127010518342
1.75917278185 6.56264900859 1.44207715499 0.0125986686964
1.76117411608 6.56324130272 1.44740364065 0.0124711865738
1.7631754503 6.56383359685 1.45273012631 0.0123437044515
1.76517678452 6.56442589098 1.45805661196 0.0122162223289
1.76717811875 6.56501818511 1.46338309762 0.0120887402062
1.76917945297 6.56561047925 1.46870958327 0.0119612580837
1.77118078719 6.56620277338 1.47403606893 0.0118337759612
1.77318212141 6.56679506751 1.47936255458 0.0117062938388
1.77518345564 6.56738736164 1.48468904024 0.011578811716
1.77718478986 6.56777210593 1.49011101181 0.0114966504732
1.77918612408 6.56769690309 1.49574458783 0.0115149239429
1.78118745831 6.56762170024 1.50137816385 0.0115331974127
1.78318879253 6.5675464974 1.50701173988 0.0115514708826
1.78519012675 6.56747129456 1.5126453159 0.0115697443526
1.78719146097 6.56739609171 1.51827889193 0.0115880178221
1.7891927952 6.56732088887 1.52391246795 0.0116062912919
1.79119412942 6.56724568603 1.52954604397 0.0116245647618
1.79319546364 6.56724217963 1.53521430769 0.0116378756836
1.79519679787 6.56779988333 1.54115409234 0.0116123418327
1.79719813209 6.56835758703 1.54709387699 0.0115868079819
1.79919946631 6.56891529073 1.55303366164 0.011561274131
1.80120080053 6.56947299443 1.55897344629 0.0115357402805
1.80320213476 6.57003069813 1.56491323093 0.0115102064296
1.80520346898 6.57058840183 1.57085301558 0.0114846725788
1.8072048032 6.57114610553 1.57679280023 0.0114591387278
1.80920613742 6.57170380923 1.58273258488 0.0114336048773
1.81120747165 6.57237339282 1.58828130757 0.0114134561728
1.81320880587 6.57305328617 1.59379399383 0.0113938037103
1.81521014009 6.57373317952 1.59930668009 0.0113741512484
1.81721147432 6.57441307287 1.60481936635 0.0113544987859
1.81921280854 6.57509296621 1.61033205261 0.0113348463239
1.82121414276 6.57577285956 1.61584473887 0.0113151938615
1.82321547698 6.57645275291 1.62135742513 0.0112955413994
1.82521681121 6.57713264626 1.62687011139 0.0112758889371
1.82721814543 6.5778125396 1.63238279765 0.0112562364748
1.82921947965 6.57860755419 1.63800992685 0.0112197514396
1.83122081388 6.57949795495 1.6437318802 0.0111693194151
1.8332221481 6.58038835571 1.64945383356 0.0111188873907
1.83522348232 6.58127875647 1.65517578691 0.0110684553663
1.83722481654 6.58216915723 1.66089774027 0.0110180233418
1.83922615077 6.58305955799 1.66661969362 0.0109675913175
1.84122748499 6.58394995874 1.67234164698 0.010917159293
1.84322881921 6.58484035951 1.67806360033 0.0108667272685
1.84523015344 6.58573076026 1.68378555369 0.0108162952441
1.84723148766 6.58662775427 1.68959433972 0.01076830253
1.84923282188 6.58755516976 1.69580377477 0.0107315648786
1.8512341561 6.58848258526 1.70201320983 0.0106948272273
1.85323549033 6.58941000075 1.70822264488 0.010658089576
1.85523682455 6.59033741625 1.71443207993 0.0106213519245
1.85723815877 6.59126483174 1.72064151499 0.0105846142732
1.859239493 6.59219224724 1.72685095004 0.010547876622
1.86124082722 6.59311966273 1.73306038509 0.0105111389705
1.86324216144 6.59404707823 1.73926982015 0.0104744013193
1.86524349566 6.59503897849 1.7456969121 0.0104988927516
1.86724482989 6.5960321633 1.75212833984 0.010524603887
1.86924616411 6.59702534812 1.75855976758 0.0105503150226
1.87124749833 6.59801853293 1.76499119532 0.010576026158
1.87324883256 6.59901171775 1.77142262306 0.0106017372933
1.87525016678 6.60000490256 1.77785405081 0.0106274484287
1.877251501 6.60099808738 1.78428547855 0.010653159564
1.87925283522 6.6019912722 1.79071690629 0.0106788706993
1.88125416945 6.60352131114 1.79680092062 0.0106641072976
1.88325550367 6.60520029764 1.80278854681 0.0106381144335
1.88525683789 6.60687928414 1.80877617299 0.0106121215694
1.88725817211 6.60855827064 1.81476379917 0.0105861287051
1.88925950634 6.61023725714 1.82075142535 0.0105601358409
1.89126084056 6.61191624364 1.82673905153 0.0105341429768
1.89326217478 6.61359523014 1.83272667772 0.0105081501124
1.89526350901 6.61527421663 1.8387143039 0.0104821572483
1.89726484323 6.61695320314 1.84470193008 0.0104561643842
1.89926617745 6.61879219591 1.85075013577 0.0104072149299
1.90126751167 6.62085761266 1.85688406719 0.0103257797345
1.9032688459 6.62292302942 1.86301799862 0.0102443445395
1.90527018012 6.62498844617 1.86915193004 0.010162909344
1.90727151434 6.62705386292 1.87528586146 0.0100814741489
1.90927284857 6.62911927967 1.88141979288 0.0100000389536
1.91127418279 6.63118469642 1.8875537243 0.00991860375833
1.91327551701 6.63325011318 1.89368765572 0.00983716856295
1.91527685123 6.63531552993 1.89982158714 0.00975573336776
1.91727818546 6.63737800465 1.90598381998 0.00968027593973
1.91927951968 6.63937849382 1.91274233456 0.00973076388473
1.9212808539 6.64137898299 1.91950084914 0.00978125182976
1.92328218813 6.64337947216 1.92625936372 0.00983173977451
1.92528352235 6.64537996133 1.9330178783 0.00988222771951
1.92728485657 6.64738045049 1.93977639289 0.00993271566435
1.92928619079 6.64938093966 1.94653490746 0.00998320360939
1.93128752502 6.65138142883 1.95329342204 0.0100336915544
1.93328885924 6.653381918 1.96005193662 0.0100841794993
1.93529019346 6.65589451393 1.96709726452 0.010119422783
1.93729152769 6.65849914749 1.97419413951 0.010151926243
1.93929286191 6.66110378105 1.98129101451 0.0101844297028
1.94129419613 6.6637084146 1.9883878895 0.0102169331627
1.94329553035 6.66631304816 1.99548476449 0.0102494366227
1.94529686458 6.66891768171 2.00258163948 0.0102819400825
1.9472981988 6.67152231527 2.00967851447 0.0103144435423
1.94929953302 6.67412694882 2.01677538947 0.0103469470022
1.95130086724 6.67675933537 2.02327864687 0.0103436878736
1.95330220147 6.67940666582 2.02946226402 0.0103211719665
1.95530353569 6.68205399628 2.03564588118 0.0102986560595
1.95730486991 6.68470132673 2.04182949833 0.0102761401526
1.95930620414 6.68734865719 2.04801311549 0.0102536242456
1.96130753836 6.68999598764 2.05419673264 0.0102311083386
1.96330887258 6.6926433181 2.0603803498 0.0102085924316
1.9653102068 6.69529064855 2.06656396696 0.0101860765246
1.96731154103 6.69793797901 2.07274758412 0.0101635606173
1.96931287525 6.70076878159 2.07896911544 0.0101984761632
1.97131420947 6.70406845736 2.08528753853 0.0103801609774
1.9733155437 6.70736813313 2.09160596162 0.0105618457918
1.97531687792 6.71066780891 2.09792438472 0.0107435306063
1.97731821214 6.71396748468 2.10424280781 0.0109252154202
1.97931954636 6.71726716046 2.1105612309 0.0111069002347
1.98132088059 6.72056683623 2.116879654 0.011288585049
1.98332221481 6.723866512 2.12319807709 0.011470269863
1.98532354903 6.72716618778 2.12951650019 0.0116519546775
1.98732488326 6.73046586355 2.13583492328 0.0118336394917
1.98932621748 6.73383739591 2.14281983673 0.0115379717427
1.9913275517 6.73721581862 2.14986866022 0.0111965304599
1.99332888592 6.74059424133 2.15691748371 0.0108550891773
1.99533022015 6.74397266404 2.1639663072 0.0105136478946
1.99733155437 6.74735108675 2.17101513069 0.0101722066121
1.99933288859 6.75072950946 2.17806395418 0.00983076532949
2.00133422282 6.75410793217 2.18511277767 0.00948932404689
2.00333555704 6.75748635489 2.19216160116 0.00914788276443
2.00533689126 6.7615530823 2.19916145563 0.00905504443727
2.00733822548 6.76589437935 2.206141776 0.00906137559504
2.00933955971 6.77023567639 2.21312209638 0.00906770675298
2.01134089393 6.77457697344 2.22010241675 0.00907403791102
2.01334222815 6.77891827049 2.22708273712 0.00908036906876
2.01534356237 6.78325956754 2.2340630575 0.00908670022684
2.0173448966 6.78760086458 2.24104337787 0.00909303138454
2.01934623082 6.79194216163 2.24802369825 0.00909936254266
2.02134756504 6.79611738148 2.2544877282 0.00910404270393
2.02334889927 6.80013756249 2.26046978311 0.00910718160224
2.02535023349 6.8041577435 2.26645183802 0.0091103205008
2.02735156771 6.80817792452 2.27243389293 0.00911345939926
2.02935290193 6.81219810553 2.27841594784 0.00911659829771
2.03135423616 6.81621828654 2.28439800275 0.00911973719631
2.03335557038 6.82023846755 2.29038005766 0.00912287609464
2.0353569046 6.82425864856 2.29636211257 0.00912601499304
2.03735823883 6.82827882958 2.30234416748 0.00912915389167
2.03935957305 6.83246740733 2.30830975744 0.00912407078794
2.04136090727 6.83762205063 2.31418089064 0.00907181935584
2.04336224149 6.84277669393 2.32005202384 0.00901956792385
2.04536357572 6.84793133723 2.32592315704 0.00896731649204
2.04736490994 6.85308598053 2.33179429024 0.0089150650599
2.04936624416 6.85824062383 2.33766542344 0.00886281362809
2.05136757839 6.86339526713 2.34353655663 0.00881056219596
2.05336891261 6.86854991043 2.34940768984 0.008758310764
2.05537024683 6.87370455373 2.35527882303 0.00870605933213
2.05737158105 6.87885919702 2.36114995623 0.00865380789997
2.05937291528 6.88405924413 2.36788961327 0.00884798104202
2.0613742495 6.88927212076 2.37487468485 0.00911178517582
2.06337558372 6.89448499739 2.38185975643 0.00937558930987
2.06537691795 6.89969787402 2.38884482801 0.00963939344364
2.06737825217 6.90491075065 2.3958298996 0.00990319757748
2.06937958639 6.91012362728 2.40281497118 0.0101670017113
2.07138092061 6.91533650391 2.40980004277 0.0104308058449
2.07338225484 6.92054938054 2.41678511435 0.0106946099791
2.07538358906 6.92637465277 2.42345582648 0.0105493886358
2.07738492328 6.93263969902 2.42990079054 0.0101104375872
2.0793862575 6.93890474528 2.43634575461 0.00967148653895
2.08138759173 6.94516979153 2.44279071867 0.00923253549051
2.08338892595 6.95143483778 2.44923568274 0.00879358444215
2.08539026017 6.95769988404 2.4556806468 0.00835463339373
2.0873915944 6.96396493029 2.46212561087 0.00791568234535
2.08939292862 6.97022997654 2.46857057493 0.00747673129711
2.09139426284 6.9764810218 2.4748009606 0.00720076512175
2.09339559706 6.98270964269 2.4806876719 0.00718583975934
2.09539693129 6.98893826357 2.48657438321 0.00717091439688
2.09739826551 6.99516688446 2.49246109451 0.00715598903476
2.09939959973 7.00139550535 2.49834780582 0.00714106367231
2.10140093396 7.00762412624 2.50423451712 0.00712613830993
2.10340226818 7.01385274713 2.51012122843 0.00711121294765
2.1054036024 7.02008136802 2.51600793973 0.00709628758535
2.10740493662 7.02630998891 2.52189465104 0.00708136222291
2.10940627085 7.03254616975 2.52776846007 0.0070653107201
2.11140760507 7.03925862713 2.53282942555 0.00697831234831
2.11340893929 7.04597108451 2.53789039104 0.00689131397704
2.11541027352 7.0526835419 2.54295135653 0.00680431560538
2.11741160774 7.05939599928 2.54801232201 0.00671731723411
2.11941294196 7.06610845667 2.5530732875 0.00663031886267
2.12141427618 7.07282091405 2.55813425299 0.00654332049119
2.12341561041 7.07953337144 2.56319521847 0.00645632211975
2.12541694463 7.08624582882 2.56825618396 0.00636932374848
2.12741827885 7.09295828621 2.57331714945 0.00628232537684
2.12941961308 7.1000305274 2.57887990172 0.00629590716456
2.1314209473 7.10729917233 2.58471657624 0.00636439502939
2.13342228152 7.11456781725 2.59055325076 0.00643288289397
2.13542361574 7.12183646217 2.59638992529 0.00650137075876
2.13742494997 7.12910510709 2.60222659981 0.00656985862358
2.13942628419 7.13637375201 2.60806327434 0.00663834648818
2.14142761841 7.14364239693 2.61389994886 0.00670683435302
2.14342895264 7.15091104186 2.61973662338 0.00677532221762
2.14543028686 7.15864219079 2.62525327869 0.0069311835304
2.14743162108 7.16694040988 2.63037756262 0.00719417228773
2.1494329553 7.17523862897 2.63550184654 0.00745716104486
2.15143428953 7.18353684805 2.64062613047 0.0077201498025
2.15343562375 7.19183506714 2.64575041439 0.00798313855983
2.15543695797 7.20013328622 2.65087469832 0.00824612731694
2.15743829219 7.20843150531 2.65599898225 0.00850911607449
2.15943962642 7.2167297244 2.66112326617 0.00877210483175
2.16144096064 7.22477881167 2.66600839593 0.00894309137828
2.16344229486 7.2320866931 2.67018200492 0.00884035706143
2.16544362909 7.23939457454 2.67435561391 0.00873762274483
2.16744496331 7.24670245597 2.6785292229 0.00863488842815
2.16944629753 7.25401033741 2.68270283189 0.00853215411121
2.17144763175 7.26131821885 2.68687644087 0.00842941979452
2.17344896598 7.26862610028 2.69105004987 0.00832668547789
2.1754503002 7.27593398172 2.69522365885 0.00822395116125
2.17745163442 7.28324186316 2.69939726784 0.00812121684462
2.17945296865 7.29054974459 2.70357087683 0.00801848252777
2.18145430287 7.29888098952 2.70710996114 0.00789086963666
2.18345563709 7.30734807915 2.71056481652 0.00775995427979
2.18545697131 7.31581516879 2.7140196719 0.00762903892284
2.18745830554 7.32428225842 2.71747452727 0.00749812356599
2.18945963976 7.33274934806 2.72092938265 0.00736720820941
2.19146097398 7.34121643769 2.72438423802 0.00723629285256
2.19346230821 7.34968352733 2.7278390934 0.00710537749563
2.19546364243 7.35815061696 2.73129394878 0.00697446213872
2.19746497665 7.3666177066 2.73474880415 0.00684354678219
2.19946631087 7.3756276799 2.73856010988 0.00671028654854
2.2014676451 7.38515083503 2.74270836412 0.00657480972997
2.20346897932 7.39467399016 2.74685661836 0.00643933291094
2.20547031354 7.40419714529 2.7510048726 0.00630385609202
2.20747164777 7.41372030042 2.75515312684 0.00616837927328
2.20947298199 7.42324345555 2.75930138108 0.00603290245435
2.21147431621 7.43276661068 2.76344963532 0.00589742563542
2.21347565043 7.44228976582 2.76759788956 0.00576194881665
2.21547698466 7.45192750814 2.77141386623 0.00562645029615
2.21747831888 7.46181281539 2.77451195924 0.00549090488933
2.2194796531 7.47169812264 2.77761005225 0.00535535948281
2.22148098732 7.4815834299 2.78070814526 0.005219814076
2.22348232155 7.49146873715 2.78380623827 0.00508426866944
2.22548365577 7.5013540444 2.78690433128 0.00494872326271
2.22748498999 7.51123935165 2.79000242429 0.00481317785588
2.22948632422 7.52112465891 2.7931005173 0.00467763244932
2.23148765844 7.53084928023 2.79613542845 0.00455307572709
2.23348899266 7.53938144286 2.79870146369 0.00451006661118
2.23549032688 7.54791360549 2.80126749893 0.00446705749521
2.23749166111 7.55644576811 2.80383353416 0.00442404837936
2.23949299533 7.56497793074 2.80639956941 0.00438103926334
2.24149432955 7.57351009337 2.80896560464 0.00433803014735
2.24349566378 7.58204225599 2.81153163988 0.00429502103156
2.245496998 7.59057441861 2.81409767512 0.00425201191554
2.24749833222 7.59910658124 2.81666371036 0.00420900279957
2.24949966644 7.60763874387 2.8192297456 0.0041659936837
2.25150100067 7.61590122054 2.82121938602 0.0045020184982
2.25350233489 7.6240738019 2.82301689484 0.00496438795619
2.25550366911 7.63224638326 2.82481440365 0.00542675741397
2.25750500334 7.64041896462 2.82661191246 0.00588912687199
2.25950633756 7.64859154598 2.82840942128 0.00635149632994
2.26150767178 7.65676412734 2.83020693009 0.00681386578774
2.263509006 7.6649367087 2.83200443891 0.00727623524576
2.26551034023 7.67310929006 2.83380194772 0.00773860470373
2.26751167445 7.68128187142 2.83559945654 0.00820097416157
2.26951300867 7.68997509695 2.8372883297 0.00839823071945
2.2715143429 7.69951330239 2.83880089255 0.00816522207882
2.27351567712 7.70905150782 2.8403134554 0.00793221343822
2.27551701134 7.71858971325 2.84182601825 0.00769920479764
2.27751834556 7.72812791869 2.8433385811 0.00746619615701
2.27951967979 7.73766612412 2.84485114395 0.00723318751643
2.28152101401 7.74720432955 2.8463637068 0.00700017887575
2.28352234823 7.75674253499 2.84787626965 0.00676717023511
2.28552368245 7.76633245769 2.84915951339 0.0066122857267
2.28752501668 7.77615235718 2.84942301897 0.00680480427438
2.2895263509 7.78597225668 2.84968652456 0.00699732282205
2.29152768512 7.79579215617 2.84995003014 0.00718984136964
2.29352901935 7.80561205567 2.85021353572 0.00738235991734
2.29553035357 7.81543195516 2.8504770413 0.00757487846496
2.29753168779 7.82525185466 2.85074054688 0.00776739701263
2.29953302201 7.83507175415 2.85100405247 0.0079599155603
2.30153435624 7.84489165365 2.85126755805 0.0081524341079
2.30353569046 7.85344326533 2.85164827866 0.0078587718359
2.30553702468 7.86197678732 2.85203067112 0.00755817513066
2.30753835891 7.87051030931 2.85241306358 0.00725757842533
2.30953969313 7.87904383131 2.85279545604 0.00695698172008
2.31154102735 7.8875773533 2.8531778485 0.00665638501481
2.31354236157 7.8961108753 2.85356024096 0.00635578830949
2.3155436958 7.90464439729 2.85394263342 0.00605519160422
2.31754503002 7.91317791928 2.85432502588 0.00575459489897
2.31954636424 7.92171144128 2.85470741834 0.00545399819365
2.32154769847 7.93056136115 2.85464155106 0.00530364589166
2.32354903269 7.9396075278 2.85429764927 0.00524648315622
2.32555036691 7.94865369446 2.85395374748 0.00518932042084
2.32755170113 7.95769986111 2.85360984568 0.00513215768539
2.32955303536 7.96674602777 2.85326594389 0.00507499494993
2.33155436958 7.97579219442 2.85292204209 0.0050178322146
2.3335557038 7.98483836107 2.8525781403 0.00496066947917
2.33555703803 7.99388452773 2.85223423851 0.00490350674371
2.33755837225 8.00293069438 2.85189033671 0.00484634400835
2.33955970647 8.01203209918 2.85139615091 0.0048093542523
2.34156104069 8.02130060805 2.85044733233 0.00483339093061
2.34356237492 8.03056911692 2.84949851374 0.00485742760896
2.34556370914 8.03983762579 2.84854969517 0.00488146428734
2.34756504336 8.04910613466 2.84760087659 0.00490550096565
2.34956637759 8.05837464353 2.84665205801 0.00492953764396
2.35156771181 8.0676431524 2.84570323943 0.00495357432231
2.35356904603 8.07691166127 2.84475442085 0.00497761100064
2.35557038025 8.08616366103 2.84377135475 0.00501215878837
2.35757171448 8.09510706752 2.84214812348 0.00524318346688
2.3595730487 8.10405047401 2.84052489222 0.00547420814545
2.36157438292 8.11299388049 2.83890166095 0.00570523282395
2.36357571714 8.12193728698 2.83727842969 0.00593625750253
2.36557705137 8.13088069347 2.83565519843 0.00616728218111
2.36757838559 8.13982409996 2.83403196717 0.00639830685961
2.36957971981 8.14876750645 2.8324087359 0.00662933153816
2.37158105404 8.15771091293 2.83078550464 0.00686035621668
2.37358238826 8.16623266193 2.82965605259 0.00690549161005
2.37558372248 8.17468181789 2.82861161015 0.00691862408613
2.3775850567 8.18313097384 2.82756716771 0.00693175656222
2.37958639093 8.19158012979 2.82652272527 0.00694488903831
2.38158772515 8.20002928575 2.82547828283 0.00695802151437
2.38358905937 8.2084784417 2.8244338404 0.00697115399047
2.3855903936 8.21692759766 2.82338939796 0.00698428646654
2.38759172782 8.22537675361 2.82234495551 0.00699741894263
2.38959306204 8.23382590956 2.82130051308 0.00701055141874
2.39159439626 8.24168835568 2.81978344435 0.00686428201869
2.39359573049 8.24892623971 2.81776325731 0.00654832675048
2.39559706471 8.25616412374 2.81574307027 0.0062323714823
2.39759839893 8.26340200778 2.81372288322 0.00591641621413
2.39959973316 8.27063989181 2.81170269618 0.00560046094595
2.40160106738 8.27787777584 2.80968250914 0.00528450567777
2.4036024016 8.28511565987 2.8076623221 0.00496855040957
2.40560373582 8.2923535439 2.80564213506 0.00465259514143
2.40760507005 8.29959142793 2.80362194802 0.00433663987319
2.40960640427 8.3069449355 2.8016154711 0.00400515588116
2.41160773849 8.31518280686 2.79971385808 0.00355489813588
2.41360907272 8.32342067822 2.79781224507 0.00310464039069
2.41561040694 8.33165854958 2.79591063205 0.00265438264541
2.41761174116 8.33989642095 2.79400901903 0.00220412490022
2.41961307538 8.34813429231 2.79210740601 0.00175386715498
2.42161440961 8.35637216367 2.790205793 0.00130360940972
2.42361574383 8.36461003503 2.78830417998 0.000853351664501
2.42561707805 8.37284790639 2.78640256696 0.000403093919211
2.42761841227 8.38032578205 2.78334031394 0.000246827269472
2.4296197465 8.3877357432 2.78017434415 0.000116832164585
2.43162108072 8.39514570436 2.77700837436 -1.31629404164e-05
2.43362241494 8.40255566551 2.77384240457 -0.000143158045482
2.43562374917 8.40996562666 2.77067643478 -0.000273153150328
2.43762508339 8.41737558782 2.76751046499 -0.000403148255278
2.43962641761 8.42478554897 2.7643444952 -0.000533143360462
2.44162775183 8.43219551012 2.76117852541 -0.000663138465475
2.44362908606 8.43927757268 2.75880883105 -0.000431824097388
2.44563042028 8.44623231669 2.75674831957 -6.02181984787e-05
2.4476317545 8.4531870607 2.75468780809 0.000311387700287
2.44963308873 8.46014180471 2.7526272966 0.000682993599024
2.45163442295 8.46709654872 2.75056678512 0.00105459949787
2.45363575717 8.47405129274 2.74850627364 0.00142620539666
2.45563709139 8.48100603675 2.74644576215 0.00179781129548
2.45763842562 8.48796078076 2.74438525067 0.00216941719427
2.45963975984 8.49491552477 2.74232473919 0.00254102309309
2.46164109406 8.50165159692 2.73998453245 0.00264508704947
2.46364242829 8.50798434097 2.73712844335 0.0022556847566
2.46564376251 8.51431708501 2.73427235425 0.0018662824637
2.46764509673 8.52064982906 2.73141626515 0.00147688017077
2.46964643095 8.52698257311 2.72856017605 0.00108747787786
2.47164776518 8.53331531716 2.72570408695 0.000698075584934
2.4736490994 8.53964806121 2.72284799785 0.000308673292025
2.47565043362 8.54598080526 2.71999190875 -8.07290008749e-05
2.47765176785 8.55231354931 2.71713581965 -0.000470131293762
2.47965310207 8.55864629336 2.71427973055 -0.000859533586709
2.48165443629 8.56572314513 2.71087338645 -0.000364184523851
2.48365577051 8.57281300992 2.70745741945 0.000146637138291
2.48565710474 8.57990287471 2.70404145245 0.000657458800378
2.48765843896 8.5869927395 2.70062548545 0.00116828046253
2.48965977318 8.59408260429 2.69720951845 0.0016791021246
2.4916611074 8.60117246908 2.69379355145 0.00218992378672
2.49366244163 8.60826233386 2.69037758445 0.00270074544882
2.49566377585 8.61535219865 2.68696161744 0.00321156711094
2.49766511007 8.62132890451 2.68347935833 0.00271023973514
2.4996664443 8.62700101464 2.67997895959 0.00193195615488
2.50166777852 8.63267312477 2.67647856084 0.00115367257461
2.50366911274 8.6383452349 2.6729781621 0.000375388994329
2.50567044696 8.64401734503 2.66947776335 -0.00040289458594
2.50767178119 8.64968945516 2.66597736461 -0.00118117816622
2.50967311541 8.65536156529 2.66247696587 -0.00195946174648
2.51167444963 8.66103367542 2.65897656712 -0.00273774532675
2.51367578386 8.66678392062 2.65564363323 -0.00284776550267
2.51567711808 8.6725890266 2.65242828106 -0.00248857945843
2.5176784523 8.67839413259 2.64921292888 -0.00212939341418
2.51967978652 8.68419923857 2.64599757671 -0.00177020736993
2.52168112075 8.69000434455 2.64278222453 -0.00141102132572
2.52368245497 8.69580945053 2.63956687236 -0.00105183528147
2.52568378919 8.70161455652 2.63635152018 -0.000692649237229
2.52768512342 8.7074196625 2.633136168 -0.000333463192989
2.52968645764 8.71322476848 2.62992081583 2.57228512492e-05
2.53168779186 8.71892059267 2.62677328409 0.000382126430904
2.53368912608 8.72422612472 2.62386796821 0.000728592637026
2.53569046031 8.72953165677 2.62096265232 0.00107505884312
2.53769179453 8.73483718882 2.61805733644 0.00142152504923
2.53969312875 8.74014272086 2.61515202056 0.00176799125535
2.54169446298 8.74544825291 2.61224670468 0.00211445746146
2.5436957972 8.75075378496 2.6093413888 0.00246092366757
2.54569713142 8.75605931701 2.60643607292 0.00280738987367
2.54769846564 8.76136484906 2.60353075703 0.0031538560798
2.54969979987 8.7666703811 2.60062544115 0.00350032228592
2.55170113409 8.77215750409 2.5968063816 0.00368534618021
2.55370246831 8.77767667253 2.59282607316 0.00384188025476
2.55570380253 8.78319584098 2.58884576472 0.00399841432933
2.55770513676 8.78871500942 2.58486545629 0.00415494840389
2.55970647098 8.79423417787 2.58088514785 0.00431148247845
2.5617078052 8.79975334631 2.57690483941 0.00446801655302
2.56370913943 8.80527251475 2.57292453097 0.00462455062758
2.56571047365 8.8107916832 2.56894422254 0.00478108470215
2.56771180787 8.81653571287 2.5650538548 0.00523289151581
2.56971314209 8.82239957877 2.56121141954 0.00584205925032
2.57171447632 8.82826344467 2.55736898427 0.00645122698484
2.57371581054 8.83412731058 2.55352654901 0.00706039471935
2.57571714476 8.83999117648 2.54968411374 0.00766956245387
2.57771847899 8.84585504238 2.54584167847 0.00827873018838
2.57971981321 8.85171890828 2.54199924321 0.0088878979229
2.58172114743 8.85758277418 2.53815680794 0.00949706565741
2.58372248165 8.86306959603 2.53447758522 0.00953423411338
2.58572381588 8.86810422417 2.53099410537 0.00888539656162
2.5877251501 8.8731388523 2.52751062552 0.00823655900988
2.58972648432 8.87817348043 2.52402714567 0.00758772145812
2.59172781855 8.88320810856 2.52054366582 0.00693888390636
2.59372915277 8.88824273669 2.51706018597 0.00629004635462
2.59573048699 8.89327736483 2.51357670612 0.00564120880286
2.59773182121 8.89831199296 2.51009322628 0.00499237125109
2.59973315544 8.90334662109 2.50660974643 0.00434353369936
2.60173448966 8.90836373931 2.50311730064 0.00373694157338
2.60373582388 8.91319461573 2.49952948994 0.00357968715823
2.60573715811 8.91802549216 2.49594167924 0.00342243274306
2.60773849233 8.92285636858 2.49235386854 0.00326517832791
2.60973982655 8.927687245 2.48876605784 0.00310792391275
2.61174116077 8.93251812142 2.48517824714 0.00295066949758
2.613742495 8.93734899785 2.48159043643 0.00279341508242
2.61574382922 8.94217987427 2.47800262573 0.00263616066725
2.61774516344 8.94701075069 2.47441481503 0.00247890625212
2.61974649767 8.95184162712 2.47082700433 0.00232165183695
2.62174783189 8.95624839157 2.46722439458 0.00221197316715
2.62374916611 8.96048791361 2.46361594903 0.00212105530324
2.62575050033 8.96472743565 2.46000750348 0.00203013743934
2.62775183456 8.96896695769 2.45639905794 0.00193921957544
2.62975316878 8.97320647973 2.45279061239 0.00184830171152
2.631754503 8.97744600177 2.44918216685 0.00175738384762
2.63375583722 8.98168552381 2.4455737213 0.00166646598372
2.63575717145 8.98592504585 2.44196527575 0.00157554811982
2.63775850567 8.98972379359 2.43830826887 0.00141086529708
2.63975983989 8.99311490795 2.43460635187 0.00117796375302
2.64176117412 8.99650602231 2.43090443487 0.000945062208958
2.64376250834 8.99989713667 2.42720251787 0.000712160664891
2.64576384256 9.00328825103 2.42350060087 0.000479259120834
2.64776517678 9.0066793654 2.41979868387 0.000246357576773
2.64976651101 9.01007047976 2.41609676687 1.34560327069e-05
2.65176784523 9.01346159412 2.41239484987 -0.000219445511344
2.65376917945 9.01701607638 2.40893198013 -0.000397359735888
2.65577051368 9.02091474152 2.40597273426 -0.000459426889128
2.6577718479 9.02481340666 2.40301348839 -0.000521494042402
2.65977318212 9.02871207179 2.40005424252 -0.000583561195663
2.66177451634 9.03261073693 2.39709499665 -0.000645628348905
2.66377585057 9.03650940207 2.39413575078 -0.000707695502165
2.66577718479 9.04040806721 2.39117650491 -0.000769762655431
2.66777851901 9.04430673234 2.38821725904 -0.000831829808678
2.66977985324 9.04820539748 2.38525801317 -0.000893896961957
2.67178118746 9.05210406261 2.38229876729 -0.000955964115218
2.67378252168 9.05584282327 2.37899072851 -0.000522818487425
2.6757838559 9.05957371976 2.37566553597 -6.53181327098e-05
2.67778519013 9.06330461626 2.37234034343 0.000392182222011
2.67978652435 9.06703551276 2.36901515089 0.00084968257673
2.68178785857 9.07076640925 2.36568995835 0.00130718293145
2.6837891928 9.07449730575 2.36236476582 0.00176468328619
2.68579052702 9.07822820224 2.35903957328 0.00222218364091
2.68779186124 9.08195909874 2.35571438074 0.00267968399563
2.68979319546 9.08568999523 2.3523891882 0.00313718435034
2.69179452969 9.08970529222 2.34884076286 0.00316424836965
2.69379586391 9.09392286334 2.34513356765 0.00288517317709
2.69579719813 9.09814043446 2.34142637244 0.00260609798455
2.69779853235 9.10235800558 2.33771917724 0.00232702279197
2.69979986658 9.1065755767 2.33401198203 0.00204794759943
2.7018012008 9.11079314783 2.33030478682 0.00176887240686
2.70380253502 9.11501071895 2.32659759162 0.00148979721433
2.70580386925 9.11922829007 2.32289039641 0.00121072202175
2.70780520347 9.12336894302 2.31920585705 0.000948428705498
2.70980653769 9.12738761462 2.31555724667 0.000712749071826
2.71180787191 9.13140628621 2.31190863628 0.000477069438182
2.71380920614 9.13542495781 2.3082600259 0.000241389804523
2.71581054036 9.13944362941 2.30461141551 5.71017084894e-06
2.71781187458 9.14346230101 2.30096280513 -0.000229969462804
2.71981320881 9.1474809726 2.29731419474 -0.000465649096451
2.72181454303 9.1514996442 2.29366558436 -0.000701328730137
2.72381587725 9.15542876949 2.29007852985 -0.000852744341666
2.72581721147 9.15897380775 2.28675550424 -0.000642729973912
2.7278185457 9.16251884601 2.28343247863 -0.000432715606169
2.72981987992 9.16606388426 2.28010945302 -0.00022270123843
2.73182121414 9.16960892252 2.27678642741 -1.26868706715e-05
2.73382254837 9.17315396077 2.2734634018 0.000197327497072
2.73582388259 9.17669899903 2.27014037619 0.000407341864841
2.73782521681 9.18024403728 2.26681735058 0.000617356232567
2.73982655103 9.18378907554 2.26349432497 0.000827370600309
2.74182788526 9.18733411379 2.26017129936 0.00103738496808
2.74382921948 9.19070982282 2.25703402669 0.000827557942859
2.7458305537 9.19404844069 2.25393744276 0.000525765660157
2.74783188793 9.19738705856 2.25084085883 0.000223973377426
2.74983322215 9.20072567643 2.2477442749 -7.7818905271e-05
2.75183455637 9.2040642943 2.24464769097 -0.000379611188005
2.75383589059 9.20740291216 2.24155110704 -0.000681403470719
2.75583722482 9.21074153003 2.23845452311 -0.000983195753429
2.75783855904 9.2140801479 2.23535793918 -0.00128498803615
2.75983989326 9.21741876577 2.23226135525 -0.00158678031889
2.76184122748 9.22040286782 2.22906718467 -0.00165749612887
2.76384256171 9.22295639875 2.22575449188 -0.00144756196679
2.76584389593 9.22550992969 2.2224417991 -0.00123762780469
2.76784523015 9.22806346063 2.21912910632 -0.0010276936426
2.76984656438 9.23061699157 2.21581641354 -0.000817759480511
2.7718478986 9.2331705225 2.21250372075 -0.000607825318426
2.77384923282 9.23572405344 2.20919102797 -0.00039789115636
2.77585056704 9.23827758437 2.20587833519 -0.000187956994266
2.77785190127 9.24072704039 2.20258464014 0.000113052314394
2.77985323549 9.24287067623 2.19934676922 0.000681682438375
2.78185456971 9.24501431208 2.1961088983 0.00125031256237
2.78385590394 9.24715794793 2.19287102738 0.00181894268636
2.78585723816 9.24930158377 2.18963315646 0.00238757281035
2.78785857238 9.25144521962 2.18639528554 0.00295620293433
2.7898599066 9.25358885547 2.18315741462 0.00352483305832
2.79186124083 9.25573249131 2.1799195437 0.00409346318231
2.79386257505 9.25794764331 2.17668525353 0.00461306919755
2.79586390927 9.26136267739 2.1735110404 0.00431015960983
2.7978652435 9.26477771146 2.17033682727 0.00400725002211
2.79986657772 9.26819274554 2.16716261414 0.00370434043439
2.80186791194 9.27160777962 2.16398840101 0.00340143084668
2.80386924616 9.27502281369 2.16081418788 0.00309852125896
2.80587058039 9.27843784777 2.15763997475 0.00279561167125
2.80787191461 9.28185288185 2.15446576163 0.00249270208353
2.80987324883 9.28526791592 2.1512915485 0.00218979249582
2.81187458306 9.28868295 2.14811733537 0.00188688290811
2.81387591728 9.29161927533 2.14509006714 0.00170258387292
2.8158772515 9.29433800579 2.14212959205 0.00157219872525
2.81787858572 9.29705673624 2.13916911696 0.00144181357758
2.81987991995 9.29977546669 2.13620864188 0.0013114284299
2.82188125417 9.30249419714 2.13324816678 0.00118104328223
2.82388258839 9.30521292759 2.1302876917 0.00105065813456
2.82588392262 9.30793165804 2.12732721661 0.000920272986873
2.82788525684 9.31065038849 2.12436674152 0.00078988783922
2.82988659106 9.31336911895 2.12140626643 0.000659502691557
2.83188792528 9.31626787258 2.11833573309 0.000519797139856
2.83388925951 9.31955138164 2.11502997724 0.000360171508979
2.83589059373 9.3228348907 2.11172422138 0.000200545878123
2.83789192795 9.32611839975 2.10841846553 4.09202472499e-05
2.83989326217 9.32940190881 2.10511270967 -0.000118705383618
2.8418945964 9.33268541787 2.10180695381 -0.000278331014496
2.84389593062 9.33596892693 2.09850119796 -0.000437956645363
2.84589726484 9.33925243599 2.0951954421 -0.000597582276239
2.84789859907 9.34256660245 2.09192405437 -0.000735489776715
2.84989993329 9.34610328227 2.08890211274 -0.000715765685489
2.85190126751 9.3496399621 2.08588017111 -0.000696041594258
2.85390260173 9.35317664192 2.08285822948 -0.000676317503005
2.85590393596 9.35671332175 2.07983628785 -0.00065659341179
2.85790527018 9.36025000158 2.07681434623 -0.000636869320578
2.8599066044 9.3637866814 2.0737924046 -0.000617145229341
2.86190793863 9.36732336123 2.07077046297 -0.000597421138111
2.86390927285 9.37086004105 2.06774852134 -0.000577697046899
2.86591060707 9.3731942902 2.06477562395 -3.05944942168e-05
2.86791194129 9.37542884543 2.06180679283 0.000560233176235
2.86991327552 9.37766340066 2.05883796171 0.00115106084671
2.87191460974 9.37989795589 2.05586913059 0.00174188851716
2.87391594396 9.38213251112 2.05290029947 0.00233271618765
2.87591727819 9.38436706635 2.04993146835 0.00292354385811
2.87791861241 9.38660162158 2.04696263723 0.00351437152859
2.87991994663 9.38883617681 2.04399380611 0.00410519919905
2.88192128085 9.39107073204 2.04102497499 0.00469602686952
2.88392261508 9.39336087702 2.03802421347 0.00491640155422
2.8859239493 9.39569565039 2.03499781768 0.00483937032072
2.88792528352 9.39803042376 2.03197142189 0.00476233908723
2.88992661775 9.40036519713 2.0289450261 0.00468530785372
2.89192795197 9.4026999705 2.02591863031 0.00460827662022
2.89392928619 9.40503474387 2.02289223452 0.00453124538671
2.89593062041 9.40736951724 2.01986583872 0.00445421415322
2.89793195464 9.40970429062 2.01683944294 0.00437718291972
2.89993328886 9.41203906399 2.01381304714 0.00430015168624
2.90193462308 9.41433103288 2.01086229135 0.00426025975438
2.9039359573 9.41643559732 2.00824269889 0.00438296930288
2.90593729153 9.41854016175 2.00562310643 0.00450567885137
2.90793862575 9.42064472618 2.00300351397 0.00462838839987
2.90993995997 9.42274929061 2.00038392151 0.00475109794837
2.9119412942 9.42485385504 1.99776432905 0.00487380749686
2.91394262842 9.42695841948 1.99514473659 0.00499651704536
2.91594396264 9.42906298391 1.99252514413 0.00511922659384
2.91794529686 9.43116754834 1.98990555167 0.00524193614236
2.91994663109 9.4332313955 1.98717192425 0.00470422760949
2.92194796531 9.43529475985 1.98443694465 0.00415868803217
2.92394929953 9.43735812419 1.98170196505 0.00361314845485
2.92595063376 9.43942148854 1.97896698545 0.00306760887753
2.92795196798 9.44148485288 1.97623200584 0.0025220693002
2.9299533022 9.44354821723 1.97349702624 0.00197652972288
2.93195463642 9.44561158157 1.97076204664 0.00143099014555
2.93395597065 9.44767494592 1.96802706704 0.000885450568236
2.93595730487 9.44940018897 1.96539463642 0.000456545854894
2.93795863909 9.45103589001 1.96278936306 5.85286351975e-05
2.93995997332 9.45267159106 1.96018408969 -0.000339488584496
2.94196130754 9.4543072921 1.95757881632 -0.000737505804193
2.94396264176 9.45594299315 1.95497354295 -0.00113552302389
2.94596397598 9.4575786942 1.95236826958 -0.00153354024358
2.94796531021 9.45921439524 1.94976299621 -0.00193155746328
2.94996664443 9.46085009629 1.94715772285 -0.00232957468298
2.95196797865 9.46248579734 1.94455244948 -0.00272759190267
2.95396931288 9.46398188456 1.94207829337 -0.00293869677105
2.9559706471 9.46528664916 1.93978381646 -0.00289366249132
2.95797198132 9.46659141375 1.93748933956 -0.00284862821158
2.95997331554 9.46789617834 1.93519486265 -0.00280359393183
2.96197464977 9.46920094294 1.93290038575 -0.0027585596521
2.96397598399 9.47050570753 1.93060590884 -0.00271352537235
2.96597731821 9.47181047212 1.92831143194 -0.00266849109262
2.96797865243 9.47311523671 1.92601695503 -0.00262345681288
2.96997998666 9.47442000131 1.92372247813 -0.00257842253313
2.97198132088 9.47578904038 1.92137559845 -0.00253338108857
2.9739826551 9.47830367763 1.91809471644 -0.00248821194155
2.97598398933 9.48081831489 1.91481383443 -0.00244304279453
2.97798532355 9.48333295214 1.91153295243 -0.00239787364751
2.97998665777 9.48584758939 1.90825207042 -0.00235270450048
2.98198799199 9.48836222664 1.90497118841 -0.00230753535346
2.98398932622 9.49087686389 1.90169030641 -0.00226236620645
2.98599066044 9.49339150114 1.8984094244 -0.00221719705942
2.98799199466 9.4959061384 1.8951285424 -0.00217202791241
2.98999332889 9.49796186503 1.89207934536 -0.00202346204244
2.99199466311 9.49994005882 1.88906929146 -0.00185742731975
2.99399599733 9.50191825261 1.88605923756 -0.00169139259705
2.99599733155 9.5038964464 1.88304918365 -0.00152535787436
2.99799866578 9.50587464019 1.88003912975 -0.00135932315168
3.0 9.50785283398 1.87702907584 -0.00119328842897
