y u v w 
0.0 25.239734587 -0.00218732262398 0.000453653954524
0.00200133422282 25.2393881381 -0.00315499187812 0.000341164606373
0.00400266844563 25.2390416892 -0.00412266113225 0.000228675258218
0.00600400266845 25.2386952403 -0.00509033038639 0.000116185910066
0.00800533689126 25.2383487914 -0.00605799964052 3.69656191183e-06
0.0100066711141 25.2380023426 -0.00702566889465 -0.000108792786243
0.0120080053369 25.2376558937 -0.00799333814878 -0.000221282134395
0.0140093395597 25.2373094448 -0.00896100740292 -0.000333771482549
0.0160106737825 25.2369629959 -0.00992867665707 -0.000446260830701
0.0180120080053 25.236616547 -0.0108963459112 -0.000558750178862
0.0200133422282 25.2361283683 -0.0121257995066 -0.000675302297641
0.022014676451 25.235557397 -0.0135081766279 -0.000794227718066
0.0240160106738 25.2349864257 -0.0148905537493 -0.000913153138507
0.0260173448966 25.2344154544 -0.0162729308707 -0.00103207855893
0.0280186791194 25.2338444831 -0.0176553079922 -0.00115100397937
0.0300200133422 25.2332735118 -0.0190376851136 -0.0012699293998
0.032021347565 25.2327025405 -0.020420062235 -0.00138885482024
0.0340226817879 25.2321315692 -0.0218024393564 -0.00150778024066
0.0360240160107 25.2315845003 -0.0230180752715 -0.00152723240052
0.0380253502335 25.2310686553 -0.0240158960975 -0.00141674201274
0.0400266844563 25.2305528104 -0.0250137169235 -0.00130625162499
0.0420280186791 25.2300369654 -0.0260115377494 -0.00119576123721
0.0440293529019 25.2295211204 -0.0270093585754 -0.00108527084944
0.0460306871247 25.2290052755 -0.0280071794014 -0.000974780461669
0.0480320213476 25.2284894305 -0.0290050002274 -0.000864290073899
0.0500333555704 25.2279735856 -0.0300028210534 -0.000753799686142
0.0520346897932 25.227389485 -0.0309963137348 -0.000608087896877
0.054036024016 25.226584345 -0.0319757901073 -0.000348314747781
0.0560373582388 25.2257792051 -0.0329552664798 -8.85415986927e-05
0.0580386924616 25.2249740651 -0.0339347428523 0.00017123155037
0.0600400266845 25.2241689251 -0.0349142192248 0.000431004699468
0.0620413609073 25.2233637851 -0.0358936955973 0.000690777848539
0.0640426951301 25.2225586451 -0.0368731719697 0.000950550997646
0.0660440293529 25.2217535051 -0.0378526483422 0.00121032414672
0.0680453635757 25.2209483652 -0.0388321247148 0.00147009729578
0.0700466977985 25.2201432252 -0.0398116010872 0.00172987044488
0.0720480320213 25.2203455459 -0.0406550093596 0.00224479622699
0.0740493662442 25.2207021624 -0.0414775783734 0.00279879943939
0.076050700467 25.2210587789 -0.0423001473872 0.0033528026518
0.0780520346898 25.2214153954 -0.043122716401 0.00390680586411
0.0800533689126 25.2217720119 -0.043945285415 0.00446080907654
0.0820547031354 25.2221286284 -0.0447678544289 0.00501481228898
0.0840560373582 25.2224852448 -0.0455904234425 0.00556881550142
0.0860573715811 25.2228418614 -0.0464129924564 0.00612281871385
0.0880587058039 25.2231984779 -0.0472355614702 0.0066768219261
0.0900600400267 25.2236985721 -0.0480859731661 0.0072517791268
0.0920613742495 25.2243430438 -0.048964402106 0.00784782168853
0.0940627084723 25.2249875154 -0.0498428310461 0.00844386425039
0.0960640426951 25.225631987 -0.0507212599859 0.00903990681222
0.0980653769179 25.2262764587 -0.051599688926 0.00963594937407
0.100066711141 25.2269209303 -0.0524781178661 0.0102319919357
0.102068045364 25.2275654019 -0.0533565468061 0.0108280344977
0.104069379586 25.2282098736 -0.0542349757462 0.0114240770594
0.106070713809 25.2287527588 -0.0549742091397 0.0122063203633
0.108072048032 25.2290594888 -0.0553898580809 0.0134214199375
0.110073382255 25.2293662187 -0.0558055070223 0.0146365195118
0.112074716478 25.2296729486 -0.0562211559634 0.0158516190863
0.1140760507 25.2299796786 -0.0566368049045 0.0170667186604
0.116077384923 25.2302864085 -0.0570524538457 0.0182818182347
0.118078719146 25.2305931384 -0.0574681027869 0.019496917809
0.120080053369 25.2308998683 -0.0578837517281 0.0207120173833
0.122081387592 25.2311722831 -0.0582915247366 0.0218758510322
0.124082721815 25.2311462598 -0.0586308009959 0.022593826482
0.126084056037 25.2311202365 -0.0589700772554 0.0233118019319
0.12808539026 25.2310942131 -0.0593093535146 0.0240297773817
0.130086724483 25.2310681898 -0.0596486297739 0.0247477528316
0.132088058706 25.2310421665 -0.0599879060334 0.0254657282814
0.134089392929 25.2310161432 -0.0603271822925 0.0261837037313
0.136090727151 25.2309901199 -0.0606664585518 0.0269016791811
0.138092061374 25.2309640965 -0.0610057348113 0.0276196546309
0.140093395597 25.2309380732 -0.0613450110704 0.0283376300807
0.14209472982 25.2290547915 -0.0617701177008 0.0293505151559
0.144096064043 25.2264997355 -0.062226269359 0.0304700696704
0.146097398266 25.2239446794 -0.0626824210173 0.0315896241844
0.148098732488 25.2213896234 -0.0631385726755 0.032709178699
0.150100066711 25.2188345674 -0.0635947243336 0.0338287332133
0.152101400934 25.2162795114 -0.0640508759918 0.0349482877274
0.154102735157 25.2137244554 -0.06450702765 0.0360678422415
0.15610406938 25.2111693994 -0.0649631793082 0.0371873967559
0.158105403602 25.2086143433 -0.0654193309664 0.0383069512702
0.160106737825 25.2061990216 -0.0658888682795 0.0395901956356
0.162108072048 25.2040261448 -0.0663816302761 0.0411574488883
0.164109406271 25.2018532681 -0.0668743922729 0.042724702141
0.166110740494 25.1996803913 -0.0673671542694 0.0442919553934
0.168112074716 25.1975075146 -0.0678599162662 0.0458592086462
0.170113408939 25.1953346379 -0.0683526782626 0.0474264618987
0.172114743162 25.1931617611 -0.0688454402594 0.0489937151511
0.174116077385 25.1909888844 -0.0693382022559 0.0505609684038
0.176117411608 25.1884504561 -0.0698574283058 0.052184673617
0.178118745831 25.1841012723 -0.0705077437347 0.0540880129608
0.180120080053 25.1797520884 -0.0711580591639 0.0559913523043
0.182121414276 25.1754029046 -0.0718083745929 0.0578946916481
0.184122748499 25.1710537208 -0.072458690022 0.0597980309919
0.186124082722 25.166704537 -0.0731090054512 0.0617013703359
0.188125416945 25.1623553532 -0.0737593208801 0.0636047096794
0.190126751167 25.1580061694 -0.0744096363091 0.0655080490232
0.19212808539 25.1536569856 -0.0750599517383 0.0674113883668
0.194129419613 25.148998551 -0.0758350946629 0.0691704904742
0.196130753836 25.1443306547 -0.0766140567866 0.0709251795257
0.198132088059 25.1396627583 -0.0773930189102 0.0726798685776
0.200133422282 25.134994862 -0.0781719810336 0.0744345576292
0.202134756504 25.1303269656 -0.078950943157 0.0761892466813
0.204136090727 25.1256590693 -0.0797299052807 0.0779439357329
0.20613742495 25.1209911729 -0.0805088674041 0.0796986247856
0.208138759173 25.1163232765 -0.0812878295275 0.081453313836
0.210140093396 25.1116553802 -0.0820667916511 0.0832080028879
0.212141427618 25.1053949578 -0.0827944757584 0.0851268863062
0.214142761841 25.0980797455 -0.0834881965044 0.0871545218351
0.216144096064 25.0907645332 -0.0841819172505 0.0891821573654
0.218145430287 25.083449321 -0.0848756379966 0.0912097928956
0.22014676451 25.0761341086 -0.0855693587424 0.0932374284262
0.222148098732 25.0688188964 -0.0862630794886 0.0952650639548
0.224149432955 25.061503684 -0.0869568002344 0.0972926994853
0.226150767178 25.0541884717 -0.0876505209806 0.0993203350157
0.228152101401 25.0468732594 -0.0883442417264 0.101347970544
0.230153435624 25.0396267109 -0.0889970136912 0.10333178158
0.232154769847 25.0326064304 -0.0895148470541 0.10517117767
0.234156104069 25.0255861498 -0.090032680417 0.107010573759
0.236157438292 25.0185658693 -0.0905505137796 0.108849969849
0.238158772515 25.0115455887 -0.0910683471425 0.110689365939
0.240160106738 25.0045253082 -0.0915861805059 0.112528762028
0.242161440961 24.9975050276 -0.0921040138682 0.114368158118
0.244162775183 24.9904847471 -0.0926218472306 0.116207554208
0.246164109406 24.9833343349 -0.0931558202581 0.117995422406
0.248165443629 24.9726125331 -0.0941327373773 0.118369136287
0.250166777852 24.9618907313 -0.0951096544973 0.118742850166
0.252168112075 24.9511689295 -0.0960865716183 0.119116564045
0.254169446298 24.9404471277 -0.0970634887378 0.119490277926
0.25617078052 24.9297253259 -0.0980404058587 0.119863991805
0.258172114743 24.9190035241 -0.0990173229782 0.120237705684
0.260173448966 24.9082817223 -0.0999942400988 0.120611419563
0.262174783189 24.8975599205 -0.100971157219 0.120985133443
0.264176117412 24.8863765279 -0.10210195285 0.121631886993
0.266177451634 24.875103573 -0.103262605504 0.122331618388
0.268178785857 24.863830618 -0.10442325816 0.123031349785
0.27018012008 24.852557663 -0.105583910813 0.123731081182
0.272181454303 24.841284708 -0.106744563469 0.124430812578
0.274182788526 24.830011753 -0.107905216122 0.125130543973
0.276184122748 24.8187387981 -0.109065868777 0.125830275371
0.278185456971 24.8074658431 -0.110226521432 0.126530006766
0.280186791194 24.7961928881 -0.111387174086 0.127229738164
0.282188125417 24.781780827 -0.112811864454 0.127012017582
0.28418945964 24.7638111122 -0.114535797559 0.125754518096
0.286190793863 24.7458413974 -0.116259730664 0.124497018609
0.288192128085 24.7278716825 -0.117983663771 0.123239519123
0.290193462308 24.7099019677 -0.119707596877 0.121982019636
0.292194796531 24.6919322529 -0.121431529981 0.12072452015
0.294196130754 24.6739625381 -0.123155463088 0.119467020663
0.296197464977 24.6559928233 -0.124879396193 0.118209521177
0.298198799199 24.6380231085 -0.1266033293 0.116952021691
0.300200133422 24.6201662197 -0.128306049271 0.115621168226
0.302201467645 24.6033247654 -0.129817851031 0.113630128957
0.304202801868 24.586483311 -0.131329652794 0.111639089691
0.306204136091 24.5696418567 -0.132841454554 0.109648050422
0.308205470314 24.5528004024 -0.134353256314 0.107657011154
0.310206804536 24.5359589481 -0.135865058075 0.105665971886
0.312208138759 24.5191174938 -0.137376859834 0.103674932617
0.314209472982 24.5022760395 -0.138888661597 0.10168389335
0.316210807205 24.4854345851 -0.140400463358 0.0996928540835
0.318212141428 24.4603187006 -0.141809052232 0.0960835238593
0.32021347565 24.434307315 -0.143206470883 0.092299053923
0.322214809873 24.4082959293 -0.144603889532 0.0885145839885
0.324216144096 24.3822845437 -0.146001308183 0.0847301140509
0.326217478319 24.3562731581 -0.147398726832 0.0809456441147
0.328218812542 24.3302617724 -0.148796145481 0.0771611741776
0.330220146765 24.3042503868 -0.150193564131 0.0733767042428
0.332221480987 24.2782390011 -0.15159098278 0.0695922343048
0.33422281521 24.2510427404 -0.152713348394 0.0670358609107
0.336224149433 24.2233499355 -0.153720447878 0.0649941443829
0.338225483656 24.1956571306 -0.154727547362 0.0629524278545
0.340226817879 24.1679643257 -0.155734646843 0.0609107113258
0.342228152101 24.1402715209 -0.156741746327 0.0588689947972
0.344229486324 24.112578716 -0.157748845811 0.0568272782684
0.346230820547 24.0848859111 -0.158755945295 0.0547855617417
0.34823215477 24.0571931063 -0.159763044778 0.0527438452126
0.350233488993 24.0295003014 -0.160770144262 0.0507021286842
0.352234823215 23.999872107 -0.16116988595 0.0481175601182
0.354236157438 23.9664181427 -0.16036903665 0.0444599119452
0.356237491661 23.9329641784 -0.159568187352 0.0408022637707
0.358238825884 23.8995102141 -0.158767338051 0.0371446155982
0.360240160107 23.8660562498 -0.157966488752 0.0334869674244
0.36224149433 23.8326022855 -0.15716563945 0.0298293192521
0.364242828552 23.7991483212 -0.156364790151 0.0261716710774
0.366244162775 23.7656943569 -0.155563940852 0.0225140229045
0.368245496998 23.7322403926 -0.154763091553 0.0188563747301
0.370246831221 23.6987864283 -0.153962242253 0.0151987265581
0.372248165444 23.6653741925 -0.153796342762 0.00994415866216
0.374249499666 23.6319633724 -0.153651984376 0.00463541416985
0.376250833889 23.5985525522 -0.153507625992 -0.000673330324265
0.378252168112 23.5651417321 -0.153363267611 -0.00598207481701
0.380253502335 23.531730912 -0.153218909226 -0.0112908193105
0.382254836558 23.4983200918 -0.153074550842 -0.0165995638047
0.384256170781 23.4649092717 -0.15293019246 -0.0219083082971
0.386257505003 23.4314984516 -0.152785834078 -0.02721705279
0.388258839226 23.4001406678 -0.151784585335 -0.0340897710601
0.390260173449 23.3693977528 -0.150526704454 -0.041430887568
0.392261507672 23.3386548378 -0.149268823575 -0.0487720040747
0.394262841895 23.3079119228 -0.148010942696 -0.0561131205816
0.396264176117 23.2771690078 -0.146753061815 -0.0634542370915
0.39826551034 23.2464260928 -0.145495180936 -0.0707953535973
0.400266844563 23.2156831778 -0.144237300055 -0.0781364701064
0.402268178786 23.1849402628 -0.142979419176 -0.0854775866127
0.404269513009 23.1546326279 -0.141512722031 -0.0926901953116
0.406270847231 23.1246508585 -0.139889697952 -0.0998065987083
0.408272181454 23.094669089 -0.138266673874 -0.106923002105
0.410273515677 23.0646873196 -0.136643649795 -0.114039405502
0.4122748499 23.0347055501 -0.135020625718 -0.121155808899
0.414276184123 23.0047237807 -0.133397601638 -0.128272212295
0.416277518346 22.9747420112 -0.131774577562 -0.135388615692
0.418278852568 22.9447602417 -0.130151553483 -0.142505019091
0.420280186791 22.9147784723 -0.128528529405 -0.149621422486
0.422281521014 22.8871343374 -0.127148631535 -0.157347909217
0.422281521014 22.8871343374 -0.127148631535 -0.157347909217
0.424282855237 22.8686609227 -0.126722536471 -0.167467799791
0.424282855237 22.8686609227 -0.126722536471 -0.167467799791
0.42628418946 22.8501875081 -0.126296441412 -0.177587690367
0.42628418946 22.8501875081 -0.126296441412 -0.177587690367
0.428285523682 22.8317140935 -0.12587034635 -0.187707580942
0.428285523682 22.8317140935 -0.12587034635 -0.187707580942
0.430286857905 22.8132406788 -0.125444251291 -0.197827471519
0.430286857905 22.8132406788 -0.125444251291 -0.197827471519
0.432288192128 22.7947672642 -0.125018156229 -0.207947362094
0.432288192128 22.7947672642 -0.125018156229 -0.207947362094
0.434289526351 22.7762938495 -0.124592061169 -0.218067252668
0.434289526351 22.7762938495 -0.124592061169 -0.218067252668
0.436290860574 22.7578204349 -0.124165966108 -0.228187143244
0.436290860574 22.7578204349 -0.124165966108 -0.228187143244
0.438292194797 22.7393470203 -0.123739871048 -0.238307033821
0.438292194797 22.7393470203 -0.123739871048 -0.238307033821
0.440293529019 22.7208736056 -0.123313775984 -0.248426924396
0.440293529019 22.7208736056 -0.123313775984 -0.248426924396
0.442294863242 22.7019986331 -0.123062617448 -0.257231042823
0.442294863242 22.7019986331 -0.123062617448 -0.257231042823
0.444296197465 22.6830439506 -0.122846184138 -0.265773978014
0.444296197465 22.6830439506 -0.122846184138 -0.265773978014
0.446297531688 22.664089268 -0.122629750827 -0.274316913206
0.446297531688 22.664089268 -0.122629750827 -0.274316913206
0.448298865911 22.6451345855 -0.122413317517 -0.282859848397
0.448298865911 22.6451345855 -0.122413317517 -0.282859848397
0.450300200133 22.626179903 -0.122196884205 -0.291402783588
0.450300200133 22.626179903 -0.122196884205 -0.291402783588
0.452301534356 22.6072252205 -0.121980450895 -0.299945718778
0.452301534356 22.6072252205 -0.121980450895 -0.299945718778
0.454302868579 22.588270538 -0.121764017585 -0.308488653968
0.454302868579 22.588270538 -0.121764017585 -0.308488653968
0.456304202802 22.5693158555 -0.121547584275 -0.317031589161
0.456304202802 22.5693158555 -0.121547584275 -0.317031589161
0.458305537025 22.5582040747 -0.121829428939 -0.324170337966
0.458305537025 22.5582040747 -0.121829428939 -0.324170337966
0.460306871248 22.5515670785 -0.122395567167 -0.330507925214
0.460306871248 22.5515670785 -0.122395567167 -0.330507925214
0.46230820547 22.5449300823 -0.122961705396 -0.336845512462
0.46230820547 22.5449300823 -0.122961705396 -0.336845512462
0.464309539693 22.538293086 -0.123527843629 -0.343183099709
0.464309539693 22.538293086 -0.123527843629 -0.343183099709
0.466310873916 22.5316560898 -0.124093981857 -0.349520686957
0.466310873916 22.5316560898 -0.124093981857 -0.349520686957
0.468312208139 22.5250190935 -0.124660120087 -0.355858274205
0.468312208139 22.5250190935 -0.124660120087 -0.355858274205
0.470313542362 22.5183820973 -0.125226258318 -0.36219586145
0.470313542362 22.5183820973 -0.125226258318 -0.36219586145
0.472314876584 22.5117451011 -0.125792396546 -0.3685334487
0.472314876584 22.5117451011 -0.125792396546 -0.3685334487
0.474316210807 22.5056245928 -0.126449110355 -0.375962631839
0.474316210807 22.5056245928 -0.126449110355 -0.375962631839
0.47631754503 22.5001639391 -0.127221541718 -0.384786416139
0.47631754503 22.5001639391 -0.127221541718 -0.384786416139
0.478318879253 22.4947032854 -0.127993973079 -0.393610200436
0.478318879253 22.4947032854 -0.127993973079 -0.393610200436
0.480320213476 22.4892426318 -0.128766404444 -0.402433984738
0.480320213476 22.4892426318 -0.128766404444 -0.402433984738
0.482321547698 22.4837819781 -0.129538835806 -0.411257769037
0.482321547698 22.4837819781 -0.129538835806 -0.411257769037
0.484322881921 22.4783213245 -0.130311267168 -0.420081553335
0.484322881921 22.4783213245 -0.130311267168 -0.420081553335
0.486324216144 22.4728606708 -0.131083698532 -0.428905337635
0.486324216144 22.4728606708 -0.131083698532 -0.428905337635
0.488325550367 22.4674000172 -0.131856129892 -0.437729121933
0.488325550367 22.4674000172 -0.131856129892 -0.437729121933
0.49032688459 22.4619393635 -0.132628561256 -0.446552906233
0.49032688459 22.4619393635 -0.132628561256 -0.446552906233
0.492328218813 22.456871795 -0.133399040722 -0.454993119233
0.494329553035 22.4570016857 -0.134143711778 -0.458361667277
0.496330887258 22.4571315764 -0.134888382836 -0.461730215321
0.498332221481 22.4572614671 -0.135633053894 -0.465098763363
0.500333555704 22.4573913578 -0.136377724952 -0.468467311407
0.502334889927 22.4575212484 -0.137122396008 -0.47183585945
0.504336224149 22.4576511392 -0.137867067067 -0.475204407494
0.506337558372 22.4577810298 -0.138611738123 -0.478572955536
0.508338892595 22.4579109205 -0.139356409179 -0.48194150358
0.510340226818 22.4580408112 -0.140101080237 -0.485310051624
0.512341561041 22.4577934059 -0.140542870079 -0.487530137221
0.514342895264 22.4573855028 -0.140855817351 -0.489261678661
0.516344229486 22.4569775997 -0.141168764626 -0.490993220101
0.518345563709 22.4565696966 -0.141481711898 -0.492724761541
0.520346897932 22.4561617934 -0.141794659171 -0.494456302978
0.522348232155 22.4557538903 -0.142107606444 -0.496187844418
0.524349566378 22.4553459871 -0.14242055372 -0.497919385858
0.5263509006 22.454938084 -0.142733500993 -0.499650927296
0.528352234823 22.4545823026 -0.142676778149 -0.50007052089
0.530353569046 22.4542778347 -0.142256116509 -0.499198506915
0.532354903269 22.4539733669 -0.141835454869 -0.498326492941
0.534356237492 22.453668899 -0.141414793227 -0.497454478962
0.536357571714 22.4533644312 -0.140994131586 -0.496582464987
0.538358905937 22.4530599633 -0.140573469946 -0.495710451012
0.54036024016 22.4527554955 -0.140152808305 -0.494838437039
0.542361574383 22.4524510276 -0.139732146665 -0.493966423063
0.544362908606 22.4519324348 -0.139434018868 -0.493090156238
0.546364242829 22.4509287834 -0.139413467739 -0.492204255407
0.548365577051 22.4499251319 -0.139392916608 -0.491318354578
0.550366911274 22.4489214805 -0.139372365478 -0.490432453747
0.552368245497 22.447917829 -0.13935181435 -0.489546552914
0.55436957972 22.4469141776 -0.13933126322 -0.488660652085
0.556370913943 22.4459105262 -0.13931071209 -0.487774751255
0.558372248165 22.4449068747 -0.139290160962 -0.486888850424
0.560373582388 22.4439032233 -0.139269609832 -0.486002949594
0.562374916611 22.4428995718 -0.139249058702 -0.485117048762
0.564376250834 22.438413124 -0.138219640243 -0.483816183758
0.566377585057 22.4336944897 -0.137122963962 -0.482487654476
0.56837891928 22.4289758554 -0.136026287679 -0.48115912519
0.570380253502 22.4242572211 -0.134929611398 -0.479830595909
0.572381587725 22.4195385868 -0.133832935118 -0.478502066624
0.574382921948 22.4148199526 -0.132736258837 -0.477173537341
0.576384256171 22.4101013183 -0.131639582556 -0.475845008055
0.578385590394 22.405382684 -0.130542906275 -0.474516478771
0.580386924616 22.4006640497 -0.129446229993 -0.473187949487
0.582388258839 22.3967401717 -0.128315165918 -0.472553250205
0.584389593062 22.3934189111 -0.127158027587 -0.472444641804
0.586390927285 22.3900976506 -0.126000889255 -0.472336033402
0.588392261508 22.38677639 -0.12484375092 -0.472227425002
0.59039359573 22.3834551294 -0.123686612587 -0.472118816599
0.592394929953 22.3801338689 -0.122529474253 -0.472010208196
0.594396264176 22.3768126083 -0.12137233592 -0.471901599794
0.596397598399 22.3734913477 -0.120215197588 -0.471792991391
0.598398932622 22.3682723373 -0.118640802883 -0.473351018743
0.600400266845 22.3598371401 -0.11635926843 -0.477733555103
0.602401601067 22.351401943 -0.114077733979 -0.482116091465
0.60440293529 22.3429667459 -0.111796199527 -0.486498627823
0.606404269513 22.3345315487 -0.109514665074 -0.490881164183
0.608405603736 22.3260963516 -0.107233130622 -0.495263700546
0.610406937959 22.3176611545 -0.104951596171 -0.499646236905
0.612408272181 22.3092259574 -0.10267006172 -0.504028773265
0.614409606404 22.3006373181 -0.10034594947 -0.508195876651
0.616410940627 22.2913174096 -0.0978189214249 -0.511336276926
0.61841227485 22.2819975011 -0.095291893376 -0.514476677198
0.620413609073 22.2726775926 -0.0927648653292 -0.517617077474
0.622414943296 22.2633576841 -0.0902378372832 -0.520757477748
0.624416277518 22.2540377756 -0.0877108092351 -0.523897878022
0.626417611741 22.2447178672 -0.0851837811876 -0.527038278297
0.628418945964 22.2353979587 -0.0826567531409 -0.530178678573
0.630420280187 22.2260780502 -0.0801297250935 -0.533319078847
0.63242161441 22.2167581417 -0.0776026970456 -0.536459479121
0.634422948632 22.2060504644 -0.0738202081409 -0.546626179315
0.636424282855 22.1950059501 -0.0697329957287 -0.558498292109
0.638425617078 22.1839614358 -0.0656457833162 -0.570370404906
0.640426951301 22.1729169214 -0.0615585709022 -0.582242517703
0.642428285524 22.1618724071 -0.0574713584888 -0.5941146305
0.644429619747 22.1508278928 -0.0533841460751 -0.605986743295
0.646430953969 22.1397833784 -0.0492969336622 -0.617858856092
0.648432288192 22.1287388641 -0.0452097212488 -0.629730968887
0.650433622415 22.1176943498 -0.0411225088365 -0.641603081683
0.652434956638 22.106536812 -0.0370971486099 -0.653538607436
0.654436290861 22.0952330325 -0.0331518193484 -0.665556183642
0.656437625083 22.083929253 -0.0292064900893 -0.677573759849
0.658438959306 22.0726254735 -0.0252611608283 -0.689591336057
0.660440293529 22.061321694 -0.021315831567 -0.701608912263
0.662441627752 22.0500179145 -0.0173705023075 -0.713626488471
0.664442961975 22.0387141349 -0.0134251730465 -0.725644064679
0.666444296197 22.0274103554 -0.00947984378745 -0.737661640887
0.66844563042 22.0164502688 -0.00549081199312 -0.750805824492
0.670446964643 22.0065888727 -0.0013620753881 -0.767551457972
0.672448298866 21.9967274766 0.00276666121794 -0.784297091453
0.674449633089 21.9868660805 0.0068953978252 -0.801042724933
0.676450967312 21.9770046845 0.0110241344317 -0.817788358414
0.678452301534 21.9671432884 0.0151528710364 -0.834533991893
0.680453635757 21.9572818923 0.0192816076446 -0.851279625376
0.68245496998 21.9474204962 0.0234103442512 -0.868025258854
0.684456304203 21.9375883966 0.0275455500859 -0.884806429099
0.686457638426 21.928448146 0.0318335292481 -0.902426813713
0.688458972648 21.9193078954 0.0361215084069 -0.92004719833
0.690460306871 21.9101676448 0.0404094875678 -0.937667582942
0.692461641094 21.9010273942 0.0446974667299 -0.955287967559
0.694462975317 21.8918871436 0.0489854458895 -0.972908352174
0.69646430954 21.882746893 0.0532734250505 -0.990528736787
0.698465643763 21.8736066424 0.0575614042125 -1.0081491214
0.700466977985 21.8644663918 0.0618493833718 -1.02576950602
0.702468312208 21.8553261412 0.0661373625326 -1.04338989063
0.704469646431 21.8481334344 0.0693269005974 -1.05879761179
0.706470980654 21.8418918537 0.0719799906819 -1.07312472986
0.708472314877 21.8356502729 0.0746330807675 -1.08745184793
0.710473649099 21.8294086922 0.0772861708533 -1.101778966
0.712474983322 21.8231671114 0.0799392609381 -1.11610608408
0.714476317545 21.8169255307 0.082592351024 -1.13043320215
0.716477651768 21.8106839499 0.0852454411101 -1.14476032022
0.718478985991 21.8044423692 0.0878985311959 -1.15908743829
0.720480320213 21.7982007884 0.0905516212801 -1.17341455637
0.722481654436 21.7917888748 0.0931925345516 -1.18748297147
0.724482988659 21.7849853712 0.0958054536994 -1.20095663643
0.726484322882 21.7781818675 0.0984183728484 -1.21443030139
0.728485657105 21.7713783639 0.101031291997 -1.22790396635
0.730486991328 21.7645748603 0.103644211145 -1.24137763131
0.73248832555 21.7577713566 0.106257130294 -1.25485129627
0.734489659773 21.750967853 0.108870049443 -1.26832496123
0.736490993996 21.7441643494 0.11148296859 -1.28179862619
0.738492328219 21.7376612574 0.113957430796 -1.29449899253
0.740493662442 21.7337061016 0.115257572985 -1.30064064096
0.742494996664 21.7297509458 0.116557715173 -1.30678228939
0.744496330887 21.72579579 0.117857857363 -1.31292393783
0.74649766511 21.7218406342 0.11915799955 -1.31906558626
0.748498999333 21.7178854784 0.120458141739 -1.32520723469
0.750500333556 21.7139303226 0.121758283929 -1.33134888312
0.752501667779 21.7099751668 0.123058426117 -1.33749053155
0.754503002001 21.706020011 0.124358568307 -1.34363217999
0.756504336224 21.702255429 0.125567387047 -1.35025131336
0.758505670447 21.6985101996 0.126766931972 -1.35691893488
0.76050700467 21.6947649703 0.127966476901 -1.3635865564
0.762508338893 21.6910197409 0.129166021829 -1.37025417792
0.764509673115 21.6872745115 0.130365566758 -1.37692179944
0.766511007338 21.6835292821 0.131565111686 -1.38358942096
0.768512341561 21.6797840528 0.132764656614 -1.39025704248
0.770513675784 21.6760388234 0.133964201542 -1.396924664
0.772515010007 21.672293594 0.135163746471 -1.40359228551
0.774516344229 21.6696661194 0.136122108505 -1.40722233149
0.776517678452 21.667994406 0.136874241687 -1.40825503028
0.778519012675 21.6663226927 0.137626374869 -1.40928772906
0.780520346898 21.6646509793 0.138378508051 -1.41032042784
0.782521681121 21.6629792659 0.139130641235 -1.41135312662
0.784523015344 21.6613075525 0.139882774417 -1.4123858254
0.786524349566 21.6596358391 0.140634907598 -1.41341852418
0.788525683789 21.6579641257 0.141387040781 -1.41445122296
0.790527018012 21.6562924124 0.142139173962 -1.41548392175
0.792528352235 21.654635962 0.142908380232 -1.41647004437
0.794529686458 21.6530538659 0.143760759062 -1.41722926847
0.79653102068 21.6514717699 0.144613137893 -1.41798849257
0.798532354903 21.6498896738 0.145465516722 -1.41874771667
0.800533689126 21.6483075778 0.146317895552 -1.41950694077
0.802535023349 21.6467254817 0.147170274381 -1.42026616487
0.804536357572 21.6451433857 0.148022653211 -1.42102538897
0.806537691795 21.6435612897 0.14887503204 -1.42178461307
0.808539026017 21.6419791936 0.149727410872 -1.42254383717
0.81054036024 21.641917304 0.150709763994 -1.42084175493
0.812541694463 21.6418981511 0.151695771012 -1.41907047934
0.814543028686 21.6418789982 0.15268177803 -1.41729920375
0.816544362909 21.6418598452 0.15366778505 -1.41552792815
0.818545697131 21.6418406923 0.154653792067 -1.41375665256
0.820547031354 21.6418215394 0.155639799087 -1.41198537697
0.822548365577 21.6418023865 0.156625806104 -1.41021410138
0.8245496998 21.6417832336 0.157611813124 -1.40844282579
0.826551034023 21.6415259327 0.158543645056 -1.40688710631
0.828552368246 21.6411994921 0.159459748738 -1.40539396764
0.830553702468 21.6408730514 0.160375852417 -1.40390082898
0.832555036691 21.6405466108 0.1612919561 -1.40240769031
0.834556370914 21.6402201701 0.16220805978 -1.40091455164
0.836557705137 21.6398937295 0.163124163462 -1.39942141297
0.83855903936 21.6395672889 0.164040267144 -1.3979282743
0.840560373582 21.6392408482 0.164956370825 -1.39643513564
0.842561707805 21.6389144075 0.165872474506 -1.39494199697
0.844563042028 21.6385345197 0.166866525924 -1.3932037095
0.846564376251 21.6380765167 0.167974500955 -1.39110712763
0.848565710474 21.6376185136 0.169082475986 -1.38901054577
0.850567044696 21.6371605106 0.170190451018 -1.3869139639
0.852568378919 21.6367025076 0.171298426048 -1.38481738203
0.854569713142 21.6362445045 0.17240640108 -1.38272080017
0.856571047365 21.6357865015 0.173514376111 -1.3806242183
0.858572381588 21.6353284985 0.174622351143 -1.37852763644
0.860573715811 21.6348704954 0.175730326174 -1.37643105457
0.862575050033 21.6344315585 0.176840450229 -1.37432839495
0.864576384256 21.634481985 0.178005732554 -1.37206973979
0.866577718479 21.6345324115 0.179171014879 -1.36981108462
0.868579052702 21.6345828379 0.180336297204 -1.36755242946
0.870580386925 21.6346332644 0.181501579529 -1.36529377429
0.872581721147 21.6346836909 0.182666861854 -1.36303511913
0.87458305537 21.6347341174 0.183832144179 -1.36077646396
0.876584389593 21.6347845439 0.184997426504 -1.3585178088
0.878585723816 21.6348349703 0.186162708829 -1.35625915363
0.880587058039 21.6339600527 0.187518632407 -1.35437715326
0.882588392262 21.632908674 0.188910910829 -1.35256698009
0.884589726484 21.6318572953 0.190303189251 -1.35075680691
0.886591060707 21.6308059167 0.191695467673 -1.34894663374
0.88859239493 21.629754538 0.193087746096 -1.34713646057
0.890593729153 21.6287031594 0.194480024516 -1.34532628739
0.892595063376 21.6276517807 0.195872302939 -1.34351611421
0.894596397598 21.6266004021 0.197264581361 -1.34170594104
0.896597731821 21.6254305734 0.198551371596 -1.33984952467
0.898599066044 21.624194747 0.199779386174 -1.33796734263
0.900600400267 21.6229589206 0.201007400753 -1.33608516059
0.90260173449 21.6217230942 0.202235415331 -1.33420297854
0.904603068712 21.6204872678 0.20346342991 -1.3323207965
0.906604402935 21.6192514414 0.204691444489 -1.33043861446
0.908605737158 21.618015615 0.205919459067 -1.32855643241
0.910607071381 21.6167797886 0.207147473646 -1.32667425037
0.912608405604 21.6155439622 0.208375488224 -1.32479206833
0.914609739827 21.6142456454 0.20965431932 -1.32299832502
0.916611074049 21.6127812826 0.211068177161 -1.32143957609
0.918612408272 21.6113169197 0.212482035001 -1.31988082715
0.920613742495 21.6098525569 0.213895892841 -1.31832207821
0.922615076718 21.608388194 0.215309750682 -1.31676332928
0.924616410941 21.6069238311 0.216723608523 -1.31520458034
0.926617745163 21.6054594683 0.218137466364 -1.3136458314
0.928619079386 21.6039951054 0.219551324205 -1.31208708247
0.930620413609 21.6025307425 0.220965182046 -1.31052833353
0.932621747832 21.6010663797 0.222379039886 -1.30896958459
0.934623082055 21.5994083933 0.223928498985 -1.30753252316
0.936624416278 21.597730008 0.225492244227 -1.30610828199
0.9386257505 21.5960516226 0.227055989469 -1.30468404083
0.940627084723 21.5943732372 0.228619734709 -1.30325979966
0.942628418946 21.5926948518 0.230183479951 -1.3018355585
0.944629753169 21.5910164665 0.231747225193 -1.30041131733
0.946631087392 21.5893380811 0.233310970434 -1.29898707617
0.948632421614 21.5876596958 0.234874715675 -1.29756283501
0.950633755837 21.5859993072 0.23641742898 -1.2961369245
0.95263509006 21.5843463759 0.237951427393 -1.29471032228
0.954636424283 21.5826934446 0.239485425806 -1.29328372006
0.956637758506 21.5810405133 0.24101942422 -1.29185711784
0.958639092728 21.579387582 0.242553422633 -1.29043051562
0.960640426951 21.5777346507 0.244087421046 -1.2890039134
0.962641761174 21.5760817193 0.245621419459 -1.28757731117
0.964643095397 21.574428788 0.247155417872 -1.28615070895
0.96664442962 21.5727735891 0.248656131322 -1.28466156307
0.968645763843 21.571116206 0.250124785021 -1.28311217576
0.970647098065 21.5694588229 0.251593438719 -1.28156278844
0.972648432288 21.5678014398 0.253062092417 -1.28001340112
0.974649766511 21.5661440567 0.254530746116 -1.2784640138
0.976651100734 21.5644866736 0.255999399815 -1.27691462648
0.978652434957 21.5628292905 0.257468053514 -1.27536523916
0.980653769179 21.5611719074 0.258936707212 -1.27381585184
0.982655103402 21.5595145243 0.26040536091 -1.27226646452
0.984656437625 21.5578435675 0.261868045323 -1.27068221495
0.986657771848 21.5560896605 0.263294250759 -1.2688849183
0.988659106071 21.5543357536 0.264720456196 -1.26708762165
0.990660440294 21.5525818466 0.266146661632 -1.265290325
0.992661774516 21.5508279396 0.26757286707 -1.26349302834
0.994663108739 21.5490740326 0.268999072506 -1.26169573169
0.996664442962 21.5473201256 0.270425277943 -1.25989843504
0.998665777185 21.5455662186 0.271851483379 -1.25810113839
1.00066711141 21.5438123116 0.273277688817 -1.25630384173
1.00266844563 21.5420584046 0.274703894253 -1.25450654508
1.00466977985 21.5403945006 0.276202760357 -1.25266964708
1.00667111408 21.5387571967 0.277723101069 -1.25082104504
1.0086724483 21.5371198928 0.279243441783 -1.248972443
1.01067378252 21.5354825889 0.280763782497 -1.24712384096
1.01267511674 21.533845285 0.28228412321 -1.24527523893
1.01467645097 21.5322079811 0.283804463924 -1.24342663689
1.01667778519 21.5305706772 0.285324804638 -1.24157803485
1.01867911941 21.5289333733 0.286845145351 -1.23972943281
1.02068045364 21.527333684 0.288391262328 -1.23755273689
1.02068045364 21.527333684 0.288391262328 -1.23755273689
1.02268178786 21.5257618859 0.289956492315 -1.23513276047
1.02268178786 21.5257618859 0.289956492315 -1.23513276047
1.02468312208 21.5241900877 0.291521722302 -1.23271278405
1.02468312208 21.5241900877 0.291521722302 -1.23271278405
1.0266844563 21.5226182895 0.29308695229 -1.23029280763
1.0266844563 21.5226182895 0.29308695229 -1.23029280763
1.02868579053 21.5210464914 0.294652182277 -1.22787283121
1.02868579053 21.5210464914 0.294652182277 -1.22787283121
1.03068712475 21.5194746932 0.296217412265 -1.22545285479
1.03068712475 21.5194746932 0.296217412265 -1.22545285479
1.03268845897 21.517902895 0.297782642253 -1.22303287837
1.03268845897 21.517902895 0.297782642253 -1.22303287837
1.0346897932 21.5163310968 0.29934787224 -1.22061290195
1.0346897932 21.5163310968 0.29934787224 -1.22061290195
1.03669112742 21.5147418626 0.300880910315 -1.21826223068
1.03669112742 21.5147418626 0.300880910315 -1.21826223068
1.03869246164 21.5131237613 0.302360651405 -1.21602630111
1.03869246164 21.5131237613 0.302360651405 -1.21602630111
1.04069379586 21.51150566 0.303840392494 -1.21379037153
1.04069379586 21.51150566 0.303840392494 -1.21379037153
1.04269513009 21.5098875586 0.305320133585 -1.21155444196
1.04269513009 21.5098875586 0.305320133585 -1.21155444196
1.04469646431 21.5082694573 0.306799874675 -1.20931851239
1.04469646431 21.5082694573 0.306799874675 -1.20931851239
1.04669779853 21.506651356 0.308279615765 -1.20708258282
1.04669779853 21.506651356 0.308279615765 -1.20708258282
1.04869913276 21.5050332546 0.309759356855 -1.20484665325
1.04869913276 21.5050332546 0.309759356855 -1.20484665325
1.05070046698 21.5034151532 0.311239097945 -1.20261072368
1.05070046698 21.5034151532 0.311239097945 -1.20261072368
1.0527018012 21.5017970519 0.312718839035 -1.20037479411
1.0527018012 21.5017970519 0.312718839035 -1.20037479411
1.05470313542 21.500184154 0.314199106111 -1.19813475044
1.05470313542 21.500184154 0.314199106111 -1.19813475044
1.05670446965 21.4992320931 0.31574617342 -1.19537221637
1.05670446965 21.4992320931 0.31574617342 -1.19537221637
1.05870580387 21.4982800322 0.317293240729 -1.19260968231
1.05870580387 21.4982800322 0.317293240729 -1.19260968231
1.06070713809 21.4973279712 0.318840308038 -1.18984714824
1.06070713809 21.4973279712 0.318840308038 -1.18984714824
1.06270847231 21.4963759103 0.320387375347 -1.18708461417
1.06270847231 21.4963759103 0.320387375347 -1.18708461417
1.06470980654 21.4954238494 0.321934442656 -1.18432208011
1.06470980654 21.4954238494 0.321934442656 -1.18432208011
1.06671114076 21.4944717885 0.323481509965 -1.18155954604
1.06671114076 21.4944717885 0.323481509965 -1.18155954604
1.06871247498 21.4935197276 0.325028577274 -1.17879701197
1.06871247498 21.4935197276 0.325028577274 -1.17879701197
1.07071380921 21.4925676667 0.326575644583 -1.1760344779
1.07071380921 21.4925676667 0.326575644583 -1.1760344779
1.07271514343 21.4916156057 0.328122711892 -1.17327194383
1.07271514343 21.4916156057 0.328122711892 -1.17327194383
1.07471647765 21.4907493298 0.329763524951 -1.17048301634
1.07471647765 21.4907493298 0.329763524951 -1.17048301634
1.07671781187 21.4899315045 0.331457284875 -1.16767918205
1.07671781187 21.4899315045 0.331457284875 -1.16767918205
1.0787191461 21.4891136792 0.333151044798 -1.16487534776
1.0787191461 21.4891136792 0.333151044798 -1.16487534776
1.08072048032 21.488295854 0.334844804722 -1.16207151346
1.08072048032 21.488295854 0.334844804722 -1.16207151346
1.08272181454 21.4874780287 0.336538564646 -1.15926767917
1.08272181454 21.4874780287 0.336538564646 -1.15926767917
1.08472314877 21.4866602034 0.33823232457 -1.15646384488
1.08472314877 21.4866602034 0.33823232457 -1.15646384488
1.08672448299 21.4858423781 0.339926084494 -1.15366001059
1.08672448299 21.4858423781 0.339926084494 -1.15366001059
1.08872581721 21.4850245529 0.341619844418 -1.15085617629
1.08872581721 21.4850245529 0.341619844418 -1.15085617629
1.09072715143 21.4846574137 0.343341339941 -1.14789232473
1.09272848566 21.484860612 0.345097934495 -1.14472597344
1.09472981988 21.4850638102 0.34685452905 -1.14155962214
1.0967311541 21.4852670084 0.348611123604 -1.13839327085
1.09873248833 21.4854702066 0.350367718158 -1.13522691955
1.10073382255 21.4856734049 0.352124312713 -1.13206056826
1.10273515677 21.4858766031 0.353880907267 -1.12889421696
1.10473649099 21.4860798013 0.355637501822 -1.12572786567
1.10673782522 21.4862245215 0.35735820208 -1.12253223039
1.10873915944 21.4861878102 0.358967537984 -1.11924573966
1.11074049366 21.4861510988 0.360576873887 -1.11595924894
1.11274182789 21.4861143874 0.362186209791 -1.11267275821
1.11474316211 21.486077676 0.363795545694 -1.10938626749
1.11674449633 21.4860409646 0.365404881597 -1.10609977677
1.11874583055 21.4860042532 0.367014217501 -1.10281328604
1.12074716478 21.4859675418 0.368623553404 -1.09952679532
1.122748499 21.4859308304 0.370232889307 -1.09624030459
1.12474983322 21.485894119 0.371842225211 -1.09295381387
1.12675116744 21.4861605451 0.373470022903 -1.08933276614
1.12875250167 21.4864702767 0.375100457993 -1.08566392455
1.13075383589 21.4867800082 0.376730893084 -1.08199508296
1.13275517011 21.4870897397 0.378361328174 -1.07832624137
1.13475650434 21.4873994713 0.379991763265 -1.07465739978
1.13675783856 21.4877092028 0.381622198355 -1.07098855819
1.13875917278 21.4880189343 0.383252633445 -1.0673197166
1.140760507 21.4883286658 0.384883068536 -1.06365087501
1.14276184123 21.4886383973 0.386513503626 -1.05998203342
1.14476317545 21.4891106449 0.388250951704 -1.05647597882
1.14676450967 21.4897413957 0.390092770475 -1.05312869176
1.1487658439 21.4903721465 0.391934589245 -1.0497814047
1.15076717812 21.4910028974 0.393776408015 -1.04643411764
1.15276851234 21.4916336482 0.395618226785 -1.04308683059
1.15476984656 21.4922643991 0.397460045555 -1.03973954353
1.15677118079 21.4928951499 0.399301864325 -1.03639225647
1.15877251501 21.4935259008 0.401143683095 -1.03304496941
1.16077384923 21.4940456474 0.402991589572 -1.0297069693
1.16277518346 21.4943166885 0.404853135592 -1.02638977666
1.16477651768 21.4945877296 0.406714681612 -1.02307258402
1.1667778519 21.4948587706 0.408576227632 -1.01975539137
1.16877918612 21.4951298117 0.410437773652 -1.01643819873
1.17078052035 21.4954008528 0.412299319672 -1.01312100609
1.17278185457 21.4956718938 0.414160865692 -1.00980381344
1.17478318879 21.4959429349 0.416022411713 -1.0064866208
1.17678452302 21.4962044588 0.417863531653 -1.00315859113
1.17878585724 21.4963897112 0.41954095526 -0.999743712599
1.18078719146 21.4965749636 0.421218378867 -0.996328834073
1.18278852568 21.4967602161 0.422895802474 -0.992913955544
1.18478985991 21.4969454685 0.424573226081 -0.989499077019
1.18679119413 21.497130721 0.426250649688 -0.986084198492
1.18879252835 21.4973159734 0.427928073295 -0.982669319964
1.19079386258 21.4975012258 0.429605496902 -0.979254441438
1.1927951968 21.4976864783 0.431282920509 -0.975839562913
1.19479653102 21.4978717307 0.432960344116 -0.972424684384
1.19679786524 21.498017975 0.434659327504 -0.96942794491
1.19879919947 21.498150669 0.436365800078 -0.966576453736
1.20080053369 21.4982833631 0.438072272652 -0.963724962563
1.20280186791 21.4984160571 0.439778745226 -0.960873471389
1.20480320213 21.4985487511 0.441485217801 -0.958021980214
1.20680453636 21.4986814452 0.443191690375 -0.955170489042
1.20880587058 21.4988141392 0.444898162949 -0.952318997868
1.2108072048 21.4989468333 0.446604635524 -0.949467506693
1.21280853903 21.4990795273 0.448311108098 -0.946616015522
1.21480987325 21.4992372949 0.45005334887 -0.943694209776
1.21681120747 21.4994371317 0.451855602395 -0.940654428533
1.21881254169 21.4996369684 0.453657855919 -0.937614647286
1.22081387592 21.4998368051 0.455460109444 -0.934574866043
1.22281521014 21.5000366418 0.457262362969 -0.931535084799
1.22481654436 21.5002364785 0.459064616493 -0.928495303557
1.22681787859 21.5004363153 0.460866870017 -0.925455522312
1.22881921281 21.500636152 0.462669123541 -0.922415741069
1.23082054703 21.5008476619 0.464477345555 -0.919461507612
1.23282188125 21.5011139061 0.466313553152 -0.916908398225
1.23482321548 21.5013801503 0.468149760748 -0.914355288839
1.2368245497 21.5016463945 0.469985968345 -0.911802179453
1.23882588392 21.5019126387 0.471822175941 -0.909249070067
1.24082721815 21.5021788829 0.473658383537 -0.906695960682
1.24282855237 21.5024451271 0.475494591134 -0.904142851295
1.24482988659 21.5027113713 0.47733079873 -0.901589741909
1.24683122081 21.5029776155 0.479167006326 -0.899036632523
1.24883255504 21.5032273616 0.480860450199 -0.896599720081
1.25083388926 21.5034767387 0.482550701274 -0.894165406295
1.25283522348 21.5037261158 0.484240952348 -0.89173109251
1.25483655771 21.5039754929 0.485931203422 -0.889296778722
1.25683789193 21.50422487 0.487621454496 -0.886862464936
1.25883922615 21.5044742471 0.48931170557 -0.884428151148
1.26084056037 21.5047236242 0.491001956644 -0.881993837363
1.2628418946 21.5049730014 0.492692207718 -0.879559523576
1.26484322882 21.5052223784 0.494382458792 -0.877125209788
1.26684456304 21.5050325445 0.496180253226 -0.875023075786
1.26884589726 21.5045611649 0.49804698571 -0.87313387754
1.27084723149 21.5040897854 0.499913718194 -0.871244679294
1.27284856571 21.5036184058 0.501780450679 -0.869355481052
1.27484989993 21.5031470263 0.503647183163 -0.867466282806
1.27685123416 21.5026756467 0.505513915647 -0.86557708456
1.27885256838 21.5022042672 0.507380648131 -0.863687886316
1.2808539026 21.5017328877 0.509247380616 -0.861798688073
1.28285523682 21.5012615081 0.5111141131 -0.859909489825
1.28485657105 21.5007878107 0.512965821516 -0.857948192641
1.28685790527 21.5003067987 0.514770116314 -0.855759362441
1.28885923949 21.4998257865 0.516574411111 -0.85357053224
1.29086057372 21.4993447744 0.518378705909 -0.851381702037
1.29286190794 21.4988637623 0.520183000707 -0.849192871834
1.29486324216 21.4983827502 0.521987295504 -0.847004041632
1.29686457638 21.4979017381 0.523791590302 -0.844815211431
1.29886591061 21.497420726 0.525595885101 -0.84262638123
1.30086724483 21.4968905012 0.527403194466 -0.840475227342
1.30286857905 21.4952641757 0.52927764648 -0.839163227735
1.30486991328 21.4936378502 0.531152098494 -0.837851228129
1.3068712475 21.4920115247 0.533026550509 -0.836539228521
1.30887258172 21.4903851993 0.534901002522 -0.835227228915
1.31087391594 21.4887588738 0.536775454536 -0.833915229307
1.31287525017 21.4871325483 0.538649906551 -0.8326032297
1.31487658439 21.4855062228 0.540524358565 -0.831291230095
1.31687791861 21.4838798974 0.542398810579 -0.829979230486
1.31887925284 21.4821308624 0.544302839954 -0.828488258015
1.32088058706 21.4803593723 0.54621228182 -0.826964534504
1.32288192128 21.4785878822 0.548121723688 -0.825440810987
1.3248832555 21.4768163921 0.550031165555 -0.823917087474
1.32688458973 21.475044902 0.551940607422 -0.822393363962
1.32888592395 21.4732734119 0.553850049289 -0.820869640447
1.33088725817 21.4715019218 0.555759491156 -0.819345916934
1.33288859239 21.4697304317 0.557668933024 -0.817822193421
1.33488992662 21.4679589416 0.559578374891 -0.816298469906
1.33689126084 21.4656988062 0.561470928118 -0.81501627452
1.33889259506 21.4629019619 0.563344931528 -0.81399936412
1.34089392929 21.4601051176 0.565218934937 -0.812982453721
1.34289526351 21.4573082733 0.567092938347 -0.811965543322
1.34489659773 21.454511429 0.568966941756 -0.810948632924
1.34689793195 21.4517145847 0.570840945165 -0.809931722527
1.34889926618 21.4489177405 0.572714948575 -0.808914812129
1.3509006004 21.4461208962 0.574588951985 -0.80789790173
1.35290193462 21.4433240519 0.576462955394 -0.80688099133
1.35490326885 21.440520073 0.578333057084 -0.805901068019
1.35690460307 21.4376570529 0.58017087062 -0.805227226254
1.35890593729 21.4347940328 0.582008684158 -0.804553384488
1.36090727151 21.4319310127 0.583846497695 -0.803879542723
1.36290860574 21.4290679926 0.585684311232 -0.803205700956
1.36490993996 21.4262049725 0.58752212477 -0.802531859189
1.36691127418 21.4233419524 0.589359938307 -0.801858017423
1.36891260841 21.4204789323 0.591197751843 -0.801184175657
1.37091394263 21.4176159122 0.59303556538 -0.800510333891
1.37291527685 21.4142419914 0.594907294467 -0.799834896787
1.37491661107 21.4108176384 0.59678237144 -0.799159302197
1.3769179453 21.4073932853 0.598657448414 -0.79848370761
1.37891927952 21.4039689322 0.600532525387 -0.797808113022
1.38092061374 21.4005445792 0.60240760236 -0.797132518435
1.38292194797 21.3971202261 0.604282679333 -0.796456923847
1.38492328219 21.3936958731 0.606157756307 -0.79578132926
1.38692461641 21.39027152 0.60803283328 -0.795105734674
1.38892595063 21.3868712221 0.609983631085 -0.794670545347
1.39092728486 21.3834806307 0.611964982908 -0.794332361652
1.39292861908 21.3800900393 0.613946334731 -0.79399417796
1.3949299533 21.3766994479 0.615927686554 -0.793655994265
1.39693128753 21.3733088564 0.617909038378 -0.793317810573
1.39893262175 21.369918265 0.619890390202 -0.792979626878
1.40093395597 21.3665276736 0.621871742025 -0.792641443185
1.40293529019 21.3631370822 0.623853093848 -0.792303259488
1.40493662442 21.3597464908 0.625834445672 -0.791965075794
1.40693795864 21.3561673911 0.627824056447 -0.79176001509
1.40893929286 21.3522284119 0.629829434316 -0.791809098267
1.41094062708 21.3482894327 0.631834812183 -0.791858181447
1.41294196131 21.3443504536 0.633840190051 -0.791907264625
1.41494329553 21.3404114744 0.635845567919 -0.791956347803
1.41694462975 21.3364724952 0.637850945787 -0.792005430981
1.41894596398 21.3325335161 0.639856323655 -0.79205451416
1.4209472982 21.3285945369 0.641861701523 -0.792103597341
1.42294863242 21.3246555577 0.643867079391 -0.792152680517
1.42494996664 21.3207165785 0.64587245726 -0.792201763696
1.42695130087 21.3170604229 0.647965052685 -0.791916766875
1.42895263509 21.313411519 0.650059884458 -0.791623203901
1.43095396931 21.3097626152 0.652154716231 -0.791329640926
1.43295530354 21.3061137114 0.654249548005 -0.791036077954
1.43495663776 21.3024648076 0.656344379778 -0.790742514979
1.43695797198 21.2988159038 0.658439211551 -0.790448952003
1.4389593062 21.295167 0.660534043324 -0.790155389029
1.44096064043 21.2915180962 0.662628875098 -0.789861826054
1.44296197465 21.2872397918 0.664730627563 -0.790166442781
1.44496330887 21.2827812068 0.666834362338 -0.790642397411
1.4469646431 21.2783226218 0.668938097113 -0.791118352044
1.44896597732 21.2738640369 0.671041831887 -0.791594306675
1.45096731154 21.2694054519 0.673145566661 -0.792070261306
1.45296864576 21.2649468669 0.675249301436 -0.792546215937
1.45496997999 21.260488282 0.677353036211 -0.793022170569
1.45697131421 21.256029697 0.679456770985 -0.793498125202
1.45897264843 21.2513935253 0.681457920118 -0.793942752967
1.46097398266 21.2466285912 0.683384687749 -0.794364666645
1.46297531688 21.241863657 0.68531145538 -0.794786580322
1.4649766511 21.2370987229 0.68723822301 -0.795208493999
1.46697798532 21.2323337888 0.689164990641 -0.795630407677
1.46897931955 21.2275688547 0.691091758272 -0.796052321354
1.47098065377 21.2228039206 0.693018525904 -0.796474235033
1.47298198799 21.2180389865 0.694945293534 -0.796896148709
1.47498332221 21.2132740524 0.696872061164 -0.797318062388
1.47698465644 21.2083377637 0.698802111458 -0.797842506425
1.47898599066 21.2027604824 0.700744441338 -0.798750489955
1.48098732488 21.1971832011 0.702686771217 -0.799658473482
1.48298865911 21.1916059198 0.704629101096 -0.80056645701
1.48498999333 21.1860286385 0.706571430975 -0.80147444054
1.48699132755 21.1804513571 0.708513760855 -0.802382424067
1.48899266177 21.1748740758 0.710456090734 -0.803290407596
1.490993996 21.1692967945 0.712398420613 -0.804198391126
1.49299533022 21.1637195132 0.714340750493 -0.805106374653
1.49499666444 21.1581422318 0.716283080372 -0.806014358183
1.49699799867 21.1526101475 0.718367329564 -0.807047191647
1.49899933289 21.1470865322 0.720478172168 -0.808103419997
1.50100066711 21.141562917 0.722589014775 -0.809159648343
1.50300200133 21.1360393018 0.724699857381 -0.810215876692
1.50500333556 21.1305156866 0.726810699987 -0.811272105042
1.50700466978 21.1249920713 0.728921542593 -0.812328333391
1.509006004 21.1194684561 0.731032385199 -0.813384561742
1.51100733823 21.1139448409 0.733143227804 -0.814440790089
1.51300867245 21.1079899146 0.735353636603 -0.815701947329
1.51501000667 21.1017971136 0.737618957666 -0.817076125955
1.51701134089 21.0956043127 0.739884278728 -0.818450304582
1.51901267512 21.0894115117 0.742149599791 -0.819824483208
1.52101400934 21.0832187107 0.744414920854 -0.821198661836
1.52301534356 21.0770259098 0.746680241916 -0.822572840463
1.52501667779 21.0708331088 0.748945562979 -0.82394701909
1.52701801201 21.0646403079 0.751210884043 -0.825321197716
1.52901934623 21.0585498894 0.753366024447 -0.826716708683
1.53102068045 21.052586196 0.755384787391 -0.828138624023
1.53302201468 21.0466225026 0.757403550336 -0.829560539361
1.5350233489 21.0406588092 0.759422313282 -0.830982454697
1.53702468312 21.0346951157 0.761441076227 -0.832404370035
1.53902601734 21.0287314223 0.763459839171 -0.83382628537
1.54102735157 21.0227677289 0.765478602117 -0.835248200708
1.54302868579 21.0168040355 0.767497365061 -0.836670116048
1.54503002001 21.0108403421 0.769516128005 -0.838092031385
1.54703135424 21.0048928383 0.771541925421 -0.83953889173
1.54903268846 20.9991363724 0.773650729567 -0.841280103146
1.55103402268 20.9933799065 0.775759533713 -0.843021314567
1.5530353569 20.9876234406 0.777868337859 -0.844762525988
1.55503669113 20.9818669747 0.779977142006 -0.846503737406
1.55703802535 20.9761105088 0.782085946153 -0.848244948825
1.55903935957 20.9703540429 0.784194750299 -0.849986160243
1.5610406938 20.9645975769 0.786303554444 -0.851727371663
1.56304202802 20.958841111 0.788412358592 -0.853468583084
1.56504336224 20.9530846451 0.790521162738 -0.855209794503
1.56704469646 20.9472444848 0.79279905322 -0.856839194576
1.56904603069 20.9413700357 0.795146216959 -0.85842278648
1.57104736491 20.9354955865 0.797493380697 -0.860006378382
1.57304869913 20.9296211374 0.799840544438 -0.861589970286
1.57505003336 20.9237466882 0.802187708176 -0.863173562188
1.57705136758 20.9178722391 0.804534871917 -0.864757154091
1.5790527018 20.9119977899 0.806882035656 -0.866340745993
1.58105403602 20.9061233407 0.809229199394 -0.867924337895
1.58305537025 20.9006435471 0.811530479954 -0.869383862623
1.58505670447 20.8955403332 0.813787978856 -0.870725002637
1.58705803869 20.8904371192 0.816045477758 -0.872066142652
1.58905937292 20.8853339053 0.818302976663 -0.873407282667
1.59106070714 20.8802306913 0.820560475565 -0.874748422683
1.59306204136 20.8751274774 0.822817974467 -0.876089562697
1.59506337558 20.8700242634 0.825075473369 -0.877430702711
1.59706470981 20.8649210494 0.827332972271 -0.878771842727
1.59906604403 20.859766646 0.829500575905 -0.88019889393
1.60106737825 20.8545004404 0.831471841112 -0.881813582008
1.60306871247 20.8492342349 0.833443106319 -0.883428270087
1.6050700467 20.8439680294 0.835414371528 -0.885042958166
1.60707138092 20.8387018238 0.837385636734 -0.886657646245
1.60907271514 20.8334356183 0.839356901942 -0.888272334324
1.61107404937 20.8281694127 0.841328167148 -0.889887022403
1.61307538359 20.8229032072 0.843299432355 -0.891501710482
1.61507671781 20.8176370017 0.845270697563 -0.893116398562
1.61707805203 20.8123707961 0.847241962771 -0.894731086639
1.61907938626 20.8092523451 0.849173637889 -0.895654255326
1.62108072048 20.8062581444 0.851103022672 -0.896537418759
1.6230820547 20.8032639437 0.853032407456 -0.897420582195
1.62508338893 20.800269743 0.854961792239 -0.89830374563
1.62708472315 20.7972755423 0.856891177022 -0.899186909063
1.62908605737 20.7942813416 0.858820561806 -0.900070072496
1.63108739159 20.7912871409 0.860749946589 -0.90095323593
1.63308872582 20.7882929402 0.862679331372 -0.901836399365
1.63509006004 20.7852987395 0.864608716157 -0.902719562799
1.63709139426 20.7821935805 0.866682883533 -0.903540528049
1.63909272849 20.7790069318 0.868863381757 -0.904315813872
1.64109406271 20.7758202832 0.871043879984 -0.905091099695
1.64309539693 20.7726336345 0.873224378209 -0.905866385517
1.64509673115 20.7694469859 0.875404876435 -0.906641671339
1.64709806538 20.7662603372 0.87758537466 -0.907416957163
1.6490993996 20.7630736886 0.879765872885 -0.908192242986
1.65110073382 20.75988704 0.881946371111 -0.908967528809
1.65310206805 20.757624048 0.884121715951 -0.909521716018
1.65510340227 20.756875091 0.886288613489 -0.909713483848
1.65710473649 20.7561261341 0.888455511028 -0.909905251682
1.65910607071 20.7553771772 0.890622408566 -0.910097019512
1.66110740494 20.7546282203 0.892789306105 -0.910288787343
1.66310873916 20.7538792634 0.894956203642 -0.910480555173
1.66511007338 20.7531303065 0.89712310118 -0.910672323004
1.66711140761 20.7523813495 0.89928999872 -0.910864090837
1.66911274183 20.7517643154 0.901431071751 -0.910994090413
1.67111407605 20.7517432081 0.903455489244 -0.910845067872
1.67311541027 20.7517221009 0.905479906739 -0.910696045332
1.6751167445 20.7517009936 0.907504324232 -0.910547022791
1.67711807872 20.7516798863 0.909528741725 -0.910398000248
1.67911941294 20.7516587791 0.911553159222 -0.910248977709
1.68112074716 20.7516376718 0.913577576715 -0.910099955167
1.68312208139 20.7516165646 0.91560199421 -0.909950932627
1.68512341561 20.7515954573 0.917626411703 -0.909801910086
1.68712474983 20.75157435 0.919650829197 -0.909652887546
1.68912608406 20.7526482028 0.921807756316 -0.90897175866
1.69112741828 20.7539747387 0.923995262577 -0.908167836002
1.6931287525 20.7553012745 0.926182768842 -0.907363913342
1.69513008672 20.7566278104 0.928370275103 -0.906559990684
1.69713142095 20.7579543462 0.930557781364 -0.905756068026
1.69913275517 20.7592808821 0.932745287625 -0.904952145368
1.70113408939 20.7606074179 0.934932793888 -0.904148222709
1.70313542362 20.7619339538 0.937120300153 -0.903344300051
1.70513675784 20.7632604896 0.939307806413 -0.902540377393
1.70713809206 20.7648218755 0.941552313802 -0.901819022574
1.70913942628 20.7666776508 0.943868273312 -0.901201168289
1.71114076051 20.768533426 0.946184232818 -0.900583314002
1.71314209473 20.7703892014 0.948500192325 -0.899965459716
1.71514342895 20.7722449766 0.950816151833 -0.89934760543
1.71714476318 20.774100752 0.953132111339 -0.898729751143
1.7191460974 20.7759565272 0.955448070848 -0.898111896857
1.72114743162 20.7778123025 0.957764030355 -0.897494042571
1.72314876584 20.7799199205 0.96009352776 -0.896679513931
1.72515010007 20.7827990565 0.962464498412 -0.89526247497
1.72715143429 20.7856781926 0.964835469062 -0.893845436008
1.72915276851 20.7885573287 0.967206439712 -0.892428397047
1.73115410274 20.7914364647 0.969577410363 -0.891011358084
1.73315543696 20.7943156008 0.971948381014 -0.889594319123
1.73515677118 20.7971947368 0.974319351663 -0.888177280161
1.7371581054 20.8000738729 0.976690322315 -0.8867602412
1.73915943963 20.8029085908 0.97905930509 -0.885359313609
1.74116077385 20.8048707078 0.981389235715 -0.884274896514
1.74316210807 20.8068328247 0.983719166342 -0.883190479417
1.74516344229 20.8087949417 0.986049096969 -0.882106062321
1.74716477652 20.8107570586 0.988379027596 -0.881021645226
1.74916611074 20.8127191755 0.990708958224 -0.879937228131
1.75116744496 20.8146812925 0.99303888885 -0.878852811034
1.75316877919 20.8166434094 0.995368819478 -0.877768393939
1.75517011341 20.8186055263 0.997698750103 -0.876683976843
1.75717144763 20.8205676432 1.00002868073 -0.875599559748
1.75917278185 20.8227592893 1.00230407546 -0.874340813782
1.76117411608 20.8250591042 1.00455376936 -0.872999912833
1.7631754503 20.8273589191 1.00680346325 -0.871659011883
1.76517678452 20.8296587339 1.00905315715 -0.870318110933
1.76717811875 20.8319585488 1.01130285105 -0.868977209984
1.76917945297 20.8342583637 1.01355254495 -0.867636309034
1.77118078719 20.8365581786 1.01580223885 -0.866295408085
1.77318212141 20.8388579935 1.01805193275 -0.864954507134
1.77518345564 20.8411578084 1.02030162664 -0.863613606185
1.77718478986 20.8432652978 1.02258970117 -0.862206372551
1.77918612408 20.8449465786 1.02496283026 -0.860652140356
1.78118745831 20.8466278593 1.02733595934 -0.859097908161
1.78318879253 20.84830914 1.02970908842 -0.857543675967
1.78519012675 20.8499904207 1.03208221751 -0.855989443771
1.78719146097 20.8516717014 1.03445534659 -0.854435211576
1.7891927952 20.8533529822 1.03682847568 -0.852880979381
1.79119412942 20.8550342629 1.03920160476 -0.851326747186
1.79319546364 20.8566684288 1.04156764611 -0.849770800505
1.79519679787 20.8579337991 1.04387820758 -0.84820143354
1.79719813209 20.8591991694 1.04618876904 -0.846632066574
1.79919946631 20.8604645397 1.04849933051 -0.845062699609
1.80120080053 20.8617299101 1.05080989198 -0.843493332642
1.80320213476 20.8629952804 1.05312045345 -0.841923965677
1.80520346898 20.8642606507 1.05543101492 -0.840354598711
1.8072048032 20.8655260211 1.05774157639 -0.838785231745
1.80920613742 20.8667913914 1.06005213786 -0.837215864781
1.81120747165 20.8689574424 1.06203773318 -0.835445294819
1.81320880587 20.8712064913 1.06399338282 -0.833656183968
1.81521014009 20.8734555402 1.06594903246 -0.831867073117
1.81721147432 20.8757045891 1.06790468209 -0.830077962266
1.81921280854 20.877953638 1.06986033173 -0.828288851415
1.82121414276 20.8802026869 1.07181598136 -0.826499740565
1.82321547698 20.8824517358 1.073771631 -0.824710629713
1.82521681121 20.8847007847 1.07572728064 -0.822921518862
1.82721814543 20.8869498337 1.07768293027 -0.821132408012
1.82921947965 20.8894486721 1.07949996714 -0.819116992747
1.83122081388 20.8921544791 1.08120215342 -0.81691406811
1.8332221481 20.8948602861 1.0829043397 -0.814711143473
1.83522348232 20.8975660931 1.08460652599 -0.812508218836
1.83722481654 20.9002719001 1.08630871227 -0.810305294199
1.83922615077 20.9029777071 1.08801089855 -0.808102369563
1.84122748499 20.9056835141 1.08971308484 -0.805899444926
1.84322881921 20.9083893211 1.09141527112 -0.803696520289
1.84523015344 20.9110951281 1.0931174574 -0.801493595652
1.84723148766 20.91375215 1.09493069198 -0.799431228294
1.84923282188 20.9161840763 1.09725630729 -0.798017397148
1.8512341561 20.9186160026 1.09958192259 -0.796603566002
1.85323549033 20.9210479289 1.1019075379 -0.795189734857
1.85523682455 20.9234798552 1.1042331532 -0.79377590371
1.85723815877 20.9259117815 1.1065587685 -0.792362072564
1.859239493 20.9283437077 1.10888438381 -0.790948241419
1.86124082722 20.930775634 1.11120999911 -0.789534410273
1.86324216144 20.9332075603 1.11353561442 -0.788120579126
1.86524349566 20.937129981 1.11572389192 -0.786542003978
1.86724482989 20.9410820927 1.11790943361 -0.784960147076
1.86924616411 20.9450342045 1.1200949753 -0.783378290174
1.87124749833 20.9489863163 1.12228051699 -0.781796433272
1.87324883256 20.952938428 1.12446605868 -0.780214576369
1.87525016678 20.9568905398 1.12665160037 -0.778632719467
1.877251501 20.9608426516 1.12883714205 -0.777050862565
1.87925283522 20.9647947633 1.13102268374 -0.775469005663
1.88125416945 20.9684970558 1.13287950687 -0.773317577913
1.88325550367 20.9721300372 1.13464512864 -0.771008125515
1.88525683789 20.9757630186 1.13641075041 -0.768698673119
1.88725817211 20.9793959999 1.13817637219 -0.766389220722
1.88925950634 20.9830289813 1.13994199396 -0.764079768325
1.89126084056 20.9866619627 1.14170761573 -0.761770315928
1.89326217478 20.9902949441 1.1434732375 -0.759460863532
1.89526350901 20.9939279254 1.14523885927 -0.757151411134
1.89726484323 20.9975609068 1.14700448104 -0.754841958738
1.89926617745 21.0016987146 1.14879380469 -0.752540996433
1.90126751167 21.0065508992 1.15061666872 -0.75025204841
1.9032688459 21.0114030838 1.15243953275 -0.747963100387
1.90527018012 21.0162552685 1.15426239678 -0.745674152364
1.90727151434 21.0211074532 1.15608526081 -0.743385204341
1.90927284857 21.0259596378 1.15790812484 -0.741096256318
1.91127418279 21.0308118225 1.15973098887 -0.738807308295
1.91327551701 21.0356640072 1.1615538529 -0.736518360272
1.91527685123 21.0405161918 1.16337671693 -0.734229412249
1.91727818546 21.0453747368 1.16521848145 -0.731955872797
1.91927951968 21.0503672875 1.1674584598 -0.730006976007
1.9212808539 21.0553598381 1.16969843814 -0.728058079216
1.92328218813 21.0603523888 1.17193841648 -0.726109182425
1.92528352235 21.0653449395 1.17417839483 -0.724160285634
1.92728485657 21.0703374901 1.17641837317 -0.722211388843
1.92928619079 21.0753300408 1.17865835152 -0.720262492053
1.93128752502 21.0803225915 1.18089832986 -0.718313595262
1.93328885924 21.0853151421 1.1831383082 -0.716364698471
1.93529019346 21.0915629482 1.1852551812 -0.713983381111
1.93729152769 21.0980363533 1.18734992926 -0.711524347612
1.93929286191 21.1045097583 1.18944467733 -0.709065314113
1.94129419613 21.1109831634 1.1915394254 -0.706606280613
1.94329553035 21.1174565684 1.19363417346 -0.704147247115
1.94529686458 21.1239299734 1.19572892153 -0.701688213615
1.9472981988 21.1304033785 1.1978236696 -0.699229180116
1.94929953302 21.1368767835 1.19991841766 -0.696770146616
1.95130086724 21.1430902425 1.20167942242 -0.694160055404
1.95330220147 21.1491637306 1.20326071924 -0.691468625424
1.95530353569 21.1552372187 1.20484201606 -0.688777195443
1.95730486991 21.1613107068 1.20642331287 -0.686085765462
1.95930620414 21.1673841948 1.20800460969 -0.683394335482
1.96130753836 21.1734576829 1.20958590651 -0.680702905501
1.96330887258 21.179531171 1.21116720333 -0.67801147552
1.9653102068 21.1856046591 1.21274850015 -0.67532004554
1.96731154103 21.1916781472 1.21432979697 -0.672628615559
1.96931287525 21.1980942881 1.21597864076 -0.670051232638
1.97131420947 21.2053860975 1.2178001046 -0.667765303313
1.9733155437 21.212677907 1.21962156843 -0.665479373989
1.97531687792 21.2199697164 1.22144303227 -0.663193444665
1.97731821214 21.2272615258 1.22326449611 -0.660907515341
1.97931954636 21.2345533352 1.22508595994 -0.658621586016
1.98132088059 21.2418451446 1.22690742378 -0.656335656691
1.98332221481 21.249136954 1.22872888762 -0.654049727368
1.98532354903 21.2564287635 1.23055035145 -0.651763798043
1.98732488326 21.2637205729 1.23237181529 -0.649477868719
1.98932621748 21.2717181461 1.23464889285 -0.647317386436
1.9913275517 21.2797833952 1.23696965941 -0.645168933321
1.99332888592 21.2878486443 1.23929042596 -0.643020480207
1.99533022015 21.2959138935 1.24161119251 -0.640872027092
1.99733155437 21.3039791426 1.24393195906 -0.638723573976
1.99933288859 21.3120443917 1.24625272561 -0.636575120862
2.00133422282 21.3201096409 1.24857349216 -0.634426667748
2.00333555704 21.32817489 1.25089425871 -0.632278214633
2.00533689126 21.337858828 1.25321240186 -0.630259071379
2.00733822548 21.3481884726 1.25552949851 -0.628291510748
2.00933955971 21.3585181171 1.25784659516 -0.626323950117
2.01134089393 21.3688477617 1.26016369181 -0.624356389485
2.01334222815 21.3791774062 1.26248078847 -0.622388828854
2.01534356237 21.3895070507 1.26479788512 -0.620421268222
2.0173448966 21.3998366953 1.26711498177 -0.618453707591
2.01934623082 21.4101663398 1.26943207843 -0.61648614696
2.02134756504 21.4209064727 1.27140112541 -0.61424188844
2.02334889927 21.4320298106 1.27304525593 -0.611739322827
2.02535023349 21.4431531485 1.27468938645 -0.609236757214
2.02735156771 21.4542764865 1.27633351697 -0.606734191602
2.02935290193 21.4653998244 1.27797764749 -0.60423162599
2.03135423616 21.4765231624 1.27962177801 -0.601729060377
2.03335557038 21.4876465003 1.28126590853 -0.599226494765
2.0353569046 21.4987698383 1.28291003904 -0.596723929152
2.03735823883 21.5098931762 1.28455416957 -0.59422136354
2.03935957305 21.5211074502 1.28610774664 -0.591700451485
2.04136090727 21.5328434097 1.28714183294 -0.589074288784
2.04336224149 21.5445793692 1.28817591924 -0.586448126083
2.04536357572 21.5563153288 1.28921000554 -0.583821963382
2.04736490994 21.5680512883 1.29024409184 -0.581195800682
2.04936624416 21.5797872478 1.29127817814 -0.578569637981
2.05136757839 21.5915232074 1.29231226444 -0.575943475281
2.05336891261 21.6032591669 1.29334635074 -0.573317312579
2.05537024683 21.6149951265 1.29438043704 -0.570691149879
2.05737158105 21.626731086 1.29541452334 -0.568064987178
2.05937291528 21.6382798298 1.29676097654 -0.565740446674
2.0613742495 21.6497756729 1.29819569373 -0.563501134086
2.06337558372 21.661271516 1.29963041093 -0.561261821497
2.06537691795 21.6727673591 1.30106512812 -0.559022508909
2.06737825217 21.6842632022 1.30249984532 -0.55678319632
2.06937958639 21.6957590453 1.30393456251 -0.554543883732
2.07138092061 21.7072548884 1.30536927971 -0.552304571143
2.07338225484 21.7187507315 1.3068039969 -0.550065258555
2.07538358906 21.7333084614 1.30823723609 -0.547368443854
2.07738492328 21.7500649959 1.3096694139 -0.544343087368
2.0793862575 21.7668215304 1.31110159171 -0.541317730882
2.08138759173 21.7835780649 1.31253376952 -0.538292374397
2.08338892595 21.8003345994 1.31396594732 -0.535267017911
2.08539026017 21.8170911339 1.31539812513 -0.532241661425
2.0873915944 21.8338476684 1.31683030294 -0.529216304939
2.08939292862 21.8506042029 1.31826248075 -0.526190948454
2.09139426284 21.8664017407 1.31958449533 -0.523045998528
2.09339559706 21.8806633242 1.32073006962 -0.519709504638
2.09539693129 21.8949249077 1.32187564391 -0.516373010747
2.09739826551 21.9091864912 1.32302121821 -0.513036516857
2.09939959973 21.9234480747 1.3241667925 -0.509700022967
2.10140093396 21.9377096582 1.32531236679 -0.506363529077
2.10340226818 21.9519712418 1.32645794108 -0.503027035187
2.1054036024 21.9662328253 1.32760351538 -0.499690541296
2.10740493662 21.9804944088 1.32874908967 -0.496354047406
2.10940627085 21.9948883874 1.32989610814 -0.49298754278
2.11140760507 22.0176232582 1.3311341096 -0.487730361811
2.11340893929 22.0403581289 1.33237211107 -0.482473180842
2.11541027352 22.0630929996 1.33361011253 -0.477215999873
2.11741160774 22.0858278703 1.33484811399 -0.471958818904
2.11941294196 22.108562741 1.33608611546 -0.466701637935
2.12141427618 22.1312976118 1.33732411692 -0.461444456967
2.12341561041 22.1540324825 1.33856211838 -0.456187275998
2.12541694463 22.1767673532 1.33980011985 -0.450930095029
2.12741827885 22.1995022239 1.34103812131 -0.44567291406
2.12941961308 22.2230273161 1.34235625593 -0.440961245966
2.1314209473 22.2469837851 1.34371813473 -0.436547369925
2.13342228152 22.2709402542 1.34508001353 -0.432133493883
2.13542361574 22.2948967233 1.34644189233 -0.427719617841
2.13742494997 22.3188531923 1.34780377113 -0.4233057418
2.13942628419 22.3428096613 1.34916564992 -0.418891865758
2.14142761841 22.3667661304 1.35052752873 -0.414477989716
2.14342895264 22.3907225995 1.35188940752 -0.410064113675
2.14543028686 22.417107412 1.35346662268 -0.405398642498
2.14743162108 22.4464695848 1.35530785893 -0.400424693808
2.1494329553 22.4758317575 1.35714909518 -0.395450745118
2.15143428953 22.5051939303 1.35899033144 -0.390476796429
2.15343562375 22.5345561031 1.36083156769 -0.385502847739
2.15543695797 22.5639182759 1.36267280394 -0.380528899049
2.15743829219 22.5932804486 1.36451404019 -0.375554950359
2.15943962642 22.6226426214 1.36635527645 -0.370581001669
2.16144096064 22.6523586844 1.36832382979 -0.36546450948
2.16344229486 22.6831276257 1.37067117123 -0.359923928247
2.16544362909 22.713896567 1.37301851268 -0.354383347014
2.16744496331 22.7446655083 1.37536585413 -0.348842765782
2.16944629753 22.7754344497 1.37771319557 -0.343302184549
2.17144763175 22.806203391 1.38006053702 -0.337761603316
2.17344896598 22.8369723323 1.38240787846 -0.332221022083
2.1754503002 22.8677412736 1.38475521991 -0.32668044085
2.17745163442 22.8985102149 1.38710256135 -0.321139859618
2.17945296865 22.9292791563 1.3894499028 -0.315599278385
2.18145430287 22.9654846797 1.39262761613 -0.309866607254
2.18345563709 23.0024118734 1.39591555582 -0.304108437465
2.18545697131 23.039339067 1.39920349551 -0.298350267676
2.18745830554 23.0762662607 1.40249143519 -0.292592097886
2.18945963976 23.1131934543 1.40577937488 -0.286833928097
2.19146097398 23.1501206479 1.40906731457 -0.281075758308
2.19346230821 23.1870478416 1.41235525425 -0.275317588519
2.19546364243 23.2239750352 1.41564319394 -0.269559418729
2.19746497665 23.2609022288 1.41893113363 -0.263801248939
2.19946631087 23.296654275 1.42152031945 -0.258022931745
2.2014676451 23.3312954674 1.4234489811 -0.252225569434
2.20346897932 23.3659366599 1.42537764275 -0.246428207123
2.20547031354 23.4005778523 1.4273063044 -0.240630844813
2.20747164777 23.4352190447 1.42923496605 -0.234833482502
2.20947298199 23.4698602371 1.43116362771 -0.229036120192
2.21147431621 23.5045014296 1.43309228936 -0.223238757881
2.21347565043 23.539142622 1.43502095101 -0.21744139557
2.21547698466 23.5721800091 1.43612492612 -0.211780853918
2.21747831888 23.6017523848 1.43544717107 -0.206415912455
2.2194796531 23.6313247604 1.43476941602 -0.201050970992
2.22148098732 23.6608971361 1.43409166097 -0.195686029529
2.22348232155 23.6904695117 1.43341390592 -0.190321088066
2.22548365577 23.7200418873 1.43273615087 -0.184956146603
2.22748498999 23.7496142629 1.43205839581 -0.17959120514
2.22948632422 23.7791866386 1.43138064077 -0.174226263677
2.23148765844 23.8090574678 1.43097519963 -0.168906593843
2.23348899266 23.8411431366 1.43259061437 -0.163922887155
2.23549032688 23.8732288054 1.43420602911 -0.158939180467
2.23749166111 23.9053144742 1.43582144386 -0.153955473778
2.23949299533 23.9374001431 1.4374368586 -0.14897176709
2.24149432955 23.9694858119 1.43905227334 -0.143988060402
2.24349566378 24.0015714807 1.44066768809 -0.139004353714
2.245496998 24.0336571495 1.44228310283 -0.134020647025
2.24749833222 24.0657428183 1.44389851757 -0.129036940337
2.24949966644 24.0978284872 1.44551393232 -0.124053233649
2.25150100067 24.1197201014 1.44496394939 -0.120353230728
2.25350233489 24.1382136975 1.44369216724 -0.117081129063
2.25550366911 24.1567072936 1.44242038509 -0.113809027398
2.25750500334 24.1752008897 1.44114860294 -0.110536925733
2.25950633756 24.1936944858 1.43987682078 -0.107264824068
2.26150767178 24.2121880818 1.43860503863 -0.103992722402
2.263509006 24.2306816779 1.43733325648 -0.100720620737
2.26551034023 24.249175274 1.43606147433 -0.0974485190722
2.26751167445 24.2676688701 1.43478969217 -0.0941764174071
2.26951300867 24.2857732748 1.43247435944 -0.0908932709517
2.2715143429 24.3032460412 1.42846539542 -0.0875921993452
2.27351567712 24.3207188076 1.4244564314 -0.0842911277387
2.27551701134 24.338191574 1.42044746738 -0.0809900561322
2.27751834556 24.3556643403 1.41643850336 -0.0776889845257
2.27951967979 24.3731371067 1.41242953934 -0.0743879129193
2.28152101401 24.3906098731 1.40842057532 -0.0710868413127
2.28352234823 24.4080826395 1.4044116113 -0.0677857697063
2.28552368245 24.423602806 1.40021076119 -0.0648099477488
2.28752501668 24.4304401354 1.39515663038 -0.0632804486993
2.2895263509 24.4372774648 1.39010249956 -0.0617509496497
2.29152768512 24.4441147941 1.38504836874 -0.0602214506003
2.29352901935 24.4509521235 1.37999423792 -0.0586919515508
2.29553035357 24.4577894529 1.37494010711 -0.0571624525012
2.29753168779 24.4646267822 1.36988597629 -0.0556329534516
2.29953302201 24.4714641115 1.36483184547 -0.0541034544022
2.30153435624 24.4783014409 1.35977771465 -0.0525739553525
2.30353569046 24.4844476326 1.35689567975 -0.051325539916
2.30553702468 24.4905839665 1.35404462562 -0.0500811335963
2.30753835891 24.4967203005 1.35119357149 -0.0488367272763
2.30953969313 24.5028566344 1.34834251735 -0.0475923209562
2.31154102735 24.5089929683 1.34549146321 -0.0463479146364
2.31354236157 24.5151293022 1.34264040908 -0.0451035083165
2.3155436958 24.5212656362 1.33978935495 -0.0438591019964
2.31754503002 24.5274019701 1.33693830081 -0.0426146956764
2.31954636424 24.533538304 1.33408724668 -0.0413702893567
2.32154769847 24.5351296902 1.33126502829 -0.0407192249978
2.32354903269 24.5339020581 1.32846069537 -0.0404361828682
2.32555036691 24.532674426 1.32565636244 -0.0401531407383
2.32755170113 24.5314467939 1.32285202952 -0.0398700986085
2.32955303536 24.5302191618 1.3200476966 -0.0395870564788
2.33155436958 24.5289915297 1.31724336367 -0.0393040143492
2.3335557038 24.5277638975 1.31443903075 -0.0390209722193
2.33555703803 24.5265362655 1.31163469783 -0.0387379300896
2.33755837225 24.5253086334 1.30883036491 -0.0384548879596
2.33955970647 24.5241460448 1.30585795285 -0.0380508604778
2.34156104069 24.523180223 1.30237707499 -0.0372808332836
2.34356237492 24.5222144013 1.29889619714 -0.0365108060888
2.34556370914 24.5212485796 1.29541531928 -0.0357407788943
2.34756504336 24.5202827579 1.29193444142 -0.0349707516997
2.34956637759 24.5193169362 1.28845356357 -0.0342007245053
2.35156771181 24.5183511144 1.28497268571 -0.0334306973106
2.35356904603 24.5173852927 1.28149180785 -0.0326606701161
2.35557038025 24.5163154452 1.27810165548 -0.0319014868516
2.35757171448 24.5133011166 1.27640737188 -0.031345001662
2.3595730487 24.510286788 1.27471308828 -0.0307885164724
2.36157438292 24.5072724594 1.27301880467 -0.0302320312827
2.36357571714 24.5042581308 1.27132452107 -0.0296755460932
2.36557705137 24.5012438022 1.26963023747 -0.0291190609035
2.36757838559 24.4982294736 1.26793595387 -0.0285625757139
2.36957971981 24.495215145 1.26624167026 -0.0280060905243
2.37158105404 24.4922008164 1.26454738666 -0.0274496053348
2.37358238826 24.4896872053 1.26238429342 -0.0268352607151
2.37558372248 24.4872597984 1.26014048935 -0.0262109549485
2.3775850567 24.4848323914 1.25789668529 -0.0255866491817
2.37958639093 24.4824049845 1.25565288123 -0.0249623434151
2.38158772515 24.4799775776 1.25340907716 -0.0243380376483
2.38358905937 24.4775501706 1.2511652731 -0.0237137318817
2.3855903936 24.4751227637 1.24892146904 -0.0230894261149
2.38759172782 24.4726953567 1.24667766497 -0.0224651203484
2.38959306204 24.4702679498 1.24443386091 -0.0218408145817
2.39159439626 24.4687131193 1.24217577535 -0.0214002100826
2.39359573049 24.4680871605 1.23990248691 -0.0211551585462
2.39559706471 24.4674612016 1.23762919846 -0.0209101070097
2.39759839893 24.4668352428 1.23535591002 -0.020665055473
2.39959973316 24.4662092839 1.23308262158 -0.0204200039364
2.40160106738 24.4655833251 1.23080933313 -0.0201749523998
2.4036024016 24.4649573663 1.22853604469 -0.0199299008633
2.40560373582 24.4643314074 1.22626275624 -0.0196848493267
2.40760507005 24.4637054486 1.2239894678 -0.0194397977903
2.40960640427 24.4630639746 1.22180749613 -0.0191718963967
2.41160773849 24.4623038306 1.22032397442 -0.0187292244752
2.41360907272 24.4615436866 1.2188404527 -0.0182865525539
2.41561040694 24.4607835426 1.21735693098 -0.0178438806324
2.41761174116 24.4600233985 1.21587340926 -0.0174012087111
2.41961307538 24.4592632545 1.21438988754 -0.0169585367896
2.42161440961 24.4585031105 1.21290636582 -0.0165158648683
2.42361574383 24.4577429665 1.2114228441 -0.0160731929469
2.42561707805 24.4569828225 1.20993932238 -0.0156305210254
2.42761841227 24.4567395573 1.20821303877 -0.0152783096479
2.4296197465 24.4565424812 1.20646506155 -0.0149341819783
2.43162108072 24.4563454051 1.20471708432 -0.0145900543088
2.43362241494 24.456148329 1.2029691071 -0.0142459266395
2.43562374917 24.455951253 1.20122112988 -0.0139017989701
2.43762508339 24.4557541769 1.19947315265 -0.0135576713006
2.43962641761 24.4555571008 1.19772517543 -0.0132135436312
2.44162775183 24.4553600248 1.1959771982 -0.0128694159617
2.44362908606 24.4549655191 1.19376500041 -0.0128439408447
2.44563042028 24.4544943541 1.19137255211 -0.0129421941589
2.4476317545 24.4540231892 1.18898010381 -0.0130404474732
2.44963308873 24.4535520242 1.18658765551 -0.0131387007876
2.45163442295 24.4530808592 1.18419520721 -0.013236954102
2.45363575717 24.4526096943 1.1818027589 -0.0133352074162
2.45563709139 24.4521385294 1.17941031061 -0.0134334607306
2.45763842562 24.4516673644 1.1770178623 -0.013531714045
2.45963975984 24.4511961995 1.174625414 -0.0136299673594
2.46164109406 24.4503477557 1.17228579484 -0.0136519987862
2.46364242829 24.4488034421 1.1700436161 -0.0135334431765
2.46564376251 24.4472591285 1.16780143735 -0.013414887567
2.46764509673 24.445714815 1.1655592586 -0.0132963319575
2.46964643095 24.4441705014 1.16331707986 -0.0131777763477
2.47164776518 24.4426261879 1.16107490111 -0.0130592207381
2.4736490994 24.4410818743 1.15883272237 -0.0129406651284
2.47565043362 24.4395375608 1.15659054362 -0.0128221095187
2.47765176785 24.4379932472 1.15434836487 -0.012703553909
2.47965310207 24.4364489336 1.15210618612 -0.0125849982995
2.48165443629 24.4346462058 1.1503752702 -0.0122383845848
2.48365577051 24.4328389588 1.14865329528 -0.0118877825728
2.48565710474 24.4310317118 1.14693132037 -0.0115371805605
2.48765843896 24.4292244648 1.14520934544 -0.0111865785484
2.48965977318 24.4274172178 1.14348737053 -0.0108359765362
2.4916611074 24.4256099708 1.14176539561 -0.0104853745242
2.49366244163 24.4238027238 1.14004342069 -0.010134772512
2.49566377585 24.4219954768 1.13832144577 -0.00978417049989
2.49766511007 24.4198018107 1.13636284653 -0.00952469231178
2.4996664443 24.417502408 1.13433949933 -0.00929014850359
2.50166777852 24.4152030054 1.13231615213 -0.00905560469537
2.50366911274 24.4129036027 1.13029280493 -0.00882106088728
2.50567044696 24.4106042 1.12826945774 -0.00858651707907
2.50767178119 24.4083047974 1.12624611054 -0.0083519732707
2.50967311541 24.4060053947 1.12422276334 -0.00811742946256
2.51167444963 24.4037059921 1.12219941615 -0.00788288565441
2.51367578386 24.4014970804 1.11992445412 -0.00765634584113
2.51567711808 24.3993517051 1.11747282637 -0.00743542585399
2.5176784523 24.3972063298 1.11502119862 -0.00721450586705
2.51967978652 24.3950609545 1.11256957087 -0.00699358587993
2.52168112075 24.3929155792 1.11011794311 -0.00677266589303
2.52368245497 24.3907702038 1.10766631536 -0.00655174590592
2.52568378919 24.3886248285 1.10521468761 -0.006330825919
2.52768512342 24.3864794532 1.10276305986 -0.0061099059319
2.52968645764 24.3843340779 1.10031143211 -0.00588898594483
2.53168779186 24.3822653872 1.0978652306 -0.00576636698277
2.53368912608 24.38047057 1.09543840857 -0.00599482310953
2.53569046031 24.3786757528 1.09301158652 -0.00622327923643
2.53769179453 24.3768809357 1.09058476449 -0.00645173536315
2.53969312875 24.3750861185 1.08815794245 -0.00668019148989
2.54169446298 24.3732913013 1.08573112041 -0.00690864761676
2.5436957972 24.3714964842 1.08330429837 -0.00713710374349
2.54569713142 24.369701667 1.08087747633 -0.00736555987037
2.54769846564 24.3679068498 1.07845065429 -0.00759401599707
2.54969979987 24.3661120327 1.07602383225 -0.00782247212402
2.55170113409 24.3648098203 1.07366832182 -0.00793130571668
2.55370246831 24.3635945382 1.07132539579 -0.00801902945027
2.55570380253 24.3623792562 1.06898246977 -0.00810675318408
2.55770513676 24.3611639741 1.06663954374 -0.00819447691772
2.55970647098 24.359948692 1.06429661771 -0.0082822006515
2.5617078052 24.3587334099 1.06195369168 -0.00836992438512
2.56370913943 24.3575181279 1.05961076565 -0.00845764811893
2.56571047365 24.3563028458 1.05726783963 -0.00854537185259
2.56771180787 24.3556678036 1.05514176766 -0.00873350863742
2.56971314209 24.355341991 1.05313126464 -0.00897515896435
2.57171447632 24.3550161784 1.05112076162 -0.00921680929135
2.57371581054 24.3546903658 1.04911025859 -0.00945845961829
2.57571714476 24.3543645532 1.04709975557 -0.00970010994527
2.57771847899 24.3540387407 1.04508925254 -0.00994176027225
2.57971981321 24.3537129281 1.04307874952 -0.0101834105993
2.58172114743 24.3533871155 1.04106824649 -0.0104250609262
2.58372248165 24.3528263537 1.03904877988 -0.010680858283
2.58572381588 24.3519838144 1.03701856312 -0.0109536223525
2.5877251501 24.351141275 1.03498834637 -0.0112263864218
2.58972648432 24.3502987356 1.03295812961 -0.0114991504913
2.59172781855 24.3494561963 1.03092791285 -0.0117719145606
2.59372915277 24.348613657 1.0288976961 -0.0120446786302
2.59573048699 24.3477711176 1.02686747934 -0.0123174426996
2.59773182121 24.3469285782 1.02483726258 -0.0125902067691
2.59973315544 24.3460860389 1.02280704583 -0.0128629708384
2.60173448966 24.3452538454 1.02080556452 -0.0130787129618
2.60373582388 24.3445316945 1.01910972392 -0.0126879489318
2.60573715811 24.3438095435 1.01741388332 -0.012297184902
2.60773849233 24.3430873926 1.01571804273 -0.0119064208722
2.60973982655 24.3423652416 1.01402220213 -0.0115156568423
2.61174116077 24.3416430907 1.01232636153 -0.0111248928124
2.613742495 24.3409209397 1.01063052094 -0.0107341287824
2.61574382922 24.3401987888 1.00893468034 -0.0103433647526
2.61774516344 24.3394766379 1.00723883974 -0.00995260072272
2.61974649767 24.3387544869 1.00554299914 -0.0095618366928
2.62174783189 24.3380108975 1.0040295158 -0.00926522230214
2.62374916611 24.3372588541 1.0025879424 -0.00900573445771
2.62575050033 24.3365068107 1.00114636901 -0.00874624661327
2.62775183456 24.3357547673 0.999704795607 -0.0084867587688
2.62975316878 24.3350027238 0.99826322221 -0.00822727092432
2.631754503 24.3342506804 0.996821648812 -0.00796778307992
2.63375583722 24.333498637 0.995380075413 -0.00770829523546
2.63575717145 24.3327465936 0.993938502017 -0.00744880739106
2.63775850567 24.3317249181 0.992508087045 -0.00716323343275
2.63975983989 24.3304538835 0.991087991528 -0.00685353472259
2.64176117412 24.329182849 0.989667896009 -0.00654383601236
2.64376250834 24.3279118144 0.988247800489 -0.00623413730221
2.64576384256 24.3266407799 0.986827704971 -0.00592443859203
2.64776517678 24.3253697453 0.985407609452 -0.00561473988185
2.64976651101 24.3240987108 0.983987513931 -0.00530504117169
2.65176784523 24.3228276762 0.982567418412 -0.00499534246156
2.65376917945 24.3215900169 0.981091830056 -0.00467302195281
2.65577051368 24.3204226721 0.979499329608 -0.00432410988802
2.6577718479 24.3192553274 0.977906829159 -0.00397519782321
2.65977318212 24.3180879827 0.976314328708 -0.00362628575843
2.66177451634 24.316920638 0.974721828259 -0.0032773736936
2.66377585057 24.3157532933 0.973129327809 -0.00292846162878
2.66577718479 24.3145859486 0.971536827362 -0.00257954956395
2.66777851901 24.3134186039 0.969944326911 -0.00223063749918
2.66977985324 24.3122512592 0.968351826462 -0.00188172543436
2.67178118746 24.3110839145 0.966759326013 -0.00153281336955
2.67378252168 24.3094932027 0.965015323246 -0.0017528709071
2.6757838559 24.3078816696 0.963263869544 -0.00200091055627
2.67778519013 24.3062701364 0.961512415843 -0.00224895020538
2.67978652435 24.3046586033 0.959760962142 -0.00249698985458
2.68178785857 24.3030470701 0.958009508441 -0.0027450295037
2.6837891928 24.301435537 0.956258054739 -0.00299306915287
2.68579052702 24.2998240038 0.954506601038 -0.00324110880203
2.68779186124 24.2982124707 0.952755147336 -0.00348914845122
2.68979319546 24.2966009375 0.951003693635 -0.00373718810035
2.69179452969 24.2949998442 0.949273180998 -0.00394211390595
2.69379586391 24.293406176 0.947557562273 -0.00411637585485
2.69579719813 24.2918125078 0.945841943549 -0.00429063780375
2.69779853235 24.2902188396 0.944126324822 -0.00446489975266
2.69979986658 24.2886251714 0.942410706096 -0.00463916170158
2.7018012008 24.2870315032 0.940695087371 -0.00481342365048
2.70380253502 24.285437835 0.938979468645 -0.00498768559938
2.70580386925 24.2838441668 0.93726384992 -0.00516194754829
2.70780520347 24.28251799 0.9355272118 -0.00534411653845
2.70980653769 24.2816160167 0.933757239885 -0.0055388249779
2.71180787191 24.2807140434 0.931987267972 -0.00573353341731
2.71380920614 24.2798120701 0.930217296056 -0.00592824185673
2.71581054036 24.2789100968 0.928447324142 -0.00612295029616
2.71781187458 24.2780081235 0.926677352227 -0.00631765873559
2.71981320881 24.2771061501 0.924907380314 -0.00651236717504
2.72181454303 24.2762041768 0.923137408401 -0.00670707561444
2.72381587725 24.2752868468 0.921377459407 -0.00692664195334
2.72581721147 24.2743036478 0.919660501294 -0.00725283019162
2.7278185457 24.2733204488 0.91794354318 -0.00757901842988
2.72981987992 24.2723372498 0.916226585068 -0.00790520666815
2.73182121414 24.2713540508 0.914509626955 -0.00823139490641
2.73382254837 24.2703708517 0.912792668841 -0.00855758314469
2.73582388259 24.2693876527 0.911075710728 -0.00888377138296
2.73782521681 24.2684044537 0.909358752613 -0.00920995962123
2.73982655103 24.2674212547 0.9076417945 -0.0095361478595
2.74182788526 24.2664380557 0.905924836386 -0.00986233609776
2.74382921948 24.2659795393 0.904313381747 -0.00971810771704
2.7458305537 24.2656359534 0.902725037391 -0.00947083569591
2.74783188793 24.2652923674 0.901136693037 -0.00922356367479
2.74983322215 24.2649487815 0.899548348682 -0.00897629165368
2.75183455637 24.2646051956 0.897960004327 -0.00872901963255
2.75383589059 24.2642616096 0.896371659972 -0.00848174761142
2.75583722482 24.2639180237 0.894783315617 -0.0082344755903
2.75783855904 24.2635744377 0.893194971262 -0.00798720356917
2.75983989326 24.2632308518 0.891606626905 -0.00773993154806
2.76184122748 24.26304769 0.890001376753 -0.00754575898381
2.76384256171 24.2630593686 0.888375593954 -0.00741607745535
2.76584389593 24.2630710471 0.886749811153 -0.00728639592693
2.76784523015 24.2630827257 0.885124028354 -0.00715671439851
2.76984656438 24.2630944042 0.883498245554 -0.00702703287008
2.7718478986 24.2631060828 0.881872462755 -0.00689735134166
2.77384923282 24.2631177614 0.880246679956 -0.00676766981323
2.77585056704 24.26312944 0.878620897156 -0.00663798828481
2.77785190127 24.2629295681 0.877048943058 -0.00644399154338
2.77985323549 24.2621080635 0.875635162531 -0.00606100702213
2.78185456971 24.2612865588 0.874221382003 -0.00567802250086
2.78385590394 24.2604650542 0.872807601474 -0.00529503797962
2.78585723816 24.2596435495 0.871393820948 -0.00491205345839
2.78785857238 24.2588220449 0.869980040419 -0.00452906893712
2.7898599066 24.2580005402 0.868566259893 -0.00414608441586
2.79186124083 24.2571790356 0.867152479364 -0.00376309989462
2.79386257505 24.2563344566 0.865736784586 -0.00337479644135
2.79586390927 24.255102741 0.864288972921 -0.00289725312843
2.7978652435 24.2538710254 0.862841161256 -0.00241970981552
2.79986657772 24.2526393098 0.861393349593 -0.0019421665026
2.80186791194 24.2514075942 0.859945537928 -0.00146462318968
2.80386924616 24.2501758786 0.858497726263 -0.000987079876748
2.80587058039 24.248944163 0.857049914599 -0.000509536563844
2.80787191461 24.2477124474 0.855602102934 -3.19932509052e-05
2.80987324883 24.2464807318 0.85415429127 0.000445550062011
2.81187458306 24.2452490162 0.852706479605 0.000923093374932
2.81387591728 24.2439891603 0.851316278479 0.00121585969048
2.8158772515 24.2427165133 0.84995226396 0.00142463646175
2.81787858572 24.2414438662 0.848588249441 0.00163341323301
2.81987991995 24.2401712192 0.847224234923 0.00184219000428
2.82188125417 24.2388985721 0.845860220404 0.00205096677556
2.82388258839 24.2376259251 0.844496205886 0.00225974354682
2.82588392262 24.2363532781 0.843132191367 0.0024685203181
2.82788525684 24.2350806311 0.841768176848 0.00267729708936
2.82988659106 24.2338079841 0.84040416233 0.00288607386062
2.83188792528 24.2325774598 0.839066242011 0.00312273877544
2.83388925951 24.2314369627 0.837784091651 0.0034190077618
2.83589059373 24.2302964655 0.836501941291 0.00371527674814
2.83789192795 24.2291559684 0.835219790931 0.00401154573449
2.83989326217 24.2280154713 0.83393764057 0.00430781472082
2.8418945964 24.2268749741 0.83265549021 0.00460408370716
2.84389593062 24.225734477 0.83137333985 0.00490035269351
2.84589726484 24.2245939799 0.83009118949 0.00519662167986
2.84789859907 24.2235507271 0.828796789986 0.00546796672016
2.84989993329 24.2232132805 0.827413485414 0.00555841215199
2.85190126751 24.2228758338 0.826030180841 0.00564885758384
2.85390260173 24.2225383872 0.824646876269 0.00573930301569
2.85590393596 24.2222009405 0.823263571696 0.00582974844753
2.85790527018 24.2218634938 0.821880267123 0.00592019387939
2.8599066044 24.2215260472 0.82049696255 0.0060106393112
2.86190793863 24.2211886006 0.819113657978 0.00610108474306
2.86390927285 24.2208511539 0.817730353405 0.00619153017491
2.86591060707 24.2207135757 0.816237788706 0.00623235155491
2.86791194129 24.2205925687 0.814736165215 0.00626905858881
2.86991327552 24.2204715616 0.813234541723 0.0063057656227
2.87191460974 24.2203505545 0.811732918232 0.00634247265662
2.87391594396 24.2202295475 0.81023129474 0.00637917969051
2.87591727819 24.2201085404 0.808729671249 0.0064158867244
2.87791861241 24.2199875334 0.807228047757 0.0064525937583
2.87991994663 24.2198665263 0.805726424266 0.00648930079222
2.88192128085 24.2197455193 0.804224800774 0.00652600782611
2.88392261508 24.2197459774 0.80271059007 0.00645180910467
2.8859239493 24.2198439498 0.801186274138 0.00628857336841
2.88792528352 24.2199419222 0.799661958207 0.00612533763214
2.88992661775 24.2200398946 0.798137642275 0.00596210189586
2.89192795197 24.2201378671 0.796613326343 0.00579886615957
2.89392928619 24.2202358395 0.795089010411 0.00563563042332
2.89593062041 24.2203338119 0.79356469448 0.00547239468704
2.89793195464 24.2204317843 0.792040378548 0.00530915895076
2.89993328886 24.2205297568 0.790516062616 0.00514592321449
2.90193462308 24.2205843742 0.789008467969 0.00498204069596
2.9039359573 24.2204491771 0.787574081632 0.00481532646701
2.90593729153 24.2203139799 0.786139695296 0.00464861223803
2.90793862575 24.2201787828 0.78470530896 0.00448189800906
2.90993995997 24.2200435856 0.783270922623 0.00431518378009
2.9119412942 24.2199083885 0.781836536287 0.00414846955113
2.91394262842 24.2197731914 0.780402149951 0.00398175532215
2.91594396264 24.2196379942 0.778967763615 0.00381504109319
2.91794529686 24.2195027971 0.777533377278 0.00364832686421
2.91994663109 24.2194071747 0.776243712544 0.0034245449941
2.92194796531 24.2193120216 0.774955763876 0.00320008643259
2.92394929953 24.2192168684 0.773667815208 0.00297562787108
2.92595063376 24.2191217153 0.77237986654 0.00275116930957
2.92795196798 24.2190265621 0.771091917872 0.00252671074807
2.9299533022 24.218931409 0.769803969204 0.00230225218658
2.93195463642 24.2188362559 0.768516020536 0.00207779362506
2.93395597065 24.2187411027 0.767228071868 0.00185333506354
2.93595730487 24.2186929009 0.765873738356 0.00162421057959
2.93795863909 24.2186571329 0.764501824668 0.0013938504561
2.93995997332 24.2186213648 0.76312991098 0.0011634903326
2.94196130754 24.2185855967 0.761757997292 0.000933130209103
2.94396264176 24.2185498287 0.760386083604 0.000702770085604
2.94596397598 24.2185140606 0.759014169916 0.000472409962115
2.94796531021 24.2184782925 0.757642256227 0.000242049838618
2.94996664443 24.2184425245 0.756270342539 1.16897151271e-05
2.95196797865 24.2184067564 0.754898428851 -0.000218670408372
2.95396931288 24.2183125196 0.753593979993 -0.000414783765372
2.9559706471 24.218138159 0.75238198294 -0.000563966368265
2.95797198132 24.2179637985 0.751169985887 -0.000713148971157
2.95997331554 24.2177894379 0.749957988834 -0.000862331574049
2.96197464977 24.2176150773 0.748745991781 -0.00101151417694
2.96397598399 24.2174407168 0.747533994727 -0.00116069677983
2.96597731821 24.2172663562 0.746321997674 -0.00130987938274
2.96797865243 24.2170919956 0.745110000621 -0.00145906198563
2.96997998666 24.216917635 0.743898003568 -0.00160824458853
2.97198132088 24.2167413651 0.742687194919 -0.00175388919528
2.9739826551 24.2165310635 0.741497567831 -0.00183647422398
2.97598398933 24.216320762 0.740307940743 -0.0019190592527
2.97798532355 24.2161104604 0.739118313655 -0.00200164428139
2.97998665777 24.2159001589 0.737928686568 -0.0020842293101
2.98198799199 24.2156898573 0.73673905948 -0.00216681433881
2.98398932622 24.2154795558 0.735549432392 -0.00224939936751
2.98599066044 24.2152692542 0.734359805304 -0.00233198439621
2.98799199466 24.2150589527 0.733170178216 -0.00241456942493
2.98999332889 24.2146619729 0.731897902918 -0.00240854277206
2.99199466311 24.2142334539 0.730611664224 -0.00238754519582
2.99399599733 24.2138049349 0.72932542553 -0.00236654761957
2.99599733155 24.2133764159 0.728039186835 -0.00234555004333
2.99799866578 24.2129478969 0.726752948141 -0.00232455246706
3.0 24.2125193779 0.725466709447 -0.00230355489084
