y u v w 
0.0 16.3727335385 -0.0017006222749 -0.000703607453133
0.00200133422282 16.3728623207 -0.00364260202151 -0.000864847285483
0.00400266844563 16.3729911029 -0.00558458176811 -0.00102608711784
0.00600400266845 16.3731198851 -0.0075265615147 -0.00118732695019
0.00800533689126 16.3732486674 -0.0094685412613 -0.00134856678255
0.0100066711141 16.3733774496 -0.0114105210079 -0.0015098066149
0.0120080053369 16.3735062318 -0.0133525007545 -0.00167104644726
0.0140093395597 16.373635014 -0.0152944805011 -0.00183228627961
0.0160106737825 16.3737637962 -0.0172364602477 -0.00199352611197
0.0180120080053 16.3738925784 -0.0191784399943 -0.00215476594432
0.0200133422282 16.3741314372 -0.021347787396 -0.00222017388744
0.022014676451 16.374434598 -0.0236499535268 -0.00222960082596
0.0240160106738 16.3747377589 -0.0259521196576 -0.00223902776447
0.0260173448966 16.3750409198 -0.0282542857885 -0.00224845470299
0.0280186791194 16.3753440806 -0.0305564519194 -0.00225788164151
0.0300200133422 16.3756472415 -0.0328586180502 -0.00226730858003
0.032021347565 16.3759504024 -0.0351607841811 -0.00227673551855
0.0340226817879 16.3762535632 -0.0374629503119 -0.00228616245705
0.0360240160107 16.3766414399 -0.0396572996606 -0.00220932039215
0.0380253502335 16.3771399814 -0.0417108072669 -0.00201978458407
0.0400266844563 16.3776385229 -0.0437643148731 -0.00183024877597
0.0420280186791 16.3781370644 -0.0458178224793 -0.00164071296788
0.0440293529019 16.3786356059 -0.0478713300856 -0.00145117715979
0.0460306871247 16.3791341474 -0.0499248376918 -0.00126164135171
0.0480320213476 16.3796326889 -0.051978345298 -0.00107210554362
0.0500333555704 16.3801312304 -0.0540318529042 -0.000882569735526
0.0520346897932 16.3806102241 -0.0560281502259 -0.000720958139076
0.054036024016 16.3810259145 -0.0578391771554 -0.000649776605397
0.0560373582388 16.3814416048 -0.059650204085 -0.000578595071733
0.0580386924616 16.3818572951 -0.0614612310147 -0.000507413538083
0.0600400266845 16.3822729854 -0.0632722579443 -0.000436232004436
0.0620413609073 16.3826886758 -0.0650832848739 -0.00036505047077
0.0640426951301 16.3831043661 -0.0668943118034 -0.000293868937095
0.0660440293529 16.3835200564 -0.0687053387331 -0.000222687403435
0.0680453635757 16.3839357468 -0.0705163656627 -0.000151505869761
0.0700466977985 16.3843514371 -0.0723273925923 -8.032433611e-05
0.0720480320213 16.3848944855 -0.0741242928877 0.000168862479926
0.0740493662442 16.3854570392 -0.0759190296448 0.000445311366222
0.076050700467 16.3860195928 -0.0777137664018 0.000721760252517
0.0780520346898 16.3865821465 -0.0795085031588 0.000998209138829
0.0800533689126 16.3871447002 -0.0813032399158 0.00127465802506
0.0820547031354 16.3877072538 -0.0830979766728 0.00155110691144
0.0840560373582 16.3882698075 -0.0848927134298 0.00182755579767
0.0860573715811 16.3888323612 -0.0866874501867 0.00210400468392
0.0880587058039 16.3893949149 -0.0884821869438 0.00238045357029
0.0900600400267 16.3899282614 -0.0903574077819 0.0026461560157
0.0920613742495 16.3904322175 -0.0923136173039 0.00290104464459
0.0940627084723 16.3909361737 -0.0942698268258 0.00315593327358
0.0960640426951 16.3914401299 -0.0962260363476 0.00341082190253
0.0980653769179 16.3919440861 -0.0981822458696 0.00366571053146
0.100066711141 16.3924480422 -0.100138455391 0.0039205991604
0.102068045364 16.3929519984 -0.102094664913 0.00417548778937
0.104069379586 16.3934559546 -0.104050874435 0.00443037641826
0.106070713809 16.3937619601 -0.106070509006 0.00483870184698
0.108072048032 16.3936077946 -0.108237586224 0.00560371801794
0.110073382255 16.3934536291 -0.110404663442 0.00636873418909
0.112074716478 16.3932994636 -0.112571740659 0.00713375036004
0.1140760507 16.3931452981 -0.114738817877 0.00789876653104
0.116077384923 16.3929911326 -0.116905895095 0.00866378270221
0.118078719146 16.3928369671 -0.119072972313 0.00942879887312
0.120080053369 16.3926828016 -0.121240049531 0.010193815044
0.122081387592 16.3925210988 -0.123400981122 0.0109628439016
0.124082721815 16.392293845 -0.125508464386 0.0117667709711
0.126084056037 16.3920665911 -0.12761594765 0.0125706980406
0.12808539026 16.3918393372 -0.129723430913 0.0133746251099
0.130086724483 16.3916120833 -0.131830914177 0.0141785521794
0.132088058706 16.3913848294 -0.133938397441 0.0149824792488
0.134089392929 16.3911575755 -0.136045880705 0.0157864063184
0.136090727151 16.3909303216 -0.138153363969 0.0165903333879
0.138092061374 16.3907030678 -0.140260847233 0.0173942604573
0.140093395597 16.3904758138 -0.142368330497 0.0181981875269
0.14209472982 16.3893230537 -0.144432617138 0.0196601791922
0.144096064043 16.387835536 -0.146481279469 0.0213601942219
0.146097398266 16.3863480183 -0.1485299418 0.0230602092517
0.148098732488 16.3848605006 -0.150578604131 0.0247602242815
0.150100066711 16.3833729829 -0.152627266461 0.0264602393113
0.152101400934 16.3818854652 -0.154675928792 0.028160254341
0.154102735157 16.3803979475 -0.156724591123 0.0298602693709
0.15610406938 16.3789104298 -0.158773253454 0.0315602844006
0.158105403602 16.3774229121 -0.160821915785 0.0332602994305
0.160106737825 16.3761038676 -0.162939162265 0.0349574704182
0.162108072048 16.3750771311 -0.165175405176 0.0366497068714
0.164109406271 16.3740503947 -0.167411648087 0.0383419433246
0.166110740494 16.3730236583 -0.169647890997 0.0400341797777
0.168112074716 16.3719969218 -0.171884133907 0.0417264162309
0.170113408939 16.3709701854 -0.174120376818 0.0434186526841
0.172114743162 16.3699434489 -0.176356619728 0.0451108891374
0.174116077385 16.3689167125 -0.178592862639 0.0468031255904
0.176117411608 16.3676940961 -0.180832577046 0.0485847042226
0.178118745831 16.3655011905 -0.183089487468 0.0508088382997
0.180120080053 16.3633082849 -0.185346397891 0.053032972377
0.182121414276 16.3611153793 -0.187603308314 0.055257106454
0.184122748499 16.3589224736 -0.189860218736 0.0574812405311
0.186124082722 16.356729568 -0.192117129159 0.0597053746083
0.188125416945 16.3545366624 -0.194374039582 0.0619295086855
0.190126751167 16.3523437568 -0.196630950004 0.0641536427626
0.19212808539 16.3501508512 -0.198887860426 0.0663777768396
0.194129419613 16.3474057682 -0.200641722083 0.0686436969747
0.196130753836 16.3446437908 -0.202380192551 0.0709108955878
0.198132088059 16.3418818135 -0.204118663021 0.0731780942013
0.200133422282 16.3391198362 -0.205857133491 0.0754452928147
0.202134756504 16.3363578589 -0.20759560396 0.077712491428
0.204136090727 16.3335958815 -0.20933407443 0.0799796900414
0.20613742495 16.3308339042 -0.2110725449 0.0822468886547
0.208138759173 16.3280719268 -0.212811015369 0.0845140872681
0.210140093396 16.3253099495 -0.214549485839 0.0867812858818
0.212141427618 16.3220485033 -0.216162810833 0.0886945326074
0.214142761841 16.3184562401 -0.217693247264 0.0903733436655
0.216144096064 16.3148639768 -0.219223683697 0.0920521547254
0.218145430287 16.3112717135 -0.22075412013 0.0937309657838
0.22014676451 16.3076794503 -0.222284556561 0.0954097768434
0.222148098732 16.304087187 -0.223814992993 0.0970885879016
0.224149432955 16.3004949238 -0.225345429424 0.0987673989614
0.226150767178 16.2969026605 -0.226875865857 0.100446210021
0.228152101401 16.2933103973 -0.228406302289 0.102125021079
0.230153435624 16.2897624624 -0.230046104083 0.103809573977
0.232154769847 16.2863606032 -0.232046297778 0.105513047962
0.234156104069 16.282958744 -0.234046491474 0.107216521947
0.236157438292 16.2795568847 -0.236046685168 0.108919995934
0.238158772515 16.2761550254 -0.238046878863 0.110623469919
0.240160106738 16.2727531662 -0.240047072559 0.112326943904
0.242161440961 16.269351307 -0.242047266254 0.114030417891
0.244162775183 16.2659494477 -0.244047459948 0.115733891876
0.246164109406 16.2624569738 -0.246057998147 0.117374190934
0.248165443629 16.2564776311 -0.248352435482 0.11728068921
0.250166777852 16.2504982884 -0.250646872817 0.117187187487
0.252168112075 16.2445189457 -0.252941310152 0.117093685763
0.254169446298 16.238539603 -0.255235747487 0.11700018404
0.25617078052 16.2325602603 -0.257530184822 0.116906682316
0.258172114743 16.2265809176 -0.259824622157 0.116813180591
0.260173448966 16.2206015748 -0.262119059493 0.116719678868
0.262174783189 16.2146222321 -0.264413496827 0.116626177145
0.264176117412 16.2086233748 -0.266594956271 0.11614100753
0.266177451634 16.2026207311 -0.268754494634 0.115579842653
0.268178785857 16.1966180874 -0.270914032997 0.115018677777
0.27018012008 16.1906154436 -0.273073571359 0.1144575129
0.272181454303 16.1846127999 -0.275233109721 0.113896348025
0.274182788526 16.1786101561 -0.277392648083 0.113335183149
0.276184122748 16.1726075124 -0.279552186446 0.112774018271
0.278185456971 16.1666048686 -0.281711724809 0.112212853393
0.280186791194 16.1606022249 -0.283871263171 0.111651688517
0.282188125417 16.1510843271 -0.286645873067 0.10959639581
0.28418945964 16.1375824746 -0.290117564037 0.105847758228
0.286190793863 16.1240806222 -0.293589255008 0.102099120645
0.288192128085 16.1105787697 -0.297060945977 0.0983504830627
0.290193462308 16.0970769173 -0.300532636947 0.0946018454799
0.292194796531 16.0835750648 -0.304004327916 0.0908532078964
0.294196130754 16.0700732124 -0.307476018885 0.0871045703139
0.296197464977 16.0565713599 -0.310947709856 0.0833559327314
0.298198799199 16.0430695074 -0.314419400827 0.0796072951483
0.300200133422 16.029599953 -0.317884002838 0.0758886215995
0.302201467645 16.0164210811 -0.32128480423 0.0724396243497
0.304202801868 16.0032422092 -0.324685605621 0.0689906271017
0.306204136091 15.9900633373 -0.328086407011 0.0655416298536
0.308205470314 15.9768844654 -0.331487208402 0.0620926326026
0.310206804536 15.9637055935 -0.334888009794 0.0586436353547
0.312208138759 15.9505267215 -0.338288811185 0.0551946381072
0.314209472982 15.9373478496 -0.341689612578 0.0517456408575
0.316210807205 15.9241689777 -0.345090413969 0.0482966436097
0.318212141428 15.8992004523 -0.348357931513 0.0399196864156
0.32021347565 15.8729559905 -0.351611024401 0.031009400222
0.322214809873 15.8467115286 -0.354864117286 0.022099114028
0.324216144096 15.8204670667 -0.358117210173 0.0131888278378
0.326217478319 15.7942226049 -0.36137030306 0.00427854164368
0.328218812542 15.7679781429 -0.364623395947 -0.00463174454896
0.330220146765 15.7417336811 -0.367876488833 -0.0135420307415
0.332221480987 15.7154892192 -0.37112958172 -0.0224523169343
0.33422281521 15.6885701184 -0.374108619813 -0.0311828660887
0.336224149433 15.6613682975 -0.376972810114 -0.0398380930699
0.338225483656 15.6341664766 -0.379837000414 -0.048493320051
0.340226817879 15.6069646557 -0.382701190713 -0.0571485470306
0.342228152101 15.5797628348 -0.385565381013 -0.0658037740125
0.344229486324 15.552561014 -0.388429571312 -0.0744590009933
0.346230820547 15.5253591931 -0.391293761611 -0.0831142279731
0.34823215477 15.4981573722 -0.39415795191 -0.0917694549541
0.350233488993 15.4709555513 -0.397022142211 -0.100424681933
0.352234823215 15.4378963316 -0.398572919399 -0.112162325225
0.354236157438 15.3932585327 -0.397527414856 -0.129993117038
0.356237491661 15.3486207338 -0.396481910316 -0.147823908852
0.358238825884 15.3039829349 -0.395436405772 -0.165654700666
0.360240160107 15.259345136 -0.394390901229 -0.18348549248
0.36224149433 15.2147073371 -0.393345396689 -0.201316284293
0.364242828552 15.1700695382 -0.392299892146 -0.219147076106
0.366244162775 15.1254317393 -0.391254387604 -0.23697786792
0.368245496998 15.0807939404 -0.390208883061 -0.254808659731
0.370246831221 15.0361561415 -0.389163378518 -0.272639451545
0.372248165444 14.9935858491 -0.389181466407 -0.29113244579
0.374249499666 14.9510856983 -0.389235637395 -0.309647905706
0.376250833889 14.9085855475 -0.389289808386 -0.328163365625
0.378252168112 14.8660853967 -0.389343979377 -0.346678825542
0.380253502335 14.8235852459 -0.389398150368 -0.365194285459
0.382254836558 14.7810850951 -0.389452321357 -0.383709745375
0.384256170781 14.7385849443 -0.389506492349 -0.402225205293
0.386257505003 14.6960847935 -0.389560663339 -0.42074066521
0.388258839226 14.6458113952 -0.385477205302 -0.448960744047
0.390260173449 14.5932099684 -0.380154558874 -0.480087282357
0.392261507672 14.5406085416 -0.374831912447 -0.511213820667
0.394262841895 14.4880071148 -0.36950926602 -0.542340358979
0.396264176117 14.435405688 -0.364186619592 -0.573466897289
0.39826551034 14.3828042612 -0.358863973164 -0.604593435599
0.400266844563 14.3302028344 -0.353541326736 -0.635719973911
0.402268178786 14.2776014076 -0.348218680309 -0.666846512221
0.404269513009 14.2237134725 -0.342694573183 -0.698075117511
0.406270847231 14.1688624138 -0.337019645751 -0.7293801336
0.408272181454 14.1140113551 -0.33134471832 -0.760685149691
0.410273515677 14.0591602964 -0.325669790888 -0.791990165782
0.4122748499 14.0043092376 -0.319994863458 -0.823295181873
0.414276184123 13.9494581789 -0.314319936025 -0.854600197964
0.416277518346 13.8946071202 -0.308645008594 -0.885905214053
0.418278852568 13.8397560614 -0.302970081163 -0.917210230144
0.420280186791 13.7849050027 -0.29729515373 -0.948515246235
0.422281521014 13.7319401037 -0.292150960791 -0.980975823343
0.422281521014 13.7319401037 -0.292150960791 -0.980975823343
0.424282855237 13.6863747548 -0.289088880087 -1.01796975522
0.424282855237 13.6863747548 -0.289088880087 -1.01796975522
0.42628418946 13.6408094059 -0.286026799383 -1.0549636871
0.42628418946 13.6408094059 -0.286026799383 -1.0549636871
0.428285523682 13.595244057 -0.282964718676 -1.09195761897
0.428285523682 13.595244057 -0.282964718676 -1.09195761897
0.430286857905 13.5496787081 -0.279902637972 -1.12895155085
0.430286857905 13.5496787081 -0.279902637972 -1.12895155085
0.432288192128 13.5041133591 -0.276840557268 -1.16594548273
0.432288192128 13.5041133591 -0.276840557268 -1.16594548273
0.434289526351 13.4585480102 -0.273778476563 -1.2029394146
0.434289526351 13.4585480102 -0.273778476563 -1.2029394146
0.436290860574 13.4129826613 -0.270716395857 -1.23993334648
0.436290860574 13.4129826613 -0.270716395857 -1.23993334648
0.438292194797 13.3674173124 -0.267654315154 -1.27692727836
0.438292194797 13.3674173124 -0.267654315154 -1.27692727836
0.440293529019 13.3218519634 -0.26459223445 -1.31392121023
0.440293529019 13.3218519634 -0.26459223445 -1.31392121023
0.442294863242 13.2762631846 -0.260613950791 -1.34991484326
0.442294863242 13.2762631846 -0.260613950791 -1.34991484326
0.444296197465 13.2306697548 -0.256453799129 -1.38570991509
0.444296197465 13.2306697548 -0.256453799129 -1.38570991509
0.446297531688 13.185076325 -0.252293647468 -1.42150498693
0.446297531688 13.185076325 -0.252293647468 -1.42150498693
0.448298865911 13.1394828953 -0.248133495808 -1.45730005876
0.448298865911 13.1394828953 -0.248133495808 -1.45730005876
0.450300200133 13.0938894656 -0.243973344148 -1.49309513059
0.450300200133 13.0938894656 -0.243973344148 -1.49309513059
0.452301534356 13.0482960358 -0.239813192485 -1.52889020243
0.452301534356 13.0482960358 -0.239813192485 -1.52889020243
0.454302868579 13.002702606 -0.235653040826 -1.56468527426
0.454302868579 13.002702606 -0.235653040826 -1.56468527426
0.456304202802 12.9571091763 -0.231492889165 -1.60048034609
0.456304202802 12.9571091763 -0.231492889165 -1.60048034609
0.458305537025 12.9229462408 -0.229053622298 -1.6297766419
0.458305537025 12.9229462408 -0.229053622298 -1.6297766419
0.460306871248 12.8953049985 -0.227596209949 -1.65536504709
0.460306871248 12.8953049985 -0.227596209949 -1.65536504709
0.46230820547 12.8676637562 -0.226138797599 -1.68095345228
0.46230820547 12.8676637562 -0.226138797599 -1.68095345228
0.464309539693 12.8400225138 -0.224681385248 -1.70654185747
0.464309539693 12.8400225138 -0.224681385248 -1.70654185747
0.466310873916 12.8123812715 -0.223223972895 -1.73213026266
0.466310873916 12.8123812715 -0.223223972895 -1.73213026266
0.468312208139 12.7847400292 -0.221766560546 -1.75771866786
0.468312208139 12.7847400292 -0.221766560546 -1.75771866786
0.470313542362 12.7570987868 -0.220309148196 -1.78330707305
0.470313542362 12.7570987868 -0.220309148196 -1.78330707305
0.472314876584 12.7294575445 -0.218851735844 -1.80889547824
0.472314876584 12.7294575445 -0.218851735844 -1.80889547824
0.474316210807 12.7024828373 -0.217797961976 -1.83465527513
0.474316210807 12.7024828373 -0.217797961976 -1.83465527513
0.47631754503 12.6763596822 -0.21725986859 -1.86063403865
0.47631754503 12.6763596822 -0.21725986859 -1.86063403865
0.478318879253 12.6502365271 -0.216721775201 -1.88661280217
0.478318879253 12.6502365271 -0.216721775201 -1.88661280217
0.480320213476 12.6241133719 -0.216183681817 -1.91259156569
0.480320213476 12.6241133719 -0.216183681817 -1.91259156569
0.482321547698 12.5979902167 -0.215645588428 -1.93857032922
0.482321547698 12.5979902167 -0.215645588428 -1.93857032922
0.484322881921 12.5718670616 -0.215107495043 -1.96454909274
0.484322881921 12.5718670616 -0.215107495043 -1.96454909274
0.486324216144 12.5457439064 -0.214569401657 -1.99052785626
0.486324216144 12.5457439064 -0.214569401657 -1.99052785626
0.488325550367 12.5196207513 -0.214031308269 -2.01650661978
0.488325550367 12.5196207513 -0.214031308269 -2.01650661978
0.49032688459 12.4934975961 -0.213493214882 -2.0424853833
0.49032688459 12.4934975961 -0.213493214882 -2.0424853833
0.492328218813 12.468256333 -0.212952258144 -2.06725737807
0.494329553035 12.4546756427 -0.212373441542 -2.07607320831
0.496330887258 12.4410949524 -0.211794624938 -2.08488903854
0.498332221481 12.4275142621 -0.211215808336 -2.09370486877
0.500333555704 12.4139335718 -0.210636991732 -2.10252069901
0.502334889927 12.4003528815 -0.210058175129 -2.11133652924
0.504336224149 12.3867721911 -0.209479358524 -2.12015235948
0.506337558372 12.3731915008 -0.208900541922 -2.12896818971
0.508338892595 12.3596108105 -0.208321725318 -2.13778401994
0.510340226818 12.3460301202 -0.207742908715 -2.14659985018
0.512341561041 12.3315387162 -0.207118986534 -2.15571937691
0.514342895264 12.3166599041 -0.206475876906 -2.16496809303
0.516344229486 12.3017810918 -0.205832767275 -2.17421680915
0.518345563709 12.2869022796 -0.205189657646 -2.18346552527
0.520346897932 12.2720234674 -0.204546548016 -2.19271424139
0.522348232155 12.2571446552 -0.203903438384 -2.2019629575
0.524349566378 12.242265843 -0.203260328754 -2.21121167362
0.5263509006 12.2273870308 -0.202617219125 -2.22046038974
0.528352234823 12.2157145119 -0.201908178225 -2.22454195653
0.530353569046 12.2071985763 -0.20113422825 -2.22353648484
0.532354903269 12.1986826406 -0.200360278275 -2.22253101315
0.534356237492 12.190166705 -0.199586328299 -2.22152554146
0.536357571714 12.1816507694 -0.198812378322 -2.22052006977
0.538358905937 12.1731348337 -0.198038428345 -2.21951459808
0.54036024016 12.1646188981 -0.19726447837 -2.21850912639
0.542361574383 12.1561029624 -0.196490528394 -2.2175036547
0.544362908606 12.1476582869 -0.195744362458 -2.21634761168
0.546364242829 12.1393750372 -0.195061135883 -2.21485047854
0.548365577051 12.1310917877 -0.194377909307 -2.21335334538
0.550366911274 12.122808538 -0.19369468273 -2.21185621223
0.552368245497 12.1145252884 -0.193011456154 -2.21035907908
0.55436957972 12.1062420387 -0.192328229578 -2.20886194593
0.556370913943 12.0979587891 -0.191645003001 -2.20736481278
0.558372248165 12.0896755395 -0.190961776425 -2.20586767963
0.560373582388 12.0813922899 -0.19027854985 -2.20437054648
0.562374916611 12.0731090402 -0.189595323274 -2.20287341333
0.564376250834 12.0669880058 -0.187721628351 -2.19879669766
0.566377585057 12.061011119 -0.185768568872 -2.19454800982
0.56837891928 12.0550342322 -0.183815509392 -2.19029932198
0.570380253502 12.0490573455 -0.181862449913 -2.18605063414
0.572381587725 12.0430804587 -0.179909390432 -2.18180194631
0.574382921948 12.0371035719 -0.177956330956 -2.17755325847
0.576384256171 12.0311266851 -0.176003271475 -2.17330457063
0.578385590394 12.0251497983 -0.174050211996 -2.16905588279
0.580386924616 12.0191729115 -0.172097152517 -2.16480719495
0.582388258839 12.0134071895 -0.170120965504 -2.16055205257
0.584389593062 12.0078015814 -0.168127242227 -2.15629201609
0.586390927285 12.0021959732 -0.166133518954 -2.1520319796
0.588392261508 11.9965903651 -0.164139795677 -2.14777194312
0.59039359573 11.990984757 -0.162146072403 -2.14351190664
0.592394929953 11.9853791488 -0.160152349126 -2.13925187015
0.594396264176 11.9797735407 -0.158158625852 -2.13499183367
0.596397598399 11.9741679325 -0.156164902578 -2.13073179719
0.598398932622 11.9689969924 -0.154426125773 -2.12613106854
0.600400266845 11.9645627001 -0.15311941615 -2.12095295635
0.602401601067 11.9601284079 -0.151812706524 -2.11577484415
0.60440293529 11.9556941156 -0.1505059969 -2.11059673195
0.606404269513 11.9512598234 -0.149199287275 -2.10541861975
0.608405603736 11.9468255311 -0.147892577651 -2.10024050755
0.610406937959 11.9423912389 -0.146585868026 -2.09506239535
0.612408272181 11.9379569466 -0.145279158402 -2.08988428316
0.614409606404 11.9333840051 -0.143978408334 -2.08477206608
0.616410940627 11.9281502938 -0.142706060116 -2.07997388969
0.61841227485 11.9229165825 -0.141433711897 -2.0751757133
0.620413609073 11.9176828712 -0.14016136368 -2.07037753691
0.622414943296 11.9124491599 -0.138889015462 -2.06557936052
0.624416277518 11.9072154485 -0.137616667243 -2.06078118414
0.626417611741 11.9019817372 -0.136344319026 -2.05598300775
0.628418945964 11.8967480259 -0.135071970807 -2.05118483136
0.630420280187 11.8915143146 -0.133799622589 -2.04638665498
0.63242161441 11.8862806033 -0.132527274372 -2.04158847859
0.634422948632 11.8817341218 -0.130788260733 -2.03701767691
0.636424282855 11.8773544436 -0.128935978788 -2.03250206327
0.638425617078 11.8729747654 -0.127083696843 -2.02798644962
0.640426951301 11.8685950873 -0.125231414899 -2.02347083598
0.642428285524 11.8642154091 -0.123379132954 -2.01895522234
0.644429619747 11.8598357309 -0.12152685101 -2.0144396087
0.646430953969 11.8554560527 -0.119674569066 -2.00992399506
0.648432288192 11.8510763746 -0.117822287121 -2.00540838142
0.650433622415 11.8466966964 -0.115970005176 -2.00089276778
0.652434956638 11.8425814275 -0.113962474273 -1.9964097047
0.654436290861 11.8388082797 -0.111754065685 -1.99196875902
0.656437625083 11.8350351319 -0.109545657098 -1.98752781334
0.658438959306 11.831261984 -0.107337248509 -1.98308686765
0.660440293529 11.8274888362 -0.105128839922 -1.97864592197
0.662441627752 11.8237156884 -0.102920431334 -1.97420497629
0.664442961975 11.8199425405 -0.100712022746 -1.96976403061
0.666444296197 11.8161693927 -0.0985036141578 -1.96532308492
0.66844563042 11.8123272103 -0.0963196388831 -1.96100253763
0.670446964643 11.8082643436 -0.0942137701001 -1.95706687044
0.672448298866 11.8042014768 -0.0921079013175 -1.95313120324
0.674449633089 11.8001386101 -0.0900020325346 -1.94919553604
0.676450967312 11.7960757434 -0.0878961637519 -1.94525986885
0.678452301534 11.7920128767 -0.0857902949685 -1.94132420166
0.680453635757 11.78795001 -0.083684426186 -1.93738853446
0.68245496998 11.7838871433 -0.081578557403 -1.93345286726
0.684456304203 11.7798350169 -0.079475068058 -1.92951430568
0.686457638426 11.7760365255 -0.0774277700631 -1.92550739206
0.688458972648 11.7722380343 -0.075380472069 -1.92150047844
0.690460306871 11.7684395429 -0.073333174075 -1.91749356482
0.692461641094 11.7646410516 -0.0712858760803 -1.9134866512
0.694462975317 11.7608425603 -0.0692385780864 -1.90947973758
0.69646430954 11.757044069 -0.0671912800923 -1.90547282396
0.698465643763 11.7532455777 -0.0651439820976 -1.90146591034
0.700466977985 11.7494470864 -0.0630966841037 -1.89745899671
0.702468312208 11.7456485951 -0.0610493861095 -1.89345208309
0.704469646431 11.7411491311 -0.0590204331989 -1.88995857883
0.706470980654 11.7363073315 -0.0570004395149 -1.88671580936
0.708472314877 11.7314655319 -0.0549804458321 -1.8834730399
0.710473649099 11.7266237323 -0.0529604521491 -1.88023027043
0.712474983322 11.7217819327 -0.0509404584651 -1.87698750097
0.714476317545 11.7169401331 -0.0489204647824 -1.8737447315
0.716477651768 11.7120983336 -0.0469004710984 -1.87050196204
0.718478985991 11.7072565339 -0.0448804774155 -1.86725919257
0.720480320213 11.7024147344 -0.0428604837315 -1.86401642311
0.722481654436 11.6975930211 -0.0408887895407 -1.86065835653
0.724482988659 11.6928174858 -0.0390281343887 -1.85703522545
0.726484322882 11.6880419505 -0.0371674792356 -1.85341209436
0.728485657105 11.6832664152 -0.0353068240837 -1.84978896328
0.730486991328 11.6784908799 -0.0334461689304 -1.8461658322
0.73248832555 11.6737153446 -0.0315855137784 -1.84254270112
0.734489659773 11.6689398093 -0.0297248586262 -1.83891957004
0.736490993996 11.664164274 -0.0278642034732 -1.83529643895
0.738492328219 11.6594227175 -0.0259945980831 -1.83170566362
0.740493662442 11.6549693517 -0.0240490814152 -1.82838931293
0.742494996664 11.6505159859 -0.0221035647485 -1.82507296225
0.744496330887 11.6460626201 -0.0201580480806 -1.82175661156
0.74649766511 11.6416092543 -0.0182125314127 -1.81844026087
0.748498999333 11.6371558885 -0.016267014745 -1.81512391019
0.750500333556 11.6327025227 -0.0143214980781 -1.8118075595
0.752501667779 11.6282491569 -0.0123759814105 -1.80849120881
0.754503002001 11.6237957912 -0.010430464743 -1.80517485813
0.756504336224 11.6189814797 -0.00883946130062 -1.80201566564
0.758505670447 11.6141305145 -0.00728445834066 -1.79887243243
0.76050700467 11.6092795493 -0.00572945538088 -1.79572919921
0.762508338893 11.6044285841 -0.00417445242109 -1.792585966
0.764509673115 11.5995776189 -0.00261944946122 -1.78944273278
0.766511007338 11.5947266538 -0.00106444650125 -1.78629949957
0.768512341561 11.5898756886 0.0004905564587 -1.78315626635
0.770513675784 11.5850247234 0.00204555941847 -1.78001303313
0.772515010007 11.5801737582 0.00360056237844 -1.77686979992
0.774516344229 11.576288678 0.00502329224253 -1.77341867214
0.776517678452 11.5732294993 0.00633291902404 -1.76970427221
0.778519012675 11.5701703206 0.00764254580576 -1.76598987227
0.780520346898 11.5671111419 0.00895217258759 -1.76227547234
0.782521681121 11.5640519632 0.0102617993696 -1.75856107241
0.784523015344 11.5609927845 0.0115714261514 -1.75484667247
0.786524349566 11.5579336058 0.0128810529331 -1.75113227254
0.788525683789 11.5548744271 0.0141906797148 -1.7474178726
0.790527018012 11.5518152484 0.0155003064967 -1.74370347267
0.792528352235 11.5488543363 0.0168665673056 -1.74001557616
0.794529686458 11.5463721354 0.0185087241545 -1.73645679264
0.79653102068 11.5438899346 0.0201508810038 -1.73289800912
0.798532354903 11.5414077338 0.021793037853 -1.7293392256
0.800533689126 11.5389255329 0.0234351947018 -1.72578044208
0.802535023349 11.536443332 0.0250773515508 -1.72222165856
0.804536357572 11.5339611312 0.0267195083999 -1.71866287504
0.806537691795 11.5314789303 0.0283616652491 -1.71510409152
0.808539026017 11.5289967295 0.0300038220981 -1.71154530801
0.81054036024 11.5275636565 0.0320145859535 -1.70815331186
0.812541694463 11.5261600771 0.0340357122549 -1.70476600452
0.814543028686 11.5247564977 0.0360568385565 -1.70137869717
0.816544362909 11.5233529183 0.0380779648579 -1.69799138983
0.818545697131 11.5219493389 0.0400990911593 -1.69460408249
0.820547031354 11.5205457595 0.0421202174608 -1.69121677514
0.822548365577 11.5191421801 0.0441413437623 -1.6878294678
0.8245496998 11.5177386007 0.0461624700637 -1.68444216046
0.826551034023 11.5161130592 0.0481660050668 -1.68089387263
0.828552368246 11.5144230772 0.0501644329186 -1.67729884855
0.830553702468 11.5127330951 0.0521628607706 -1.67370382446
0.832555036691 11.5110431131 0.0541612886225 -1.67010880037
0.834556370914 11.509353131 0.0561597164744 -1.66651377629
0.836557705137 11.507663149 0.0581581443261 -1.6629187522
0.83855903936 11.5059731669 0.0601565721783 -1.65932372811
0.840560373582 11.5042831849 0.06215500003 -1.65572870403
0.842561707805 11.5025932028 0.064153427882 -1.65213367994
0.844563042028 11.501123318 0.0663161323057 -1.64877825481
0.846564376251 11.4999751137 0.0687189332574 -1.64577301279
0.848565710474 11.4988269094 0.0711217342088 -1.64276777077
0.850567044696 11.4976787051 0.0735245351606 -1.63976252875
0.852568378919 11.4965305008 0.0759273361123 -1.63675728672
0.854569713142 11.4953822965 0.0783301370639 -1.6337520447
0.856571047365 11.4942340922 0.0807329380156 -1.63074680268
0.858572381588 11.4930858879 0.0831357389672 -1.62774156065
0.860573715811 11.4919376836 0.085538539919 -1.62473631863
0.862575050033 11.4907662622 0.0879322640315 -1.62173097223
0.864576384256 11.4889989333 0.0900930159454 -1.61872294682
0.866577718479 11.4872316044 0.092253767859 -1.6157149214
0.868579052702 11.4854642755 0.0944145197726 -1.61270689598
0.870580386925 11.4836969466 0.0965752716865 -1.60969887057
0.872581721147 11.4819296177 0.0987360236002 -1.60669084515
0.87458305537 11.4801622888 0.100896775514 -1.60368281974
0.876584389593 11.4783949599 0.103057527427 -1.60067479432
0.878585723816 11.476627631 0.105218279341 -1.5976667689
0.880587058039 11.4743153341 0.10733296203 -1.59512388612
0.882588392262 11.4718991129 0.109438859426 -1.59266970496
0.884589726484 11.4694828918 0.111544756822 -1.5902155238
0.886591060707 11.4670666706 0.113650654217 -1.58776134264
0.88859239493 11.4646504495 0.115756551613 -1.58530716148
0.890593729153 11.4622342284 0.117862449008 -1.58285298032
0.892595063376 11.4598180072 0.119968346404 -1.58039879916
0.894596397598 11.4574017861 0.122074243799 -1.577944618
0.896597731821 11.4553014604 0.124237620675 -1.57556482679
0.898599066044 11.4533771447 0.126433023831 -1.57322648399
0.900600400267 11.4514528289 0.128628426986 -1.57088814119
0.90260173449 11.4495285132 0.130823830142 -1.5685497984
0.904603068712 11.4476041974 0.133019233297 -1.5662114556
0.906604402935 11.4456798817 0.135214636453 -1.5638731128
0.908605737158 11.4437555659 0.137410039608 -1.56153477001
0.910607071381 11.4418312502 0.139605442764 -1.55919642721
0.912608405604 11.4399069345 0.141800845919 -1.55685808441
0.914609739827 11.4376398246 0.143901556665 -1.55454346762
0.916611074049 11.4344618621 0.145750656151 -1.5522918942
0.918612408272 11.4312838996 0.147599755637 -1.55004032078
0.920613742495 11.428105937 0.149448855122 -1.54778874736
0.922615076718 11.4249279745 0.151297954608 -1.54553717394
0.924616410941 11.421750012 0.153147054094 -1.54328560052
0.926617745163 11.4185720494 0.15499615358 -1.54103402709
0.928619079386 11.4153940869 0.156845253065 -1.53878245367
0.930620413609 11.4122161243 0.158694352551 -1.53653088025
0.932621747832 11.4090381618 0.160543452037 -1.53427930683
0.934623082055 11.4065579036 0.1627551059 -1.53208836469
0.936624416278 11.4041511514 0.165004956338 -1.52990381031
0.9386257505 11.4017443993 0.167254806777 -1.52771925592
0.940627084723 11.3993376471 0.169504657215 -1.52553470154
0.942628418946 11.3969308949 0.171754507653 -1.52335014715
0.944629753169 11.3945241427 0.174004358091 -1.52116559276
0.946631087392 11.3921173905 0.17625420853 -1.51898103838
0.948632421614 11.3897106384 0.178504058968 -1.51679648399
0.950633755837 11.3867849272 0.180969677255 -1.51472515101
0.95263509006 11.3836441779 0.183524702109 -1.51270073299
0.954636424283 11.3805034285 0.186079726964 -1.51067631496
0.956637758506 11.3773626791 0.188634751819 -1.50865189694
0.958639092728 11.3742219298 0.191189776673 -1.50662747891
0.960640426951 11.3710811804 0.193744801527 -1.50460306088
0.962641761174 11.367940431 0.196299826382 -1.50257864286
0.964643095397 11.3647996817 0.198854851236 -1.50055422483
0.96664442962 11.3609918112 0.201136096884 -1.49847735768
0.968645763843 11.3565413762 0.203153641087 -1.49634997204
0.970647098065 11.3520909412 0.20517118529 -1.49422258641
0.972648432288 11.3476405062 0.207188729493 -1.49209520077
0.974649766511 11.3431900712 0.209206273696 -1.48996781513
0.976651100734 11.3387396362 0.211223817899 -1.48784042949
0.978652434957 11.3342892013 0.213241362102 -1.48571304385
0.980653769179 11.3298387663 0.215258906304 -1.48358565822
0.982655103402 11.3253883313 0.217276450507 -1.48145827258
0.984656437625 11.3207166043 0.219346236188 -1.47940572141
0.986657771848 11.3146925373 0.22173527534 -1.47781049201
0.988659106071 11.3086684703 0.224124314492 -1.47621526261
0.990660440294 11.3026444033 0.226513353645 -1.47462003321
0.992661774516 11.2966203363 0.228902392797 -1.4730248038
0.994663108739 11.2905962693 0.231291431949 -1.4714295744
0.996664442962 11.2845722023 0.233680471102 -1.469834345
0.998665777185 11.2785481353 0.236069510254 -1.4682391156
1.00066711141 11.2725240683 0.238458549407 -1.46664388619
1.00266844563 11.2665000013 0.240847588559 -1.46504865679
1.00466977985 11.2610476764 0.243573630667 -1.46355470261
1.00667111408 11.2557643278 0.24639927284 -1.46209067998
1.0086724483 11.2504809793 0.249224915013 -1.46062665734
1.01067378252 11.2451976307 0.252050557185 -1.4591626347
1.01267511674 11.2399142822 0.254876199357 -1.45769861207
1.01467645097 11.2346309336 0.25770184153 -1.45623458943
1.01667778519 11.2293475851 0.260527483702 -1.45477056679
1.01867911941 11.2240642365 0.263353125875 -1.45330654416
1.02068045364 11.2175882733 0.266072881581 -1.45221690547
1.02068045364 11.2175882733 0.266072881581 -1.45221690547
1.02268178786 11.2102279904 0.268714122832 -1.45140487121
1.02268178786 11.2102279904 0.268714122832 -1.45140487121
1.02468312208 11.2028677076 0.271355364084 -1.45059283695
1.02468312208 11.2028677076 0.271355364084 -1.45059283695
1.0266844563 11.1955074247 0.273996605335 -1.44978080268
1.0266844563 11.1955074247 0.273996605335 -1.44978080268
1.02868579053 11.1881471418 0.276637846587 -1.44896876842
1.02868579053 11.1881471418 0.276637846587 -1.44896876842
1.03068712475 11.1807868589 0.279279087838 -1.44815673416
1.03068712475 11.1807868589 0.279279087838 -1.44815673416
1.03268845897 11.173426576 0.28192032909 -1.44734469989
1.03268845897 11.173426576 0.28192032909 -1.44734469989
1.0346897932 11.1660662931 0.284561570341 -1.44653266563
1.0346897932 11.1660662931 0.284561570341 -1.44653266563
1.03669112742 11.1588384963 0.28724628083 -1.44569800914
1.03669112742 11.1588384963 0.28724628083 -1.44569800914
1.03869246164 11.1518300436 0.290002959061 -1.44482589923
1.03869246164 11.1518300436 0.290002959061 -1.44482589923
1.04069379586 11.1448215909 0.292759637292 -1.44395378932
1.04069379586 11.1448215909 0.292759637292 -1.44395378932
1.04269513009 11.1378131382 0.295516315523 -1.44308167942
1.04269513009 11.1378131382 0.295516315523 -1.44308167942
1.04469646431 11.1308046855 0.298272993753 -1.44220956952
1.04469646431 11.1308046855 0.298272993753 -1.44220956952
1.04669779853 11.1237962328 0.301029671984 -1.44133745961
1.04669779853 11.1237962328 0.301029671984 -1.44133745961
1.04869913276 11.1167877801 0.303786350215 -1.44046534971
1.04869913276 11.1167877801 0.303786350215 -1.44046534971
1.05070046698 11.1097793274 0.306543028446 -1.4395932398
1.05070046698 11.1097793274 0.306543028446 -1.4395932398
1.0527018012 11.1027708747 0.309299706677 -1.4387211299
1.0527018012 11.1027708747 0.309299706677 -1.4387211299
1.05470313542 11.0957590525 0.312055725021 -1.43785211187
1.05470313542 11.0957590525 0.312055725021 -1.43785211187
1.05670446965 11.0883193054 0.314727937772 -1.43737576306
1.05670446965 11.0883193054 0.314727937772 -1.43737576306
1.05870580387 11.0808795583 0.317400150523 -1.43689941425
1.05870580387 11.0808795583 0.317400150523 -1.43689941425
1.06070713809 11.0734398112 0.320072363274 -1.43642306543
1.06070713809 11.0734398112 0.320072363274 -1.43642306543
1.06270847231 11.0660000641 0.322744576026 -1.43594671662
1.06270847231 11.0660000641 0.322744576026 -1.43594671662
1.06470980654 11.058560317 0.325416788777 -1.43547036781
1.06470980654 11.058560317 0.325416788777 -1.43547036781
1.06671114076 11.0511205699 0.328089001528 -1.43499401899
1.06671114076 11.0511205699 0.328089001528 -1.43499401899
1.06871247498 11.0436808227 0.33076121428 -1.43451767018
1.06871247498 11.0436808227 0.33076121428 -1.43451767018
1.07071380921 11.0362410756 0.333433427031 -1.43404132136
1.07071380921 11.0362410756 0.333433427031 -1.43404132136
1.07271514343 11.0288013285 0.336105639782 -1.43356497255
1.07271514343 11.0288013285 0.336105639782 -1.43356497255
1.07471647765 11.0209142268 0.338694933695 -1.43301665884
1.07471647765 11.0209142268 0.338694933695 -1.43301665884
1.07671781187 11.0127744629 0.341237395698 -1.43242769993
1.07671781187 11.0127744629 0.341237395698 -1.43242769993
1.0787191461 11.004634699 0.3437798577 -1.43183874101
1.0787191461 11.004634699 0.3437798577 -1.43183874101
1.08072048032 10.996494935 0.346322319703 -1.43124978209
1.08072048032 10.996494935 0.346322319703 -1.43124978209
1.08272181454 10.9883551711 0.348864781706 -1.43066082318
1.08272181454 10.9883551711 0.348864781706 -1.43066082318
1.08472314877 10.9802154071 0.351407243708 -1.43007186426
1.08472314877 10.9802154071 0.351407243708 -1.43007186426
1.08672448299 10.9720756432 0.353949705711 -1.42948290535
1.08672448299 10.9720756432 0.353949705711 -1.42948290535
1.08872581721 10.9639358793 0.356492167713 -1.42889394643
1.08872581721 10.9639358793 0.356492167713 -1.42889394643
1.09072715143 10.9559272473 0.359126486619 -1.42827365568
1.09272848566 10.9480845611 0.361877049218 -1.42761371493
1.09472981988 10.940241875 0.364627611816 -1.42695377417
1.0967311541 10.9323991889 0.367378174414 -1.42629383341
1.09873248833 10.9245565027 0.370128737012 -1.42563389265
1.10073382255 10.9167138165 0.372879299611 -1.42497395189
1.10273515677 10.9088711304 0.375629862209 -1.42431401113
1.10473649099 10.9010284442 0.378380424807 -1.42365407037
1.10673782522 10.8931641325 0.381106404588 -1.42302747355
1.10873915944 10.885232726 0.383756114603 -1.42250432841
1.11074049366 10.8773013195 0.386405824617 -1.42198118327
1.11274182789 10.869369913 0.389055534631 -1.42145803814
1.11474316211 10.8614385065 0.391705244645 -1.420934893
1.11674449633 10.8535071 0.39435495466 -1.42041174786
1.11874583055 10.8455756935 0.397004664674 -1.41988860273
1.12074716478 10.837644287 0.399654374688 -1.41936545759
1.122748499 10.8297128805 0.402304084703 -1.41884231245
1.12474983322 10.8217814739 0.404953794717 -1.41831916732
1.12675116744 10.8137410088 0.407638772263 -1.4174974312
1.12875250167 10.8056849638 0.410328788028 -1.41663303924
1.13075383589 10.7976289188 0.413018803793 -1.41576864728
1.13275517011 10.7895728738 0.415708819558 -1.41490425531
1.13475650434 10.7815168288 0.418398835323 -1.41403986335
1.13675783856 10.7734607837 0.421088851088 -1.41317547138
1.13875917278 10.7654047387 0.423778866853 -1.41231107942
1.140760507 10.7573486938 0.426468882618 -1.41144668746
1.14276184123 10.7492926488 0.429158898383 -1.41058229549
1.14476317545 10.7417900637 0.432119812379 -1.40988994712
1.14676450967 10.734827273 0.43534493576 -1.40936539434
1.1487658439 10.7278644822 0.438570059141 -1.40884084156
1.15076717812 10.7209016915 0.441795182522 -1.40831628879
1.15276851234 10.7139389007 0.445020305903 -1.40779173601
1.15476984656 10.7069761099 0.448245429284 -1.40726718324
1.15677118079 10.7000133192 0.451470552666 -1.40674263046
1.15877251501 10.6930505284 0.454695676047 -1.40621807769
1.16077384923 10.6864449368 0.457907545175 -1.4056635909
1.16277518346 10.6806396519 0.461089718067 -1.40504203679
1.16477651768 10.674834367 0.46427189096 -1.40442048268
1.1667778519 10.6690290821 0.467454063852 -1.40379892857
1.16877918612 10.6632237972 0.470636236744 -1.40317737446
1.17078052035 10.6574185123 0.473818409636 -1.40255582035
1.17278185457 10.6516132275 0.477000582528 -1.40193426624
1.17478318879 10.6458079426 0.48018275542 -1.40131271213
1.17678452302 10.6398584085 0.483296507995 -1.40064225944
1.17878585724 10.6327528494 0.485861934364 -1.39957992946
1.18078719146 10.6256472903 0.488427360733 -1.39851759948
1.18278852568 10.6185417311 0.490992787101 -1.3974552695
1.18478985991 10.611436172 0.49355821347 -1.39639293952
1.18679119413 10.6043306129 0.496123639839 -1.39533060954
1.18879252835 10.5972250537 0.498689066208 -1.39426827956
1.19079386258 10.5901194946 0.501254492577 -1.39320594958
1.1927951968 10.5830139355 0.503819918946 -1.39214361959
1.19479653102 10.5759083763 0.506385345314 -1.39108128961
1.19679786524 10.5701139864 0.509104422655 -1.39025149615
1.19879919947 10.5647750553 0.511876873492 -1.38950247854
1.20080053369 10.5594361242 0.514649324329 -1.38875346092
1.20280186791 10.554097193 0.517421775166 -1.3880044433
1.20480320213 10.5487582619 0.520194226002 -1.38725542569
1.20680453636 10.5434193308 0.522966676839 -1.38650640807
1.20880587058 10.5380803996 0.525739127676 -1.38575739046
1.2108072048 10.5327414685 0.528511578512 -1.38500837284
1.21280853903 10.5274025373 0.531284029349 -1.38425935523
1.21480987325 10.5222932007 0.534088050831 -1.38338253299
1.21681120747 10.5175690833 0.536945042307 -1.38229127705
1.21881254169 10.512844966 0.539802033784 -1.38120002112
1.22081387592 10.5081208486 0.54265902526 -1.38010876519
1.22281521014 10.5033967312 0.545516016736 -1.37901750926
1.22481654436 10.4986726139 0.548373008213 -1.37792625332
1.22681787859 10.4939484965 0.551229999689 -1.37683499739
1.22881921281 10.4892243792 0.554086991166 -1.37574374146
1.23082054703 10.4846174722 0.556969986902 -1.37463405648
1.23282188125 10.4805601516 0.559974913726 -1.37343795974
1.23482321548 10.4765028311 0.56297984055 -1.372241863
1.2368245497 10.4724455105 0.565984767373 -1.37104576626
1.23882588392 10.46838819 0.568989694197 -1.36984966952
1.24082721815 10.4643308695 0.571994621021 -1.36865357278
1.24282855237 10.4602735489 0.574999547844 -1.36745747603
1.24482988659 10.4562162284 0.578004474668 -1.36626137929
1.24683122081 10.4521589078 0.581009401492 -1.36506528255
1.24883255504 10.4476085885 0.583978864241 -1.36400076214
1.25083388926 10.4430472436 0.586947533865 -1.36293918433
1.25283522348 10.4384858988 0.589916203489 -1.36187760652
1.25483655771 10.4339245539 0.592884873112 -1.36081602871
1.25683789193 10.429363209 0.595853542735 -1.3597544509
1.25883922615 10.4248018642 0.598822212359 -1.35869287309
1.26084056037 10.4202405194 0.601790881982 -1.35763129528
1.2628418946 10.4156791745 0.604759551606 -1.35656971747
1.26484322882 10.4111178296 0.607728221229 -1.35550813966
1.26684456304 10.4064506928 0.610853604455 -1.35419739649
1.26884589726 10.4017157405 0.614079445119 -1.35272693194
1.27084723149 10.3969807883 0.617305285783 -1.35125646739
1.27284856571 10.3922458361 0.620531126446 -1.34978600283
1.27484989993 10.3875108838 0.62375696711 -1.34831553828
1.27685123416 10.3827759316 0.626982807773 -1.34684507372
1.27885256838 10.3780409793 0.630208648436 -1.34537460917
1.2808539026 10.3733060271 0.6334344891 -1.34390414461
1.28285523682 10.3685710749 0.636660329764 -1.34243368006
1.28485657105 10.3640315719 0.639913561998 -1.34114837703
1.28685790527 10.3601088762 0.643253237763 -1.34044741491
1.28885923949 10.3561861805 0.646592913528 -1.3397464528
1.29086057372 10.3522634849 0.649932589294 -1.33904549068
1.29286190794 10.3483407892 0.653272265059 -1.33834452856
1.29486324216 10.3444180935 0.656611940824 -1.33764356645
1.29686457638 10.3404953978 0.659951616589 -1.33694260433
1.29886591061 10.3365727022 0.663291292354 -1.33624164222
1.30086724483 10.3326799816 0.666627599491 -1.33555395509
1.30286857905 10.3294548894 0.66988887808 -1.33516193824
1.30486991328 10.3262297972 0.673150156669 -1.33476992139
1.3068712475 10.3230047049 0.676411435257 -1.33437790453
1.30887258172 10.3197796127 0.679672713846 -1.33398588768
1.31087391594 10.3165545205 0.682933992435 -1.33359387083
1.31287525017 10.3133294283 0.686195271024 -1.33320185397
1.31487658439 10.310104336 0.689456549613 -1.33280983712
1.31687791861 10.3068792438 0.692717828201 -1.33241782027
1.31887925284 10.3031012515 0.695836896326 -1.33098067749
1.32088058706 10.2992220816 0.698929940724 -1.32935228246
1.32288192128 10.2953429117 0.702022985122 -1.32772388744
1.3248832555 10.2914637418 0.705116029521 -1.32609549241
1.32688458973 10.2875845718 0.708209073919 -1.32446709739
1.32888592395 10.2837054019 0.711302118317 -1.32283870236
1.33088725817 10.279826232 0.714395162715 -1.32121030734
1.33288859239 10.2759470621 0.717488207113 -1.31958191231
1.33488992662 10.2720678921 0.720581251512 -1.31795351729
1.33689126084 10.2689757951 0.723379200993 -1.31623481042
1.33889259506 10.2667481878 0.725853029829 -1.31441690859
1.34089392929 10.2645205806 0.728326858665 -1.31259900675
1.34289526351 10.2622929734 0.730800687501 -1.31078110492
1.34489659773 10.2600653661 0.733274516336 -1.30896320308
1.34689793195 10.2578377589 0.735748345172 -1.30714530125
1.34889926618 10.2556101517 0.738222174008 -1.30532739942
1.3509006004 10.2533825444 0.740696002844 -1.30350949758
1.35290193462 10.2511549372 0.743169831679 -1.30169159575
1.35490326885 10.248951641 0.745674389628 -1.29997126139
1.35690460307 10.2469495268 0.748433242123 -1.29905833325
1.35890593729 10.2449474126 0.751192094617 -1.29814540512
1.36090727151 10.2429452984 0.753950947111 -1.29723247698
1.36290860574 10.2409431842 0.756709799606 -1.29631954884
1.36490993996 10.23894107 0.7594686521 -1.2954066207
1.36691127418 10.2369389558 0.762227504594 -1.29449369257
1.36891260841 10.2349368416 0.764986357089 -1.29358076443
1.37091394263 10.2329347274 0.767745209583 -1.29266783629
1.37291527685 10.2317794552 0.770758434818 -1.29053119569
1.37491661107 10.2307077769 0.773796769808 -1.28827375943
1.3769179453 10.2296360986 0.776835104799 -1.28601632318
1.37891927952 10.2285644203 0.779873439789 -1.28375888693
1.38092061374 10.227492742 0.78291177478 -1.28150145067
1.38292194797 10.2264210637 0.78595010977 -1.27924401442
1.38492328219 10.2253493854 0.78898844476 -1.27698657816
1.38692461641 10.2242777071 0.792026779751 -1.27472914191
1.38892595063 10.2230706616 0.794698660465 -1.272334961
1.39092728486 10.2218089944 0.797222673665 -1.26988560244
1.39292861908 10.2205473272 0.799746686864 -1.26743624387
1.3949299533 10.2192856599 0.802270700064 -1.2649868853
1.39693128753 10.2180239927 0.804794713262 -1.26253752673
1.39893262175 10.2167623254 0.807318726462 -1.26008816817
1.40093395597 10.2155006582 0.809842739662 -1.2576388096
1.40293529019 10.2142389909 0.812366752861 -1.25518945103
1.40493662442 10.2129773237 0.81489076606 -1.25274009246
1.40693795864 10.2117325711 0.817654104536 -1.2500569996
1.40893929286 10.2105201101 0.820874336721 -1.24692768672
1.41094062708 10.2093076491 0.824094568905 -1.24379837384
1.41294196131 10.2080951881 0.827314801089 -1.24066906096
1.41494329553 10.2068827271 0.830535033273 -1.23753974809
1.41694462975 10.2056702661 0.833755265457 -1.23441043521
1.41894596398 10.2044578051 0.836975497642 -1.23128112233
1.4209472982 10.2032453441 0.840195729826 -1.22815180945
1.42294863242 10.2020328831 0.84341596201 -1.22502249657
1.42494996664 10.2008204221 0.846636194194 -1.22189318369
1.42695130087 10.1996974631 0.850288110224 -1.21849216205
1.42895263509 10.1985767989 0.853951095072 -1.21508417352
1.43095396931 10.1974561348 0.857614079918 -1.21167618498
1.43295530354 10.1963354707 0.861277064765 -1.20826819645
1.43495663776 10.1952148066 0.864940049613 -1.20486020791
1.43695797198 10.1940941425 0.86860303446 -1.20145221938
1.4389593062 10.1929734783 0.872266019307 -1.19804423085
1.44096064043 10.1918528142 0.875929004154 -1.19463624231
1.44296197465 10.189855628 0.879738016213 -1.19162618969
1.44496330887 10.1876073777 0.883588855164 -1.18873011871
1.4469646431 10.1853591274 0.887439694114 -1.18583404774
1.44896597732 10.1831108771 0.891290533063 -1.18293797676
1.45096731154 10.1808626268 0.895141372014 -1.18004190579
1.45296864576 10.1786143764 0.898992210964 -1.17714583481
1.45496997999 10.1763661261 0.902843049913 -1.17424976383
1.45697131421 10.1741178758 0.906693888863 -1.17135369286
1.45897264843 10.1719925279 0.910444035314 -1.1687146214
1.46097398266 10.1699562924 0.914121172918 -1.16626189191
1.46297531688 10.167920057 0.917798310522 -1.16380916242
1.4649766511 10.1658838215 0.921475448126 -1.16135643293
1.46697798532 10.1638475861 0.925152585731 -1.15890370344
1.46897931955 10.1618113506 0.928829723332 -1.15645097395
1.47098065377 10.1597751152 0.932506860935 -1.15399824447
1.47298198799 10.1577388797 0.93618399854 -1.15154551498
1.47498332221 10.1557026443 0.939861136144 -1.14909278549
1.47698465644 10.153555681 0.943655120415 -1.14685478583
1.47898599066 10.1509945138 0.947886197768 -1.14542003478
1.48098732488 10.1484333466 0.952117275121 -1.14398528374
1.48298865911 10.1458721794 0.956348352474 -1.1425505327
1.48498999333 10.1433110122 0.960579429827 -1.14111578165
1.48699132755 10.140749845 0.964810507178 -1.13968103061
1.48899266177 10.1381886778 0.969041584532 -1.13824627957
1.490993996 10.1356275106 0.973272661885 -1.13681152852
1.49299533022 10.1330663434 0.977503739237 -1.13537677748
1.49499666444 10.1305051762 0.981734816591 -1.13394202643
1.49699799867 10.1278222861 0.985911965628 -1.13203151692
1.49899933289 10.1251165871 0.990079009363 -1.13003185786
1.50100066711 10.1224108881 0.994246053097 -1.1280321988
1.50300200133 10.1197051892 0.998413096833 -1.12603253973
1.50500333556 10.1169994902 1.00258014057 -1.12403288067
1.50700466978 10.1142937912 1.0067471843 -1.12203322161
1.509006004 10.1115880922 1.01091422803 -1.12003356255
1.51100733823 10.1088823932 1.01508127177 -1.11803390349
1.51300867245 10.1064461409 1.01919635935 -1.11590335388
1.51501000667 10.1041584925 1.02328279233 -1.11370061615
1.51701134089 10.101870844 1.02736922531 -1.11149787843
1.51901267512 10.0995831956 1.03145565829 -1.1092951407
1.52101400934 10.0972955472 1.03554209127 -1.10709240297
1.52301534356 10.0950078987 1.03962852425 -1.10488966524
1.52501667779 10.0927202503 1.04371495723 -1.10268692752
1.52701801201 10.0904326019 1.04780139021 -1.10048418979
1.52901934623 10.0882696348 1.051997222 -1.09847873199
1.53102068045 10.0862609937 1.05632846352 -1.09671745983
1.53302201468 10.0842523526 1.06065970504 -1.09495618767
1.5350233489 10.0822437115 1.06499094656 -1.09319491551
1.53702468312 10.0802350704 1.06932218808 -1.09143364335
1.53902601734 10.0782264292 1.0736534296 -1.08967237119
1.54102735157 10.0762177881 1.07798467112 -1.08791109903
1.54302868579 10.074209147 1.08231591264 -1.08614982688
1.54503002001 10.0722005059 1.08664715416 -1.08438855472
1.54703135424 10.0701946859 1.090960749 -1.08268279802
1.54903268846 10.0682221551 1.09506611301 -1.08163212378
1.55103402268 10.0662496242 1.09917147702 -1.08058144954
1.5530353569 10.0642770934 1.10327684103 -1.0795307753
1.55503669113 10.0623045626 1.10738220504 -1.07848010106
1.55703802535 10.0603320317 1.11148756905 -1.07742942682
1.55903935957 10.0583595009 1.11559293306 -1.07637875258
1.5610406938 10.0563869701 1.11969829707 -1.07532807835
1.56304202802 10.0544144393 1.12380366108 -1.07427740411
1.56504336224 10.0524419084 1.12790902508 -1.07322672987
1.56704469646 10.0502472443 1.13197003856 -1.07201544966
1.56904603069 10.047961574 1.13601288199 -1.07073837053
1.57104736491 10.0456759037 1.14005572543 -1.0694612914
1.57304869913 10.0433902334 1.14409856886 -1.06818421226
1.57505003336 10.0411045631 1.14814141229 -1.06690713313
1.57705136758 10.0388188929 1.15218425573 -1.065630054
1.5790527018 10.0365332226 1.15622709916 -1.06435297487
1.58105403602 10.0342475523 1.1602699426 -1.06307589574
1.58305537025 10.031963617 1.16422075796 -1.06188186273
1.58505670447 10.0296813371 1.1680837603 -1.06076707219
1.58705803869 10.0273990573 1.17194676262 -1.05965228166
1.58905937292 10.0251167774 1.17580976496 -1.05853749112
1.59106070714 10.0228344976 1.17967276729 -1.05742270059
1.59306204136 10.0205522177 1.18353576961 -1.05630791006
1.59506337558 10.0182699379 1.18739877195 -1.05519311952
1.59706470981 10.015987658 1.19126177428 -1.05407832899
1.59906604403 10.0138789227 1.19518651164 -1.05303676442
1.60106737825 10.0121492221 1.19924608322 -1.05215513121
1.60306871247 10.0104195215 1.2033056548 -1.05127349799
1.6050700467 10.008689821 1.20736522639 -1.05039186478
1.60707138092 10.0069601204 1.21142479797 -1.04951023156
1.60907271514 10.0052304198 1.21548436956 -1.04862859835
1.61107404937 10.0035007193 1.21954394114 -1.04774696514
1.61307538359 10.0017710187 1.22360351272 -1.04686533192
1.61507671781 10.0000413182 1.22766308431 -1.04598369871
1.61707805203 9.99831161761 1.23172265589 -1.04510206549
1.61907938626 9.996552262 1.23536392674 -1.04387749351
1.62108072048 9.99479119079 1.23898099837 -1.0426330821
1.6230820547 9.99303011958 1.24259807 -1.04138867069
1.62508338893 9.99126904839 1.24621514164 -1.04014425928
1.62708472315 9.98950797718 1.24983221327 -1.03889984787
1.62908605737 9.98774690597 1.2534492849 -1.03765543646
1.63108739159 9.98598583476 1.25706635653 -1.03641102505
1.63308872582 9.98422476356 1.26068342817 -1.03516661364
1.63509006004 9.98246369236 1.2643004998 -1.03392220223
1.63709139426 9.98039293704 1.26789647346 -1.03265422894
1.63909272849 9.97809474437 1.2714769524 -1.03136895139
1.64109406271 9.97579655166 1.27505743135 -1.03008367385
1.64309539693 9.97349835897 1.27863791029 -1.0287983963
1.64509673115 9.97120016627 1.28221838924 -1.02751311875
1.64709806538 9.96890197359 1.28579886818 -1.02622784121
1.6490993996 9.96660378089 1.28937934712 -1.02494256366
1.65110073382 9.9643055882 1.29295982607 -1.02365728611
1.65310206805 9.96194233263 1.2964956139 -1.0226359137
1.65510340227 9.95947242759 1.29995814517 -1.02204712804
1.65710473649 9.95700252255 1.30342067644 -1.02145834239
1.65910607071 9.95453261751 1.30688320771 -1.02086955674
1.66110740494 9.95206271247 1.31034573898 -1.02028077108
1.66310873916 9.94959280743 1.31380827024 -1.01969198543
1.66511007338 9.94712290239 1.31727080151 -1.01910319977
1.66711140761 9.94465299736 1.32073333278 -1.01851441412
1.66911274183 9.94221194678 1.3241745055 -1.01789235318
1.67111407605 9.93990123881 1.32751919652 -1.01711997972
1.67311541027 9.93759053084 1.33086388753 -1.01634760626
1.6751167445 9.93527982286 1.33420857855 -1.01557523281
1.67711807872 9.9329691149 1.33755326956 -1.01480285935
1.67911941294 9.93065840692 1.34089796058 -1.0140304859
1.68112074716 9.92834769895 1.3442426516 -1.01325811244
1.68312208139 9.926036991 1.34758734261 -1.01248573899
1.68512341561 9.92372628301 1.35093203363 -1.01171336553
1.68712474983 9.92141557505 1.35427672464 -1.01094099207
1.68912608406 9.91906852919 1.35750922043 -1.00948596873
1.69112741828 9.9167130977 1.36071582501 -1.00787341079
1.6931287525 9.9143576662 1.36392242959 -1.00626085285
1.69513008672 9.9120022347 1.36712903417 -1.00464829492
1.69713142095 9.9096468032 1.37033563875 -1.00303573698
1.69913275517 9.90729137169 1.37354224332 -1.00142317904
1.70113408939 9.90493594019 1.3767488479 -0.999810621103
1.70313542362 9.90258050869 1.37995545248 -0.998198063165
1.70513675784 9.90022507719 1.38316205706 -0.996585505227
1.70713809206 9.89776159282 1.38644215162 -0.995023170991
1.70913942628 9.8951626619 1.38981436744 -0.993523793227
1.71114076051 9.89256373096 1.39318658325 -0.992024415464
1.71314209473 9.88996480005 1.39655879907 -0.990525037698
1.71514342895 9.88736586912 1.39993101488 -0.989025659935
1.71714476318 9.8847669382 1.40330323069 -0.987526282171
1.7191460974 9.88216800728 1.40667544651 -0.986026904406
1.72114743162 9.87956907636 1.41004766232 -0.984527526642
1.72314876584 9.87693984394 1.41349215736 -0.983106803656
1.72515010007 9.87421778321 1.41715807922 -0.981927038965
1.72715143429 9.87149572246 1.42082400108 -0.980747274274
1.72915276851 9.86877366172 1.42448992294 -0.979567509582
1.73115410274 9.86605160097 1.42815584481 -0.97838774489
1.73315543696 9.86332954024 1.43182176667 -0.977207980199
1.73515677118 9.86060747948 1.43548768853 -0.976028215507
1.7371581054 9.85788541873 1.43915361039 -0.974848450816
1.73915943963 9.85517327561 1.44281289998 -0.973662193281
1.74116077385 9.85265596557 1.4463418976 -0.972348382786
1.74316210807 9.85013865555 1.44987089522 -0.971034572292
1.74516344229 9.84762134551 1.45339989284 -0.969720761797
1.74716477652 9.84510403548 1.45692889045 -0.968406951302
1.74916611074 9.84258672544 1.46045788807 -0.967093140807
1.75116744496 9.84006941541 1.46398688569 -0.965779330313
1.75316877919 9.83755210538 1.46751588331 -0.964465519818
1.75517011341 9.83503479534 1.47104488093 -0.963151709323
1.75717144763 9.83251748532 1.47457387855 -0.961837898829
1.75917278185 9.83003585907 1.47798990986 -0.960397856277
1.76117411608 9.82757104931 1.48135270418 -0.958898325053
1.7631754503 9.82510623956 1.4847154985 -0.957398793829
1.76517678452 9.8226414298 1.48807829283 -0.955899262605
1.76717811875 9.82017662005 1.49144108714 -0.954399731382
1.76917945297 9.8177118103 1.49480388147 -0.952900200158
1.77118078719 9.81524700054 1.49816667579 -0.951400668935
1.77318212141 9.81278219079 1.50152947011 -0.949901137711
1.77518345564 9.81031738105 1.50489226443 -0.948401606487
1.77718478986 9.80773165835 1.50832708615 -0.94695987024
1.77918612408 9.80487798293 1.5119215264 -0.945646212311
1.78118745831 9.80202430747 1.51551596665 -0.944332554381
1.78318879253 9.79917063203 1.51911040689 -0.943018896452
1.78519012675 9.79631695657 1.52270484714 -0.941705238522
1.78719146097 9.79346328114 1.52629928738 -0.940391580593
1.7891927952 9.79060960568 1.52989372763 -0.939077922662
1.79119412942 9.78775593024 1.53348816788 -0.937764264732
1.79319546364 9.78488117816 1.53708755673 -0.936464540965
1.79519679787 9.78184144682 1.54072568122 -0.93527388806
1.79719813209 9.77880171551 1.54436380572 -0.934083235153
1.79919946631 9.77576198418 1.54800193022 -0.932892582246
1.80120080053 9.77272225284 1.55164005471 -0.931701929339
1.80320213476 9.76968252152 1.55527817921 -0.930511276433
1.80520346898 9.76664279019 1.55891630371 -0.929320623527
1.8072048032 9.76360305886 1.5625544282 -0.92812997062
1.80920613742 9.76056332752 1.5661925527 -0.926939317713
1.81120747165 9.7578251178 1.56941487824 -0.925492474942
1.81320880587 9.75511469334 1.57259888783 -0.92402202423
1.81521014009 9.75240426885 1.57578289743 -0.922551573518
1.81721147432 9.7496938444 1.57896690702 -0.921081122806
1.81921280854 9.74698341993 1.58215091662 -0.919610672095
1.82121414276 9.74427299545 1.58533492621 -0.918140221383
1.82321547698 9.741562571 1.58851893581 -0.916669770672
1.82521681121 9.73885214653 1.5917029454 -0.91519931996
1.82721814543 9.73614172205 1.59488695499 -0.913728869248
1.82921947965 9.73331537449 1.59795576502 -0.912359713707
1.83122081388 9.73039297639 1.60092912398 -0.911074488449
1.8332221481 9.72747057826 1.60390248293 -0.90978926319
1.83522348232 9.72454818014 1.60687584189 -0.908504037932
1.83722481654 9.72162578201 1.60984920084 -0.907218812672
1.83922615077 9.71870338389 1.6128225598 -0.905933587415
1.84122748499 9.71578098578 1.61579591875 -0.904648362156
1.84322881921 9.71285858766 1.61876927771 -0.903363136898
1.84523015344 9.70993618953 1.62174263666 -0.90207791164
1.84723148766 9.70706515823 1.62480071817 -0.900836700857
1.84923282188 9.70443113517 1.62824971251 -0.899798574413
1.8512341561 9.70179711213 1.63169870684 -0.898760447969
1.85323549033 9.69916308908 1.63514770118 -0.897722321525
1.85523682455 9.69652906602 1.63859669552 -0.89668419508
1.85723815877 9.69389504297 1.64204568986 -0.895646068636
1.859239493 9.69126101992 1.6454946842 -0.894607942191
1.86124082722 9.68862699686 1.64894367853 -0.893569815747
1.86324216144 9.68599297382 1.65239267287 -0.892531689302
1.86524349566 9.6834912688 1.65553378422 -0.891319247006
1.86724482989 9.6809921996 1.65866876244 -0.890103332284
1.86924616411 9.6784931304 1.66180374065 -0.888887417561
1.87124749833 9.67599406119 1.66493871888 -0.887671502837
1.87324883256 9.67349499199 1.66807369709 -0.886455588115
1.87525016678 9.67099592279 1.67120867531 -0.885239673391
1.877251501 9.6684968536 1.67434365353 -0.884023758668
1.87925283522 9.6659977844 1.67747863175 -0.882807843944
1.88125416945 9.66358214185 1.68023387108 -0.881255306461
1.88325550367 9.66118964563 1.68288375372 -0.87960937464
1.88525683789 9.65879714941 1.68553363635 -0.877963442818
1.88725817211 9.6564046532 1.68818351899 -0.876317510996
1.88925950634 9.65401215698 1.69083340162 -0.874671579174
1.89126084056 9.65161966075 1.69348328426 -0.873025647352
1.89326217478 9.64922716454 1.6961331669 -0.871379715529
1.89526350901 9.6468346683 1.69878304953 -0.869733783708
1.89726484323 9.64444217209 1.70143293217 -0.868087851886
1.89926617745 9.64240343936 1.70402573488 -0.866629987893
1.90126751167 9.64086531536 1.70653776414 -0.865438257618
1.9032688459 9.63932719135 1.70904979339 -0.864246527344
1.90527018012 9.63778906734 1.71156182264 -0.86305479707
1.90727151434 9.63625094333 1.7140738519 -0.861863066795
1.90927284857 9.63471281933 1.71658588115 -0.86067133652
1.91127418279 9.63317469532 1.7190979104 -0.859479606246
1.91327551701 9.63163657132 1.72160993965 -0.858287875971
1.91527685123 9.6300984473 1.7241219689 -0.857096145697
1.91727818546 9.62853062921 1.72664788787 -0.855906907487
1.91927951968 9.62633718742 1.72946644869 -0.8547701745
1.9212808539 9.62414374563 1.7322850095 -0.853633441511
1.92328218813 9.62195030385 1.73510357032 -0.852496708525
1.92528352235 9.61975686206 1.73792213114 -0.851359975536
1.92728485657 9.61756342027 1.74074069196 -0.850223242548
1.92928619079 9.61536997848 1.74355925278 -0.849086509561
1.93128752502 9.61317653669 1.7463778136 -0.847949776573
1.93328885924 9.61098309491 1.74919637442 -0.846813043585
1.93529019346 9.6096748057 1.75191133861 -0.845195185721
1.93729152769 9.60852559923 1.75460768406 -0.843490858409
1.93929286191 9.60737639274 1.7573040295 -0.841786531098
1.94129419613 9.60622718627 1.76000037495 -0.840082203785
1.94329553035 9.60507797978 1.7626967204 -0.838377876473
1.94529686458 9.6039287733 1.76539306584 -0.836673549161
1.9472981988 9.60277956682 1.76808941129 -0.834969221849
1.94929953302 9.60163036034 1.77078575674 -0.833264894538
1.95130086724 9.60059137167 1.77333007085 -0.831653325881
1.95330220147 9.59961173108 1.77579252194 -0.830091704191
1.95530353569 9.59863209047 1.77825497303 -0.828530082503
1.95730486991 9.59765244988 1.78071742412 -0.826968460814
1.95930620414 9.59667280926 1.78317987521 -0.825406839124
1.96130753836 9.59569316866 1.7856423263 -0.823845217435
1.96330887258 9.59471352805 1.78810477739 -0.822283595746
1.9653102068 9.59373388745 1.79056722847 -0.820721974057
1.96731154103 9.59275424684 1.79302967956 -0.819160352368
1.96931287525 9.5919738345 1.79550242608 -0.817588981977
1.97131420947 9.591702561 1.79800148313 -0.815992698239
1.9733155437 9.59143128752 1.80050054018 -0.814396414503
1.97531687792 9.59116001404 1.80299959723 -0.812800130765
1.97731821214 9.59088874055 1.80549865428 -0.811203847027
1.97931954636 9.59061746706 1.80799771133 -0.809607563289
1.98132088059 9.59034619358 1.81049676838 -0.808011279552
1.98332221481 9.59007492009 1.81299582543 -0.806414995815
1.98532354903 9.5898036466 1.81549488248 -0.804818712078
1.98732488326 9.58953237312 1.81799393953 -0.803222428339
1.98932621748 9.58964379613 1.82079553446 -0.801625519562
1.9913275517 9.58979191606 1.82362613988 -0.800028550849
1.99332888592 9.589940036 1.8264567453 -0.798431582135
1.99533022015 9.59008815593 1.82928735072 -0.796834613422
1.99733155437 9.59023627587 1.83211795613 -0.795237644708
1.99933288859 9.59038439581 1.83494856155 -0.793640675995
2.00133422282 9.59053251575 1.83777916697 -0.792043707282
2.00333555704 9.59068063568 1.84060977239 -0.790446738569
2.00533689126 9.59175675372 1.84355720583 -0.789072007557
2.00733822548 9.59320305681 1.8465512428 -0.787785928744
2.00933955971 9.5946493599 1.84954527978 -0.78649984993
2.01134089393 9.59609566299 1.85253931675 -0.785213771118
2.01334222815 9.59754196609 1.85553335372 -0.783927692305
2.01534356237 9.59898826916 1.85852739069 -0.782641613491
2.0173448966 9.60043457225 1.86152142767 -0.781355534677
2.01934623082 9.60188087533 1.86451546464 -0.780069455865
2.02134756504 9.6031218492 1.86726080408 -0.778461090625
2.02334889927 9.60417114107 1.86977397573 -0.776551859809
2.02535023349 9.60522043295 1.87228714738 -0.774642628994
2.02735156771 9.60626972484 1.87480031903 -0.772733398177
2.02935290193 9.60731901671 1.87731349068 -0.770824167362
2.03135423616 9.60836830859 1.87982666233 -0.768914936546
2.03335557038 9.60941760047 1.88233983398 -0.76700570573
2.0353569046 9.61046689235 1.88485300563 -0.765096474914
2.03735823883 9.61151618424 1.88736617728 -0.763187244098
2.03935957305 9.61282035489 1.88994117144 -0.761324219197
2.04136090727 9.61558672476 1.89287083156 -0.759726270329
2.04336224149 9.61835309463 1.89580049168 -0.758128321461
2.04536357572 9.62111946451 1.8987301518 -0.756530372593
2.04736490994 9.62388583438 1.90165981191 -0.754932423726
2.04936624416 9.62665220426 1.90458947203 -0.753334474859
2.05136757839 9.62941857414 1.90751913215 -0.75173652599
2.05336891261 9.63218494401 1.91044879227 -0.750138577123
2.05537024683 9.63495131389 1.91337845239 -0.748540628255
2.05737158105 9.63771768376 1.9163081125 -0.746942679387
2.05937291528 9.64056759276 1.91950702845 -0.745676553119
2.0613742495 9.64344110701 1.92278202669 -0.744504188347
2.06337558372 9.64631462126 1.92605702494 -0.743331823575
2.06537691795 9.64918813551 1.92933202319 -0.742159458803
2.06737825217 9.65206164976 1.93260702144 -0.740987094031
2.06937958639 9.65493516401 1.93588201968 -0.73981472926
2.07138092061 9.65780867826 1.93915701793 -0.738642364487
2.07338225484 9.66068219251 1.94243201618 -0.737469999715
2.07538358906 9.66561870744 1.94587446977 -0.736933383659
2.07738492328 9.67203670608 1.94943717652 -0.736853311982
2.0793862575 9.67845470473 1.95299988327 -0.736773240305
2.08138759173 9.68487270338 1.95656259002 -0.736693168629
2.08338892595 9.69129070201 1.96012529677 -0.736613096951
2.08539026017 9.69770870065 1.96368800353 -0.736533025275
2.0873915944 9.7041266993 1.96725071028 -0.736452953599
2.08939292862 9.71054469794 1.97081341703 -0.736372881921
2.09139426284 9.71669243899 1.9742242205 -0.735849011803
2.09339559706 9.72240732845 1.97739173173 -0.734614342555
2.09539693129 9.7281222179 1.98055924295 -0.733379673307
2.09739826551 9.73383710737 1.98372675418 -0.732145004058
2.09939959973 9.73955199682 1.9868942654 -0.730910334809
2.10140093396 9.74526688628 1.99006177663 -0.729675665561
2.10340226818 9.75098177574 1.99322928786 -0.728440996313
2.1054036024 9.75669666519 1.99639679908 -0.727206327064
2.10740493662 9.76241155466 1.99956431031 -0.725971657816
2.10940627085 9.76823921833 2.00274114152 -0.724775114468
2.11140760507 9.78117165797 2.00650513216 -0.725980502784
2.11340893929 9.7941040976 2.0102691228 -0.7271858911
2.11541027352 9.80703653724 2.01403311343 -0.728391279416
2.11741160774 9.81996897686 2.01779710407 -0.729596667732
2.11941294196 9.8329014165 2.02156109471 -0.730802056049
2.12141427618 9.84583385614 2.02532508534 -0.732007444365
2.12341561041 9.85876629576 2.02908907598 -0.73321283268
2.12541694463 9.8716987354 2.03285306662 -0.734418220997
2.12741827885 9.88463117503 2.03661705725 -0.735623609314
2.12941961308 9.89780253524 2.04023713598 -0.736601015428
2.1314209473 9.91110432064 2.0437786541 -0.737453967491
2.13342228152 9.92440610607 2.04732017222 -0.738306919553
2.13542361574 9.93770789147 2.05086169035 -0.739159871615
2.13742494997 9.95100967689 2.05440320847 -0.740012823678
2.13942628419 9.96431146231 2.05794472659 -0.740865775741
2.14142761841 9.97761324772 2.06148624471 -0.741718727804
2.14342895264 9.99091503313 2.06502776283 -0.742571679866
2.14543028686 10.0097480932 2.06839817927 -0.741694684462
2.14743162108 10.0353629768 2.07155881018 -0.738696623033
2.1494329553 10.0609778605 2.07471944109 -0.735698561605
2.15143428953 10.0865927442 2.077880072 -0.732700500175
2.15343562375 10.1122076279 2.0810407029 -0.729702438747
2.15543695797 10.1378225115 2.08420133381 -0.72670437732
2.15743829219 10.1634373952 2.08736196472 -0.723706315892
2.15943962642 10.1890522789 2.09052259563 -0.720708254463
2.16144096064 10.2141527394 2.0937239033 -0.718637672892
2.16344229486 10.2377227109 2.09704623066 -0.719326487917
2.16544362909 10.2612926824 2.10036855802 -0.720015302943
2.16744496331 10.2848626539 2.10369088538 -0.720704117967
2.16944629753 10.3084326254 2.10701321274 -0.721392932992
2.17144763175 10.3320025969 2.1103355401 -0.722081748018
2.17344896598 10.3555725684 2.11365786747 -0.722770563042
2.1754503002 10.3791425399 2.11698019483 -0.723459378067
2.17745163442 10.4027125114 2.12030252219 -0.724148193092
2.17945296865 10.4262824829 2.12362484955 -0.724837008117
2.18145430287 10.4699121214 2.12856978091 -0.717049401403
2.18345563709 10.5162045475 2.13373010218 -0.708136605962
2.18545697131 10.5624969736 2.13889042346 -0.699223810522
2.18745830554 10.6087893998 2.14405074473 -0.690311015079
2.18945963976 10.6550818259 2.149211066 -0.681398219639
2.19146097398 10.701374252 2.15437138727 -0.672485424198
2.19346230821 10.7476666782 2.15953170855 -0.663572628758
2.19546364243 10.7939591043 2.16469202982 -0.654659833316
2.19746497665 10.8402515305 2.16985235109 -0.645747037875
2.19946631087 10.889544143 2.17625241185 -0.63511820115
2.2014676451 10.9416727979 2.1838243844 -0.622867209897
2.20346897932 10.9938014528 2.19139635696 -0.610616218644
2.20547031354 11.0459301077 2.19896832951 -0.598365227391
2.20747164777 11.0980587626 2.20654030206 -0.586114236138
2.20947298199 11.1501874175 2.21411227461 -0.573863244884
2.21147431621 11.2023160724 2.22168424717 -0.561612253631
2.21347565043 11.2544447273 2.22925621972 -0.549361262378
2.21547698466 11.3160666731 2.24040364837 -0.53662493342
2.21747831888 11.3981988153 2.25927582785 -0.522840035339
2.2194796531 11.4803309575 2.27814800732 -0.509055137258
2.22148098732 11.5624630997 2.2970201868 -0.495270239178
2.22348232155 11.6445952419 2.31589236628 -0.481485341097
2.22548365577 11.7267273841 2.33476454575 -0.467700443017
2.22748498999 11.8088595263 2.35363672523 -0.453915544937
2.22948632422 11.8909916685 2.37250890471 -0.440130646856
2.23148765844 11.9727988904 2.39112968152 -0.42615486839
2.23348899266 12.0521948616 2.40788478593 -0.410762556529
2.23549032688 12.1315908327 2.42463989034 -0.395370244668
2.23749166111 12.210986804 2.44139499475 -0.379977932807
2.23949299533 12.2903827751 2.45815009916 -0.364585620946
2.24149432955 12.3697787463 2.47490520357 -0.349193309084
2.24349566378 12.4491747175 2.49166030798 -0.333800997223
2.245496998 12.5285706887 2.50841541239 -0.318408685362
2.24749833222 12.6079666598 2.52517051681 -0.303016373501
2.24949966644 12.687362631 2.54192562122 -0.28762406164
2.25150100067 12.7722512396 2.56195789272 -0.276648725826
2.25350233489 12.8589707272 2.58308255325 -0.267145715363
2.25550366911 12.9456902149 2.60420721378 -0.257642704899
2.25750500334 13.0324097025 2.62533187432 -0.248139694435
2.25950633756 13.1191291902 2.64645653485 -0.238636683971
2.26150767178 13.2058486779 2.66758119538 -0.229133673507
2.263509006 13.2925681655 2.68870585592 -0.219630663044
2.26551034023 13.3792876531 2.70983051645 -0.210127652579
2.26751167445 13.4660071408 2.73095517698 -0.200624642115
2.26951300867 13.5506645018 2.75113291161 -0.19222129027
2.2715143429 13.6319751327 2.76977383206 -0.185602630282
2.27351567712 13.7132857637 2.78841475251 -0.178983970294
2.27551701134 13.7945963945 2.80705567296 -0.172365310305
2.27751834556 13.8759070255 2.82569659341 -0.165746650316
2.27951967979 13.9572176564 2.84433751385 -0.159127990328
2.28152101401 14.0385282873 2.8629784343 -0.152509330339
2.28352234823 14.1198389182 2.88161935475 -0.14589067035
2.28552368245 14.1954724584 2.89746824714 -0.139817973324
2.28752501668 14.245861063 2.90090152538 -0.136173069045
2.2895263509 14.2962496677 2.90433480361 -0.132528164766
2.29152768512 14.3466382724 2.90776808184 -0.128883260487
2.29352901935 14.3970268771 2.91120136008 -0.125238356208
2.29553035357 14.4474154817 2.91463463831 -0.121593451928
2.29753168779 14.4978040864 2.91806791654 -0.117948547649
2.29953302201 14.5481926911 2.92150119478 -0.11430364337
2.30153435624 14.5985812957 2.92493447302 -0.11065873909
2.30353569046 14.6566067735 2.9317353494 -0.107710844178
2.30553702468 14.7147411766 2.93858425809 -0.104772890762
2.30753835891 14.7728755797 2.94543316679 -0.101834937346
2.30953969313 14.8310099828 2.95228207548 -0.0988969839296
2.31154102735 14.8891443859 2.95913098416 -0.0959590305136
2.31354236157 14.947278789 2.96597989286 -0.0930210770975
2.3155436958 15.0054131921 2.97282880155 -0.0900831236815
2.31754503002 15.0635475952 2.97967771024 -0.0871451702653
2.31954636424 15.1216819983 2.98652661893 -0.0842072168492
2.32154769847 15.1594353963 2.98541287221 -0.081708992939
2.32354903269 15.1845474114 2.97936026328 -0.0794835126461
2.32555036691 15.2096594264 2.97330765435 -0.0772580323532
2.32755170113 15.2347714415 2.96725504542 -0.0750325520602
2.32955303536 15.2598834565 2.96120243648 -0.0728070717675
2.33155436958 15.2849954716 2.95514982755 -0.0705815914747
2.3335557038 15.3101074867 2.94909721862 -0.0683561111818
2.33555703803 15.3352195018 2.94304460969 -0.0661306308889
2.33755837225 15.3603315168 2.93699200075 -0.0639051505961
2.33955970647 15.3843063816 2.93076265751 -0.0615731636416
2.34156104069 15.4048411882 2.92399866518 -0.0589189772897
2.34356237492 15.4253759948 2.91723467285 -0.0562647909374
2.34556370914 15.4459108014 2.91047068052 -0.0536106045851
2.34756504336 15.466445608 2.90370668819 -0.0509564182331
2.34956637759 15.4869804146 2.89694269586 -0.0483022318809
2.35156771181 15.5075152212 2.89017870353 -0.0456480455287
2.35356904603 15.5280500278 2.8834147112 -0.0429938591765
2.35557038025 15.5477756506 2.87661042317 -0.0404113040967
2.35757171448 15.5523757605 2.86905291549 -0.0391677027975
2.3595730487 15.5569758704 2.86149540782 -0.0379241014987
2.36157438292 15.5615759804 2.85393790014 -0.0366805001997
2.36357571714 15.5661760903 2.84638039246 -0.0354368989006
2.36557705137 15.5707762002 2.83882288478 -0.0341932976018
2.36757838559 15.5753763102 2.8312653771 -0.0329496963029
2.36957971981 15.5799764201 2.82370786942 -0.0317060950041
2.37158105404 15.5845765301 2.81615036174 -0.0304624937048
2.37358238826 15.5906242314 2.80825274518 -0.029202297754
2.37558372248 15.5969211517 2.80029657508 -0.0279392448484
2.3775850567 15.603218072 2.79234040498 -0.0266761919426
2.37958639093 15.6095149923 2.78438423488 -0.025413139037
2.38158772515 15.6158119126 2.77642806478 -0.0241500861311
2.38358905937 15.6221088329 2.76847189468 -0.0228870332256
2.3855903936 15.6284057533 2.76051572457 -0.02162398032
2.38759172782 15.6347026736 2.75255955447 -0.0203609274141
2.38959306204 15.6409995939 2.74460338437 -0.0190978745086
2.39159439626 15.6437495576 2.73781970053 -0.0181063589951
2.39359573049 15.6427237288 2.73228414722 -0.0174038994155
2.39559706471 15.6416979 2.72674859391 -0.0167014398358
2.39759839893 15.6406720713 2.7212130406 -0.0159989802562
2.39959973316 15.6396462425 2.71567748729 -0.0152965206767
2.40160106738 15.6386204137 2.71014193399 -0.0145940610968
2.4036024016 15.6375945849 2.70460638068 -0.0138916015172
2.40560373582 15.6365687561 2.69907082737 -0.0131891419376
2.40760507005 15.6355429274 2.69353527406 -0.0124866823579
2.40960640427 15.6344675774 2.68799168903 -0.0118030925341
2.41160773849 15.633013457 2.68238667217 -0.011263830842
2.41360907272 15.6315593366 2.67678165531 -0.0107245691498
2.41561040694 15.6301052162 2.67117663845 -0.0101853074577
2.41761174116 15.6286510958 2.66557162159 -0.00964604576549
2.41961307538 15.6271969754 2.65996660473 -0.00910678407345
2.42161440961 15.625742855 2.65436158787 -0.00856752238137
2.42361574383 15.6242887346 2.64875657101 -0.00802826068919
2.42561707805 15.6228346142 2.64315155415 -0.00748899899699
2.42761841227 15.6198858638 2.63812061084 -0.0072822135105
2.4296197465 15.6168035507 2.63314096772 -0.00710513866376
2.43162108072 15.6137212376 2.6281613246 -0.00692806381691
2.43362241494 15.6106389246 2.62318168148 -0.00675098897017
2.43562374917 15.6075566115 2.61820203836 -0.00657391412331
2.43762508339 15.6044742985 2.61322239524 -0.00639683927643
2.43962641761 15.6013919854 2.60824275212 -0.00621976442975
2.44162775183 15.5983096723 2.603263109 -0.00604268958274
2.44362908606 15.5955854743 2.59870442168 -0.00576148803512
2.44563042028 15.5930003274 2.59430918576 -0.00543985551255
2.4476317545 15.5904151806 2.58991394983 -0.00511822298982
2.44963308873 15.5878300337 2.58551871391 -0.00479659046741
2.45163442295 15.5852448868 2.58112347798 -0.00447495794469
2.45363575717 15.5826597399 2.57672824206 -0.00415332542196
2.45563709139 15.5800745931 2.57233300613 -0.0038316928994
2.45763842562 15.5774894462 2.5679377702 -0.00351006037698
2.45963975984 15.5749042994 2.56354253428 -0.00318842785424
2.46164109406 15.5722731736 2.55910851025 -0.00299161542398
2.46364242829 15.5695572424 2.55460294371 -0.00302502672015
2.46564376251 15.5668413112 2.55009737717 -0.00305843801594
2.46764509673 15.5641253801 2.54559181064 -0.00309184931178
2.46964643095 15.5614094488 2.5410862441 -0.00312526060773
2.47164776518 15.5586935177 2.53658067756 -0.00315867190356
2.4736490994 15.5559775864 2.53207511102 -0.00319208319959
2.47565043362 15.5532616553 2.52756954449 -0.00322549449555
2.47765176785 15.5505457241 2.52306397795 -0.00325890579137
2.47965310207 15.5478297929 2.51855841141 -0.00329231708721
2.48165443629 15.5447888833 2.51350078423 -0.00331917802303
2.48365577051 15.5417422904 2.50843350257 -0.00334592440576
2.48565710474 15.5386956976 2.5033662209 -0.00337267078844
2.48765843896 15.5356491048 2.49829893924 -0.00339941717119
2.48965977318 15.5326025119 2.49323165758 -0.00342616355387
2.4916611074 15.5295559191 2.48816437592 -0.00345290993644
2.49366244163 15.5265093263 2.48309709426 -0.00347965631904
2.49566377585 15.5234627334 2.4780298126 -0.0035064027018
2.49766511007 15.5207692621 2.47299533301 -0.00350358632897
2.4996664443 15.5181724159 2.46796982911 -0.00349268064467
2.50166777852 15.5155755698 2.46294432522 -0.0034817749605
2.50366911274 15.5129787237 2.45791882132 -0.0034708692764
2.50567044696 15.5103818776 2.45289331743 -0.00345996359214
2.50767178119 15.5077850315 2.44786781353 -0.00344905790802
2.50967311541 15.5051881854 2.44284230964 -0.00343815222388
2.51167444963 15.5025913393 2.43781680574 -0.0034272465396
2.51367578386 15.4999951472 2.43304211201 -0.00335919091381
2.51567711808 15.4973994143 2.42844351904 -0.00325100873306
2.5176784523 15.4948036814 2.42384492607 -0.00314282655224
2.51967978652 15.4922079485 2.41924633311 -0.00303464437148
2.52168112075 15.4896122156 2.41464774014 -0.00292646219065
2.52368245497 15.4870164827 2.41004914716 -0.00281828000995
2.52568378919 15.4844207498 2.40545055419 -0.00271009782926
2.52768512342 15.4818250169 2.40085196122 -0.00260191564836
2.52968645764 15.479229284 2.39625336825 -0.0024937334677
2.53168779186 15.4767056511 2.39170164434 -0.00237978348354
2.53368912608 15.4744395182 2.3873173099 -0.00224523420173
2.53569046031 15.4721733852 2.38293297546 -0.00211068491992
2.53769179453 15.4699072523 2.37854864102 -0.00197613563781
2.53969312875 15.4676411193 2.37416430658 -0.00184158635601
2.54169446298 15.4653749864 2.36977997215 -0.00170703707422
2.5436957972 15.4631088534 2.36539563771 -0.0015724877923
2.54569713142 15.4608427205 2.36101130327 -0.0014379385105
2.54769846564 15.4585765876 2.35662696883 -0.00130338922851
2.54969979987 15.4563104546 2.35224263439 -0.00116883994663
2.55170113409 15.4540367297 2.34741912395 -0.00119440546287
2.55370246831 15.4517616651 2.34251811186 -0.00124822653189
2.55570380253 15.4494866004 2.33761709978 -0.0013020476007
2.55770513676 15.4472115358 2.33271608769 -0.00135586866946
2.55970647098 15.4449364712 2.3278150756 -0.00140968973847
2.5617078052 15.4426614065 2.32291406351 -0.00146351080726
2.56370913943 15.4403863419 2.31801305142 -0.0015173318761
2.56571047365 15.4381112772 2.31311203933 -0.00157115294506
2.56771180787 15.4361106279 2.30831537248 -0.00160327466831
2.56971314209 15.4342562238 2.30357431476 -0.00162383206986
2.57171447632 15.4324018198 2.29883325704 -0.00164438947142
2.57371581054 15.4305474158 2.29409219932 -0.00166494687294
2.57571714476 15.4286930117 2.2893511416 -0.00168550427446
2.57771847899 15.4268386076 2.28461008388 -0.00170606167595
2.57971981321 15.4249842036 2.27986902616 -0.00172661907747
2.58172114743 15.4231297995 2.27512796845 -0.00174717647898
2.58372248165 15.4211434255 2.27058555353 -0.00183427829503
2.58572381588 15.4189987782 2.26628137346 -0.00200118767354
2.5877251501 15.4168541309 2.26197719339 -0.00216809705203
2.58972648432 15.4147094836 2.25767301332 -0.00233500643058
2.59172781855 15.4125648363 2.25336883324 -0.00250191580907
2.59372915277 15.410420189 2.24906465317 -0.00266882518759
2.59573048699 15.4082755417 2.2447604731 -0.00283573456608
2.59773182121 15.4061308945 2.24045629303 -0.00300264394458
2.59973315544 15.4039862472 2.23615211296 -0.00316955332309
2.60173448966 15.401868115 2.23185661259 -0.00332570302656
2.60373582388 15.4000320079 2.22765343275 -0.00336740891357
2.60573715811 15.3981959007 2.2234502529 -0.00340911480062
2.60773849233 15.3963597936 2.21924707306 -0.00345082068762
2.60973982655 15.3945236865 2.21504389321 -0.00349252657463
2.61174116077 15.3926875793 2.21084071337 -0.00353423246165
2.613742495 15.3908514722 2.20663753352 -0.00357593834869
2.61574382922 15.3890153651 2.20243435367 -0.00361764423573
2.61774516344 15.3871792579 2.19823117383 -0.00365935012272
2.61974649767 15.3853431508 2.19402799398 -0.00370105600976
2.62174783189 15.3837782043 2.18963074429 -0.0036919430951
2.62374916611 15.3823201862 2.18515696597 -0.00366279052231
2.62575050033 15.380862168 2.18068318764 -0.00363363794947
2.62775183456 15.3794041498 2.17620940932 -0.00360448537666
2.62975316878 15.3779461316 2.171735631 -0.00357533280381
2.631754503 15.3764881135 2.16726185267 -0.00354618023102
2.63375583722 15.3750300953 2.16278807434 -0.00351702765821
2.63575717145 15.3735720771 2.15831429602 -0.00348787508537
2.63775850567 15.3721516831 2.1539272639 -0.00342255906281
2.63975983989 15.3707660844 2.14962045571 -0.00332379864692
2.64176117412 15.3693804857 2.14531364752 -0.00322503823101
2.64376250834 15.3679948869 2.14100683932 -0.00312627781511
2.64576384256 15.3666092882 2.13670003113 -0.0030275173992
2.64776517678 15.3652236895 2.13239322294 -0.00292875698327
2.64976651101 15.3638380908 2.12808641475 -0.00282999656736
2.65176784523 15.362452492 2.12377960656 -0.00273123615145
2.65376917945 15.3610793926 2.11957370326 -0.00264508149387
2.65577051368 15.3597326268 2.11558038601 -0.00258548459898
2.6577718479 15.358385861 2.11158706875 -0.00252588770408
2.65977318212 15.3570390951 2.10759375149 -0.00246629080919
2.66177451634 15.3556923293 2.10360043423 -0.00240669391427
2.66377585057 15.3543455634 2.09960711697 -0.00234709701938
2.66577718479 15.3529987976 2.09561379971 -0.00228750012449
2.66777851901 15.3516520318 2.09162048246 -0.00222790322959
2.66977985324 15.350305266 2.0876271652 -0.0021683063347
2.67178118746 15.3489585001 2.08363384794 -0.00210870943977
2.67378252168 15.3475832133 2.07975486413 -0.00209261822376
2.6757838559 15.3462065237 2.07588150326 -0.00207866663128
2.67778519013 15.3448298342 2.0720081424 -0.0020647150388
2.67978652435 15.3434531446 2.06813478154 -0.00205076344634
2.68178785857 15.3420764551 2.06426142067 -0.00203681185386
2.6837891928 15.3406997655 2.06038805981 -0.00202286026139
2.68579052702 15.339323076 2.05651469895 -0.00200890866892
2.68779186124 15.3379463864 2.05264133809 -0.00199495707642
2.68979319546 15.3365696969 2.04876797722 -0.00198100548397
2.69179452969 15.3353569728 2.04474400866 -0.00195471326389
2.69379586391 15.3342608657 2.04061292339 -0.00191964401992
2.69579719813 15.3331647587 2.03648183812 -0.00188457477591
2.69779853235 15.3320686517 2.03235075284 -0.00184950553191
2.69979986658 15.3309725446 2.02821966757 -0.00181443628794
2.7018012008 15.3298764376 2.0240885823 -0.00177936704394
2.70380253502 15.3287803306 2.01995749703 -0.00174429779997
2.70580386925 15.3276842235 2.01582641176 -0.00170922855596
2.70780520347 15.3266561383 2.01182920567 -0.00177282050055
2.70980653769 15.325735926 2.00804431305 -0.00199287513813
2.71180787191 15.3248157137 2.00425942042 -0.0022129297757
2.71380920614 15.3238955014 2.0004745278 -0.00243298441328
2.71581054036 15.3229752891 1.99668963517 -0.00265303905086
2.71781187458 15.3220550768 1.99290474255 -0.00287309368839
2.71981320881 15.3211348645 1.98911984992 -0.003093148326
2.72181454303 15.3202146522 1.9853349573 -0.00331320296355
2.72381587725 15.3192330254 1.98155855212 -0.00347272846534
2.72581721147 15.3179879764 1.97781855177 -0.00337262899621
2.7278185457 15.3167429274 1.97407855143 -0.00327252952707
2.72981987992 15.3154978784 1.97033855108 -0.00317243005793
2.73182121414 15.3142528294 1.96659855073 -0.00307233058877
2.73382254837 15.3130077804 1.96285855038 -0.00297223111963
2.73582388259 15.3117627314 1.95911855003 -0.00287213165052
2.73782521681 15.3105176823 1.95537854969 -0.00277203218137
2.73982655103 15.3092726333 1.95163854934 -0.00267193271223
2.74182788526 15.3080275843 1.94789854899 -0.00257183324308
2.74382921948 15.3071234729 1.94434313791 -0.00255057629447
2.7458305537 15.3062940431 1.94082816066 -0.00254658961226
2.74783188793 15.3054646132 1.93731318342 -0.00254260293006
2.74983322215 15.3046351833 1.93379820618 -0.00253861624785
2.75183455637 15.3038057535 1.93028322894 -0.00253462956564
2.75383589059 15.3029763236 1.9267682517 -0.00253064288344
2.75583722482 15.3021468937 1.92325327446 -0.00252665620122
2.75783855904 15.3013174639 1.91973829722 -0.00252266951903
2.75983989326 15.300488034 1.91622331997 -0.00251868283682
2.76184122748 15.2995369488 1.91265077638 -0.00250533366767
2.76384256171 15.298438109 1.90900831655 -0.00248061345035
2.76584389593 15.2973392692 1.90536585673 -0.00245589323305
2.76784523015 15.2962404294 1.9017233969 -0.00243117301574
2.76984656438 15.2951415895 1.89808093707 -0.00240645279843
2.7718478986 15.2940427497 1.89443847725 -0.00238173258112
2.77384923282 15.2929439099 1.89079601743 -0.00235701236381
2.77585056704 15.2918450701 1.8871535576 -0.0023322921465
2.77785190127 15.2908145176 1.88354723293 -0.00222322006838
2.77985323549 15.2899846248 1.88004709002 -0.00186628329156
2.78185456971 15.289154732 1.87654694711 -0.00150934651473
2.78385590394 15.2883248392 1.8730468042 -0.00115240973791
2.78585723816 15.2874949464 1.86954666129 -0.000795472961095
2.78785857238 15.2866650535 1.86604651838 -0.000438536184257
2.7898599066 15.2858351607 1.86254637547 -8.15994074399e-05
2.79186124083 15.2850052679 1.85904623256 0.000275337369381
2.79386257505 15.2841756942 1.85555476766 0.000608754411937
2.79586390927 15.2833514739 1.85220890056 0.000547562579109
2.7978652435 15.2825272536 1.84886303345 0.000486370746263
2.79986657772 15.2817030334 1.84551716635 0.000425178913433
2.80186791194 15.2808788131 1.84217129924 0.000363987080607
2.80386924616 15.2800545929 1.83882543214 0.000302795247773
2.80587058039 15.2792303726 1.83547956504 0.000241603414933
2.80787191461 15.2784061524 1.83213369793 0.000180411582112
2.80987324883 15.2775819321 1.82878783083 0.000119219749284
2.81187458306 15.2767577118 1.82544196372 5.80279164599e-05
2.81387591728 15.2758032165 1.8222267905 6.41778617243e-05
2.8158772515 15.2747895051 1.81907102358 0.00010093770614
2.81787858572 15.2737757938 1.81591525667 0.00013769755056
2.81987991995 15.2727620825 1.81275948976 0.000174457394978
2.82188125417 15.2717483712 1.80960372284 0.000211217239416
2.82388258839 15.2707346598 1.80644795593 0.000247977083833
2.82588392262 15.2697209485 1.80329218902 0.000284736928226
2.82788525684 15.2687072371 1.8001364221 0.000321496772653
2.82988659106 15.2676935258 1.79698065519 0.000358256617068
2.83188792528 15.2669188892 1.79377831105 0.000381361953996
2.83388925951 15.2666552161 1.7904764195 0.000375284127817
2.83589059373 15.2663915431 1.78717452795 0.000369206301617
2.83789192795 15.2661278701 1.7838726364 0.000363128475452
2.83989326217 15.265864197 1.78057074486 0.00035705064925
2.8418945964 15.265600524 1.77726885331 0.000350972823081
2.84389593062 15.2653368509 1.77396696176 0.000344894996902
2.84589726484 15.2650731779 1.77066507021 0.000338817170708
2.84789859907 15.2648048674 1.76737987964 0.000308656029804
2.84989993329 15.2645028984 1.76421590588 0.000103696636743
2.85190126751 15.2642009294 1.76105193212 -0.000101262756336
2.85390260173 15.2638989604 1.75788795836 -0.000306222149409
2.85590393596 15.2635969914 1.7547239846 -0.000511181542448
2.85790527018 15.2632950224 1.75156001084 -0.000716140935528
2.8599066044 15.2629930534 1.74839603707 -0.000921100328607
2.86190793863 15.2626910843 1.74523206331 -0.00112605972167
2.86390927285 15.2623891153 1.74206808955 -0.00133101911472
2.86591060707 15.2616863324 1.73902282639 -0.00141574425566
2.86791194129 15.2609503178 1.73598740556 -0.00149050073607
2.86991327552 15.2602143032 1.73295198473 -0.00156525721651
2.87191460974 15.2594782887 1.7299165639 -0.00164001369693
2.87391594396 15.2587422741 1.72688114308 -0.00171477017735
2.87591727819 15.2580062595 1.72384572225 -0.00178952665778
2.87791861241 15.257270245 1.72081030142 -0.00186428313818
2.87991994663 15.2565342304 1.71777488059 -0.00193903961862
2.88192128085 15.2557982158 1.71473945977 -0.00201379609904
2.88392261508 15.2551158897 1.71172816382 -0.00212689047975
2.8859239493 15.2544766657 1.70873623572 -0.00227076317479
2.88792528352 15.2538374417 1.70574430763 -0.00241463586982
2.88992661775 15.2531982176 1.70275237954 -0.00255850856484
2.89192795197 15.2525589936 1.69976045145 -0.00270238125986
2.89392928619 15.2519197695 1.69676852335 -0.0028462539549
2.89593062041 15.2512805455 1.69377659526 -0.00299012664992
2.89793195464 15.2506413215 1.69078466717 -0.00313399934496
2.89993328886 15.2500020974 1.68779273908 -0.00327787204
2.90193462308 15.2494096218 1.68481812013 -0.00338863545972
2.9039359573 15.2490218175 1.6819192832 -0.00335444146394
2.90593729153 15.2486340132 1.67902044628 -0.00332024746815
2.90793862575 15.2482462089 1.67612160936 -0.00328605347238
2.90993995997 15.2478584046 1.67322277244 -0.00325185947659
2.9119412942 15.2474706003 1.67032393552 -0.00321766548083
2.91394262842 15.247082796 1.6674250986 -0.00318347148504
2.91594396264 15.2466949917 1.66452626168 -0.00314927748927
2.91794529686 15.2463071874 1.66162742475 -0.00311508349348
2.91994663109 15.2459662298 1.65875674594 -0.00293205818765
2.92194796531 15.2456258277 1.65588640102 -0.00274726808365
2.92394929953 15.2452854256 1.6530160561 -0.00256247797966
2.92595063376 15.2449450234 1.65014571118 -0.00237768787567
2.92795196798 15.2446046213 1.64727536625 -0.00219289777169
2.9299533022 15.2442642192 1.64440502133 -0.0020081076677
2.93195463642 15.2439238171 1.64153467641 -0.0018233175637
2.93395597065 15.243583415 1.63866433149 -0.00163852745972
2.93595730487 15.243129302 1.63582867894 -0.00165910050943
2.93795863909 15.2426450757 1.63300221371 -0.00173405826784
2.93995997332 15.2421608495 1.63017574847 -0.00180901602627
2.94196130754 15.2416766233 1.62734928324 -0.00188397378468
2.94396264176 15.2411923971 1.624522818 -0.00195893154309
2.94596397598 15.2407081709 1.62169635277 -0.0020338893015
2.94796531021 15.2402239447 1.61886988753 -0.00210884705992
2.94996664443 15.2397397185 1.6160434223 -0.00218380481834
2.95196797865 15.2392554922 1.61321695706 -0.00225876257676
2.95396931288 15.2389009976 1.6104451257 -0.00229393941972
2.9559706471 15.2387242833 1.60774816297 -0.00227460167489
2.95797198132 15.238547569 1.60505120024 -0.00225526393003
2.95997331554 15.2383708546 1.60235423751 -0.00223592618519
2.96197464977 15.2381941403 1.59965727478 -0.00221658844033
2.96397598399 15.238017426 1.59696031205 -0.00219725069549
2.96597731821 15.2378407117 1.59426334932 -0.00217791295064
2.96797865243 15.2376639973 1.59156638659 -0.00215857520578
2.96997998666 15.237487283 1.58886942387 -0.00213923746092
2.97198132088 15.237287677 1.58616804781 -0.00211180721596
2.9739826551 15.2366800597 1.58338801072 -0.00194014005667
2.97598398933 15.2360724423 1.58060797364 -0.00176847289743
2.97798532355 15.2354648251 1.57782793655 -0.00159680573817
2.97998665777 15.2348572077 1.57504789947 -0.0014251385789
2.98198799199 15.2342495904 1.57226786238 -0.00125347141965
2.98398932622 15.2336419731 1.5694878253 -0.0010818042604
2.98599066044 15.2330343558 1.56670778821 -0.000910137101159
2.98799199466 15.2324267385 1.56392775113 -0.00073846994191
2.98999332889 15.2318165713 1.56139425841 -0.000785408719095
2.99199466311 15.2312059733 1.55890241931 -0.000869280919364
2.99399599733 15.2305953753 1.5564105802 -0.000953153119653
2.99599733155 15.2299847773 1.5539187411 -0.00103702531994
2.99799866578 15.2293741793 1.55142690199 -0.00112089752019
3.0 15.2287635812 1.54893506289 -0.00120476972048
