y u v w 
0.0 11.1041410675 -0.00066625918222 0.0017145558946
0.00200133422282 11.1042375286 -0.00278203213749 0.00157872014823
0.00400266844563 11.1043339898 -0.0048978050928 0.00144288440187
0.00600400266845 11.104430451 -0.00701357804809 0.00130704865548
0.00800533689126 11.1045269121 -0.00912935100335 0.00117121290912
0.0100066711141 11.1046233733 -0.0112451239586 0.00103537716274
0.0120080053369 11.1047198344 -0.0133608969139 0.000899541416375
0.0140093395597 11.1048162956 -0.0154766698692 0.000763705669999
0.0160106737825 11.1049127567 -0.0175924428245 0.000627869923634
0.0180120080053 11.1050092179 -0.0197082157798 0.000492034177267
0.0200133422282 11.1052114804 -0.0220407193758 0.000378288201164
0.022014676451 11.1054755476 -0.0244998279995 0.000277446150271
0.0240160106738 11.1057396149 -0.0269589366232 0.000176604099389
0.0260173448966 11.1060036821 -0.029418045247 7.57620484958e-05
0.0280186791194 11.1062677494 -0.0318771538707 -2.50800023939e-05
0.0300200133422 11.1065318166 -0.0343362624945 -0.00012592205327
0.032021347565 11.1067958839 -0.0367953711182 -0.00022676410416
0.0340226817879 11.1070599511 -0.039254479742 -0.000327606155047
0.0360240160107 11.1074298982 -0.0416366910441 -0.000213557134637
0.0380253502335 11.1079381569 -0.0439184508899 0.000181205447369
0.0400266844563 11.1084464155 -0.0462002107358 0.00057596802936
0.0420280186791 11.1089546742 -0.0484819705816 0.000970730611364
0.0440293529019 11.1094629328 -0.0507637304275 0.00136549319337
0.0460306871247 11.1099711915 -0.0530454902733 0.00176025577535
0.0480320213476 11.1104794501 -0.0553272501192 0.00215501835737
0.0500333555704 11.1109877088 -0.0576090099651 0.00254978093936
0.0520346897932 11.1114469056 -0.0598303195907 0.00287434327289
0.054036024016 11.11174722 -0.0618558665827 0.00297156837789
0.0560373582388 11.1120475344 -0.0638814135748 0.00306879348288
0.0580386924616 11.1123478488 -0.0659069605668 0.00316601858788
0.0600400266845 11.1126481632 -0.0679325075589 0.00326324369287
0.0620413609073 11.1129484776 -0.0699580545509 0.00336046879787
0.0640426951301 11.113248792 -0.071983601543 0.00345769390286
0.0660440293529 11.1135491064 -0.074009148535 0.00355491900785
0.0680453635757 11.1138494208 -0.0760346955271 0.00365214411285
0.0700466977985 11.1141497352 -0.0780602425191 0.00374936921784
0.0720480320213 11.114622592 -0.0804264458432 0.00436382749045
0.0740493662442 11.1151218741 -0.0828448217588 0.00505750165357
0.076050700467 11.1156211563 -0.0852631976745 0.0057511758167
0.0780520346898 11.1161204384 -0.0876815735901 0.00644484997983
0.0800533689126 11.1166197206 -0.0900999495056 0.00713852414296
0.0820547031354 11.1171190027 -0.0925183254213 0.00783219830609
0.0840560373582 11.1176182849 -0.0949367013367 0.0085258724692
0.0860573715811 11.118117567 -0.0973550772524 0.00921954663234
0.0880587058039 11.1186168492 -0.099773453168 0.0099132207955
0.0900600400267 11.1190625241 -0.10243990776 0.0108281858564
0.0920613742495 11.1194542555 -0.105355996382 0.011965829219
0.0940627084723 11.1198459869 -0.108272085003 0.0131034725815
0.0960640426951 11.1202377183 -0.111188173625 0.0142411159441
0.0980653769179 11.1206294497 -0.114104262246 0.0153787593066
0.100066711141 11.1210211811 -0.117020350868 0.0165164026691
0.102068045364 11.1214129125 -0.119936439489 0.0176540460316
0.104069379586 11.1218046439 -0.122852528111 0.0187916893941
0.106070713809 11.122077466 -0.125590209651 0.0202261107974
0.108072048032 11.1220738623 -0.127913152651 0.022350444789
0.110073382255 11.1220702587 -0.130236095651 0.0244747787804
0.112074716478 11.1220666551 -0.13255903865 0.026599112772
0.1140760507 11.1220630514 -0.13488198165 0.0287234467636
0.116077384923 11.1220594478 -0.13720492465 0.030847780755
0.118078719146 11.1220558442 -0.13952786765 0.0329721147467
0.120080053369 11.1220522406 -0.14185081065 0.0350964487383
0.122081387592 11.1220528049 -0.144181535012 0.0372425684451
0.124082721815 11.1220896184 -0.146579933651 0.0395781578594
0.126084056037 11.1221264319 -0.14897833229 0.0419137472736
0.12808539026 11.1221632454 -0.151376730929 0.0442493366879
0.130086724483 11.1222000588 -0.153775129568 0.0465849261023
0.132088058706 11.1222368723 -0.156173528207 0.0489205155166
0.134089392929 11.1222736858 -0.158571926846 0.0512561049308
0.136090727151 11.1223104993 -0.160970325484 0.0535916943451
0.138092061374 11.1223473128 -0.163368724123 0.0559272837592
0.140093395597 11.1223841263 -0.165767122762 0.0582628731735
0.14209472982 11.1219605425 -0.167937938463 0.0598609753836
0.144096064043 11.1213704321 -0.170026436931 0.0611923269028
0.146097398266 11.1207803217 -0.172114935399 0.0625236784219
0.148098732488 11.1201902113 -0.174203433868 0.0638550299411
0.150100066711 11.1196001009 -0.176291932336 0.0651863814602
0.152101400934 11.1190099906 -0.178380430804 0.0665177329793
0.154102735157 11.1184198802 -0.180468929272 0.0678490844985
0.15610406938 11.1178297698 -0.18255742774 0.0691804360177
0.158105403602 11.1172396594 -0.184645926209 0.0705117875368
0.160106737825 11.1165328659 -0.186685790658 0.0715528419296
0.162108072048 11.1156236221 -0.188641273006 0.0720902184016
0.164109406271 11.1147143784 -0.190596755354 0.0726275948737
0.166110740494 11.1138051346 -0.192552237703 0.0731649713459
0.168112074716 11.1128958908 -0.194507720051 0.0737023478183
0.170113408939 11.1119866471 -0.196463202399 0.0742397242901
0.172114743162 11.1110774033 -0.198418684747 0.0747771007624
0.174116077385 11.1101681596 -0.200374167095 0.0753144772346
0.176117411608 11.1091443323 -0.202451336298 0.0761431705945
0.178118745831 11.1075529166 -0.20513127992 0.0784148987708
0.180120080053 11.1059615009 -0.207811223542 0.0806866269464
0.182121414276 11.1043700852 -0.210491167163 0.0829583551223
0.184122748499 11.1027786696 -0.213171110785 0.0852300832983
0.186124082722 11.1011872539 -0.215851054406 0.0875018114744
0.188125416945 11.0995958382 -0.218530998028 0.0897735396502
0.190126751167 11.0980044225 -0.221210941649 0.092045267826
0.19212808539 11.0964130069 -0.223890885271 0.0943169960022
0.194129419613 11.0946265606 -0.226571343214 0.0958978336564
0.196130753836 11.0928341473 -0.229251816893 0.0974575329531
0.198132088059 11.0910417339 -0.231932290571 0.0990172322499
0.200133422282 11.0892493206 -0.234612764251 0.100576931547
0.202134756504 11.0874569072 -0.237293237929 0.102136630844
0.204136090727 11.0856644938 -0.239973711608 0.103696330141
0.20613742495 11.0838720804 -0.242654185287 0.105256029437
0.208138759173 11.0820796671 -0.245334658966 0.106815728734
0.210140093396 11.0802872537 -0.248015132645 0.108375428031
0.212141427618 11.0768776748 -0.250935227655 0.111730428512
0.214142761841 11.0723969863 -0.254014032898 0.116274524582
0.216144096064 11.0679162977 -0.257092838141 0.120818620651
0.218145430287 11.0634356092 -0.260171643383 0.125362716721
0.22014676451 11.0589549207 -0.263250448626 0.129906812791
0.222148098732 11.0544742321 -0.266329253868 0.134450908861
0.224149432955 11.0499935436 -0.269408059111 0.138995004931
0.226150767178 11.045512855 -0.272486864354 0.143539101001
0.228152101401 11.0410321665 -0.275565669596 0.148083197071
0.230153435624 11.0367236366 -0.27887373945 0.152611177017
0.232154769847 11.0329824213 -0.282937305441 0.15708604947
0.234156104069 11.029241206 -0.287000871431 0.161560921922
0.236157438292 11.0254999907 -0.291064437422 0.166035794374
0.238158772515 11.0217587753 -0.295128003412 0.170510666827
0.240160106738 11.01801756 -0.299191569402 0.174985539279
0.242161440961 11.0142763447 -0.303255135392 0.179460411732
0.244162775183 11.0105351294 -0.307318701383 0.183935284184
0.246164109406 11.0065363084 -0.311339644403 0.188334762318
0.248165443629 10.9954676412 -0.314190823681 0.190665085254
0.250166777852 10.9843989739 -0.317042002959 0.192995408192
0.252168112075 10.9733303067 -0.319893182237 0.195325731128
0.254169446298 10.9622616395 -0.322744361515 0.197656054064
0.25617078052 10.9511929723 -0.325595540793 0.199986377002
0.258172114743 10.9401243051 -0.328446720071 0.202316699938
0.260173448966 10.9290556378 -0.331297899348 0.204647022874
0.262174783189 10.9179869706 -0.334149078627 0.206977345811
0.264176117412 10.9063519635 -0.335922069358 0.210537033521
0.266177451634 10.8946070696 -0.337485859326 0.214335254695
0.268178785857 10.8828621757 -0.339049649294 0.218133475868
0.27018012008 10.8711172818 -0.340613439262 0.221931697041
0.272181454303 10.8593723878 -0.342177229229 0.225729918216
0.274182788526 10.8476274939 -0.343741019198 0.229528139389
0.276184122748 10.8358826 -0.345304809165 0.233326360564
0.278185456971 10.8241377061 -0.346868599133 0.237124581736
0.280186791194 10.8123928122 -0.348432389101 0.24092280291
0.282188125417 10.7938053088 -0.34992130966 0.243080989914
0.28418945964 10.767462848 -0.351325378222 0.243380471522
0.286190793863 10.7411203872 -0.352729446784 0.243679953131
0.288192128085 10.7147779264 -0.354133515346 0.243979434742
0.290193462308 10.6884354656 -0.355537583908 0.244278916351
0.292194796531 10.6620930048 -0.35694165247 0.244578397959
0.294196130754 10.635750544 -0.358345721033 0.24487787957
0.296197464977 10.6094080832 -0.359749789595 0.245177361179
0.298198799199 10.5830656224 -0.361153858157 0.245476842787
0.300200133422 10.5568929101 -0.362574962634 0.245760707849
0.302201467645 10.5322479345 -0.364149390342 0.245904023988
0.304202801868 10.5076029589 -0.365723818051 0.246047340127
0.306204136091 10.4829579833 -0.367298245758 0.246190656264
0.308205470314 10.4583130077 -0.368872673466 0.246333972401
0.310206804536 10.4336680321 -0.370447101175 0.246477288541
0.312208138759 10.4090230565 -0.372021528883 0.246620604678
0.314209472982 10.3843780808 -0.373595956591 0.246763920815
0.316210807205 10.3597331052 -0.375170384299 0.246907236954
0.318212141428 10.3209310255 -0.375893631009 0.23686833885
0.32021347565 10.2805967916 -0.376524758562 0.225727469506
0.322214809873 10.2402625577 -0.377155886116 0.214586600164
0.324216144096 10.1999283238 -0.377787013669 0.20344573082
0.326217478319 10.15959409 -0.378418141222 0.192304861477
0.328218812542 10.1192598561 -0.379049268777 0.181163992134
0.330220146765 10.0789256222 -0.379680396331 0.170023122793
0.332221480987 10.0385913883 -0.380311523884 0.158882253448
0.33422281521 9.99726417723 -0.380898461977 0.147033855638
0.336224149433 9.95552084044 -0.381466881649 0.134888954765
0.338225483656 9.91377750365 -0.38203530132 0.122744053895
0.340226817879 9.87203416686 -0.382603720992 0.110599153024
0.342228152101 9.83029083007 -0.383172140664 0.0984542521518
0.344229486324 9.78854749329 -0.383740560335 0.086309351281
0.346230820547 9.7468041565 -0.384308980007 0.0741644504086
0.34823215477 9.70506081971 -0.38487739968 0.0620195495381
0.350233488993 9.66331748292 -0.385445819351 0.0498746486657
0.352234823215 9.61861251008 -0.384790800409 0.0324787165506
0.354236157438 9.56805314042 -0.381717356302 0.0047028389465
0.356237491661 9.51749377076 -0.378643912192 -0.0230730386571
0.358238825884 9.46693440109 -0.375570468085 -0.0508489162609
0.360240160107 9.41637503143 -0.372497023977 -0.0786247938642
0.36224149433 9.36581566177 -0.36942357987 -0.106400671469
0.364242828552 9.3152562921 -0.366350135762 -0.134176549072
0.366244162775 9.26469692244 -0.363276691654 -0.161952426675
0.368245496998 9.21413755277 -0.360203247545 -0.18972830428
0.370246831221 9.16357818311 -0.357129803437 -0.217504181883
0.372248165444 9.11370475054 -0.354244927458 -0.24335125304
0.374249499666 9.06385458885 -0.351366448782 -0.269132888115
0.376250833889 9.01400442717 -0.348487970106 -0.294914523189
0.378252168112 8.96415426549 -0.34560949143 -0.320696158263
0.380253502335 8.91430410381 -0.342731012754 -0.346477793339
0.382254836558 8.86445394213 -0.339852534078 -0.372259428413
0.384256170781 8.81460378044 -0.336974055401 -0.398041063487
0.386257505003 8.76475361876 -0.334095576724 -0.423822698562
0.388258839226 8.72236412326 -0.331597278248 -0.451769181519
0.390260173449 8.68220904046 -0.329212840848 -0.480364019935
0.392261507672 8.64205395767 -0.326828403447 -0.50895885835
0.394262841895 8.60189887488 -0.324443966046 -0.537553696766
0.396264176117 8.56174379209 -0.322059528645 -0.566148535179
0.39826551034 8.5215887093 -0.319675091245 -0.594743373595
0.400266844563 8.48143362651 -0.317290653846 -0.62333821201
0.402268178786 8.44127854372 -0.314906216443 -0.651933050425
0.404269513009 8.40069280728 -0.31174566533 -0.680685829347
0.406270847231 8.35978466894 -0.308004089196 -0.709556847881
0.408272181454 8.3188765306 -0.30426251306 -0.738427866418
0.410273515677 8.27796839226 -0.300520936926 -0.767298884951
0.4122748499 8.23706025392 -0.296779360793 -0.796169903485
0.414276184123 8.19615211558 -0.293037784658 -0.825040922023
0.416277518346 8.15524397724 -0.289296208523 -0.853911940557
0.418278852568 8.1143358389 -0.285554632389 -0.882782959093
0.420280186791 8.07342770056 -0.281813056255 -0.911653977628
0.422281521014 8.03732987349 -0.278284043724 -0.938109257288
0.422281521014 8.03732987349 -0.278284043724 -0.938109257288
0.424282855237 8.02010326753 -0.275588934558 -0.955087407523
0.424282855237 8.02010326753 -0.275588934558 -0.955087407523
0.42628418946 8.00287666157 -0.272893825393 -0.972065557756
0.42628418946 8.00287666157 -0.272893825393 -0.972065557756
0.428285523682 7.98565005562 -0.270198716228 -0.989043707988
0.428285523682 7.98565005562 -0.270198716228 -0.989043707988
0.430286857905 7.96842344966 -0.267503607063 -1.00602185822
0.430286857905 7.96842344966 -0.267503607063 -1.00602185822
0.432288192128 7.9511968437 -0.264808497899 -1.02300000845
0.432288192128 7.9511968437 -0.264808497899 -1.02300000845
0.434289526351 7.93397023775 -0.262113388733 -1.03997815869
0.434289526351 7.93397023775 -0.262113388733 -1.03997815869
0.436290860574 7.91674363179 -0.259418279569 -1.05695630892
0.436290860574 7.91674363179 -0.259418279569 -1.05695630892
0.438292194797 7.89951702583 -0.256723170404 -1.07393445915
0.438292194797 7.89951702583 -0.256723170404 -1.07393445915
0.440293529019 7.88229041987 -0.254028061239 -1.09091260939
0.440293529019 7.88229041987 -0.254028061239 -1.09091260939
0.442294863242 7.86465016781 -0.252954986513 -1.10891495393
0.442294863242 7.86465016781 -0.252954986513 -1.10891495393
0.444296197465 7.84692780623 -0.252203888662 -1.12712060296
0.444296197465 7.84692780623 -0.252203888662 -1.12712060296
0.446297531688 7.82920544465 -0.25145279081 -1.14532625199
0.446297531688 7.82920544465 -0.25145279081 -1.14532625199
0.448298865911 7.81148308306 -0.250701692958 -1.16353190102
0.448298865911 7.81148308306 -0.250701692958 -1.16353190102
0.450300200133 7.79376072148 -0.249950595106 -1.18173755006
0.450300200133 7.79376072148 -0.249950595106 -1.18173755006
0.452301534356 7.7760383599 -0.249199497255 -1.19994319909
0.452301534356 7.7760383599 -0.249199497255 -1.19994319909
0.454302868579 7.75831599831 -0.248448399404 -1.21814884812
0.454302868579 7.75831599831 -0.248448399404 -1.21814884812
0.456304202802 7.74059363673 -0.247697301552 -1.23635449715
0.456304202802 7.74059363673 -0.247697301552 -1.23635449715
0.458305537025 7.73064209958 -0.246786415664 -1.24613223705
0.458305537025 7.73064209958 -0.246786415664 -1.24613223705
0.460306871248 7.725124223 -0.245784362368 -1.25110141531
0.460306871248 7.725124223 -0.245784362368 -1.25110141531
0.46230820547 7.71960634642 -0.244782309071 -1.25607059356
0.46230820547 7.71960634642 -0.244782309071 -1.25607059356
0.464309539693 7.71408846984 -0.243780255775 -1.26103977181
0.464309539693 7.71408846984 -0.243780255775 -1.26103977181
0.466310873916 7.70857059326 -0.242778202479 -1.26600895006
0.466310873916 7.70857059326 -0.242778202479 -1.26600895006
0.468312208139 7.70305271668 -0.241776149183 -1.27097812831
0.468312208139 7.70305271668 -0.241776149183 -1.27097812831
0.470313542362 7.6975348401 -0.240774095887 -1.27594730657
0.470313542362 7.6975348401 -0.240774095887 -1.27594730657
0.472314876584 7.69201696352 -0.239772042591 -1.28091648482
0.472314876584 7.69201696352 -0.239772042591 -1.28091648482
0.474316210807 7.68740345542 -0.238262181254 -1.28583796879
0.474316210807 7.68740345542 -0.238262181254 -1.28583796879
0.47631754503 7.68394535048 -0.236103554485 -1.2906985195
0.47631754503 7.68394535048 -0.236103554485 -1.2906985195
0.478318879253 7.68048724554 -0.233944927715 -1.29555907021
0.478318879253 7.68048724554 -0.233944927715 -1.29555907021
0.480320213476 7.67702914059 -0.231786300945 -1.30041962092
0.480320213476 7.67702914059 -0.231786300945 -1.30041962092
0.482321547698 7.67357103565 -0.229627674175 -1.30528017164
0.482321547698 7.67357103565 -0.229627674175 -1.30528017164
0.484322881921 7.67011293071 -0.227469047406 -1.31014072235
0.484322881921 7.67011293071 -0.227469047406 -1.31014072235
0.486324216144 7.66665482576 -0.225310420636 -1.31500127306
0.486324216144 7.66665482576 -0.225310420636 -1.31500127306
0.488325550367 7.66319672082 -0.223151793866 -1.31986182377
0.488325550367 7.66319672082 -0.223151793866 -1.31986182377
0.49032688459 7.65973861588 -0.220993167096 -1.32472237448
0.49032688459 7.65973861588 -0.220993167096 -1.32472237448
0.492328218813 7.6564843651 -0.219068165502 -1.32903123122
0.494329553035 7.65592551938 -0.220232207887 -1.32604546766
0.496330887258 7.65536667367 -0.221396250273 -1.3230597041
0.498332221481 7.65480782795 -0.222560292659 -1.32007394054
0.500333555704 7.65424898224 -0.223724335044 -1.31708817698
0.502334889927 7.65369013653 -0.22488837743 -1.31410241341
0.504336224149 7.65313129081 -0.226052419816 -1.31111664985
0.506337558372 7.6525724451 -0.227216462201 -1.30813088629
0.508338892595 7.65201359938 -0.228380504587 -1.30514512273
0.510340226818 7.65145475367 -0.229544546973 -1.30215935917
0.512341561041 7.64903439574 -0.229831015257 -1.29920769655
0.514342895264 7.6458221696 -0.22974417251 -1.29627054012
0.516344229486 7.64260994344 -0.229657329763 -1.2933333837
0.518345563709 7.63939771729 -0.229570487015 -1.29039622727
0.520346897932 7.63618549115 -0.229483644269 -1.28745907084
0.522348232155 7.632973265 -0.229396801521 -1.28452191441
0.524349566378 7.62976103885 -0.229309958774 -1.28158475799
0.5263509006 7.6265488127 -0.229223116027 -1.27864760156
0.528352234823 7.62425629493 -0.229865783835 -1.27470739338
0.530353569046 7.6228692265 -0.231226651959 -1.26977968465
0.532354903269 7.62148215806 -0.232587520082 -1.26485197591
0.534356237492 7.62009508963 -0.233948388206 -1.25992426718
0.536357571714 7.6187080212 -0.235309256329 -1.25499655845
0.538358905937 7.61732095276 -0.236670124453 -1.25006884971
0.54036024016 7.61593388433 -0.238030992577 -1.24514114098
0.542361574383 7.61454681589 -0.2393918607 -1.24021343224
0.544362908606 7.61324388877 -0.2411389372 -1.23524137657
0.546364242829 7.61213156746 -0.2437608939 -1.23016886149
0.548365577051 7.61101924616 -0.2463828506 -1.22509634641
0.550366911274 7.60990692485 -0.249004807299 -1.22002383133
0.552368245497 7.60879460354 -0.251626763999 -1.21495131625
0.55436957972 7.60768228223 -0.254248720699 -1.20987880117
0.556370913943 7.60656996093 -0.256870677399 -1.20480628609
0.558372248165 7.60545763962 -0.259492634098 -1.19973377101
0.560373582388 7.60434531831 -0.262114590798 -1.19466125593
0.562374916611 7.603232997 -0.264736547498 -1.18958874085
0.564376250834 7.59937310894 -0.264640601964 -1.18608946092
0.566377585057 7.59533004975 -0.264363462947 -1.18269506334
0.56837891928 7.59128699057 -0.26408632393 -1.17930066576
0.570380253502 7.58724393139 -0.263809184914 -1.17590626818
0.572381587725 7.58320087221 -0.263532045897 -1.1725118706
0.574382921948 7.57915781302 -0.263254906881 -1.16911747301
0.576384256171 7.57511475384 -0.262977767864 -1.16572307543
0.578385590394 7.57107169466 -0.262700628847 -1.16232867785
0.580386924616 7.56702863547 -0.262423489831 -1.15893428027
0.582388258839 7.56441607677 -0.262298515635 -1.15482294863
0.584389593062 7.56288818328 -0.26228891916 -1.15016800766
0.586390927285 7.56136028979 -0.262279322686 -1.14551306669
0.588392261508 7.55983239629 -0.262269726211 -1.14085812572
0.59039359573 7.55830450279 -0.262260129736 -1.13620318476
0.592394929953 7.5567766093 -0.262250533261 -1.13154824378
0.594396264176 7.5552487158 -0.262240936786 -1.12689330282
0.596397598399 7.55372082231 -0.262231340312 -1.12223836185
0.598398932622 7.55135593211 -0.261672827406 -1.11813159869
0.600400266845 7.54757255276 -0.260184045604 -1.11495385269
0.602401601067 7.54378917341 -0.258695263801 -1.11177610668
0.60440293529 7.54000579405 -0.257206481998 -1.10859836068
0.606404269513 7.5362224147 -0.255717700195 -1.10542061467
0.608405603736 7.53243903535 -0.254228918392 -1.10224286867
0.610406937959 7.528655656 -0.252740136589 -1.09906512266
0.612408272181 7.52487227665 -0.251251354787 -1.09588737665
0.614409606404 7.52093637404 -0.249989175956 -1.09275116894
0.616410940627 7.51627358132 -0.249806933814 -1.08981292304
0.61841227485 7.5116107886 -0.249624691672 -1.08687467714
0.620413609073 7.50694799588 -0.24944244953 -1.08393643123
0.622414943296 7.50228520316 -0.249260207387 -1.08099818533
0.624416277518 7.49762241043 -0.249077965245 -1.07805993942
0.626417611741 7.49295961771 -0.248895723103 -1.07512169352
0.628418945964 7.488296825 -0.24871348096 -1.07218344761
0.630420280187 7.48363403227 -0.248531238818 -1.06924520171
0.63242161441 7.47897123955 -0.248348996676 -1.0663069558
0.634422948632 7.47508540692 -0.247825625958 -1.06372420166
0.636424282855 7.47138815685 -0.247219457043 -1.06122773191
0.638425617078 7.46769090677 -0.246613288127 -1.05873126217
0.640426951301 7.4639936567 -0.246007119212 -1.05623479243
0.642428285524 7.46029640662 -0.245400950296 -1.05373832269
0.644429619747 7.45659915655 -0.244794781381 -1.05124185295
0.646430953969 7.45290190647 -0.244188612466 -1.04874538321
0.648432288192 7.44920465639 -0.24358244355 -1.04624891346
0.650433622415 7.44550740631 -0.242976274635 -1.04375244372
0.652434956638 7.44180874533 -0.242037480322 -1.04162197059
0.654436290861 7.43810825876 -0.240668299743 -1.03996506295
0.656437625083 7.43440777219 -0.239299119164 -1.03830815532
0.658438959306 7.43070728562 -0.237929938585 -1.03665124769
0.660440293529 7.42700679905 -0.236560758006 -1.03499434005
0.662441627752 7.42330631248 -0.235191577427 -1.03333743242
0.664442961975 7.4196058259 -0.233822396848 -1.03168052478
0.666444296197 7.41590533934 -0.232453216269 -1.03002361715
0.66844563042 7.41216177086 -0.231057643218 -1.02830153179
0.670446964643 7.40828048156 -0.229577700789 -1.02637109143
0.672448298866 7.40439919225 -0.228097758361 -1.02444065107
0.674449633089 7.40051790294 -0.226617815932 -1.02251021071
0.676450967312 7.39663661364 -0.225137873504 -1.02057977036
0.678452301534 7.39275532434 -0.223657931075 -1.01864933
0.680453635757 7.38887403503 -0.222177988646 -1.01671888964
0.68245496998 7.38499274572 -0.220698046217 -1.01478844928
0.684456304203 7.38109741633 -0.219233945496 -1.01282383893
0.686457638426 7.37687052494 -0.218143952796 -1.01005229119
0.688458972648 7.37264363354 -0.217053960096 -1.00728074345
0.690460306871 7.36841674215 -0.215963967396 -1.0045091957
0.692461641094 7.36418985076 -0.214873974696 -1.00173764796
0.694462975317 7.35996295936 -0.213783981996 -0.998966100216
0.69646430954 7.35573606797 -0.212693989296 -0.996194552475
0.698465643763 7.35150917658 -0.211603996595 -0.993423004732
0.700466977985 7.34728228518 -0.210514003895 -0.99065145699
0.702468312208 7.34305539379 -0.209424011195 -0.987879909247
0.704469646431 7.33838261654 -0.209120645263 -0.984480140252
0.706470980654 7.33349208107 -0.209201445893 -0.98077356553
0.708472314877 7.32860154561 -0.209282246522 -0.977066990809
0.710473649099 7.32371101015 -0.209363047151 -0.973360416087
0.712474983322 7.31882047469 -0.209443847781 -0.969653841364
0.714476317545 7.31392993922 -0.20952464841 -0.965947266642
0.716477651768 7.30903940376 -0.209605449039 -0.962240691921
0.718478985991 7.3041488683 -0.209686249669 -0.958534117197
0.720480320213 7.29925833284 -0.209767050298 -0.954827542476
0.722481654436 7.29442609919 -0.209416548578 -0.951544673116
0.724482988659 7.28972789962 -0.208074496098 -0.949235889283
0.726484322882 7.28502970006 -0.206732443617 -0.946927105447
0.728485657105 7.28033150049 -0.205390391136 -0.944618321614
0.730486991328 7.27563330092 -0.204048338655 -0.942309537778
0.73248832555 7.27093510135 -0.202706286174 -0.940000753942
0.734489659773 7.26623690178 -0.201364233693 -0.937691970108
0.736490993996 7.26153870221 -0.200022181212 -0.935383186273
0.738492328219 7.25685625575 -0.19871485809 -0.933023656203
0.740493662442 7.25230741894 -0.197702091378 -0.930233722877
0.742494996664 7.24775858213 -0.196689324666 -0.927443789552
0.744496330887 7.24320974532 -0.195676557955 -0.924653856224
0.74649766511 7.23866090851 -0.194663791243 -0.921863922898
0.748498999333 7.2341120717 -0.193651024531 -0.919073989572
0.750500333556 7.22956323489 -0.19263825782 -0.916284056247
0.752501667779 7.22501439808 -0.191625491108 -0.913494122919
0.754503002001 7.22046556127 -0.190612724396 -0.910704189594
0.756504336224 7.2151644806 -0.189843429872 -0.908133884544
0.758505670447 7.20978701028 -0.189098859719 -0.905585882539
0.76050700467 7.20440953996 -0.188354289565 -0.903037880533
0.762508338893 7.19903206965 -0.187609719412 -0.900489878527
0.764509673115 7.19365459933 -0.186865149258 -0.897941876521
0.766511007338 7.18827712901 -0.186120579104 -0.895393874516
0.768512341561 7.18289965869 -0.185376008951 -0.89284587251
0.770513675784 7.17752218837 -0.184631438797 -0.890297870504
0.772515010007 7.17214471805 -0.183886868643 -0.887749868498
0.774516344229 7.16681693913 -0.182826320928 -0.885725896458
0.776517678452 7.16153164995 -0.181495589501 -0.884150008011
0.778519012675 7.15624636077 -0.180164858074 -0.882574119563
0.780520346898 7.1509610716 -0.178834126647 -0.880998231115
0.782521681121 7.14567578242 -0.17750339522 -0.879422342668
0.784523015344 7.14039049324 -0.176172663793 -0.87784645422
0.786524349566 7.13510520406 -0.174841932366 -0.876270565773
0.788525683789 7.12981991488 -0.173511200939 -0.874694677325
0.790527018012 7.12453462571 -0.172180469512 -0.873118788878
0.792528352235 7.11927878841 -0.170884668692 -0.871453430551
0.794529686458 7.11416642775 -0.169759034409 -0.869352214373
0.79653102068 7.10905406709 -0.168633400125 -0.867250998195
0.798532354903 7.10394170643 -0.167507765842 -0.865149782017
0.800533689126 7.09882934576 -0.166382131558 -0.863048565839
0.802535023349 7.0937169851 -0.165256497275 -0.860947349661
0.804536357572 7.08860462444 -0.164130862991 -0.858846133483
0.806537691795 7.08349226378 -0.163005228708 -0.856744917305
0.808539026017 7.07837990312 -0.161879594424 -0.854643701127
0.81054036024 7.07375809889 -0.160779372317 -0.852607506826
0.812541694463 7.06915008541 -0.159679864608 -0.850573140448
0.814543028686 7.06454207193 -0.1585803569 -0.848538774071
0.816544362909 7.05993405844 -0.157480849191 -0.846504407694
0.818545697131 7.05532604496 -0.156381341482 -0.844470041317
0.820547031354 7.05071803148 -0.155281833774 -0.84243567494
0.822548365577 7.046110018 -0.154182326065 -0.840401308562
0.8245496998 7.04150200452 -0.153082818356 -0.838366942185
0.826551034023 7.03700850437 -0.151918898983 -0.836314858583
0.828552368246 7.03254825003 -0.150736279448 -0.834257631271
0.830553702468 7.0280879957 -0.149553659913 -0.832200403958
0.832555036691 7.02362774136 -0.148371040379 -0.830143176646
0.834556370914 7.01916748702 -0.147188420844 -0.828085949333
0.836557705137 7.01470723268 -0.146005801309 -0.826028722021
0.83855903936 7.01024697835 -0.144823181775 -0.823971494708
0.840560373582 7.00578672401 -0.14364056224 -0.821914267396
0.842561707805 7.00132646967 -0.142457942705 -0.819857040083
0.844563042028 6.99691856643 -0.141273926115 -0.81791322877
0.846564376251 6.99258717634 -0.140087867672 -0.816135179302
0.848565710474 6.98825578624 -0.138901809231 -0.814357129833
0.850567044696 6.98392439615 -0.137715750788 -0.812579080365
0.852568378919 6.97959300606 -0.136529692347 -0.810801030897
0.854569713142 6.97526161596 -0.135343633905 -0.809022981429
0.856571047365 6.97093022587 -0.134157575462 -0.807244931961
0.858572381588 6.96659883577 -0.13297151702 -0.805466882493
0.860573715811 6.96226744568 -0.131785458578 -0.803688833024
0.862575050033 6.95794159442 -0.130600804493 -0.801905083563
0.864576384256 6.95375790638 -0.129452195551 -0.79997503427
0.866577718479 6.94957421834 -0.12830358661 -0.798044984977
0.868579052702 6.94539053031 -0.127154977668 -0.796114935684
0.870580386925 6.94120684227 -0.126006368727 -0.794184886391
0.872581721147 6.93702315423 -0.124857759786 -0.792254837098
0.87458305537 6.9328394662 -0.123709150844 -0.790324787804
0.876584389593 6.92865577816 -0.122560541903 -0.788394738511
0.878585723816 6.92447209012 -0.121411932962 -0.786464689218
0.880587058039 6.92039861109 -0.12019230682 -0.784802036461
0.882588392262 6.91634614865 -0.118959137863 -0.783190375602
0.884589726484 6.91229368622 -0.117725968906 -0.781578714743
0.886591060707 6.90824122378 -0.116492799949 -0.779967053884
0.88859239493 6.90418876135 -0.115259630992 -0.778355393024
0.890593729153 6.90013629892 -0.114026462035 -0.776743732165
0.892595063376 6.89608383648 -0.112793293079 -0.775132071306
0.894596397598 6.89203137405 -0.111560124122 -0.773520410447
0.896597731821 6.88790114519 -0.110350792365 -0.772036912189
0.898599066044 6.88372758664 -0.109154742164 -0.770624823264
0.900600400267 6.87955402808 -0.107958691962 -0.76921273434
0.90260173449 6.87538046952 -0.10676264176 -0.767800645414
0.904603068712 6.87120691096 -0.105566591558 -0.76638855649
0.906604402935 6.8670333524 -0.104370541356 -0.764976467565
0.908605737158 6.86285979384 -0.103174491154 -0.76356437864
0.910607071381 6.85868623528 -0.101978440952 -0.762152289715
0.912608405604 6.85451267672 -0.10078239075 -0.76074020079
0.914609739827 6.85043692753 -0.0995603846333 -0.759296426882
0.916611074049 6.8466210718 -0.0982694099418 -0.757768461448
0.918612408272 6.84280521608 -0.0969784352508 -0.756240496014
0.920613742495 6.83898936036 -0.0956874605595 -0.75471253058
0.922615076718 6.83517350463 -0.0943964858684 -0.753184565146
0.924616410941 6.83135764891 -0.0931055111771 -0.751656599712
0.926617745163 6.82754179318 -0.091814536486 -0.750128634277
0.928619079386 6.82372593746 -0.0905235617948 -0.748600668843
0.930620413609 6.81991008173 -0.0892325871035 -0.747072703409
0.932621747832 6.81609422601 -0.0879416124124 -0.745544737975
0.934623082055 6.81233168036 -0.08673962094 -0.743877831579
0.936624416278 6.80857475114 -0.0855470042109 -0.742196287188
0.9386257505 6.80481782192 -0.0843543874816 -0.740514742798
0.940627084723 6.80106089271 -0.0831617707526 -0.738833198408
0.942628418946 6.79730396349 -0.0819691540236 -0.737151654018
0.944629753169 6.79354703427 -0.0807765372944 -0.735470109627
0.946631087392 6.78979010506 -0.0795839205653 -0.733788565237
0.948632421614 6.78603317584 -0.0783913038361 -0.732107020847
0.950633755837 6.78197572294 -0.0769365069116 -0.730791285943
0.95263509006 6.77779374366 -0.0753730717847 -0.729627129554
0.954636424283 6.77361176438 -0.0738096366575 -0.728462973166
0.956637758506 6.7694297851 -0.0722462015306 -0.727298816778
0.958639092728 6.76524780582 -0.0706827664036 -0.726134660389
0.960640426951 6.76106582653 -0.0691193312765 -0.724970504001
0.962641761174 6.75688384725 -0.0675558961495 -0.723806347613
0.964643095397 6.75270186797 -0.0659924610224 -0.722642191225
0.96664442962 6.74843040457 -0.0644880518908 -0.721328742749
0.968645763843 6.74407275094 -0.0630404960183 -0.719871497601
0.970647098065 6.73971509731 -0.0615929401459 -0.718414252453
0.972648432288 6.73535744369 -0.0601453842736 -0.716957007305
0.974649766511 6.73099979006 -0.058697828401 -0.715499762157
0.976651100734 6.72664213644 -0.0572502725287 -0.714042517009
0.978652434957 6.72228448281 -0.0558027166562 -0.712585271861
0.980653769179 6.71792682918 -0.0543551607838 -0.711128026713
0.982655103402 6.71356917556 -0.0529076049115 -0.709670781565
0.984656437625 6.70906606114 -0.0514243119611 -0.708279198786
0.986657771848 6.70367401971 -0.0497226257561 -0.707288886039
0.988659106071 6.69828197827 -0.0480209395512 -0.706298573291
0.990660440294 6.69288993683 -0.0463192533462 -0.705308260544
0.992661774516 6.68749789539 -0.0446175671412 -0.704317947796
0.994663108739 6.68210585395 -0.0429158809363 -0.703327635049
0.996664442962 6.67671381252 -0.0412141947313 -0.702337322302
0.998665777185 6.67132177108 -0.0395125085262 -0.701347009554
1.00066711141 6.66592972964 -0.0378108223212 -0.700356696807
1.00266844563 6.6605376882 -0.0361091361164 -0.69936638406
1.00466977985 6.65540449481 -0.0343092297814 -0.698395434538
1.00667111408 6.65034780306 -0.0324802948248 -0.697430207751
1.0086724483 6.64529111132 -0.0306513598684 -0.696464980964
1.01067378252 6.64023441957 -0.0288224249119 -0.695499754177
1.01267511674 6.63517772782 -0.0269934899553 -0.694534527389
1.01467645097 6.63012103608 -0.025164554999 -0.693569300602
1.01667778519 6.62506434433 -0.0233356200425 -0.692604073815
1.01867911941 6.62000765258 -0.0215066850859 -0.691638847028
1.02068045364 6.61445763797 -0.0196681755652 -0.690776605986
1.02068045364 6.61445763797 -0.0196681755652 -0.690776605986
1.02268178786 6.60854182612 -0.0178225665375 -0.689990728524
1.02268178786 6.60854182612 -0.0178225665375 -0.689990728524
1.02468312208 6.60262601428 -0.0159769575096 -0.689204851061
1.02468312208 6.60262601428 -0.0159769575096 -0.689204851061
1.0266844563 6.59671020243 -0.0141313484819 -0.688418973599
1.0266844563 6.59671020243 -0.0141313484819 -0.688418973599
1.02868579053 6.59079439059 -0.012285739454 -0.687633096136
1.02868579053 6.59079439059 -0.012285739454 -0.687633096136
1.03068712475 6.58487857874 -0.0104401304263 -0.686847218674
1.03068712475 6.58487857874 -0.0104401304263 -0.686847218674
1.03268845897 6.5789627669 -0.0085945213984 -0.686061341212
1.03268845897 6.5789627669 -0.0085945213984 -0.686061341212
1.0346897932 6.57304695505 -0.00674891237066 -0.685275463749
1.0346897932 6.57304695505 -0.00674891237066 -0.685275463749
1.03669112742 6.56710812629 -0.00487979330119 -0.684539086957
1.03669112742 6.56710812629 -0.00487979330119 -0.684539086957
1.03869246164 6.56113119067 -0.00297175096814 -0.683884663557
1.03869246164 6.56113119067 -0.00297175096814 -0.683884663557
1.04069379586 6.55515425506 -0.00106370863483 -0.683230240158
1.04069379586 6.55515425506 -0.00106370863483 -0.683230240158
1.04269513009 6.54917731944 0.000844333698494 -0.682575816758
1.04269513009 6.54917731944 0.000844333698494 -0.682575816758
1.04469646431 6.54320038383 0.00275237603171 -0.681921393358
1.04469646431 6.54320038383 0.00275237603171 -0.681921393358
1.04669779853 6.53722344821 0.00466041836498 -0.681266969958
1.04669779853 6.53722344821 0.00466041836498 -0.681266969958
1.04869913276 6.5312465126 0.0065684606983 -0.680612546558
1.04869913276 6.5312465126 0.0065684606983 -0.680612546558
1.05070046698 6.52526957698 0.00847650303133 -0.679958123158
1.05070046698 6.52526957698 0.00847650303133 -0.679958123158
1.0527018012 6.51929264137 0.0103845453646 -0.679303699759
1.0527018012 6.51929264137 0.0103845453646 -0.679303699759
1.05470313542 6.51330965196 0.01229179276 -0.678650642654
1.05470313542 6.51330965196 0.01229179276 -0.678650642654
1.05670446965 6.50655783063 0.0140980830368 -0.678171105034
1.05670446965 6.50655783063 0.0140980830368 -0.678171105034
1.05870580387 6.49980600929 0.0159043733135 -0.677691567412
1.05870580387 6.49980600929 0.0159043733135 -0.677691567412
1.06070713809 6.49305418796 0.0177106635902 -0.677212029792
1.06070713809 6.49305418796 0.0177106635902 -0.677212029792
1.06270847231 6.48630236662 0.0195169538667 -0.676732492171
1.06270847231 6.48630236662 0.0195169538667 -0.676732492171
1.06470980654 6.47955054528 0.0213232441436 -0.67625295455
1.06470980654 6.47955054528 0.0213232441436 -0.67625295455
1.06671114076 6.47279872395 0.0231295344203 -0.675773416929
1.06671114076 6.47279872395 0.0231295344203 -0.675773416929
1.06871247498 6.46604690261 0.0249358246969 -0.675293879309
1.06871247498 6.46604690261 0.0249358246969 -0.675293879309
1.07071380921 6.45929508128 0.0267421149737 -0.674814341688
1.07071380921 6.45929508128 0.0267421149737 -0.674814341688
1.07271514343 6.45254325994 0.0285484052505 -0.674334804067
1.07271514343 6.45254325994 0.0285484052505 -0.674334804067
1.07471647765 6.44590832608 0.0303851675349 -0.67378237785
1.07471647765 6.44590832608 0.0303851675349 -0.67378237785
1.07671781187 6.43933940936 0.0322391401707 -0.673188784724
1.07671781187 6.43933940936 0.0322391401707 -0.673188784724
1.0787191461 6.43277049263 0.0340931128065 -0.672595191599
1.0787191461 6.43277049263 0.0340931128065 -0.672595191599
1.08072048032 6.4262015759 0.0359470854423 -0.672001598473
1.08072048032 6.4262015759 0.0359470854423 -0.672001598473
1.08272181454 6.41963265918 0.0378010580783 -0.671408005347
1.08272181454 6.41963265918 0.0378010580783 -0.671408005347
1.08472314877 6.41306374245 0.0396550307141 -0.670814412222
1.08472314877 6.41306374245 0.0396550307141 -0.670814412222
1.08672448299 6.40649482572 0.0415090033499 -0.670220819096
1.08672448299 6.40649482572 0.0415090033499 -0.670220819096
1.08872581721 6.399925909 0.0433629759857 -0.66962722597
1.08872581721 6.399925909 0.0433629759857 -0.66962722597
1.09072715143 6.39298383644 0.0452860181248 -0.669262128448
1.09272848566 6.38556954014 0.0472964668029 -0.669186189078
1.09472981988 6.37815524384 0.0493069154811 -0.669110249709
1.0967311541 6.37074094754 0.0513173641592 -0.669034310338
1.09873248833 6.36332665124 0.0533278128375 -0.668958370968
1.10073382255 6.35591235494 0.0553382615158 -0.668882431599
1.10273515677 6.34849805865 0.057348710194 -0.668806492229
1.10473649099 6.34108376235 0.0593591588722 -0.668730552859
1.10673782522 6.33360649375 0.0613173731141 -0.668672960753
1.10873915944 6.32593384957 0.0631135266694 -0.668672292206
1.11074049366 6.31826120538 0.0649096802248 -0.668671623659
1.11274182789 6.3105885612 0.0667058337801 -0.668670955113
1.11474316211 6.30291591702 0.0685019873353 -0.668670286567
1.11674449633 6.29524327283 0.0702981408905 -0.66866961802
1.11874583055 6.28757062865 0.0720942944457 -0.668668949474
1.12074716478 6.27989798447 0.0738904480012 -0.668668280928
1.122748499 6.27222534028 0.0756866015564 -0.668667612382
1.12474983322 6.2645526961 0.0774827551117 -0.668666943835
1.12675116744 6.25605419258 0.0789543052192 -0.668301570955
1.12875250167 6.24743770915 0.0803794834056 -0.667884097455
1.13075383589 6.23882122572 0.0818046615921 -0.667466623956
1.13275517011 6.23020474229 0.0832298397786 -0.667049150457
1.13475650434 6.22158825887 0.084655017965 -0.666631676958
1.13675783856 6.21297177544 0.0860801961515 -0.666214203458
1.13875917278 6.20435529201 0.0875053743379 -0.665796729959
1.140760507 6.19573880858 0.0889305525244 -0.66537925646
1.14276184123 6.18712232515 0.0903557307108 -0.66496178296
1.14476317545 6.17881016891 0.0920989111595 -0.664856005998
1.14676450967 6.1707948256 0.0941522419627 -0.66505422936
1.1487658439 6.16277948229 0.0962055727657 -0.665252452723
1.15076717812 6.15476413898 0.0982589035688 -0.665450676085
1.15276851234 6.14674879567 0.100312234372 -0.665648899447
1.15476984656 6.13873345235 0.102365565175 -0.66584712281
1.15677118079 6.13071810904 0.104418895978 -0.666045346173
1.15877251501 6.12270276573 0.106472226781 -0.666243569536
1.16077384923 6.11485621367 0.108593176458 -0.66632121763
1.16277518346 6.10738783944 0.11086562665 -0.666128716072
1.16477651768 6.09991946522 0.113138076842 -0.665936214516
1.1667778519 6.092451091 0.115410527033 -0.665743712958
1.16877918612 6.08498271678 0.117682977225 -0.6655512114
1.17078052035 6.07751434256 0.119955427417 -0.665358709843
1.17278185457 6.07004596834 0.122227877609 -0.665166208287
1.17478318879 6.06257759412 0.1245003278 -0.664973706729
1.17678452302 6.05502470977 0.126711026065 -0.664741032686
1.17878585724 6.04679455404 0.128426839166 -0.664186412947
1.18078719146 6.03856439832 0.130142652268 -0.663631793208
1.18278852568 6.0303342426 0.131858465369 -0.66307717347
1.18478985991 6.02210408688 0.133574278471 -0.662522553731
1.18679119413 6.01387393116 0.135290091572 -0.661967933993
1.18879252835 6.00564377544 0.137005904674 -0.661413314254
1.19079386258 5.99741361972 0.138721717776 -0.660858694515
1.1927951968 5.989183464 0.140437530877 -0.660304074777
1.19479653102 5.98095330828 0.142153343979 -0.659749455037
1.19679786524 5.97370746178 0.144337673244 -0.659569722381
1.19879919947 5.96680353323 0.146684750229 -0.659520213658
1.20080053369 5.95989960468 0.149031827215 -0.659470704935
1.20280186791 5.95299567613 0.1513789042 -0.659421196212
1.20480320213 5.94609174758 0.153725981185 -0.659371687489
1.20680453636 5.93918781902 0.156073058171 -0.659322178767
1.20880587058 5.93228389047 0.158420135156 -0.659272670044
1.2108072048 5.92537996192 0.160767212141 -0.65922316132
1.21280853903 5.91847603337 0.163114289127 -0.659173652598
1.21480987325 5.91158998472 0.165443253851 -0.65899266394
1.21681120747 5.9047339354 0.167741829385 -0.658591075056
1.21881254169 5.89787788609 0.170040404919 -0.658189486171
1.22081387592 5.89102183677 0.172338980453 -0.657787897287
1.22281521014 5.88416578745 0.174637555987 -0.657386308402
1.22481654436 5.87730973813 0.176936131521 -0.656984719518
1.22681787859 5.87045368882 0.179234707054 -0.656583130633
1.22881921281 5.8635976395 0.181533282588 -0.656181541749
1.23082054703 5.85684612338 0.183879328829 -0.655794159701
1.23282188125 5.85058475182 0.18644795994 -0.655473391931
1.23482321548 5.84432338026 0.189016591051 -0.65515262416
1.2368245497 5.83806200871 0.191585222162 -0.65483185639
1.23882588392 5.83180063715 0.194153853272 -0.654511088619
1.24082721815 5.82553926559 0.196722484383 -0.654190320849
1.24282855237 5.81927789403 0.199291115494 -0.653869553078
1.24482988659 5.81301652247 0.201859746605 -0.653548785307
1.24683122081 5.80675515091 0.204428377716 -0.653228017537
1.24883255504 5.80008454773 0.206521098111 -0.652502622195
1.25083388926 5.7934047924 0.208603175135 -0.651768177675
1.25283522348 5.78672503707 0.21068525216 -0.651033733154
1.25483655771 5.78004528174 0.212767329184 -0.650299288634
1.25683789193 5.77336552642 0.214849406208 -0.649564844113
1.25883922615 5.76668577109 0.216931483233 -0.648830399593
1.26084056037 5.76000601576 0.219013560257 -0.648095955073
1.2628418946 5.75332626043 0.221095637282 -0.647361510552
1.26484322882 5.7466465051 0.223177714306 -0.646627066032
1.26684456304 5.74060938744 0.225539140569 -0.645978427006
1.26884589726 5.734984217 0.228079636857 -0.645384791503
1.27084723149 5.72935904656 0.230620133145 -0.644791156001
1.27284856571 5.72373387612 0.233160629434 -0.644197520498
1.27484989993 5.71810870568 0.235701125722 -0.643603884995
1.27685123416 5.71248353524 0.23824162201 -0.643010249492
1.27885256838 5.7068583648 0.240782118298 -0.64241661399
1.2808539026 5.70123319436 0.243322614586 -0.641822978487
1.28285523682 5.69560802392 0.245863110874 -0.641229342985
1.28485657105 5.68994141722 0.248440710357 -0.640551061196
1.28685790527 5.68414404415 0.251135401742 -0.639605648925
1.28885923949 5.67834667108 0.253830093126 -0.638660236653
1.29086057372 5.672549298 0.256524784511 -0.637714824382
1.29286190794 5.66675192493 0.259219475896 -0.636769412111
1.29486324216 5.66095455186 0.26191416728 -0.635823999838
1.29686457638 5.65515717878 0.264608858665 -0.634878587567
1.29886591061 5.64935980571 0.267303550049 -0.633933175295
1.30086724483 5.64356658644 0.26999191133 -0.632964628989
1.30286857905 5.63786588375 0.272539283931 -0.631480824651
1.30486991328 5.63216518106 0.275086656532 -0.629997020312
1.3068712475 5.62646447837 0.277634029133 -0.628513215974
1.30887258172 5.62076377568 0.280181401734 -0.627029411636
1.31087391594 5.61506307299 0.282728774335 -0.625545607298
1.31287525017 5.6093623703 0.285276146936 -0.624061802959
1.31487658439 5.60366166761 0.287823519537 -0.622577998621
1.31687791861 5.59796096492 0.290370892138 -0.621094194283
1.31887925284 5.592785376 0.29317819561 -0.620593756822
1.32088058706 5.58770587999 0.29603306499 -0.620273270049
1.32288192128 5.58262638398 0.29888793437 -0.619952783275
1.3248832555 5.57754688797 0.30174280375 -0.619632296502
1.32688458973 5.57246739196 0.30459767313 -0.619311809728
1.32888592395 5.56738789595 0.30745254251 -0.618991322954
1.33088725817 5.56230839993 0.310307411889 -0.618670836181
1.33288859239 5.55722890392 0.313162281269 -0.618350349407
1.33488992662 5.55214940791 0.316017150649 -0.618029862633
1.33689126084 5.54679018138 0.318757711593 -0.617465505496
1.33889259506 5.54112370986 0.321372720647 -0.616633290746
1.34089392929 5.53545723834 0.323987729701 -0.615801075996
1.34289526351 5.52979076681 0.326602738756 -0.614968861246
1.34489659773 5.52412429529 0.32921774781 -0.614136646496
1.34689793195 5.51845782377 0.331832756864 -0.613304431745
1.34889926618 5.51279135225 0.334447765919 -0.612472216996
1.3509006004 5.50712488072 0.337062774973 -0.611640002246
1.35290193462 5.5014584092 0.339677784027 -0.610807787496
1.35490326885 5.49577251579 0.342301090754 -0.609925831605
1.35690460307 5.48992589924 0.34499306373 -0.608632249745
1.35890593729 5.48407928268 0.347685036706 -0.607338667887
1.36090727151 5.47823266613 0.350377009682 -0.606045086028
1.36290860574 5.47238604958 0.353068982658 -0.604751504169
1.36490993996 5.46653943302 0.355760955634 -0.603457922311
1.36691127418 5.46069281647 0.358452928609 -0.602164340452
1.36891260841 5.45484619991 0.361144901585 -0.600870758593
1.37091394263 5.44899958336 0.363836874561 -0.599577176734
1.37291527685 5.44228397911 0.366475029544 -0.598497637237
1.37491661107 5.43548259496 0.369107872022 -0.597439226384
1.3769179453 5.42868121081 0.3717407145 -0.596380815532
1.37891927952 5.42187982666 0.374373556978 -0.59532240468
1.38092061374 5.41507844251 0.377006399456 -0.594263993827
1.38292194797 5.40827705837 0.379639241934 -0.593205582975
1.38492328219 5.40147567422 0.382272084412 -0.592147172122
1.38692461641 5.39467429007 0.38490492689 -0.591088761271
1.38892595063 5.38829246286 0.387520985508 -0.590206189763
1.39092728486 5.38207993055 0.390130271692 -0.589394570972
1.39292861908 5.37586739825 0.392739557877 -0.588582952182
1.3949299533 5.36965486595 0.395348844061 -0.587771333392
1.39693128753 5.36344233364 0.397958130245 -0.586959714602
1.39893262175 5.35722980134 0.400567416429 -0.586148095812
1.40093395597 5.35101726904 0.403176702613 -0.585336477022
1.40293529019 5.34480473673 0.405785988797 -0.584524858232
1.40493662442 5.33859220443 0.408395274981 -0.583713239442
1.40693795864 5.33199955706 0.410984651831 -0.582918317255
1.40893929286 5.32468123548 0.413536019953 -0.5821552704
1.41094062708 5.3173629139 0.416087388074 -0.581392223545
1.41294196131 5.31004459232 0.418638756195 -0.58062917669
1.41494329553 5.30272627074 0.421190124317 -0.579866129835
1.41694462975 5.29540794916 0.423741492438 -0.57910308298
1.41894596398 5.28808962758 0.426292860559 -0.578340036125
1.4209472982 5.280771306 0.428844228681 -0.577576989271
1.42294863242 5.27345298442 0.431395596802 -0.576813942416
1.42494996664 5.26613466284 0.433946964923 -0.576050895561
1.42695130087 5.25955121251 0.436673119554 -0.575290011936
1.42895263509 5.25298660505 0.439403755889 -0.574529183778
1.43095396931 5.24642199758 0.442134392224 -0.57376835562
1.43295530354 5.23985739011 0.44486502856 -0.573007527461
1.43495663776 5.23329278264 0.447595664895 -0.572246699303
1.43695797198 5.22672817517 0.450326301231 -0.571485871144
1.4389593062 5.22016356769 0.453056937566 -0.570725042986
1.44096064043 5.21359896023 0.455787573901 -0.569964214829
1.44296197465 5.20787074106 0.458499470699 -0.569142876003
1.44496330887 5.20238209042 0.46120599989 -0.568304204977
1.4469646431 5.19689343977 0.463912529081 -0.567465533951
1.44896597732 5.19140478912 0.466619058272 -0.566626862925
1.45096731154 5.18591613847 0.469325587464 -0.565788191899
1.45296864576 5.18042748782 0.472032116655 -0.564949520872
1.45496997999 5.17493883717 0.474738645846 -0.564110849846
1.45697131421 5.16945018652 0.477445175037 -0.56327217882
1.45897264843 5.16334379514 0.480097390407 -0.56258056945
1.46097398266 5.1567895001 0.482710224595 -0.56199558969
1.46297531688 5.15023520505 0.485323058784 -0.561410609931
1.4649766511 5.14368091001 0.487935892973 -0.560825630171
1.46697798532 5.13712661497 0.490548727161 -0.560240650412
1.46897931955 5.13057231993 0.49316156135 -0.559655670652
1.47098065377 5.12401802489 0.495774395538 -0.559070690893
1.47298198799 5.11746372985 0.498387229727 -0.558485711133
1.47498332221 5.11090943481 0.501000063916 -0.557900731374
1.47698465644 5.10482883448 0.503646026988 -0.557351534105
1.47898599066 5.10052020326 0.506415916622 -0.556936189851
1.48098732488 5.09621157204 0.509185806256 -0.556520845599
1.48298865911 5.09190294081 0.511955695891 -0.556105501345
1.48498999333 5.0875943096 0.514725585525 -0.555690157092
1.48699132755 5.08328567837 0.517495475159 -0.555274812839
1.48899266177 5.07897704715 0.520265364794 -0.554859468587
1.490993996 5.07466841593 0.523035254428 -0.554444124334
1.49299533022 5.07035978471 0.525805144062 -0.554028780081
1.49499666444 5.06605115349 0.528575033697 -0.553613435828
1.49699799867 5.06134639657 0.531347062375 -0.552752719562
1.49899933289 5.05656741202 0.534119491877 -0.551808547688
1.50100066711 5.05178842746 0.536891921378 -0.550864375813
1.50300200133 5.04700944291 0.53966435088 -0.549920203938
1.50500333556 5.04223045836 0.542436780381 -0.548976032063
1.50700466978 5.0374514738 0.545209209883 -0.548031860188
1.509006004 5.03267248925 0.547981639384 -0.547087688313
1.51100733823 5.0278935047 0.550754068886 -0.546143516438
1.51300867245 5.02377040475 0.553692023281 -0.545432472682
1.51501000667 5.02000903511 0.556721267163 -0.544850002614
1.51701134089 5.01624766546 0.559750511046 -0.544267532547
1.51901267512 5.01248629582 0.562779754928 -0.543685062479
1.52101400934 5.00872492617 0.56580899881 -0.543102592412
1.52301534356 5.00496355653 0.568838242692 -0.542520122344
1.52501667779 5.00120218688 0.571867486575 -0.541937652277
1.52701801201 4.99744081724 0.574896730457 -0.54135518221
1.52901934623 4.99368796296 0.57782087544 -0.540713637729
1.53102068045 4.98994564868 0.580614932975 -0.539998973168
1.53302201468 4.9862033344 0.583408990511 -0.539284308609
1.5350233489 4.98246102012 0.586203048046 -0.53856964405
1.53702468312 4.97871870584 0.588997105581 -0.537854979489
1.53902601734 4.97497639156 0.591791163116 -0.537140314931
1.54102735157 4.97123407728 0.594585220652 -0.53642565037
1.54302868579 4.967491763 0.597379278187 -0.535710985811
1.54503002001 4.96374944872 0.600173335722 -0.534996321251
1.54703135424 4.96002792863 0.602969461832 -0.534249946669
1.54903268846 4.95655177993 0.605789997116 -0.533129393812
1.55103402268 4.95307563123 0.6086105324 -0.532008840956
1.5530353569 4.94959948253 0.611431067684 -0.5308882881
1.55503669113 4.94612333383 0.614251602968 -0.529767735244
1.55703802535 4.94264718514 0.617072138252 -0.528647182387
1.55903935957 4.93917103644 0.619892673536 -0.527526629531
1.5610406938 4.93569488774 0.62271320882 -0.526406076675
1.56304202802 4.93221873904 0.625533744104 -0.525285523819
1.56504336224 4.92874259034 0.628354279388 -0.524164970963
1.56704469646 4.92572718401 0.631500782718 -0.523599659262
1.56904603069 4.92290053996 0.634780832429 -0.523261825216
1.57104736491 4.92007389591 0.63806088214 -0.52292399117
1.57304869913 4.91724725186 0.64134093185 -0.522586157125
1.57505003336 4.91442060782 0.644620981561 -0.522248323078
1.57705136758 4.91159396377 0.647901031272 -0.521910489032
1.5790527018 4.90876731972 0.651181080983 -0.521572654986
1.58105403602 4.90594067567 0.654461130694 -0.52123482094
1.58305537025 4.90347423505 0.657771385459 -0.520706924399
1.58505670447 4.90135149998 0.661110461842 -0.519997670516
1.58705803869 4.89922876492 0.664449538224 -0.519288416633
1.58905937292 4.89710602985 0.667788614607 -0.51857916275
1.59106070714 4.89498329478 0.67112769099 -0.517869908868
1.59306204136 4.89286055971 0.674466767372 -0.517160654984
1.59506337558 4.89073782464 0.677805843755 -0.516451401102
1.59706470981 4.88861508958 0.681144920138 -0.515742147219
1.59906604403 4.88644742925 0.684403564798 -0.51488024759
1.60106737825 4.88418164858 0.687486540173 -0.513684957501
1.60306871247 4.88191586791 0.690569515548 -0.512489667413
1.6050700467 4.87965008725 0.693652490923 -0.511294377324
1.60707138092 4.87738430658 0.696735466298 -0.510099087236
1.60907271514 4.87511852591 0.699818441673 -0.508903797147
1.61107404937 4.87285274524 0.702901417048 -0.507708507059
1.61307538359 4.87058696458 0.705984392423 -0.50651321697
1.61507671781 4.86832118391 0.709067367798 -0.505317926882
1.61707805203 4.86605540324 0.712150343173 -0.504122636793
1.61907938626 4.8641436232 0.715274634669 -0.503214497946
1.62108072048 4.86225232252 0.718401316355 -0.502322971156
1.6230820547 4.86036102185 0.72152799804 -0.501431444365
1.62508338893 4.85846972117 0.724654679726 -0.500539917574
1.62708472315 4.8565784205 0.727781361411 -0.499648390783
1.62908605737 4.85468711983 0.730908043097 -0.498756863992
1.63108739159 4.85279581915 0.734034724782 -0.497865337201
1.63308872582 4.85090451848 0.737161406468 -0.49697381041
1.63509006004 4.84901321781 0.740288088153 -0.496082283619
1.63709139426 4.8472586388 0.743566223964 -0.495120309026
1.63909272849 4.84560447057 0.746955590312 -0.494106596345
1.64109406271 4.84395030234 0.750344956659 -0.493092883664
1.64309539693 4.8422961341 0.753734323007 -0.492079170983
1.64509673115 4.84064196587 0.757123689354 -0.491065458302
1.64709806538 4.83898779764 0.760513055702 -0.490051745621
1.6490993996 4.8373336294 0.763902422049 -0.489038032939
1.65110073382 4.83567946117 0.767291788397 -0.488024320258
1.65310206805 4.83364994043 0.770658599062 -0.487040319109
1.65510340227 4.83100515115 0.773988437012 -0.486105020367
1.65710473649 4.82836036187 0.777318274962 -0.485169721624
1.65910607071 4.82571557259 0.780648112911 -0.484234422883
1.66110740494 4.8230707833 0.783977950861 -0.48329912414
1.66310873916 4.82042599402 0.787307788811 -0.482363825398
1.66511007338 4.81778120474 0.79063762676 -0.481428526656
1.66711140761 4.81513641545 0.79396746471 -0.480493227914
1.66911274183 4.81251364688 0.797270191604 -0.479663785379
1.67111407605 4.80999035118 0.800450451317 -0.479312520888
1.67311541027 4.80746705548 0.803630711029 -0.478961256396
1.6751167445 4.80494375978 0.806810970741 -0.478609991904
1.67711807872 4.80242046408 0.809991230453 -0.478258727413
1.67911941294 4.79989716838 0.813171490166 -0.477907462921
1.68112074716 4.79737387268 0.816351749878 -0.477556198429
1.68312208139 4.79485057697 0.81953200959 -0.477204933937
1.68512341561 4.79232728127 0.822712269303 -0.476853669446
1.68712474983 4.78980398557 0.825892529015 -0.476502404954
1.68912608406 4.78626732415 0.828854975774 -0.476145233129
1.69112741828 4.7824968091 0.831767158006 -0.475786698074
1.6931287525 4.77872629405 0.834679340239 -0.47542816302
1.69513008672 4.774955779 0.837591522471 -0.475069627964
1.69713142095 4.77118526395 0.840503704703 -0.474711092909
1.69913275517 4.7674147489 0.843415886935 -0.474352557854
1.70113408939 4.76364423385 0.846328069167 -0.473994022799
1.70313542362 4.7598737188 0.849240251399 -0.473635487744
1.70513675784 4.75610320375 0.852152433631 -0.473276952689
1.70713809206 4.75219510239 0.855104461236 -0.472874812311
1.70913942628 4.74811453368 0.858106435858 -0.47241801174
1.71114076051 4.74403396496 0.861108410479 -0.471961211169
1.71314209473 4.73995339625 0.8641103851 -0.471504410597
1.71514342895 4.73587282754 0.867112359721 -0.471047610025
1.71714476318 4.73179225883 0.870114334342 -0.470590809454
1.7191460974 4.72771169012 0.873116308964 -0.470134008883
1.72114743162 4.72363112141 0.876118283585 -0.469677208311
1.72314876584 4.71917080422 0.879134970635 -0.469318766129
1.72515010007 4.71354713055 0.882196729094 -0.469261644094
1.72715143429 4.70792345689 0.885258487553 -0.46920452206
1.72915276851 4.70229978322 0.888320246012 -0.469147400025
1.73115410274 4.69667610956 0.891382004471 -0.469090277989
1.73315543696 4.69105243589 0.894443762931 -0.469033155954
1.73515677118 4.68542876223 0.89750552139 -0.468976033919
1.7371581054 4.67980508856 0.900567279849 -0.468918911884
1.73915943963 4.67419258129 0.903601779025 -0.468834192478
1.74116077385 4.66879943955 0.90610076518 -0.468207318299
1.74316210807 4.66340629782 0.908599751336 -0.46758044412
1.74516344229 4.65801315608 0.911098737492 -0.46695356994
1.74716477652 4.65262001435 0.913597723647 -0.466326695761
1.74916611074 4.64722687261 0.916096709803 -0.465699821581
1.75116744496 4.64183373088 0.918595695958 -0.465072947402
1.75316877919 4.63644058915 0.921094682114 -0.464446073223
1.75517011341 4.63104744741 0.923593668269 -0.463819199043
1.75717144763 4.62565430567 0.926092654425 -0.463192324864
1.75917278185 4.6196745706 0.928533645394 -0.462334068088
1.76117411608 4.61341839499 0.930947305299 -0.461366768939
1.7631754503 4.60716221938 0.933360965203 -0.460399469789
1.76517678452 4.60090604377 0.935774625108 -0.45943217064
1.76717811875 4.59464986816 0.938188285012 -0.458464871492
1.76917945297 4.58839369255 0.940601944917 -0.457497572343
1.77118078719 4.58213751694 0.943015604821 -0.456530273194
1.77318212141 4.57588134134 0.945429264726 -0.455562974044
1.77518345564 4.56962516572 0.94784292463 -0.454595674895
1.77718478986 4.56317005745 0.950428496511 -0.454000761719
1.77918612408 4.5562740984 0.953395039152 -0.454231085798
1.78118745831 4.54937813935 0.956361581793 -0.454461409877
1.78318879253 4.5424821803 0.959328124434 -0.454691733957
1.78519012675 4.53558622125 0.962294667075 -0.454922058036
1.78719146097 4.5286902622 0.965261209715 -0.455152382115
1.7891927952 4.52179430315 0.968227752356 -0.455382706194
1.79119412942 4.5148983441 0.971194294998 -0.455613030273
1.79319546364 4.50797499734 0.974135694916 -0.455786946438
1.79519679787 4.50083727091 0.976880288004 -0.455519324788
1.79719813209 4.49369954448 0.979624881092 -0.455251703137
1.79919946631 4.48656181806 0.98236947418 -0.454984081487
1.80120080053 4.47942409163 0.98511406727 -0.454716459837
1.80320213476 4.47228636521 0.987858660357 -0.454448838186
1.80520346898 4.46514863878 0.990603253446 -0.454181216536
1.8072048032 4.45801091235 0.993347846536 -0.453913594886
1.80920613742 4.45087318593 0.996092439624 -0.453645973235
1.81120747165 4.44345204529 0.998123552555 -0.452321364319
1.81320880587 4.43600478799 1.00008891817 -0.450899353847
1.81521014009 4.42855753069 1.00205428379 -0.449477343374
1.81721147432 4.42111027339 1.0040196494 -0.448055332902
1.81921280854 4.41366301609 1.00598501502 -0.446633322429
1.82121414276 4.40621575879 1.00795038063 -0.445211311956
1.82321547698 4.39876850149 1.00991574625 -0.443789301483
1.82521681121 4.39132124419 1.01188111186 -0.442367291011
1.82721814543 4.38387398689 1.01384647748 -0.440945280538
1.82921947965 4.37615935368 1.01577134788 -0.439592061296
1.83122081388 4.36822318043 1.0176626651 -0.438295840502
1.8332221481 4.36028700718 1.01955398233 -0.436999619708
1.83522348232 4.35235083393 1.02144529955 -0.435703398914
1.83722481654 4.34441466068 1.02333661677 -0.434407178119
1.83922615077 4.33647848743 1.025227934 -0.433110957326
1.84122748499 4.32854231418 1.02711925122 -0.431814736532
1.84322881921 4.32060614093 1.02901056845 -0.430518515738
1.84523015344 4.31266996768 1.03090188567 -0.429222294943
1.84723148766 4.30494110107 1.03296617918 -0.428056255625
1.84923282188 4.29816875458 1.03582859135 -0.427490878203
1.8512341561 4.29139640809 1.03869100352 -0.42692550078
1.85323549033 4.2846240616 1.04155341569 -0.426360123358
1.85523682455 4.27785171511 1.04441582786 -0.425794745935
1.85723815877 4.27107936862 1.04727824002 -0.425229368513
1.859239493 4.26430702213 1.05014065219 -0.424663991091
1.86124082722 4.25753467564 1.05300306436 -0.424098613669
1.86324216144 4.25076232915 1.05586547653 -0.423533236247
1.86524349566 4.24327973102 1.05774617218 -0.422464906168
1.86724482989 4.23578298444 1.05960731173 -0.421386557113
1.86924616411 4.22828623787 1.06146845128 -0.420308208057
1.87124749833 4.22078949129 1.06332959083 -0.419229859002
1.87324883256 4.21329274471 1.06519073038 -0.418151509946
1.87525016678 4.20579599814 1.06705186992 -0.41707316089
1.877251501 4.19829925156 1.06891300947 -0.415994811835
1.87925283522 4.19080250499 1.07077414902 -0.414916462779
1.88125416945 4.1836270803 1.07301289642 -0.413922252847
1.88325550367 4.1765408048 1.07535640928 -0.412951386904
1.88525683789 4.1694545293 1.07769992213 -0.411980520961
1.88725817211 4.16236825381 1.08004343499 -0.411009655018
1.88925950634 4.15528197831 1.08238694784 -0.410038789074
1.89126084056 4.14819570281 1.0847304607 -0.409067923131
1.89326217478 4.14110942731 1.08707397355 -0.408097057188
1.89526350901 4.13402315182 1.08941748641 -0.407126191244
1.89726484323 4.12693687632 1.09176099926 -0.406155325301
1.89926617745 4.11928254199 1.09385676205 -0.405448930621
1.90126751167 4.11082435082 1.09560193514 -0.40511678773
1.9032688459 4.10236615966 1.09734710822 -0.404784644839
1.90527018012 4.09390796849 1.0990922813 -0.404452501948
1.90727151434 4.08544977732 1.10083745438 -0.404120359057
1.90927284857 4.07699158615 1.10258262746 -0.403788216166
1.91127418279 4.06853339498 1.10432780054 -0.403456073275
1.91327551701 4.06007520382 1.10607297363 -0.403123930384
1.91527685123 4.05161701265 1.10781814671 -0.402791787493
1.91727818546 4.04309488747 1.10953506275 -0.402387250091
1.91927951968 4.03322573868 1.11065663209 -0.40045743522
1.9212808539 4.0233565899 1.11177820144 -0.39852762035
1.92328218813 4.01348744112 1.11289977078 -0.39659780548
1.92528352235 4.00361829233 1.11402134013 -0.394667990611
1.92728485657 3.99374914355 1.11514290947 -0.39273817574
1.92928619079 3.98387999477 1.11626447882 -0.39080836087
1.93128752502 3.97401084599 1.11738604817 -0.388878546
1.93328885924 3.9641416972 1.11850761751 -0.38694873113
1.93529019346 3.95513660717 1.1202507874 -0.385767745589
1.93729152769 3.94628680879 1.12210567351 -0.384721342278
1.93929286191 3.93743701042 1.12396055963 -0.383674938967
1.94129419613 3.92858721204 1.12581544574 -0.382628535656
1.94329553035 3.91973741367 1.12767033186 -0.381582132345
1.94529686458 3.91088761529 1.12952521797 -0.380535729033
1.9472981988 3.90203781692 1.13138010409 -0.379489325722
1.94929953302 3.89318801854 1.1332349902 -0.378442922411
1.95130086724 3.88417699594 1.13489873855 -0.378292170332
1.95330220147 3.87507916029 1.13645956656 -0.378623691993
1.95530353569 3.86598132464 1.13802039457 -0.378955213655
1.95730486991 3.85688348899 1.13958122259 -0.379286735316
1.95930620414 3.84778565334 1.1411420506 -0.379618256977
1.96130753836 3.83868781769 1.14270287861 -0.379949778638
1.96330887258 3.82958998204 1.14426370663 -0.380281300299
1.9653102068 3.82049214639 1.14582453464 -0.38061282196
1.96731154103 3.81139431074 1.14738536265 -0.380944343622
1.96931287525 3.80241925392 1.14896482349 -0.381110092115
1.97131420947 3.79375796523 1.15059190155 -0.380852198069
1.9733155437 3.78509667654 1.15221897962 -0.380594304023
1.97531687792 3.77643538785 1.15384605768 -0.380336409976
1.97731821214 3.76777409917 1.15547313574 -0.38007851593
1.97931954636 3.75911281047 1.15710021381 -0.379820621884
1.98132088059 3.75045152179 1.15872729187 -0.379562727838
1.98332221481 3.7417902331 1.16035436993 -0.379304833791
1.98532354903 3.73312894441 1.161981448 -0.379046939745
1.98732488326 3.72446765572 1.16360852606 -0.378789045699
1.98932621748 3.71540557748 1.16530162258 -0.378120162126
1.9913275517 3.70630506736 1.16700104963 -0.377411868598
1.99332888592 3.69720455724 1.16870047668 -0.376703575071
1.99533022015 3.68810404713 1.17039990374 -0.375995281544
1.99733155437 3.67900353701 1.17209933079 -0.375286988016
1.99933288859 3.6699030269 1.17379875784 -0.374578694489
2.00133422282 3.66080251678 1.17549818489 -0.373870400961
2.00333555704 3.65170200667 1.17719761195 -0.373162107434
2.00533689126 3.64057863291 1.17734538471 -0.372860968094
2.00733822548 3.62864832446 1.17687419155 -0.372722245451
2.00933955971 3.61671801602 1.1764029984 -0.372583522809
2.01134089393 3.60478770758 1.17593180524 -0.372444800166
2.01334222815 3.59285739914 1.17546061209 -0.372306077523
2.01534356237 3.5809270907 1.17498941893 -0.372167354881
2.0173448966 3.56899678226 1.17451822578 -0.372028632238
2.01934623082 3.55706647382 1.17404703262 -0.371889909596
2.02134756504 3.54600800789 1.17366005552 -0.371307063264
2.02334889927 3.53576343725 1.17335169704 -0.370309612037
2.02535023349 3.52551886661 1.17304333855 -0.369312160811
2.02735156771 3.51527429596 1.17273498007 -0.368314709585
2.02935290193 3.50502972532 1.17242662158 -0.367317258359
2.03135423616 3.49478515468 1.1721182631 -0.366319807133
2.03335557038 3.48454058403 1.17180990461 -0.365322355907
2.0353569046 3.47429601339 1.17150154612 -0.36432490468
2.03735823883 3.46405144275 1.17119318764 -0.363327453454
2.03935957305 3.45422664139 1.17088767761 -0.362330375271
2.04136090727 3.44680999012 1.17059850876 -0.36133543717
2.04336224149 3.43939333884 1.17030933991 -0.36034049907
2.04536357572 3.43197668757 1.17002017106 -0.35934556097
2.04736490994 3.4245600363 1.16973100221 -0.35835062287
2.04936624416 3.41714338503 1.16944183335 -0.35735568477
2.05136757839 3.40972673376 1.1691526645 -0.356360746671
2.05336891261 3.40231008249 1.16886349565 -0.355365808571
2.05537024683 3.39489343122 1.1685743268 -0.35437087047
2.05737158105 3.38747677995 1.16828515795 -0.35337593237
2.05937291528 3.38092414895 1.16914518941 -0.353409980669
2.0613742495 3.37461565995 1.1703299448 -0.353734784644
2.06337558372 3.36830717096 1.17151470019 -0.35405958862
2.06537691795 3.36199868196 1.17269945559 -0.354384392595
2.06737825217 3.35569019296 1.17388421098 -0.35470919657
2.06937958639 3.34938170396 1.17506896637 -0.355034000545
2.07138092061 3.34307321496 1.17625372177 -0.35535880452
2.07338225484 3.33676472596 1.17743847716 -0.355683608495
2.07538358906 3.33198061572 1.17893813604 -0.354932687908
2.07738492328 3.32829119357 1.18066393366 -0.353409267133
2.0793862575 3.32460177142 1.18238973127 -0.351885846358
2.08138759173 3.32091234928 1.1841155289 -0.350362425583
2.08338892595 3.31722292713 1.18584132652 -0.348839004807
2.08539026017 3.31353350499 1.18756712414 -0.347315584032
2.0873915944 3.30984408284 1.18929292175 -0.345792163257
2.08939292862 3.30615466069 1.19101871938 -0.344268742481
2.09139426284 3.3028868414 1.19267988656 -0.343015965177
2.09339559706 3.30029427222 1.19423753994 -0.342196657498
2.09539693129 3.29770170304 1.19579519333 -0.341377349818
2.09739826551 3.29510913386 1.19735284672 -0.340558042139
2.09939959973 3.29251656468 1.19891050011 -0.339738734459
2.10140093396 3.28992399549 1.2004681535 -0.33891942678
2.10340226818 3.28733142631 1.20202580689 -0.3381001191
2.1054036024 3.28473885713 1.20358346028 -0.33728081142
2.10740493662 3.28214628795 1.20514111366 -0.336461503741
2.10940627085 3.27943306334 1.20663070591 -0.335642158681
2.11140760507 3.26911854662 1.20383244593 -0.33482045866
2.11340893929 3.2588040299 1.20103418596 -0.333998758639
2.11541027352 3.24848951318 1.19823592598 -0.333177058617
2.11741160774 3.23817499646 1.19543766601 -0.332355358596
2.11941294196 3.22786047975 1.19263940603 -0.331533658575
2.12141427618 3.21754596303 1.18984114606 -0.330711958554
2.12341561041 3.20723144631 1.18704288608 -0.329890258532
2.12541694463 3.19691692959 1.18424462611 -0.329068558511
2.12741827885 3.18660241288 1.18144636613 -0.32824685849
2.12941961308 3.17521646753 1.17747219328 -0.327292480322
2.1314209473 3.16324563602 1.17285609698 -0.326265673987
2.13342228152 3.15127480451 1.16824000067 -0.325238867653
2.13542361574 3.13930397301 1.16362390436 -0.324212061318
2.13742494997 3.1273331415 1.15900780805 -0.323185254983
2.13942628419 3.11536230999 1.15439171175 -0.322158448648
2.14142761841 3.10339147848 1.14977561544 -0.321131642313
2.14342895264 3.09142064698 1.14515951913 -0.320104835978
2.14543028686 3.08511972568 1.14296069651 -0.318643691859
2.14743162108 3.08577060734 1.14372566162 -0.316650011849
2.1494329553 3.086421489 1.14449062674 -0.314656331838
2.15143428953 3.08707237065 1.14525559185 -0.312662651828
2.15343562375 3.08772325231 1.14602055696 -0.310668971817
2.15543695797 3.08837413397 1.14678552207 -0.308675291807
2.15743829219 3.08902501563 1.14755048719 -0.306681611796
2.15943962642 3.08967589729 1.1483154523 -0.304687931785
2.16144096064 3.08936711529 1.1485888627 -0.302730646394
2.16344229486 3.0862031849 1.14739982147 -0.300881640648
2.16544362909 3.08303925451 1.14621078025 -0.299032634901
2.16744496331 3.07987532412 1.14502173903 -0.297183629154
2.16944629753 3.07671139373 1.1438326978 -0.295334623408
2.17144763175 3.07354746334 1.14264365658 -0.293485617661
2.17344896598 3.07038353295 1.14145461535 -0.291636611914
2.1754503002 3.06721960256 1.14026557413 -0.289787606168
2.17745163442 3.06405567217 1.13907653291 -0.287938600421
2.17945296865 3.06089174178 1.13788749168 -0.286089594674
2.18145430287 3.07158732276 1.14356773238 -0.283990764959
2.18345563709 3.08412266188 1.15015982467 -0.28185877277
2.18545697131 3.09665800101 1.15675191696 -0.279726780581
2.18745830554 3.10919334014 1.16334400924 -0.277594788392
2.18945963976 3.12172867926 1.16993610153 -0.275462796203
2.19146097398 3.13426401839 1.17652819381 -0.273330804014
2.19346230821 3.14679935751 1.1831202861 -0.271198811825
2.19546364243 3.15933469664 1.18971237838 -0.269066819636
2.19746497665 3.17187003577 1.19630447067 -0.266934827447
2.19946631087 3.18296916115 1.20236683388 -0.265260323849
2.2014676451 3.19271064984 1.20792845015 -0.264018279071
2.20346897932 3.20245213852 1.21349006641 -0.262776234292
2.20547031354 3.21219362721 1.21905168268 -0.261534189514
2.20747164777 3.2219351159 1.22461329895 -0.260292144736
2.20947298199 3.23167660458 1.23017491522 -0.259050099958
2.21147431621 3.24141809327 1.23573653149 -0.257808055179
2.21347565043 3.25115958196 1.24129814776 -0.256566010401
2.21547698466 3.25326725998 1.24269220738 -0.2568234645
2.21747831888 3.23888213717 1.23508228658 -0.260320576666
2.2194796531 3.22449701436 1.22747236578 -0.263817688833
2.22148098732 3.21011189156 1.21986244498 -0.267314800999
2.22348232155 3.19572676875 1.21225252417 -0.270811913166
2.22548365577 3.18134164594 1.20464260337 -0.274309025332
2.22748498999 3.16695652313 1.19703268257 -0.277806137499
2.22948632422 3.15257140033 1.18942276177 -0.281303249666
2.23148765844 3.13872193613 1.18213227609 -0.284707832359
2.23348899266 3.12884762266 1.17721233521 -0.287425748966
2.23549032688 3.11897330919 1.17229239433 -0.290143665573
2.23749166111 3.10909899572 1.16737245345 -0.292861582181
2.23949299533 3.09922468224 1.16245251257 -0.295579498788
2.24149432955 3.08935036877 1.15753257169 -0.298297415395
2.24349566378 3.0794760553 1.15261263081 -0.301015332002
2.245496998 3.06960174183 1.14769268993 -0.303733248609
2.24749833222 3.05972742836 1.14277274905 -0.306451165216
2.24949966644 3.04985311489 1.13785280818 -0.309169081823
2.25150100067 3.03968328692 1.13297457622 -0.312799410715
2.25350233489 3.02941495414 1.12811024724 -0.316733877036
2.25550366911 3.01914662135 1.12324591826 -0.320668343356
2.25750500334 3.00887828855 1.11838158928 -0.324602809677
2.25950633756 2.99860995577 1.1135172603 -0.328537275997
2.26150767178 2.98834162298 1.10865293132 -0.332471742318
2.263509006 2.97807329018 1.10378860234 -0.336406208638
2.26551034023 2.96780495739 1.09892427336 -0.340340674959
2.26751167445 2.9575366246 1.09405994438 -0.34427514128
2.26951300867 2.95325647612 1.09217924544 -0.347518303324
2.2715143429 2.95869485627 1.09514083131 -0.349639512525
2.27351567712 2.96413323641 1.09810241718 -0.351760721727
2.27551701134 2.96957161656 1.10106400306 -0.353881930929
2.27751834556 2.97500999671 1.10402558893 -0.35600314013
2.27951967979 2.98044837685 1.1069871748 -0.358124349332
2.28152101401 2.985886757 1.10994876068 -0.360245558533
2.28352234823 2.99132513715 1.11291034655 -0.362366767735
2.28552368245 3.00828405575 1.12091416818 -0.364158333168
2.28752501668 3.07647260284 1.15133984669 -0.364484035888
2.2895263509 3.14466114993 1.1817655252 -0.364809738607
2.29152768512 3.21284969703 1.21219120371 -0.365135441326
2.29352901935 3.28103824412 1.24261688222 -0.365461144046
2.29553035357 3.34922679121 1.27304256074 -0.365786846765
2.29753168779 3.4174153383 1.30346823925 -0.366112549484
2.29953302201 3.48560388539 1.33389391776 -0.366438252203
2.30153435624 3.55379243248 1.36431959627 -0.366763954923
2.30353569046 3.59989468619 1.3848360357 -0.368207793158
2.30553702468 3.64568192145 1.40521113892 -0.369667579443
2.30753835891 3.69146915671 1.42558624213 -0.371127365729
2.30953969313 3.73725639196 1.44596134535 -0.372587152015
2.31154102735 3.78304362722 1.46633644857 -0.3740469383
2.31354236157 3.82883086248 1.48671155178 -0.375506724586
2.3155436958 3.87461809774 1.507086655 -0.376966510871
2.31754503002 3.920405333 1.52746175822 -0.378426297157
2.31954636424 3.96619256826 1.54783686143 -0.379886083443
2.32154769847 4.04362319869 1.57771439493 -0.378928332056
2.32354903269 4.14068074512 1.61348584089 -0.376471095277
2.32555036691 4.23773829154 1.64925728684 -0.374013858498
2.32755170113 4.33479583797 1.6850287328 -0.371556621718
2.32955303536 4.4318533844 1.72080017876 -0.369099384939
2.33155436958 4.52891093083 1.75657162471 -0.36664214816
2.3335557038 4.62596847726 1.79234307067 -0.364184911381
2.33555703803 4.72302602368 1.82811451662 -0.361727674602
2.33755837225 4.82008357011 1.86388596258 -0.359270437823
2.33955970647 4.91984863518 1.90116087985 -0.35623331783
2.34156104069 5.02780436987 1.94298403423 -0.351441959937
2.34356237492 5.13576010456 1.98480718861 -0.346650602043
2.34556370914 5.24371583925 2.02663034299 -0.34185924415
2.34756504336 5.35167157393 2.06845349737 -0.337067886257
2.34956637759 5.45962730862 2.11027665175 -0.332276528364
2.35156771181 5.56758304331 2.15209980614 -0.327485170471
2.35356904603 5.67553877799 2.19392296052 -0.322693812578
2.35557038025 5.78393022313 2.23601724575 -0.317525863069
2.35757171448 5.90046610218 2.28317959231 -0.305318547202
2.3595730487 6.01700198123 2.33034193887 -0.293111231335
2.36157438292 6.13353786027 2.37750428543 -0.280903915468
2.36357571714 6.25007373932 2.42466663199 -0.268696599601
2.36557705137 6.36660961837 2.47182897854 -0.256489283734
2.36757838559 6.48314549741 2.5189913251 -0.244281967867
2.36957971981 6.59968137646 2.56615367166 -0.232074652
2.37158105404 6.7162172555 2.61331601822 -0.219867336133
2.37358238826 6.83624094409 2.66016827083 -0.20842084322
2.37558372248 6.95686509806 2.7069671373 -0.197105334479
2.3775850567 7.07748925202 2.75376600378 -0.185789825738
2.37958639093 7.19811340599 2.80056487025 -0.174474316997
2.38158772515 7.31873755995 2.84736373672 -0.163158808256
2.38358905937 7.43936171392 2.89416260319 -0.151843299515
2.3855903936 7.55998586788 2.94096146967 -0.140527790774
2.38759172782 7.68061002185 2.98776033614 -0.129212282033
2.38959306204 7.80123417581 3.03455920261 -0.117896773292
2.39159439626 7.91304823963 3.07794625418 -0.106830783794
2.39359573049 8.0154838204 3.11770137374 -0.096030411554
2.39559706471 8.11791940116 3.15745649331 -0.0852300393143
2.39759839893 8.22035498192 3.19721161288 -0.0744296670746
2.39959973316 8.32279056269 3.23696673245 -0.063629294835
2.40160106738 8.42522614345 3.27672185201 -0.0528289225952
2.4036024016 8.52766172421 3.31647697158 -0.0420285503555
2.40560373582 8.63009730498 3.35623209114 -0.0312281781158
2.40760507005 8.73253288574 3.39598721071 -0.020427805876
2.40960640427 8.83280339272 3.43467644613 -0.00999715275782
2.41160773849 8.916514011 3.46521310821 -0.00239435130103
2.41360907272 9.00022462928 3.49574977029 0.00520845015579
2.41561040694 9.08393524756 3.52628643238 0.0128112516126
2.41761174116 9.16764586584 3.55682309446 0.0204140530694
2.41961307538 9.25135648412 3.58735975654 0.0280168545265
2.42161440961 9.3350671024 3.61789641862 0.0356196559833
2.42361574383 9.41877772068 3.6484330807 0.0432224574402
2.42561707805 9.50248833896 3.67896974278 0.050825258897
2.42761841227 9.54010977203 3.68299206421 0.0504837844734
2.4296197465 9.57361259706 3.68464501901 0.0494323960345
2.43162108072 9.60711542209 3.68629797383 0.0483810075957
2.43362241494 9.64061824711 3.68795092864 0.047329619157
2.43562374917 9.67412107214 3.68960388344 0.0462782307181
2.43762508339 9.70762389717 3.69125683825 0.0452268422793
2.43962641761 9.74112672219 3.69290979306 0.0441754538404
2.44162775183 9.77462954723 3.69456274787 0.0431240654018
2.44362908606 9.82048297786 3.70293688456 0.0436460378047
2.44563042028 9.87113197983 3.71392076433 0.0447789247215
2.4476317545 9.92178098184 3.7249046441 0.0459118116382
2.44963308873 9.97242998382 3.73588852386 0.0470446985548
2.45163442295 10.0230789858 3.74687240363 0.0481775854716
2.45363575717 10.0737279878 3.75785628339 0.0493104723883
2.45563709139 10.1243769898 3.76884016316 0.0504433593051
2.45763842562 10.1750259918 3.77982404293 0.0515762462218
2.45963975984 10.2256749938 3.79080792269 0.0527091331384
2.46164109406 10.2628355701 3.79585231653 0.0525575071833
2.46364242829 10.2751174945 3.78994165854 0.0500366685977
2.46564376251 10.2873994188 3.78403100055 0.0475158300121
2.46764509673 10.2996813432 3.77812034255 0.0449949914264
2.46964643095 10.3119632676 3.77220968456 0.0424741528406
2.47164776518 10.324245192 3.76629902657 0.039953314255
2.4736490994 10.3365271164 3.76038836857 0.0374324756692
2.47565043362 10.3488090408 3.75447771058 0.0349116370836
2.47765176785 10.3610909652 3.74856705259 0.032390798498
2.47965310207 10.3733728896 3.7426563946 0.0298699599122
2.48165443629 10.3772083053 3.73289422615 0.0281389576397
2.48365577051 10.3808960078 3.7230647022 0.026421768085
2.48565710474 10.3845837103 3.71323517825 0.0247045785301
2.48765843896 10.3882714128 3.7034056543 0.0229873889753
2.48965977318 10.3919591153 3.69357613035 0.0212701994204
2.4916611074 10.3956468179 3.6837466064 0.0195530098657
2.49366244163 10.3993345204 3.67391708245 0.0178358203109
2.49566377585 10.4030222229 3.6640875585 0.016118630756
2.49766511007 10.4004075843 3.65414500222 0.0150083352311
2.4996664443 10.3960684246 3.6441715167 0.0140641052366
2.50166777852 10.3917292648 3.63419803118 0.0131198752422
2.50366911274 10.3873901051 3.62422454565 0.0121756452478
2.50567044696 10.3830509453 3.61425106013 0.0112314152534
2.50767178119 10.3787117855 3.60427757461 0.010287185259
2.50967311541 10.3743726258 3.59430408909 0.00934295526457
2.51167444963 10.370033466 3.58433060356 0.00839872527017
2.51367578386 10.3671743494 3.57511417906 0.00788143119564
2.51567711808 10.365354412 3.56642930805 0.00766390063934
2.5176784523 10.3635344745 3.55774443704 0.00744637008305
2.51967978652 10.361714537 3.54905956602 0.00722883952676
2.52168112075 10.3598945996 3.54037469501 0.00701130897048
2.52368245497 10.3580746622 3.53168982399 0.00679377841416
2.52568378919 10.3562547247 3.52300495298 0.00657624785788
2.52768512342 10.3544347873 3.51432008197 0.00635871730157
2.52968645764 10.3526148498 3.50563521095 0.00614118674528
2.53168779186 10.3503785777 3.4971289252 0.00582304115378
2.53368912608 10.3466553958 3.48926044399 0.00514555615071
2.53569046031 10.342932214 3.48139196278 0.00446807114764
2.53769179453 10.3392090322 3.47352348157 0.00379058614459
2.53969312875 10.3354858504 3.46565500036 0.00311310114153
2.54169446298 10.3317626686 3.45778651915 0.00243561613845
2.5436957972 10.3280394868 3.44991803794 0.0017581311354
2.54569713142 10.324316305 3.44204955673 0.00108064613234
2.54769846564 10.3205931231 3.43418107552 0.000403161129266
2.54969979987 10.3168699413 3.4263125943 -0.000274323873786
2.55170113409 10.3139415042 3.41827607562 -0.00118223648128
2.55370246831 10.3111533162 3.41020990326 -0.00213081278368
2.55570380253 10.3083651282 3.4021437309 -0.00307938908609
2.55770513676 10.3055769401 3.39407755855 -0.00402796538849
2.55970647098 10.3027887521 3.38601138619 -0.00497654169088
2.5617078052 10.300000564 3.37794521383 -0.00592511799328
2.56370913943 10.297212376 3.36987904147 -0.00687369429569
2.56571047365 10.294424188 3.36181286912 -0.00782227059809
2.56771180787 10.2925987962 3.35415638254 -0.00690941315743
2.56971314209 10.2912865115 3.34671823149 -0.00500453414097
2.57171447632 10.2899742267 3.33928008044 -0.00309965512453
2.57371581054 10.288661942 3.33184192939 -0.00119477610808
2.57571714476 10.2873496572 3.32440377835 0.000710102908365
2.57771847899 10.2860373725 3.3169656273 0.00261498192483
2.57971981321 10.2847250878 3.30952747625 0.00451986094126
2.58172114743 10.283412803 3.3020893252 0.00642473995771
2.58372248165 10.281425747 3.29492592802 0.00708063794371
2.58572381588 10.2786294292 3.28809204664 0.0062386170992
2.5877251501 10.2758331115 3.28125816526 0.00539659625469
2.58972648432 10.2730367937 3.27442428387 0.00455457541016
2.59172781855 10.2702404759 3.26759040249 0.00371255456564
2.59372915277 10.2674441581 3.26075652111 0.00287053372112
2.59573048699 10.2646478403 3.25392263973 0.00202851287662
2.59773182121 10.2618515226 3.24708875834 0.0011864920321
2.59973315544 10.2590552048 3.24025487696 0.000344471187596
2.60173448966 10.2563436965 3.23344762199 -0.000341562627494
2.60373582388 10.2545342528 3.22692357519 0.000631538325852
2.60573715811 10.252724809 3.2203995284 0.00160463927922
2.60773849233 10.2509153653 3.2138754816 0.00257774023255
2.60973982655 10.2491059216 3.20735143481 0.00355084118591
2.61174116077 10.2472964779 3.20082738801 0.00452394213925
2.613742495 10.2454870341 3.19430334121 0.00549704309261
2.61574382922 10.2436775904 3.18777929442 0.00647014404598
2.61774516344 10.2418681467 3.18125524762 0.00744324499932
2.61974649767 10.2400587029 3.17473120083 0.00841634595267
2.62174783189 10.2386717515 3.16780321449 0.00891869226861
2.62374916611 10.2374514037 3.16071594044 0.00923540331356
2.62575050033 10.2362310559 3.15362866639 0.00955211435853
2.62775183456 10.2350107081 3.14654139234 0.00986882540348
2.62975316878 10.2337903604 3.13945411829 0.0101855364485
2.631754503 10.2325700126 3.13236684424 0.0105022474934
2.63375583722 10.2313496648 3.1252795702 0.0108189585384
2.63575717145 10.230129317 3.11819229615 0.0111356695833
2.63775850567 10.2285068809 3.11153896033 0.0103889242157
2.63975983989 10.2265125888 3.10528693582 0.00865868156405
2.64176117412 10.2245182966 3.09903491131 0.00692843891241
2.64376250834 10.2225240045 3.09278288681 0.00519819626075
2.64576384256 10.2205297123 3.08653086229 0.00346795360911
2.64776517678 10.2185354201 3.08027883778 0.00173771095747
2.64976651101 10.216541128 3.07402681328 7.46830583321e-06
2.65176784523 10.2145468358 3.06777478877 -0.00172277434581
2.65376917945 10.2131238066 3.06145934894 -0.00284209755372
2.65577051368 10.2129043121 3.05501030599 -0.00267433804992
2.6577718479 10.2126848177 3.04856126303 -0.00250657854612
2.65977318212 10.2124653232 3.04211222008 -0.00233881904232
2.66177451634 10.2122458287 3.03566317713 -0.00217105953852
2.66377585057 10.2120263343 3.02921413417 -0.00200330003473
2.66577718479 10.2118068398 3.02276509122 -0.00183554053091
2.66777851901 10.2115873454 3.01631604826 -0.00166778102712
2.66977985324 10.2113678509 3.0098670053 -0.00150002152332
2.67178118746 10.2111483564 3.00341796235 -0.00133226201952
2.67378252168 10.2106526465 2.99767910933 -0.00188629520102
2.6757838559 10.2101433523 2.99197518368 -0.0024758263835
2.67778519013 10.209634058 2.98627125803 -0.00306535756593
2.67978652435 10.2091247638 2.98056733239 -0.00365488874841
2.68178785857 10.2086154696 2.97486340674 -0.00424441993086
2.6837891928 10.2081061753 2.96915948109 -0.00483395111333
2.68579052702 10.2075968811 2.96345555544 -0.00542348229577
2.68779186124 10.2070875868 2.9577516298 -0.00601301347824
2.68979319546 10.2065782926 2.95204770415 -0.0066025446607
2.69179452969 10.2053964907 2.94610296594 -0.00632760678453
2.69379586391 10.2037363813 2.93998695461 -0.005437832626
2.69579719813 10.2020762719 2.93387094329 -0.00454805846745
2.69779853235 10.2004161625 2.92775493196 -0.0036582843089
2.69979986658 10.198756053 2.92163892064 -0.00276851015033
2.7018012008 10.1970959436 2.91552290931 -0.00187873599181
2.70380253502 10.1954358342 2.90940689799 -0.00098896183324
2.70580386925 10.1937757247 2.90329088667 -9.91876746834e-05
2.70780520347 10.1926503438 2.89706962857 0.000513717490965
2.70980653769 10.1923729664 2.89068146399 0.000687547587016
2.71180787191 10.1920955891 2.88429329941 0.000861377683081
2.71380920614 10.1918182118 2.87790513483 0.00103520777913
2.71581054036 10.1915408344 2.87151697025 0.00120903787519
2.71781187458 10.1912634571 2.86512880567 0.00138286797125
2.71981320881 10.1909860798 2.85874064108 0.00155669806728
2.72181454303 10.1907087024 2.8523524765 0.00173052816335
2.72381587725 10.1902185244 2.84608582205 0.00199247218758
2.72581721147 10.1888155898 2.84034035571 0.00263235942449
2.7278185457 10.1874126551 2.83459488936 0.00327224666142
2.72981987992 10.1860097205 2.82884942302 0.00391213389832
2.73182121414 10.1846067858 2.82310395667 0.00455202113524
2.73382254837 10.1832038512 2.81735849032 0.00519190837214
2.73582388259 10.1818009165 2.81161302397 0.00583179560905
2.73782521681 10.1803979819 2.80586755763 0.00647168284596
2.73982655103 10.1789950472 2.80012209128 0.00711157008289
2.74182788526 10.1775921126 2.79437662494 0.0077514573198
2.74382921948 10.1763621179 2.78858882769 0.00785089589986
2.7458305537 10.1751700054 2.78279175797 0.0078319504884
2.74783188793 10.1739778928 2.77699468824 0.00781300507693
2.74983322215 10.1727857802 2.77119761852 0.00779405966545
2.75183455637 10.1715936677 2.76540054879 0.00777511425401
2.75383589059 10.1704015551 2.75960347907 0.00775616884255
2.75583722482 10.1692094426 2.75380640934 0.00773722343109
2.75783855904 10.16801733 2.74800933962 0.00771827801963
2.75983989326 10.1668252175 2.7422122699 0.00769933260816
2.76184122748 10.1661277611 2.73656040058 0.00711023026436
2.76384256171 10.1660310811 2.73108488194 0.00582865358392
2.76584389593 10.165934401 2.7256093633 0.00454707690346
2.76784523015 10.1658377209 2.72013384467 0.00326550022305
2.76984656438 10.1657410409 2.71465832603 0.00198392354262
2.7718478986 10.1656443608 2.70918280738 0.000702346862205
2.77384923282 10.1655476808 2.70370728874 -0.000579229818244
2.77585056704 10.1654510007 2.69823177011 -0.00186080649866
2.77785190127 10.1653941267 2.69288719113 -0.00266859562734
2.77985323549 10.1654542215 2.68792737333 -0.00208417825742
2.78185456971 10.1655143163 2.68296755553 -0.00149976088754
2.78385590394 10.1655744111 2.67800773773 -0.000915343517618
2.78585723816 10.1656345059 2.67304791994 -0.000330926147734
2.78785857238 10.1656946007 2.66808810214 0.000253491222173
2.7898599066 10.1657546955 2.66312828434 0.000837908592077
2.79186124083 10.1658147903 2.65816846654 0.00142232596197
2.79386257505 10.1658341353 2.65320882203 0.00189704079118
2.79586390927 10.1651697909 2.6482520849 0.000531190769859
2.7978652435 10.1645054465 2.64329534777 -0.000834659251455
2.79986657772 10.1638411021 2.63833861064 -0.00220050927276
2.80186791194 10.1631767576 2.63338187352 -0.00356635929409
2.80386924616 10.1625124132 2.62842513639 -0.00493220931541
2.80587058039 10.1618480688 2.62346839926 -0.00629805933674
2.80787191461 10.1611837244 2.61851166213 -0.00766390935803
2.80987324883 10.1605193799 2.61355492501 -0.00902975937937
2.81187458306 10.1598550355 2.60859818788 -0.0103956094007
2.81387591728 10.1592087801 2.60388553012 -0.0105264855996
2.8158772515 10.1585707469 2.59928381754 -0.010096010061
2.81787858572 10.1579327138 2.59468210495 -0.00966553452231
2.81987991995 10.1572946806 2.59008039237 -0.00923505898369
2.82188125417 10.1566566474 2.58547867979 -0.00880458344505
2.82388258839 10.1560186143 2.5808769672 -0.0083741079064
2.82588392262 10.1553805811 2.57627525462 -0.00794363236776
2.82788525684 10.1547425479 2.57167354203 -0.00751315682913
2.82988659106 10.1541045147 2.56707182945 -0.00708268129047
2.83188792528 10.153699248 2.56227310713 -0.00651857113346
2.83388925951 10.1537914625 2.55705332481 -0.00566884973314
2.83589059373 10.1538836771 2.55183354248 -0.00481912833283
2.83789192795 10.1539758916 2.54661376016 -0.0039694069325
2.83989326217 10.1540681061 2.54139397784 -0.00311968553219
2.8418945964 10.1541603206 2.53617419551 -0.00226996413187
2.84389593062 10.1542525351 2.53095441319 -0.00142024273157
2.84589726484 10.1543447497 2.52573463086 -0.000570521331246
2.84789859907 10.1543653246 2.52057941475 4.32566176085e-05
2.84989993329 10.1538659345 2.51589282436 -0.00105545822693
2.85190126751 10.1533665445 2.51120623396 -0.00215417307146
2.85390260173 10.1528671544 2.50651964357 -0.00325288791602
2.85590393596 10.1523677644 2.50183305318 -0.00435160276054
2.85790527018 10.1518683743 2.49714646278 -0.00545031760509
2.8599066044 10.1513689843 2.49245987239 -0.00654903244962
2.86190793863 10.1508695942 2.487773282 -0.00764774729415
2.86390927285 10.1503702041 2.4830866916 -0.0087464621387
2.86591060707 10.1499223492 2.47819020752 -0.00753464043838
2.86791194129 10.149478767 2.47327632109 -0.00613125141022
2.86991327552 10.1490351849 2.46836243465 -0.00472786238206
2.87191460974 10.1485916028 2.46344854822 -0.0033244733539
2.87391594396 10.1481480206 2.45853466179 -0.00192108432573
2.87591727819 10.1477044385 2.45362077536 -0.000517695297565
2.87791861241 10.1472608564 2.44870688892 0.000885693730591
2.87991994663 10.1468172742 2.44379300249 0.00228908275876
2.88192128085 10.1463736921 2.43887911606 0.00369247178692
2.88392261508 10.1458860329 2.43423163886 0.00424101776661
2.8859239493 10.1453629879 2.4297980395 0.00410328129885
2.88792528352 10.144839943 2.42536444014 0.00396554483107
2.88992661775 10.144316898 2.42093084078 0.00382780836329
2.89192795197 10.1437938531 2.41649724142 0.00369007189552
2.89392928619 10.1432708081 2.41206364206 0.00355233542773
2.89593062041 10.1427477632 2.4076300427 0.00341459895995
2.89793195464 10.1422247182 2.40319644334 0.00327686249217
2.89993328886 10.1417016733 2.39876284398 0.00313912602438
2.90193462308 10.1412710603 2.39441726129 0.00292357972907
2.9039359573 10.141245129 2.39045702892 0.00236737023905
2.90593729153 10.1412191975 2.38649679655 0.00181116074907
2.90793862575 10.1411932661 2.38253656418 0.00125495125909
2.90993995997 10.1411673347 2.37857633181 0.000698741769093
2.9119412942 10.1411414033 2.37461609944 0.000142532279094
2.91394262842 10.1411154719 2.37065586707 -0.000413677210932
2.91594396264 10.1410895405 2.3666956347 -0.000969886700902
2.91794529686 10.1410636091 2.36273540233 -0.0015260961909
2.91994663109 10.1421749017 2.35835372012 -0.000845602481617
2.92194796531 10.1432996791 2.35396704048 -0.000150444307459
2.92394929953 10.1444244565 2.34958036084 0.000544713866691
2.92595063376 10.1455492339 2.3451936812 0.00123987204086
2.92795196798 10.1466740114 2.34080700157 0.00193503021502
2.9299533022 10.1477987888 2.33642032193 0.00263018838916
2.93195463642 10.1489235662 2.33203364229 0.00332534656333
2.93395597065 10.1500483436 2.32764696265 0.00402050473749
2.93595730487 10.1499162341 2.32373768978 0.00349242781944
2.93795863909 10.1494512731 2.31995484479 0.00264041117338
2.93995997332 10.148986312 2.3161719998 0.00178839452729
2.94196130754 10.148521351 2.31238915481 0.000936377881211
2.94396264176 10.14805639 2.30860630982 8.43612351294e-05
2.94596397598 10.147591429 2.30482346483 -0.000767655410949
2.94796531021 10.1471264679 2.30104061984 -0.00161967205704
2.94996664443 10.1466615069 2.29725777484 -0.00247168870311
2.95196797865 10.1461965459 2.29347492985 -0.00332370534918
2.95396931288 10.1458767434 2.28971056174 -0.00390297067591
2.9559706471 10.1457558619 2.2859715138 -0.00410846567601
2.95797198132 10.1456349804 2.28223246585 -0.00431396067615
2.95997331554 10.1455140989 2.27849341791 -0.00451945567628
2.96197464977 10.1453932174 2.27475436996 -0.00472495067639
2.96397598399 10.1452723359 2.27101532202 -0.00493044567652
2.96597731821 10.1451514545 2.26727627407 -0.00513594067663
2.96797865243 10.1450305729 2.26353722613 -0.00534143567674
2.96997998666 10.1449096915 2.25979817818 -0.00554693067687
2.97198132088 10.1448070022 2.2560204365 -0.00572664799322
2.9739826551 10.1450285621 2.25155303581 -0.00544691600424
2.97598398933 10.145250122 2.24708563512 -0.00516718401526
2.97798532355 10.145471682 2.24261823443 -0.00488745202631
2.97998665777 10.1456932419 2.23815083374 -0.00460772003732
2.98198799199 10.1459148018 2.23368343305 -0.00432798804836
2.98398932622 10.1461363618 2.22921603236 -0.00404825605937
2.98599066044 10.1463579217 2.22474863167 -0.00376852407037
2.98799199466 10.1465794817 2.22028123098 -0.00348879208143
2.98999332889 10.1456893922 2.21656562489 -0.00338390934386
2.99199466311 10.1446114899 2.21297703433 -0.0033085673474
2.99399599733 10.1435335876 2.20938844377 -0.00323322535095
2.99599733155 10.1424556853 2.20579985321 -0.00315788335451
2.99799866578 10.1413777829 2.20221126264 -0.00308254135804
3.0 10.1402998806 2.19862267208 -0.00300719936161
