y u v w 
0.0 23.2186195996 -0.00386230048852 0.00012370502854
0.00200133422282 23.2184156361 -0.00566606285161 7.7958690378e-06
0.00400266844563 23.2182116726 -0.00746982521472 -0.000108113290468
0.00600400266845 23.218007709 -0.00927358757784 -0.000224022449967
0.00800533689126 23.2178037456 -0.0110773499409 -0.000339931609472
0.0100066711141 23.217599782 -0.012881112304 -0.000455840768976
0.0120080053369 23.2173958185 -0.0146848746672 -0.000571749928478
0.0140093395597 23.217191855 -0.0164886370302 -0.000687659087981
0.0160106737825 23.2169878915 -0.0182923993934 -0.000803568247486
0.0180120080053 23.216783928 -0.0200961617565 -0.000919477406986
0.0200133422282 23.2161608342 -0.0222111926698 -0.000911842092095
0.022014676451 23.2152929019 -0.0245080537263 -0.000832037232753
0.0240160106738 23.2144249696 -0.0268049147828 -0.000752232373411
0.0260173448966 23.2135570373 -0.0291017758393 -0.000672427514069
0.0280186791194 23.2126891051 -0.0313986368958 -0.000592622654728
0.0300200133422 23.2118211728 -0.0336954979523 -0.000512817795386
0.032021347565 23.2109532405 -0.0359923590088 -0.000433012936044
0.0340226817879 23.2100853083 -0.0382892200652 -0.000353208076701
0.0360240160107 23.20904435 -0.0405544614466 -0.000227400777095
0.0380253502335 23.2077773668 -0.0427783978469 -4.15001996702e-05
0.0400266844563 23.2065103836 -0.0450023342472 0.000144400377761
0.0420280186791 23.2052434003 -0.0472262706475 0.00033030095518
0.0440293529019 23.2039764171 -0.0494502070478 0.000516201532611
0.0460306871247 23.2027094339 -0.0516741434481 0.000702102110034
0.0480320213476 23.2014424506 -0.0538980798484 0.000888002687464
0.0500333555704 23.2001754674 -0.0561220162487 0.00107390326488
0.0520346897932 23.1989492719 -0.0582322917153 0.00123170966409
0.054036024016 23.1978551639 -0.0599744864096 0.00129853557882
0.0560373582388 23.1967610558 -0.061716681104 0.00136536149355
0.0580386924616 23.1956669477 -0.0634588757983 0.00143218740829
0.0600400266845 23.1945728397 -0.0652010704926 0.00149901332305
0.0620413609073 23.1934787316 -0.066943265187 0.00156583923778
0.0640426951301 23.1923846236 -0.0686854598813 0.00163266515251
0.0660440293529 23.1912905155 -0.0704276545757 0.00169949106725
0.0680453635757 23.1901964074 -0.07216984927 0.00176631698199
0.0700466977985 23.1891022994 -0.0739120439644 0.00183314289673
0.0720480320213 23.1885104899 -0.0755413390813 0.00195980653644
0.0740493662442 23.1879956089 -0.0771533432719 0.0020956345124
0.076050700467 23.187480728 -0.0787653474625 0.00223146248836
0.0780520346898 23.1869658471 -0.0803773516531 0.00236729046432
0.0800533689126 23.1864509661 -0.0819893558437 0.00250311844027
0.0820547031354 23.1859360852 -0.0836013600343 0.00263894641625
0.0840560373582 23.1854212043 -0.0852133642249 0.00277477439221
0.0860573715811 23.1849063233 -0.0868253684155 0.00291060236817
0.0880587058039 23.1843914424 -0.0884373726061 0.00304643034413
0.0900600400267 23.1838987375 -0.0902991446699 0.00317037802785
0.0920613742495 23.1834283476 -0.0924122505497 0.00328237093471
0.0940627084723 23.1829579576 -0.0945253564295 0.00339436384159
0.0960640426951 23.1824875677 -0.0966384623091 0.00350635674846
0.0980653769179 23.1820171778 -0.0987515681888 0.00361834965534
0.100066711141 23.1815467879 -0.100864674069 0.0037303425622
0.102068045364 23.1810763979 -0.102977779948 0.00384233546908
0.104069379586 23.180606008 -0.105090885828 0.00395432837593
0.106070713809 23.1801778065 -0.107076240637 0.00405199734993
0.108072048032 23.1798476794 -0.108764615683 0.00411636783062
0.110073382255 23.1795175524 -0.110452990729 0.00418073831135
0.112074716478 23.1791874253 -0.112141365775 0.00424510879204
0.1140760507 23.1788572982 -0.113829740821 0.00430947927272
0.116077384923 23.1785271711 -0.115518115867 0.00437384975343
0.118078719146 23.178197044 -0.117206490913 0.00443822023414
0.120080053369 23.1778669169 -0.118894865959 0.00450259071483
0.122081387592 23.1775182715 -0.120543537913 0.00457738431629
0.124082721815 23.1770085727 -0.12184691328 0.00474282748316
0.126084056037 23.1764988739 -0.123150288648 0.00490827065004
0.12808539026 23.1759891752 -0.124453664015 0.00507371381691
0.130086724483 23.1754794764 -0.125757039383 0.00523915698379
0.132088058706 23.1749697777 -0.12706041475 0.00540460015068
0.134089392929 23.1744600789 -0.128363790117 0.00557004331754
0.136090727151 23.1739503801 -0.129667165485 0.00573548648442
0.138092061374 23.1734406813 -0.130970540852 0.0059009296513
0.140093395597 23.1729309826 -0.13227391622 0.00606637281818
0.14209472982 23.1717416178 -0.133629106124 0.00599810925921
0.144096064043 23.1703064164 -0.135003037455 0.00584531348024
0.146097398266 23.1688712149 -0.136376968786 0.00569251770129
0.148098732488 23.1674360135 -0.137750900118 0.00553972192231
0.150100066711 23.166000812 -0.139124831449 0.00538692614335
0.152101400934 23.1645656106 -0.140498762781 0.0052341303644
0.154102735157 23.1631304091 -0.141872694112 0.00508133458543
0.15610406938 23.1616952076 -0.143246625444 0.00492853880648
0.158105403602 23.1602600062 -0.144620556775 0.00477574302752
0.160106737825 23.1589747676 -0.146102769818 0.00462451012292
0.162108072048 23.1579497209 -0.147772856259 0.00447598887219
0.164109406271 23.1569246741 -0.1494429427 0.00432746762141
0.166110740494 23.1558996275 -0.151113029141 0.00417894637066
0.168112074716 23.1548745807 -0.152783115581 0.00403042511987
0.170113408939 23.153849534 -0.154453202022 0.00388190386912
0.172114743162 23.1528244873 -0.156123288463 0.00373338261835
0.174116077385 23.1517994406 -0.157793374903 0.00358486136758
0.176117411608 23.150714433 -0.159471563956 0.00343756874046
0.178118745831 23.1493324095 -0.161189889201 0.00329636208614
0.180120080053 23.1479503861 -0.162908214446 0.00315515543184
0.182121414276 23.1465683626 -0.164626539692 0.00301394877752
0.184122748499 23.1451863392 -0.166344864937 0.00287274212317
0.186124082722 23.1438043157 -0.168063190183 0.0027315354689
0.188125416945 23.1424222923 -0.169781515428 0.00259032881457
0.190126751167 23.1410402688 -0.171499840674 0.00244912216023
0.19212808539 23.1396582453 -0.173218165919 0.00230791550595
0.194129419613 23.1380502 -0.174618074238 0.00195424685048
0.196130753836 23.1364352394 -0.176008240332 0.00159407774737
0.198132088059 23.1348202788 -0.177398406426 0.00123390864427
0.200133422282 23.1332053181 -0.17878857252 0.000873739541125
0.202134756504 23.1315903575 -0.180178738614 0.000513570438034
0.204136090727 23.1299753969 -0.181568904709 0.000153401334899
0.20613742495 23.1283604362 -0.182959070803 -0.000206767768141
0.208138759173 23.1267454756 -0.184349236897 -0.00056693687143
0.210140093396 23.1251305149 -0.185739402991 -0.000927105974492
0.212141427618 23.1229702599 -0.186801958229 -0.000904440987917
0.214142761841 23.1204488357 -0.187647524457 -0.000628210565527
0.216144096064 23.1179274115 -0.188493090686 -0.000351980142979
0.218145430287 23.1154059874 -0.189338656914 -7.57497206175e-05
0.22014676451 23.1128845632 -0.190184223143 0.000200480701918
0.222148098732 23.110363139 -0.191029789372 0.000476711124637
0.224149432955 23.1078417149 -0.1918753556 0.000752941547011
0.226150767178 23.1053202907 -0.192720921829 0.00102917196957
0.228152101401 23.1027988665 -0.193566488057 0.0013054023918
0.230153435624 23.1002471588 -0.194509697547 0.00158309635728
0.232154769847 23.0975956576 -0.195774671069 0.00186561313983
0.234156104069 23.0949441565 -0.197039644592 0.00214812992201
0.236157438292 23.0922926553 -0.198304618114 0.00243064670421
0.238158772515 23.0896411541 -0.199569591637 0.00271316348635
0.240160106738 23.0869896529 -0.200834565159 0.00299568026849
0.242161440961 23.0843381517 -0.202099538682 0.00327819705079
0.244162775183 23.0816866506 -0.203364512205 0.00356071383312
0.246164109406 23.0790129288 -0.204617086896 0.00384433430719
0.248165443629 23.0757293741 -0.205529382558 0.00415824499722
0.250166777852 23.0724458195 -0.20644167822 0.00447215568743
0.252168112075 23.0691622649 -0.207353973882 0.00478606637728
0.254169446298 23.0658787103 -0.208266269544 0.00509997706728
0.25617078052 23.0625951557 -0.209178565206 0.00541388775715
0.258172114743 23.0593116011 -0.210090860868 0.00572779844721
0.260173448966 23.0560280465 -0.21100315653 0.00604170913716
0.262174783189 23.0527444918 -0.211915452192 0.00635561982702
0.264176117412 23.0496165081 -0.212539225025 0.00677403304955
0.266177451634 23.0465187098 -0.213107015818 0.0072127228827
0.268178785857 23.0434209114 -0.213674806611 0.0076514127157
0.27018012008 23.0403231131 -0.214242597403 0.00809010254887
0.272181454303 23.0372253147 -0.214810388196 0.00852879238228
0.274182788526 23.0341275164 -0.215378178988 0.00896748221525
0.276184122748 23.031029718 -0.215945969781 0.0094061720484
0.278185456971 23.0279319197 -0.216513760573 0.00984486188153
0.280186791194 23.0248341213 -0.217081551366 0.0102835517147
0.282188125417 23.022175209 -0.217618058662 0.0104982732335
0.28418945964 23.0200137007 -0.218119111331 0.0104591639964
0.286190793863 23.0178521925 -0.218620163999 0.0104200547593
0.288192128085 23.0156906842 -0.219121216667 0.0103809455221
0.290193462308 23.013529176 -0.219622269335 0.0103418362848
0.292194796531 23.0113676677 -0.220123322003 0.0103027270475
0.294196130754 23.0092061595 -0.220624374672 0.0102636178103
0.296197464977 23.0070446512 -0.22112542734 0.0102245085731
0.298198799199 23.0048831429 -0.221626480008 0.0101853993361
0.300200133422 23.0026403029 -0.222137812988 0.010140982921
0.302201467645 22.999665477 -0.222741668777 0.0100488019069
0.304202801868 22.996690651 -0.223345524565 0.00995662089239
0.306204136091 22.9937158251 -0.223949380354 0.00986443987817
0.308205470314 22.9907409991 -0.224553236143 0.00977225886381
0.310206804536 22.9877661732 -0.225157091932 0.0096800778495
0.312208138759 22.9847913472 -0.22576094772 0.00958789683546
0.314209472982 22.9818165213 -0.226364803509 0.00949571582093
0.316210807205 22.9788416953 -0.226968659298 0.00940353480667
0.318212141428 22.9756499252 -0.227113308774 0.00937212581674
0.32021347565 22.9724346763 -0.227208260597 0.00934729388566
0.322214809873 22.9692194275 -0.22730321242 0.00932246195447
0.324216144096 22.9660041786 -0.227398164243 0.00929763002355
0.326217478319 22.9627889297 -0.227493116066 0.0092727980922
0.328218812542 22.9595736808 -0.227588067889 0.00924796616121
0.330220146765 22.9563584319 -0.227683019712 0.00922313423002
0.332221480987 22.953143183 -0.227777971535 0.00919830229895
0.33422281521 22.9506342148 -0.227913545875 0.00919750683552
0.336224149433 22.9484212268 -0.228066143843 0.00920678430414
0.338225483656 22.9462082387 -0.228218741811 0.00921606177252
0.340226817879 22.9439952507 -0.228371339779 0.00922533924122
0.342228152101 22.9417822626 -0.228523937747 0.00923461670982
0.344229486324 22.9395692745 -0.228676535714 0.00924389417823
0.346230820547 22.9373562865 -0.228829133682 0.00925317164683
0.34823215477 22.9351432985 -0.22898173165 0.00926244911548
0.350233488993 22.9329303104 -0.229134329618 0.00927172658389
0.352234823215 22.9306030698 -0.229218053726 0.00922523610106
0.354236157438 22.9280499811 -0.229165631834 0.00906850664436
0.356237491661 22.9254968925 -0.229113209941 0.00891177718767
0.358238825884 22.9229438039 -0.229060788049 0.00875504773096
0.360240160107 22.9203907152 -0.229008366156 0.00859831827431
0.36224149433 22.9178376266 -0.228955944264 0.00844158881778
0.364242828552 22.915284538 -0.228903522371 0.00828485936091
0.366244162775 22.9127314493 -0.228851100479 0.00812812990441
0.368245496998 22.9101783607 -0.228798678586 0.00797140044781
0.370246831221 22.907625272 -0.228746256694 0.00781467099111
0.372248165444 22.9044844383 -0.228466375954 0.00807125703082
0.374249499666 22.9013236649 -0.228178778516 0.00834186508246
0.376250833889 22.8981628915 -0.227891181078 0.00861247313417
0.378252168112 22.8950021181 -0.22760358364 0.0088830811859
0.380253502335 22.8918413448 -0.227315986202 0.00915368923764
0.382254836558 22.8886805714 -0.227028388764 0.00942429728926
0.384256170781 22.885519798 -0.226740791326 0.00969490534107
0.386257505003 22.8823590246 -0.226453193888 0.00996551339279
0.388258839226 22.879792999 -0.226076661333 0.0103791933872
0.390260173449 22.8774050959 -0.225673493389 0.010835722339
0.392261507672 22.8750171928 -0.225270325444 0.011292251291
0.394262841895 22.8726292897 -0.2248671575 0.0117487802428
0.396264176117 22.8702413866 -0.224463989555 0.0122053091945
0.39826551034 22.8678534835 -0.224060821611 0.0126618381465
0.400266844563 22.8654655803 -0.223657653666 0.0131183670982
0.402268178786 22.8630776772 -0.223254485722 0.0135748960499
0.404269513009 22.8610305861 -0.222939338296 0.0138136056906
0.406270847231 22.8592386383 -0.222690086013 0.0138892484155
0.408272181454 22.8574466905 -0.22244083373 0.0139648911404
0.410273515677 22.8556547428 -0.222191581448 0.0140405338651
0.4122748499 22.853862795 -0.221942329165 0.0141161765899
0.414276184123 22.8520708472 -0.221693076882 0.0141918193146
0.416277518346 22.8502788995 -0.221443824599 0.0142674620394
0.418278852568 22.8484869517 -0.221194572316 0.0143431047641
0.420280186791 22.8466950039 -0.220945320033 0.0144187474889
0.422281521014 22.8448301459 -0.220634968318 0.014560546911
0.424282855237 22.8426792554 -0.220084918833 0.014961884145
0.42628418946 22.8405283649 -0.219534869348 0.0153632213794
0.428285523682 22.8383774744 -0.218984819862 0.0157645586136
0.430286857905 22.8362265839 -0.218434770377 0.016165895848
0.432288192128 22.8340756933 -0.217884720892 0.0165672330823
0.434289526351 22.8319248028 -0.217334671406 0.0169685703166
0.436290860574 22.8297739123 -0.216784621921 0.0173699075509
0.438292194797 22.8276230218 -0.216234572436 0.017771244785
0.440293529019 22.8254721313 -0.21568452295 0.0181725820193
0.442294863242 22.8228574695 -0.215078302848 0.0184774894229
0.444296197465 22.8201507483 -0.214460932773 0.0187632553247
0.446297531688 22.8174440271 -0.213843562698 0.0190490212262
0.448298865911 22.8147373059 -0.213226192623 0.019334787128
0.450300200133 22.8120305847 -0.212608822548 0.0196205530295
0.452301534356 22.8093238634 -0.211991452473 0.0199063189312
0.454302868579 22.8066171422 -0.211374082398 0.0201920848328
0.456304202802 22.803910421 -0.210756712323 0.0204778507343
0.458305537025 22.8009940555 -0.209846392495 0.0204553889515
0.460306871248 22.7979580769 -0.208768929556 0.0202570672012
0.46230820547 22.7949220984 -0.207691466618 0.0200587454507
0.464309539693 22.7918861198 -0.206614003679 0.0198604237003
0.466310873916 22.7888501413 -0.20553654074 0.0196621019499
0.468312208139 22.7858141627 -0.204459077802 0.0194637801993
0.470313542362 22.7827781841 -0.203381614863 0.019265458449
0.472314876584 22.7797422056 -0.202304151925 0.0190671366986
0.474316210807 22.7769168733 -0.201295381885 0.0189886157017
0.47631754503 22.7743606585 -0.200374372525 0.0190631497598
0.478318879253 22.7718044437 -0.199453363165 0.0191376838179
0.480320213476 22.7692482289 -0.198532353804 0.0192122178762
0.482321547698 22.7666920141 -0.197611344444 0.0192867519345
0.484322881921 22.7641357993 -0.196690335083 0.0193612859925
0.486324216144 22.7615795845 -0.195769325723 0.0194358200507
0.488325550367 22.7590233697 -0.194848316362 0.0195103541089
0.49032688459 22.7564671549 -0.193927307002 0.0195848881669
0.492328218813 22.7539258584 -0.192992750829 0.019656871595
0.494329553035 22.7515818157 -0.191879075703 0.0196951300242
0.496330887258 22.749237773 -0.190765400576 0.0197333884532
0.498332221481 22.7468937303 -0.189651725449 0.0197716468824
0.500333555704 22.7445496875 -0.188538050322 0.0198099053113
0.502334889927 22.7422056448 -0.187424375195 0.0198481637407
0.504336224149 22.7398616021 -0.186310700068 0.0198864221695
0.506337558372 22.7375175594 -0.185197024941 0.0199246805988
0.508338892595 22.7351735167 -0.184083349814 0.0199629390278
0.510340226818 22.7328294739 -0.182969674687 0.0200011974571
0.512341561041 22.7303051096 -0.18177515582 0.0199416287474
0.514342895264 22.7277040384 -0.180546246853 0.0198404453755
0.516344229486 22.7251029672 -0.179317337887 0.0197392620036
0.518345563709 22.722501896 -0.17808842892 0.0196380786316
0.520346897932 22.7199008247 -0.176859519954 0.0195368952598
0.522348232155 22.7172997535 -0.175630610987 0.0194357118877
0.524349566378 22.7146986822 -0.17440170202 0.0193345285158
0.5263509006 22.712097611 -0.173172793054 0.0192333451441
0.528352234823 22.7095641534 -0.171895538102 0.019213820218
0.530353569046 22.7070972612 -0.170570686714 0.0192746877159
0.532354903269 22.704630369 -0.169245835327 0.0193355552136
0.534356237492 22.7021634768 -0.167920983939 0.0193964227114
0.536357571714 22.6996965846 -0.166596132551 0.0194572902093
0.538358905937 22.6972296924 -0.165271281164 0.0195181577071
0.54036024016 22.6947628002 -0.163946429776 0.0195790252049
0.542361574383 22.692295908 -0.162621578389 0.0196398927026
0.544362908606 22.6898452572 -0.161353880093 0.0197307944669
0.546364242829 22.687431398 -0.160215651046 0.019889733038
0.548365577051 22.6850175389 -0.159077421998 0.0200486716091
0.550366911274 22.6826036797 -0.157939192951 0.0202076101803
0.552368245497 22.6801898206 -0.156800963903 0.0203665487512
0.55436957972 22.6777759615 -0.155662734856 0.0205254873223
0.556370913943 22.6753621023 -0.154524505808 0.0206844258935
0.558372248165 22.6729482432 -0.153386276761 0.0208433644646
0.560373582388 22.6705343841 -0.152248047713 0.021002303036
0.562374916611 22.6681205249 -0.151109818666 0.021161241607
0.564376250834 22.6658975215 -0.149794248854 0.0212721586475
0.566377585057 22.6636872417 -0.148466856325 0.0213798742529
0.56837891928 22.6614769619 -0.147139463796 0.0214875898579
0.570380253502 22.6592666822 -0.145812071267 0.0215953054631
0.572381587725 22.6570564024 -0.144484678738 0.0217030210682
0.574382921948 22.6548461226 -0.143157286209 0.0218107366735
0.576384256171 22.6526358429 -0.14182989368 0.0219184522786
0.578385590394 22.6504255631 -0.140502501151 0.0220261678837
0.580386924616 22.6482152834 -0.139175108622 0.0221338834888
0.582388258839 22.6460612386 -0.137742967426 0.0222114191489
0.584389593062 22.6439498337 -0.136231401418 0.0222660711141
0.586390927285 22.6418384287 -0.13471983541 0.0223207230792
0.588392261508 22.6397270237 -0.133208269402 0.0223753750446
0.59039359573 22.6376156187 -0.131696703394 0.02243002701
0.592394929953 22.6355042138 -0.130185137386 0.0224846789753
0.594396264176 22.6333928088 -0.128673571378 0.0225393309404
0.596397598399 22.6312814038 -0.12716200537 0.0225939829059
0.598398932622 22.62924224 -0.125617076694 0.0226471854
0.600400266845 22.627325506 -0.124015607074 0.0226979314224
0.602401601067 22.625408772 -0.122414137454 0.0227486774446
0.60440293529 22.623492038 -0.120812667834 0.0227994234672
0.606404269513 22.621575304 -0.119211198214 0.0228501694896
0.608405603736 22.6196585699 -0.117609728594 0.0229009155122
0.610406937959 22.6177418359 -0.116008258974 0.0229516615345
0.612408272181 22.6158251019 -0.114406789354 0.0230024075569
0.614409606404 22.6138703595 -0.112821447385 0.0230442789133
0.616410940627 22.6117344777 -0.111312966026 0.0230438556904
0.61841227485 22.609598596 -0.109804484666 0.0230434324678
0.620413609073 22.6074627142 -0.108296003307 0.023043009245
0.622414943296 22.6053268325 -0.106787521948 0.0230425860219
0.624416277518 22.6031909508 -0.105279040588 0.023042162799
0.626417611741 22.601055069 -0.103770559229 0.0230417395763
0.628418945964 22.5989191873 -0.10226207787 0.0230413163533
0.630420280187 22.5967833055 -0.100753596511 0.0230408931306
0.63242161441 22.5946474238 -0.0992451151513 0.0230404699075
0.634422948632 22.5928396535 -0.097672716048 0.0230715239493
0.636424282855 22.5911115219 -0.0960848029293 0.0231102181034
0.638425617078 22.5893833904 -0.0944968898105 0.0231489122578
0.640426951301 22.5876552588 -0.0929089766918 0.0231876064119
0.642428285524 22.5859271272 -0.0913210635728 0.0232263005659
0.644429619747 22.5841989957 -0.0897331504541 0.0232649947198
0.646430953969 22.5824708641 -0.0881452373353 0.0233036888743
0.648432288192 22.5807427325 -0.0865573242167 0.0233423830283
0.650433622415 22.579014601 -0.084969411098 0.0233810771825
0.652434956638 22.5771785458 -0.0833533578599 0.0234179751616
0.654436290861 22.5752028475 -0.0817008939297 0.0234525490565
0.656437625083 22.5732271492 -0.0800484299994 0.0234871229517
0.658438959306 22.571251451 -0.0783959660694 0.0235216968466
0.660440293529 22.5692757527 -0.0767435021393 0.0235562707419
0.662441627752 22.5673000544 -0.0750910382093 0.0235908446369
0.664442961975 22.5653243561 -0.0734385742791 0.023625418532
0.666444296197 22.5633486579 -0.071786110349 0.0236599924269
0.66844563042 22.5613787205 -0.070122228681 0.0236992163788
0.670446964643 22.5594271992 -0.068421847688 0.0237533052647
0.672448298866 22.557475678 -0.0667214666949 0.0238073941503
0.674449633089 22.5555241567 -0.0650210857019 0.0238614830362
0.676450967312 22.5535726354 -0.0633207047088 0.0239155719222
0.678452301534 22.5516211141 -0.0616203237157 0.0239696608082
0.680453635757 22.5496695929 -0.0599199427225 0.024023749694
0.68245496998 22.5477180716 -0.0582195617296 0.0240778385799
0.684456304203 22.5457866002 -0.0565210277426 0.0241359975517
0.686457638426 22.5443286155 -0.0548661115212 0.0242902731683
0.688458972648 22.5428706308 -0.0532111952995 0.0244445487846
0.690460306871 22.5414126461 -0.0515562790777 0.024598824401
0.692461641094 22.5399546614 -0.0499013628563 0.0247531000174
0.694462975317 22.5384966767 -0.0482464466345 0.0249073756339
0.69646430954 22.5370386919 -0.0465915304126 0.0250616512503
0.698465643763 22.5355807072 -0.0449366141912 0.0252159268668
0.700466977985 22.5341227225 -0.0432816979696 0.0253702024831
0.702468312208 22.5326647378 -0.0416267817479 0.0255244780997
0.704469646431 22.5311818238 -0.0399230110614 0.0257301264458
0.704469646431 22.5311818238 -0.0399230110614 0.0257301264458
0.706470980654 22.5296867352 -0.0381953812172 0.0259608637994
0.706470980654 22.5296867352 -0.0381953812172 0.0259608637994
0.708472314877 22.5281916465 -0.0364677513733 0.026191601153
0.708472314877 22.5281916465 -0.0364677513733 0.026191601153
0.710473649099 22.5266965578 -0.034740121529 0.0264223385068
0.710473649099 22.5266965578 -0.034740121529 0.0264223385068
0.712474983322 22.5252014692 -0.0330124916851 0.0266530758608
0.712474983322 22.5252014692 -0.0330124916851 0.0266530758608
0.714476317545 22.5237063805 -0.0312848618408 0.0268838132142
0.714476317545 22.5237063805 -0.0312848618408 0.0268838132142
0.716477651768 22.5222112918 -0.0295572319969 0.027114550568
0.716477651768 22.5222112918 -0.0295572319969 0.027114550568
0.718478985991 22.5207162032 -0.0278296021529 0.0273452879216
0.718478985991 22.5207162032 -0.0278296021529 0.0273452879216
0.720480320213 22.5192211145 -0.0261019723086 0.0275760252753
0.720480320213 22.5192211145 -0.0261019723086 0.0275760252753
0.722481654436 22.5176721086 -0.0243430934329 0.0277654872328
0.722481654436 22.5176721086 -0.0243430934329 0.0277654872328
0.724482988659 22.5159991489 -0.0225123739995 0.0278600583303
0.724482988659 22.5159991489 -0.0225123739995 0.0278600583303
0.726484322882 22.5143261891 -0.0206816545661 0.0279546294278
0.726484322882 22.5143261891 -0.0206816545661 0.0279546294278
0.728485657105 22.5126532293 -0.0188509351323 0.0280492005254
0.728485657105 22.5126532293 -0.0188509351323 0.0280492005254
0.730486991328 22.5109802695 -0.0170202156991 0.028143771623
0.730486991328 22.5109802695 -0.0170202156991 0.028143771623
0.73248832555 22.5093073098 -0.0151894962657 0.0282383427206
0.73248832555 22.5093073098 -0.0151894962657 0.0282383427206
0.734489659773 22.50763435 -0.013358776832 0.0283329138185
0.734489659773 22.50763435 -0.013358776832 0.0283329138185
0.736490993996 22.5059613902 -0.0115280573988 0.0284274849161
0.736490993996 22.5059613902 -0.0115280573988 0.0284274849161
0.738492328219 22.5043118169 -0.0096857088342 0.0285133421485
0.740493662442 22.502860596 -0.00774472801104 0.0285252928952
0.742494996664 22.501409375 -0.005803747188 0.0285372436422
0.744496330887 22.499958154 -0.00386276636479 0.0285491943887
0.74649766511 22.4985069331 -0.00192178554165 0.0285611451357
0.748498999333 22.4970557121 1.91952815051e-05 0.0285730958823
0.750500333556 22.4956044911 0.00196017610456 0.0285850466292
0.752501667779 22.4941532701 0.00390115692774 0.028596997376
0.754503002001 22.4927020492 0.00584213775084 0.0286089481226
0.756504336224 22.4912610826 0.00765384780831 0.0287484328649
0.758505670447 22.4898211573 0.00945243054217 0.0289008685635
0.76050700467 22.4883812321 0.0112510132757 0.0290533042619
0.762508338893 22.4869413068 0.0130495960096 0.0292057399609
0.764509673115 22.4855013816 0.0148481787432 0.0293581756594
0.766511007338 22.4840614564 0.0166467614769 0.0295106113581
0.768512341561 22.4826215311 0.0184453442106 0.0296630470565
0.770513675784 22.4811816059 0.0202439269443 0.0298154827554
0.772515010007 22.4797416806 0.0220425096781 0.0299679184541
0.774516344229 22.4783742522 0.0238201069914 0.0301303311896
0.776517678452 22.4770688137 0.0255797602498 0.0303012750142
0.778519012675 22.4757633751 0.0273394135081 0.0304722188392
0.780520346898 22.4744579366 0.0290990667667 0.0306431626641
0.782521681121 22.4731524981 0.0308587200249 0.0308141064893
0.784523015344 22.4718470596 0.0326183732833 0.0309850503138
0.786524349566 22.4705416212 0.0343780265417 0.0311559941387
0.788525683789 22.4692361826 0.0361376798002 0.0313269379633
0.790527018012 22.4679307441 0.0378973330585 0.0314978817886
0.792528352235 22.4666128399 0.0396908135634 0.0316259375644
0.794529686458 22.4652342083 0.0416490855179 0.0315450616512
0.79653102068 22.4638555767 0.0436073574725 0.0314641857387
0.798532354903 22.4624769451 0.0455656294269 0.0313833098257
0.800533689126 22.4610983136 0.0475239013814 0.0313024339126
0.802535023349 22.459719682 0.0494821733357 0.0312215579994
0.804536357572 22.4583410504 0.0514404452901 0.0311406820869
0.806537691795 22.4569624188 0.0533987172444 0.0310598061739
0.808539026017 22.4555837872 0.055356989199 0.0309789302611
0.81054036024 22.4544525625 0.0573507801115 0.030980217686
0.812541694463 22.453328293 0.0593455695486 0.0309838149235
0.814543028686 22.4522040235 0.0613403589859 0.0309874121609
0.816544362909 22.4510797541 0.0633351484232 0.0309910093987
0.818545697131 22.4499554846 0.0653299378606 0.0309946066361
0.820547031354 22.4488312151 0.0673247272978 0.0309982038735
0.822548365577 22.4477069456 0.0693195167352 0.0310018011111
0.8245496998 22.4465826762 0.0713143061724 0.0310053983487
0.826551034023 22.4455197314 0.0732243213441 0.0311241004712
0.828552368246 22.4444745906 0.0751097246318 0.0312762201425
0.830553702468 22.4434294498 0.0769951279199 0.0314283398129
0.832555036691 22.442384309 0.0788805312077 0.0315804594838
0.834556370914 22.4413391682 0.0807659344959 0.0317325791545
0.836557705137 22.4402940274 0.0826513377838 0.0318846988249
0.83855903936 22.4392488866 0.0845367410718 0.0320368184962
0.840560373582 22.4382037457 0.0864221443598 0.0321889381664
0.842561707805 22.4371586049 0.0883075476476 0.0323410578373
0.844563042028 22.4361615591 0.090217318761 0.0324051040113
0.846564376251 22.4352348059 0.0921627043886 0.0323404273833
0.848565710474 22.4343080527 0.0941080900163 0.032275750755
0.850567044696 22.4333812995 0.0960534756438 0.0322110741261
0.852568378919 22.4324545463 0.0979988612714 0.0321463974984
0.854569713142 22.4315277932 0.0999442468991 0.0320817208697
0.856571047365 22.4306010399 0.101889632527 0.0320170442415
0.858572381588 22.4296742868 0.103835018154 0.0319523676132
0.860573715811 22.4287475336 0.105780403782 0.0318876909845
0.862575050033 22.4278217623 0.1077268118 0.0318318497944
0.864576384256 22.4269211954 0.109699461177 0.0320027848473
0.866577718479 22.4260206284 0.111672110553 0.0321737198995
0.868579052702 22.4251200614 0.113644759929 0.0323446549526
0.870580386925 22.4242194945 0.115617409305 0.0325155900054
0.872581721147 22.4233189275 0.117590058682 0.0326865250578
0.87458305537 22.4224183605 0.119562708058 0.0328574601102
0.876584389593 22.4215177935 0.121535357434 0.0330283951628
0.878585723816 22.4206172266 0.12350800681 0.033199330216
0.880587058039 22.4196486443 0.125478494338 0.0333739735327
0.882588392262 22.4186670916 0.127448569605 0.0335493240062
0.884589726484 22.4176855389 0.129418644872 0.0337246744806
0.886591060707 22.4167039863 0.13138872014 0.0339000249546
0.88859239493 22.4157224336 0.133358795407 0.0340753754289
0.890593729153 22.4147408809 0.135328870675 0.0342507259027
0.892595063376 22.4137593282 0.137298945942 0.0344260763767
0.894596397598 22.4127777755 0.139269021209 0.0346014268508
0.896597731821 22.4118314398 0.141168326101 0.0346221530393
0.898599066044 22.4109047262 0.143028199323 0.0345567260372
0.900600400267 22.4099780126 0.144888072546 0.0344912990351
0.90260173449 22.409051299 0.146747945768 0.0344258720328
0.904603068712 22.4081245854 0.148607818991 0.034360445031
0.906604402935 22.4071978717 0.150467692213 0.0342950180286
0.908605737158 22.4062711581 0.152327565435 0.0342295910263
0.910607071381 22.4053444445 0.154187438657 0.0341641640243
0.912608405604 22.4044177309 0.15604731188 0.0340987370223
0.914609739827 22.4035182231 0.157927546834 0.0340283847176
0.916611074049 22.4026910051 0.15986188582 0.033944945181
0.918612408272 22.4018637871 0.161796224805 0.0338615056445
0.920613742495 22.4010365692 0.16373056379 0.0337780661081
0.922615076718 22.4002093512 0.165664902776 0.0336946265719
0.924616410941 22.3993821332 0.167599241761 0.0336111870352
0.926617745163 22.3985549152 0.169533580747 0.0335277474985
0.928619079386 22.3977276972 0.171467919732 0.0334443079628
0.930620413609 22.3969004792 0.173402258718 0.0333608684255
0.932621747832 22.3960732612 0.175336597703 0.0332774288891
0.934623082055 22.3951515922 0.177345960194 0.0332740519309
0.936624416278 22.3942199724 0.179363226716 0.0332791098896
0.9386257505 22.3932883526 0.181380493237 0.0332841678482
0.940627084723 22.3923567328 0.183397759759 0.0332892258072
0.942628418946 22.3914251131 0.185415026281 0.0332942837659
0.944629753169 22.3904934932 0.187432292803 0.0332993417244
0.946631087392 22.3895618734 0.189449559324 0.0333043996831
0.948632421614 22.3886302537 0.191466825846 0.0333094576421
0.950633755837 22.3878744735 0.193497373593 0.0332447558377
0.95263509006 22.3871915551 0.19553342461 0.0331511480538
0.954636424283 22.3865086366 0.197569475627 0.03305754027
0.956637758506 22.3858257182 0.199605526645 0.0329639324866
0.958639092728 22.3851427998 0.201641577662 0.0328703247027
0.960640426951 22.3844598813 0.20367762868 0.032776716919
0.962641761174 22.3837769629 0.205713679697 0.0326831091353
0.964643095397 22.3830940445 0.207749730714 0.0325895013518
0.96664442962 22.3823838942 0.209698586039 0.0325089570787
0.968645763843 22.3816475146 0.21156345533 0.0324409954522
0.970647098065 22.3809111349 0.21342832462 0.0323730338251
0.972648432288 22.3801747553 0.21529319391 0.0323050721981
0.974649766511 22.3794383756 0.2171580632 0.0322371105713
0.976651100734 22.378701996 0.219022932491 0.0321691489445
0.978652434957 22.3779656163 0.220887801781 0.0321011873177
0.980653769179 22.3772292367 0.222752671071 0.0320332256903
0.982655103402 22.376492857 0.224617540361 0.0319652640632
0.984656437625 22.3757771452 0.226479247055 0.0319101266583
0.986657771848 22.375187737 0.228321626769 0.031933359493
0.988659106071 22.3745983287 0.230164006483 0.0319565923285
0.990660440294 22.3740089205 0.232006386197 0.0319798251643
0.992661774516 22.3734195122 0.233848765911 0.0320030579993
0.994663108739 22.372830104 0.235691145624 0.0320262908343
0.996664442962 22.3722406957 0.237533525338 0.0320495236701
0.998665777185 22.3716512875 0.239375905052 0.0320727565052
1.00066711141 22.3710618792 0.241218284766 0.0320959893405
1.00266844563 22.3704724709 0.24306066448 0.0321192221763
1.00466977985 22.3699000992 0.245007342516 0.0320959285497
1.00667111408 22.3693327625 0.246984845562 0.0320588841876
1.0086724483 22.3687654258 0.248962348609 0.0320218398248
1.01067378252 22.3681980891 0.250939851655 0.0319847954627
1.01267511674 22.3676307525 0.252917354701 0.0319477511009
1.01467645097 22.3670634158 0.254894857748 0.0319107067383
1.01667778519 22.3664960791 0.256872360794 0.0318736623763
1.01867911941 22.3659287424 0.25884986384 0.0318366180144
1.02068045364 22.3653032361 0.260799393189 0.0318784861907
1.02268178786 22.3646345971 0.262728180137 0.0319788677459
1.02468312208 22.3639659581 0.264656967085 0.032079249301
1.0266844563 22.3632973192 0.266585754032 0.0321796308562
1.02868579053 22.3626286802 0.26851454098 0.0322800124117
1.03068712475 22.3619600412 0.270443327927 0.0323803939667
1.03268845897 22.3612914022 0.272372114875 0.0324807755217
1.0346897932 22.3606227633 0.274300901822 0.0325811570767
1.03669112742 22.3600723349 0.276201164088 0.0326833014289
1.03869246164 22.3597176161 0.278054200843 0.0327883642703
1.04069379586 22.3593628973 0.279907237597 0.0328934271122
1.04269513009 22.3590081785 0.281760274351 0.0329984899534
1.04469646431 22.3586534598 0.283613311106 0.0331035527953
1.04669779853 22.358298741 0.28546634786 0.0332086156367
1.04869913276 22.3579440222 0.287319384614 0.0333136784786
1.05070046698 22.3575893035 0.289172421369 0.0334187413195
1.0527018012 22.3572345847 0.291025458123 0.0335238041613
1.05470313542 22.3568809955 0.292878473957 0.0336281977865
1.05670446965 22.3566708688 0.294728832846 0.0336476009719
1.05870580387 22.3564607421 0.296579191735 0.0336670041576
1.06070713809 22.3562506154 0.298429550625 0.0336864073426
1.06270847231 22.3560404887 0.300279909514 0.0337058105281
1.06470980654 22.355830362 0.302130268403 0.0337252137137
1.06671114076 22.3556202352 0.303980627293 0.0337446168991
1.06871247498 22.3554101085 0.305830986182 0.0337640200847
1.07071380921 22.3551999818 0.307681345071 0.0337834232697
1.07271514343 22.3549898551 0.30953170396 0.0338028264554
1.07471647765 22.354604579 0.311437078136 0.0338424929777
1.07671781187 22.3541203799 0.313373524514 0.0338936040736
1.0787191461 22.3536361808 0.315309970893 0.0339447151699
1.08072048032 22.3531519817 0.317246417272 0.0339958262662
1.08272181454 22.3526677826 0.31918286365 0.0340469373623
1.08472314877 22.3521835835 0.321119310029 0.0340980484586
1.08672448299 22.3516993843 0.323055756408 0.0341491595549
1.08872581721 22.3512151853 0.324992202786 0.0342002706507
1.09072715143 22.350808934 0.326936018687 0.0342000605242
1.09272848566 22.3505013248 0.328889160621 0.0341349040703
1.09472981988 22.3501937155 0.330842302555 0.0340697476172
1.0967311541 22.3498861063 0.332795444489 0.0340045911638
1.09873248833 22.3495784971 0.334748586423 0.0339394347101
1.10073382255 22.3492708878 0.336701728357 0.0338742782564
1.10273515677 22.3489632786 0.338654870291 0.0338091218026
1.10473649099 22.3486556694 0.340608012225 0.0337439653491
1.10673782522 22.3483569902 0.34255235831 0.0336683727878
1.10873915944 22.3480860171 0.344469414707 0.0335604015333
1.11074049366 22.347815044 0.346386471105 0.0334524302787
1.11274182789 22.3475440709 0.348303527502 0.0333444590237
1.11474316211 22.3472730978 0.3502205839 0.0332364877693
1.11674449633 22.3470021248 0.352137640297 0.0331285165149
1.11874583055 22.3467311517 0.354054696695 0.0330205452599
1.12074716478 22.3464601786 0.355971753092 0.0329125740056
1.122748499 22.3461892055 0.35788880949 0.0328046027511
1.12474983322 22.3459182324 0.359805865888 0.0326966314966
1.12675116744 22.3455375489 0.361743223991 0.0325688670252
1.12875250167 22.3451411924 0.363683482338 0.0324382749517
1.13075383589 22.3447448359 0.365623740685 0.032307682878
1.13275517011 22.3443484794 0.367563999032 0.0321770908045
1.13475650434 22.343952123 0.369504257378 0.0320464987308
1.13675783856 22.3435557665 0.371444515725 0.0319159066571
1.13875917278 22.34315941 0.373384774072 0.0317853145837
1.140760507 22.3427630535 0.375325032419 0.0316547225099
1.14276184123 22.342366697 0.377265290766 0.0315241304366
1.14476317545 22.3419672572 0.379198457941 0.0314901133214
1.14676450967 22.3415648101 0.381124709036 0.0315502865983
1.1487658439 22.341162363 0.383050960131 0.0316104598752
1.15076717812 22.3407599159 0.384977211225 0.031670633152
1.15276851234 22.3403574688 0.38690346232 0.0317308064286
1.15476984656 22.3399550217 0.388829713415 0.0317909797048
1.15677118079 22.3395525746 0.39075596451 0.0318511529819
1.15877251501 22.3391501275 0.392682215604 0.0319113262588
1.16077384923 22.3387614159 0.394612458951 0.0319701945394
1.16277518346 22.3384034787 0.396551646963 0.0320261389679
1.16477651768 22.3380455415 0.398490834975 0.0320820833965
1.1667778519 22.3376876044 0.400430022987 0.032138027825
1.16877918612 22.3373296672 0.402369211 0.0321939722536
1.17078052035 22.33697173 0.404308399012 0.0322499166824
1.17278185457 22.3366137928 0.406247587024 0.0323058611106
1.17478318879 22.3362558557 0.408186775036 0.032361805539
1.17678452302 22.3358842416 0.41012416341 0.0324022482531
1.17878585724 22.33540302 0.41204712933 0.0323184589223
1.18078719146 22.3349217983 0.41397009525 0.0322346695903
1.18278852568 22.3344405767 0.41589306117 0.0321508802588
1.18478985991 22.333959355 0.41781602709 0.0320670909266
1.18679119413 22.3334781334 0.419738993009 0.031983301595
1.18879252835 22.3329969117 0.421661958929 0.0318995122631
1.19079386258 22.3325156901 0.423584924849 0.0318157229317
1.1927951968 22.3320344684 0.425507890769 0.0317319336002
1.19479653102 22.3315532467 0.427430856689 0.0316481442684
1.19679786524 22.3311819522 0.429301789461 0.031592512823
1.19879919947 22.3308488428 0.431154647561 0.0315466625384
1.20080053369 22.3305157334 0.433007505661 0.0315008122542
1.20280186791 22.330182624 0.434860363761 0.0314549619698
1.20480320213 22.3298495146 0.436713221861 0.0314091116851
1.20680453636 22.3295164052 0.43856607996 0.0313632614012
1.20880587058 22.3291832959 0.44041893806 0.0313174111165
1.2108072048 22.3288501865 0.44227179616 0.0312715608316
1.21280853903 22.3285170771 0.44412465426 0.0312257105469
1.21480987325 22.3282616681 0.446023621135 0.0311894674155
1.21681120747 22.3281366266 0.447999950432 0.0311693433966
1.21881254169 22.3280115851 0.449976279729 0.0311492193784
1.22081387592 22.3278865435 0.451952609026 0.0311290953603
1.22281521014 22.3277615021 0.453928938322 0.0311089713412
1.22481654436 22.3276364605 0.455905267619 0.031088847323
1.22681787859 22.327511419 0.457881596916 0.0310687233045
1.22881921281 22.3273863775 0.459857926213 0.0310485992863
1.23082054703 22.3272991323 0.461835655569 0.0310356545937
1.23282188125 22.3273891094 0.463819949646 0.031056372963
1.23482321548 22.3274790866 0.465804243723 0.0310770913334
1.2368245497 22.3275690638 0.467788537801 0.0310978097024
1.23882588392 22.3276590409 0.469772831878 0.0311185280722
1.24082721815 22.3277490181 0.471757125956 0.0311392464417
1.24282855237 22.3278389953 0.473741420033 0.0311599648116
1.24482988659 22.3279289724 0.475725714111 0.0311806831813
1.24683122081 22.3280189496 0.477710008188 0.0312014015509
1.24883255504 22.3280880488 0.479581783974 0.0311640167242
1.25083388926 22.328156681 0.481451043376 0.0311253324647
1.25283522348 22.3282253133 0.483320302778 0.0310866482057
1.25483655771 22.3282939455 0.48518956218 0.0310479639459
1.25683789193 22.3283625778 0.487058821582 0.0310092796864
1.25883922615 22.3284312101 0.488928080984 0.0309705954275
1.26084056037 22.3284998423 0.490797340386 0.0309319111681
1.2628418946 22.3285684746 0.492666599788 0.0308932269085
1.26484322882 22.3286371068 0.49453585919 0.030854542649
1.26684456304 22.3287465202 0.496427104148 0.0309333496913
1.26884589726 22.3288820754 0.498332442412 0.0310874716696
1.27084723149 22.3290176305 0.500237780675 0.0312415936485
1.27284856571 22.3291531856 0.502143118938 0.031395715627
1.27484989993 22.3292887408 0.504048457201 0.0315498376055
1.27685123416 22.3294242959 0.505953795464 0.0317039595842
1.27885256838 22.329559851 0.507859133728 0.0318580815635
1.2808539026 22.3296954062 0.509764471991 0.032012203542
1.28285523682 22.3298309613 0.511669810254 0.0321663255208
1.28485657105 22.3299145694 0.513614033704 0.0322899945723
1.28685790527 22.3298342405 0.515680972742 0.0323175589321
1.28885923949 22.3297539117 0.517747911781 0.0323451232924
1.29086057372 22.3296735828 0.519814850819 0.0323726876523
1.29286190794 22.329593254 0.521881789858 0.0324002520126
1.29486324216 22.3295129251 0.523948728897 0.0324278163729
1.29686457638 22.3294325963 0.526015667935 0.0324553807327
1.29886591061 22.3293522674 0.528082606973 0.0324829450924
1.30086724483 22.3292560172 0.530151798853 0.0325104520143
1.30286857905 22.3288051551 0.532271167636 0.0325366796226
1.30486991328 22.3283542929 0.534390536419 0.0325629072316
1.3068712475 22.3279034308 0.536509905203 0.03258913484
1.30887258172 22.3274525687 0.538629273986 0.0326153624485
1.31087391594 22.3270017065 0.540748642769 0.0326415900575
1.31287525017 22.3265508444 0.542868011553 0.0326678176658
1.31487658439 22.3260999823 0.544987380336 0.0326940452745
1.31687791861 22.3256491201 0.547106749119 0.0327202728833
1.31887925284 22.3252902961 0.549160798814 0.0327294756454
1.32088058706 22.3249483146 0.551202895478 0.032735562955
1.32288192128 22.3246063331 0.553244992142 0.0327416502644
1.3248832555 22.3242643516 0.555287088806 0.0327477375743
1.32688458973 22.32392237 0.55732918547 0.032753824884
1.32888592395 22.3235803885 0.559371282134 0.0327599121938
1.33088725817 22.323238407 0.561413378798 0.0327659995032
1.33288859239 22.3228964255 0.563455475462 0.0327720868131
1.33488992662 22.3225544439 0.565497572125 0.0327781741232
1.33689126084 22.3221541443 0.56758144551 0.032672912072
1.33889259506 22.3216897904 0.569711204801 0.0324453482654
1.34089392929 22.3212254365 0.571840964093 0.0322177844587
1.34289526351 22.3207610826 0.573970723384 0.0319902206515
1.34489659773 22.3202967287 0.576100482675 0.0317626568444
1.34689793195 22.3198323748 0.578230241966 0.0315350930375
1.34889926618 22.3193680209 0.580360001258 0.0313075292304
1.3509006004 22.318903667 0.582489760549 0.0310799654236
1.35290193462 22.3184393131 0.58461951984 0.0308524016167
1.35490326885 22.3179492959 0.586747009494 0.0306385029489
1.35690460307 22.3172469062 0.588855717076 0.0305376882629
1.35890593729 22.3165445164 0.590964424659 0.030436873577
1.36090727151 22.3158421266 0.593073132242 0.0303360588905
1.36290860574 22.3151397368 0.595181839824 0.0302352442043
1.36490993996 22.314437347 0.597290547407 0.0301344295183
1.36691127418 22.3137349572 0.599399254989 0.0300336148324
1.36891260841 22.3130325675 0.601507962572 0.0299328001461
1.37091394263 22.3123301777 0.603616670154 0.0298319854595
1.37291527685 22.312119513 0.605884661304 0.0296394410511
1.37491661107 22.3119573878 0.608168375725 0.0294378417769
1.3769179453 22.3117952625 0.610452090146 0.0292362425025
1.37891927952 22.3116331373 0.612735804567 0.0290346432289
1.38092061374 22.311471012 0.615019518988 0.0288330439546
1.38292194797 22.3113088868 0.617303233409 0.0286314446804
1.38492328219 22.3111467615 0.61958694783 0.0284298454066
1.38692461641 22.3109846363 0.621870662251 0.0282282461325
1.38892595063 22.3109404148 0.624111193103 0.0280750266575
1.39092728486 22.3109437685 0.626334299006 0.0279413288561
1.39292861908 22.3109471222 0.628557404909 0.0278076310551
1.3949299533 22.3109504759 0.630780510812 0.0276739332536
1.39693128753 22.3109538296 0.633003616715 0.0275402354524
1.39893262175 22.3109571833 0.635226722618 0.0274065376512
1.40093395597 22.310960537 0.637449828521 0.0272728398501
1.40293529019 22.3109638908 0.639672934424 0.0271391420486
1.40493662442 22.3109672444 0.641896040327 0.0270054442475
1.40693795864 22.3110796855 0.644149262767 0.0269089127529
1.40893929286 22.3114003841 0.646459980415 0.0268833351167
1.41094062708 22.3117210827 0.648770698062 0.0268577574807
1.41294196131 22.3120417813 0.65108141571 0.0268321798442
1.41494329553 22.3123624798 0.653392133357 0.026806602208
1.41694462975 22.3126831785 0.655702851005 0.0267810245718
1.41894596398 22.313003877 0.658013568652 0.0267554469358
1.4209472982 22.3133245756 0.6603242863 0.0267298692996
1.42294863242 22.3136452742 0.662635003947 0.0267042916635
1.42494996664 22.3139659728 0.664945721595 0.026678714027
1.42695130087 22.3143663785 0.667317337504 0.0266147377682
1.42895263509 22.3147688279 0.669690514906 0.0265497769282
1.43095396931 22.3151712774 0.672063692309 0.0264848160883
1.43295530354 22.3155737269 0.674436869711 0.0264198552488
1.43495663776 22.3159761763 0.676810047114 0.0263548944093
1.43695797198 22.3163786258 0.679183224516 0.026289933569
1.4389593062 22.3167810753 0.681556401919 0.0262249727296
1.44096064043 22.3171835247 0.683929579321 0.02616001189
1.44296197465 22.3176356439 0.686269519523 0.0261917190794
1.44496330887 22.31810199 0.688599939522 0.0262511151013
1.4469646431 22.3185683361 0.690930359521 0.0263105111234
1.44896597732 22.3190346822 0.693260779519 0.0263699071453
1.45096731154 22.3195010283 0.695591199518 0.0264293031672
1.45296864576 22.3199673745 0.697921619517 0.0264886991892
1.45496997999 22.3204337206 0.700252039516 0.0265480952114
1.45697131421 22.3209000667 0.702582459515 0.0266074912331
1.45897264843 22.3213774202 0.704870655298 0.0266733973326
1.46097398266 22.3218627547 0.70712823568 0.0267440236764
1.46297531688 22.3223480893 0.709385816063 0.0268146500204
1.4649766511 22.3228334238 0.711643396445 0.0268852763645
1.46697798532 22.3233187583 0.713900976827 0.0269559027091
1.46897931955 22.3238040929 0.716158557209 0.027026529053
1.47098065377 22.3242894274 0.718416137591 0.0270971553971
1.47298198799 22.324774762 0.720673717974 0.0271677817413
1.47498332221 22.3252600965 0.722931298356 0.0272384080851
1.47698465644 22.3257189975 0.725206890217 0.0273241651203
1.47898599066 22.3260790173 0.72754985835 0.0274665221487
1.48098732488 22.3264390372 0.729892826483 0.0276088791767
1.48298865911 22.326799057 0.732235794616 0.027751236205
1.48498999333 22.3271590768 0.734578762749 0.0278935932331
1.48699132755 22.3275190966 0.736921730882 0.0280359502618
1.48899266177 22.3278791165 0.739264699015 0.0281783072896
1.490993996 22.3282391363 0.741607667148 0.028320664318
1.49299533022 22.3285991561 0.743950635281 0.0284630213457
1.49499666444 22.3289591759 0.746293603414 0.0286053783743
1.49699799867 22.3294691626 0.748679258877 0.0287280403576
1.49899933289 22.3300072507 0.751072913263 0.0288470118034
1.50100066711 22.3305453387 0.75346656765 0.0289659832487
1.50300200133 22.3310834268 0.755860222037 0.029084954695
1.50500333556 22.3316215148 0.758253876423 0.0292039261404
1.50700466978 22.3321596029 0.76064753081 0.0293228975866
1.509006004 22.3326976909 0.763041185197 0.029441869032
1.51100733823 22.333235779 0.765434839584 0.0295608404781
1.51300867245 22.3336746812 0.767992658668 0.0296063205418
1.51501000667 22.334058881 0.770641017068 0.0296112689945
1.51701134089 22.3344430808 0.773289375469 0.0296162174471
1.51901267512 22.3348272806 0.77593773387 0.0296211659001
1.52101400934 22.3352114804 0.778586092271 0.0296261143521
1.52301534356 22.3355956802 0.781234450672 0.0296310628049
1.52501667779 22.33597988 0.783882809073 0.0296360112578
1.52701801201 22.3363640798 0.786531167473 0.0296409597106
1.52901934623 22.3367818531 0.789157921285 0.0296195207054
1.53102068045 22.3372411824 0.791757933751 0.0295654203008
1.53302201468 22.3377005117 0.794357946217 0.0295113198965
1.5350233489 22.3381598411 0.796957958683 0.029457219492
1.53702468312 22.3386191704 0.79955797115 0.029403119088
1.53902601734 22.3390784997 0.802157983616 0.0293490186834
1.54102735157 22.339537829 0.804757996082 0.0292949182792
1.54302868579 22.3399971584 0.807358008548 0.0292408178746
1.54503002001 22.3404564877 0.809958021015 0.0291867174704
1.54703135424 22.3409492226 0.812560099657 0.0291287699516
1.54903268846 22.3418361433 0.815186559179 0.0290254264809
1.55103402268 22.342723064 0.817813018702 0.0289220830095
1.5530353569 22.3436099846 0.820439478224 0.0288187395388
1.55503669113 22.3444969053 0.823065937746 0.0287153960681
1.55703802535 22.345383826 0.825692397269 0.0286120525974
1.55903935957 22.3462707467 0.828318856791 0.0285087091265
1.5610406938 22.3471576674 0.830945316314 0.0284053656556
1.56304202802 22.3480445881 0.833571775836 0.0283020221845
1.56504336224 22.3489315088 0.836198235358 0.028198678714
1.56704469646 22.349546856 0.839066200887 0.027949284469
1.56904603069 22.350050942 0.842033109405 0.0276400544433
1.57104736491 22.3505550279 0.845000017923 0.0273308244188
1.57304869913 22.3510591139 0.847966926441 0.027021594394
1.57505003336 22.3515631998 0.850933834959 0.0267123643691
1.57705136758 22.3520672858 0.853900743478 0.0264031343438
1.5790527018 22.3525713717 0.856867651996 0.0260939043186
1.58105403602 22.3530754577 0.859834560514 0.0257846742939
1.58305537025 22.3535882532 0.862767877472 0.0254979905615
1.58505670447 22.3541093594 0.865669141413 0.0252328204671
1.58705803869 22.3546304656 0.868570405354 0.024967650373
1.58905937292 22.3551515718 0.871471669295 0.024702480279
1.59106070714 22.355672678 0.874372933236 0.0244373101844
1.59306204136 22.3561937842 0.877274197178 0.0241721400906
1.59506337558 22.3567148904 0.880175461119 0.023906969996
1.59706470981 22.3572359966 0.88307672506 0.0236417999019
1.59906604403 22.3577721083 0.885876590451 0.0234331379633
1.60106737825 22.3583409936 0.888454993335 0.0233478943363
1.60306871247 22.3589098788 0.891033396219 0.0232626507086
1.6050700467 22.359478764 0.893611799104 0.0231774070813
1.60707138092 22.3600476493 0.896190201988 0.0230921634542
1.60907271514 22.3606165345 0.898768604872 0.0230069198267
1.61107404937 22.3611854197 0.901347007756 0.0229216761996
1.61307538359 22.361754305 0.903925410641 0.0228364325717
1.61507671781 22.3623231902 0.906503813525 0.0227511889447
1.61707805203 22.3628920754 0.909082216409 0.0226659453173
1.61907938626 22.3637536059 0.911787689018 0.0226052416435
1.62108072048 22.3646320663 0.914500512768 0.0225459576366
1.6230820547 22.3655105267 0.917213336518 0.0224866736293
1.62508338893 22.366388987 0.919926160268 0.0224273896223
1.62708472315 22.3672674474 0.922638984017 0.0223681056157
1.62908605737 22.3681459078 0.925351807767 0.0223088216082
1.63108739159 22.3690243682 0.928064631517 0.0222495376013
1.63308872582 22.3699028286 0.930777455267 0.0221902535942
1.63509006004 22.3707812889 0.933490279016 0.0221309695873
1.63709139426 22.3718070682 0.936315622009 0.0220146534532
1.63909272849 22.3729410409 0.939223601082 0.0218564519359
1.64109406271 22.3740750136 0.942131580156 0.0216982504185
1.64309539693 22.3752089864 0.945039559231 0.0215400489013
1.64509673115 22.3763429591 0.947947538305 0.021381847384
1.64709806538 22.3774769318 0.950855517379 0.0212236458668
1.6490993996 22.3786109046 0.953763496454 0.0210654443494
1.65110073382 22.3797448773 0.956671475528 0.0209072428325
1.65310206805 22.3811091489 0.959617954747 0.0207714505375
1.65510340227 22.3828509208 0.962627542454 0.0206723908858
1.65710473649 22.3845926927 0.965637130163 0.0205733312344
1.65910607071 22.3863344645 0.968646717869 0.0204742715826
1.66110740494 22.3880762364 0.971656305575 0.0203752119312
1.66310873916 22.3898180082 0.974665893282 0.0202761522793
1.66511007338 22.3915597801 0.977675480989 0.0201770926279
1.66711140761 22.3933015519 0.980685068697 0.0200780329763
1.66911274183 22.3949779958 0.983644139592 0.0200041644417
1.67111407605 22.3963593371 0.986375013857 0.0200440902635
1.67311541027 22.3977406785 0.989105888125 0.0200840160862
1.6751167445 22.3991220199 0.99183676239 0.0201239419087
1.67711807872 22.4005033613 0.994567636657 0.0201638677303
1.67911941294 22.4018847026 0.997298510924 0.0202037935528
1.68112074716 22.403266044 1.00002938519 0.0202437193754
1.68312208139 22.4046473854 1.00276025946 0.0202836451974
1.68512341561 22.4060287268 1.00549113372 0.0203235710193
1.68712474983 22.4074100682 1.00822200799 0.0203634968417
1.68912608406 22.4090609604 1.01096378124 0.0202760326463
1.69112741828 22.4107740568 1.01370806963 0.0201591707538
1.6931287525 22.4124871531 1.01645235803 0.0200423088616
1.69513008672 22.4142002495 1.01919664643 0.0199254469698
1.69713142095 22.4159133459 1.02194093483 0.0198085850775
1.69913275517 22.4176264422 1.02468522322 0.0196917231852
1.70113408939 22.4193395386 1.02742951162 0.0195748612932
1.70313542362 22.4210526349 1.03017380002 0.0194579994014
1.70513675784 22.4227657313 1.03291808841 0.019341137509
1.70713809206 22.4243352371 1.03574538632 0.0193201226084
1.70913942628 22.4257247492 1.03867673841 0.0194192539361
1.71114076051 22.4271142613 1.0416080905 0.0195183852638
1.71314209473 22.4285037734 1.04453944259 0.0196175165916
1.71514342895 22.4298932854 1.04747079468 0.0197166479197
1.71714476318 22.4312827975 1.05040214677 0.0198157792471
1.7191460974 22.4326723096 1.05333349886 0.0199149105749
1.72114743162 22.4340618217 1.05626485094 0.0200140419032
1.72314876584 22.4355881792 1.0591869248 0.0201240880718
1.72515010007 22.4375337618 1.06208057485 0.0202675717697
1.72715143429 22.4394793443 1.0649742249 0.0204110554681
1.72915276851 22.4414249268 1.06786787495 0.020554539166
1.73115410274 22.4433705093 1.07076152499 0.0206980228644
1.73315543696 22.4453160919 1.07365517504 0.0208415065627
1.73515677118 22.4472616744 1.07654882509 0.0209849902606
1.7371581054 22.4492072569 1.07944247514 0.0211284739584
1.73915943963 22.4511468335 1.08232692915 0.0212604501892
1.74116077385 22.452968423 1.08503072552 0.0211663603628
1.74316210807 22.4547900126 1.08773452189 0.0210722705368
1.74516344229 22.4566116021 1.09043831826 0.0209781807106
1.74716477652 22.4584331916 1.09314211462 0.0208840908848
1.74916611074 22.4602547811 1.09584591099 0.0207900010587
1.75116744496 22.4620763706 1.09854970736 0.0206959112325
1.75316877919 22.4638979602 1.10125350373 0.0206018214063
1.75517011341 22.4657195497 1.10395730009 0.0205077315802
1.75717144763 22.4675411392 1.10666109646 0.0204136417541
1.75917278185 22.4694945681 1.10940215717 0.0204429792153
1.76117411608 22.4715101283 1.11216077923 0.0205304835596
1.7631754503 22.4735256885 1.11491940129 0.0206179879033
1.76517678452 22.4755412486 1.11767802336 0.0207054922475
1.76717811875 22.4775568088 1.12043664542 0.0207929965912
1.76917945297 22.4795723689 1.12319526748 0.0208805009355
1.77118078719 22.4815879291 1.12595388954 0.0209680052795
1.77318212141 22.4836034893 1.12871251161 0.0210555096236
1.77518345564 22.4856190495 1.13147113367 0.021143013967
1.77718478986 22.4877467898 1.13430490243 0.0211720803348
1.77918612408 22.4901231304 1.13730520231 0.0210716434478
1.78118745831 22.492499471 1.14030550219 0.0209712065611
1.78318879253 22.4948758116 1.14330580207 0.0208707696743
1.78519012675 22.4972521523 1.14630610196 0.0207703327877
1.78719146097 22.4996284929 1.14930640184 0.0206698959008
1.7891927952 22.5020048335 1.15230670172 0.0205694590142
1.79119412942 22.5043811741 1.1553070016 0.0204690221272
1.79319546364 22.5067267549 1.15830098989 0.0203740095496
1.79519679787 22.50883156 1.16124557362 0.0203214562212
1.79719813209 22.5109363651 1.16419015735 0.020268902893
1.79919946631 22.5130411701 1.16713474108 0.0202163495646
1.80120080053 22.5151459752 1.17007932481 0.0201637962362
1.80320213476 22.5172507803 1.17302390854 0.0201112429079
1.80520346898 22.5193555854 1.17596849227 0.0200586895794
1.8072048032 22.5214603905 1.178913076 0.0200061362511
1.80920613742 22.5235651956 1.18185765973 0.0199535829229
1.81120747165 22.526248244 1.18432763972 0.020131634737
1.81320880587 22.5289845776 1.18675388489 0.0203309368548
1.81521014009 22.5317209112 1.18918013006 0.0205302389725
1.81721147432 22.5344572448 1.19160637524 0.0207295410905
1.81921280854 22.5371935784 1.19403262041 0.0209288432081
1.82121414276 22.539929912 1.19645886558 0.0211281453259
1.82321547698 22.5426662456 1.19888511075 0.0213274474434
1.82521681121 22.5454025792 1.20131135593 0.0215267495611
1.82721814543 22.5481389128 1.2037376011 0.0217260516793
1.82921947965 22.5513430577 1.2060919423 0.0217527735672
1.83122081388 22.5549348176 1.20838670593 0.0216365004083
1.8332221481 22.5585265775 1.21068146955 0.0215202272489
1.83522348232 22.5621183375 1.21297623317 0.0214039540898
1.83722481654 22.5657100974 1.2152709968 0.0212876809305
1.83922615077 22.5693018573 1.21756576042 0.0211714077715
1.84122748499 22.5728936172 1.21986052405 0.0210551346128
1.84322881921 22.5764853772 1.22215528767 0.0209388614534
1.84523015344 22.5800771371 1.2244500513 0.0208225882943
1.84723148766 22.5835742491 1.22680081111 0.0207303817601
1.84923282188 22.5866346523 1.2294099393 0.0207492194743
1.8512341561 22.5896950555 1.23201906748 0.0207680571896
1.85323549033 22.5927554587 1.23462819567 0.0207868949049
1.85523682455 22.5958158618 1.23723732386 0.0208057326195
1.85723815877 22.598876265 1.23984645205 0.0208245703346
1.859239493 22.6019366682 1.24245558024 0.0208434080495
1.86124082722 22.6049970714 1.24506470842 0.0208622457646
1.86324216144 22.6080574746 1.24767383661 0.0208810834796
1.86524349566 22.6117419799 1.250081018 0.0207530227364
1.86724482989 22.6154389175 1.25248417654 0.0206220357293
1.86924616411 22.6191358551 1.25488733508 0.0204910487224
1.87124749833 22.6228327927 1.25729049362 0.0203600617155
1.87324883256 22.6265297303 1.25969365217 0.0202290747083
1.87525016678 22.6302266679 1.26209681071 0.0200980877015
1.877251501 22.6339236055 1.26449996925 0.0199671006943
1.87925283522 22.6376205431 1.2669031278 0.0198361136875
1.88125416945 22.6411843224 1.26926138406 0.0197603026649
1.88325550367 22.6447111575 1.27160718241 0.0196997999497
1.88525683789 22.6482379927 1.27395298076 0.019639297234
1.88725817211 22.6517648278 1.27629877911 0.0195787945186
1.88925950634 22.655291663 1.27864457745 0.0195182918031
1.89126084056 22.6588184981 1.2809903758 0.0194577890873
1.89326217478 22.6623453333 1.28333617415 0.0193972863721
1.89526350901 22.6658721684 1.2856819725 0.0193367836561
1.89726484323 22.6693990036 1.28802777085 0.0192762809408
1.89926617745 22.6724776757 1.29025428218 0.0192502830487
1.90126751167 22.674922155 1.29231199113 0.0192731127363
1.9032688459 22.6773666343 1.29436970007 0.0192959424239
1.90527018012 22.6798111135 1.29642740902 0.0193187721117
1.90727151434 22.6822555928 1.29848511797 0.0193416017995
1.90927284857 22.684700072 1.30054282692 0.0193644314873
1.91127418279 22.6871445513 1.30260053586 0.0193872611748
1.91327551701 22.6895890305 1.30465824481 0.0194100908627
1.91527685123 22.6920335098 1.30671595376 0.0194329205503
1.91727818546 22.6945308406 1.308786098 0.0194575458242
1.91927951968 22.6981416978 1.31111824114 0.0195200022456
1.9212808539 22.7017525551 1.31345038428 0.0195824586667
1.92328218813 22.7053634124 1.31578252742 0.0196449150881
1.92528352235 22.7089742697 1.31811467056 0.0197073715095
1.92728485657 22.7125851269 1.3204468137 0.0197698279303
1.92928619079 22.7161959842 1.32277895684 0.0198322843521
1.93128752502 22.7198068415 1.32511109998 0.0198947407731
1.93328885924 22.7234176987 1.32744324312 0.0199571971944
1.93529019346 22.7269298864 1.32944303155 0.0202840488777
1.93729152769 22.7304243408 1.33138308804 0.0206584186043
1.93929286191 22.7339187952 1.33332314452 0.0210327883302
1.94129419613 22.7374132496 1.335263201 0.0214071580561
1.94329553035 22.7409077039 1.33720325748 0.0217815277822
1.94529686458 22.7444021584 1.33914331397 0.0221558975082
1.9472981988 22.7478966128 1.34108337045 0.0225302672341
1.94929953302 22.7513910671 1.34302342693 0.0229046369598
1.95130086724 22.7544816683 1.34485541579 0.0229966367753
1.95330220147 22.7573548101 1.34662921438 0.0229365912541
1.95530353569 22.7602279519 1.34840301297 0.0228765457326
1.95730486991 22.7631010936 1.35017681156 0.0228165002114
1.95930620414 22.7659742354 1.35195061015 0.0227564546903
1.96130753836 22.7688473772 1.35372440874 0.0226964091689
1.96330887258 22.7717205189 1.35549820733 0.0226363636476
1.9653102068 22.7745936607 1.35727200592 0.0225763181263
1.96731154103 22.7774668024 1.35904580451 0.0225162726049
1.96931287525 22.7807317452 1.36076025171 0.0223963531375
1.97131420947 22.7849979569 1.36232302311 0.0221234224738
1.9733155437 22.7892641687 1.36388579452 0.0218504918104
1.97531687792 22.7935303806 1.36544856592 0.021577561147
1.97731821214 22.7977965924 1.36701133733 0.0213046304835
1.97931954636 22.8020628041 1.36857410874 0.02103169982
1.98132088059 22.8063290159 1.37013688014 0.0207587691567
1.98332221481 22.8105952277 1.37169965155 0.0204858384933
1.98532354903 22.8148614395 1.37326242295 0.0202129078297
1.98732488326 22.8191276513 1.37482519436 0.0199399771663
1.98932621748 22.8233823275 1.37655247643 0.019819671529
1.9913275517 22.8276358975 1.37829553348 0.0197140011681
1.99332888592 22.8318894675 1.38003859054 0.0196083308073
1.99533022015 22.8361430374 1.3817816476 0.0195026604462
1.99733155437 22.8403966074 1.38352470466 0.0193969900856
1.99933288859 22.8446501774 1.38526776172 0.0192913197248
2.00133422282 22.8489037474 1.38701081878 0.0191856493639
2.00333555704 22.8531573174 1.38875387584 0.019079979003
2.00533689126 22.8580716875 1.39028168716 0.0188484571483
2.00733822548 22.8632496555 1.39172363542 0.0185667322392
2.00933955971 22.8684276234 1.39316558368 0.0182850073301
2.01134089393 22.8736055914 1.39460753194 0.0180032824206
2.01334222815 22.8787835593 1.3960494802 0.0177215575114
2.01534356237 22.8839615272 1.39749142846 0.0174398326017
2.0173448966 22.8891394952 1.39893337672 0.0171581076926
2.01934623082 22.8943174631 1.40037532498 0.0168763827832
2.02134756504 22.8991416296 1.40174013965 0.0166739112446
2.02334889927 22.9036355102 1.40303294742 0.0165454254819
2.02535023349 22.9081293907 1.4043257552 0.0164169397187
2.02735156771 22.9126232713 1.40561856297 0.0162884539557
2.02935290193 22.9171171519 1.40691137074 0.0161599681928
2.03135423616 22.9216110324 1.40820417852 0.0160314824297
2.03335557038 22.926104913 1.40949698629 0.0159029966666
2.0353569046 22.9305987936 1.41078979407 0.0157745109036
2.03735823883 22.9350926741 1.41208260184 0.0156460251407
2.03935957305 22.9393322872 1.41332337786 0.015502629665
2.04136090727 22.9421132077 1.4142656559 0.0152736995245
2.04336224149 22.9448941282 1.41520793394 0.0150447693834
2.04536357572 22.9476750487 1.41615021199 0.0148158392425
2.04736490994 22.9504559692 1.41709249003 0.0145869091016
2.04936624416 22.9532368898 1.41803476808 0.0143579789607
2.05136757839 22.9560178103 1.41897704613 0.0141290488196
2.05336891261 22.9587987308 1.41991932417 0.0139001186786
2.05537024683 22.9615796513 1.42086160222 0.0136711885375
2.05737158105 22.9643605718 1.42180388026 0.0134422583968
2.05937291528 22.9669687768 1.4228567478 0.0132077841858
2.0613742495 22.9695281784 1.42394086408 0.0129717434136
2.06337558372 22.9720875799 1.42502498035 0.0127357026417
2.06537691795 22.9746469814 1.42610909663 0.0124996618697
2.06737825217 22.977206383 1.4271932129 0.0122636210975
2.06937958639 22.9797657845 1.42827732918 0.0120275803254
2.07138092061 22.9823251861 1.42936144545 0.0117915395536
2.07338225484 22.9848845877 1.43044556173 0.0115554987815
2.07538358906 22.9881442902 1.43130702025 0.0116229338254
2.07738492328 22.9919068936 1.43200858359 0.0119083011673
2.0793862575 22.9956694969 1.43271014694 0.0121936685088
2.08138759173 22.9994321002 1.43341171029 0.0124790358505
2.08338892595 23.0031947035 1.43411327364 0.012764403192
2.08539026017 23.0069573069 1.43481483699 0.0130497705338
2.0873915944 23.0107199102 1.43551640034 0.0133351378756
2.08939292862 23.0144825135 1.43621796369 0.0136205052174
2.09139426284 23.0185650885 1.43687025746 0.013906787917
2.09339559706 23.0231601383 1.43744363981 0.0141945366778
2.09539693129 23.0277551882 1.43801702217 0.0144822854384
2.09739826551 23.032350238 1.43859040452 0.0147700341992
2.09939959973 23.0369452879 1.43916378687 0.01505778296
2.10140093396 23.0415403377 1.43973716922 0.0153455317208
2.10340226818 23.0461353875 1.44031055157 0.0156332804814
2.1054036024 23.0507304374 1.44088393393 0.0159210292423
2.10740493662 23.0553254872 1.44145731628 0.0162087780031
2.10940627085 23.0599226901 1.44202177013 0.0165024096229
2.11140760507 23.064655534 1.44202372873 0.0171666613667
2.11340893929 23.0693883779 1.44202568732 0.0178309131104
2.11541027352 23.0741212218 1.44202764591 0.0184951648543
2.11741160774 23.0788540657 1.44202960451 0.0191594165981
2.11941294196 23.0835869096 1.4420315631 0.0198236683418
2.12141427618 23.0883197535 1.44203352169 0.0204879200856
2.12341561041 23.0930525974 1.44203548028 0.0211521718294
2.12541694463 23.0977854413 1.44203743888 0.0218164235731
2.12741827885 23.1025182852 1.44203939747 0.0224806753168
2.12941961308 23.1075262662 1.44211762555 0.0230250701228
2.1314209473 23.1126844429 1.44223748867 0.0235040357793
2.13342228152 23.1178426196 1.44235735179 0.0239830014357
2.13542361574 23.1230007962 1.44247721491 0.0244619670922
2.13742494997 23.1281589729 1.44259707802 0.0249409327486
2.13942628419 23.1333171495 1.44271694114 0.025419898405
2.14142761841 23.1384753262 1.44283680426 0.0258988640615
2.14342895264 23.1436335029 1.44295666738 0.0263778297179
2.14543028686 23.1481915842 1.44289003211 0.0263259526354
2.14743162108 23.1520138965 1.44259473362 0.0256232161953
2.1494329553 23.1558362088 1.44229943513 0.0249204797552
2.15143428953 23.1596585211 1.44200413664 0.024217743315
2.15343562375 23.1634808334 1.44170883814 0.0235150068746
2.15543695797 23.1673031457 1.44141353965 0.0228122704345
2.15743829219 23.171125458 1.44111824116 0.0221095339943
2.15943962642 23.1749477703 1.44082294267 0.0214067975543
2.16144096064 23.1783522574 1.44052148689 0.0206553219958
2.16344229486 23.1805136498 1.44020171224 0.0197588399931
2.16544362909 23.1826750423 1.43988193758 0.0188623579899
2.16744496331 23.1848364347 1.43956216293 0.017965875987
2.16944629753 23.1869978271 1.43924238827 0.0170693939841
2.17144763175 23.1891592196 1.43892261362 0.0161729119813
2.17344896598 23.191320612 1.43860283897 0.0152764299783
2.1754503002 23.1934820044 1.43828306431 0.0143799479757
2.17745163442 23.1956433969 1.43796328966 0.0134834659727
2.17945296865 23.1978047893 1.437643515 0.0125869839699
2.18145430287 23.201176835 1.43705077671 0.0115313846246
2.18345563709 23.2047095869 1.43642180431 0.0104546635083
2.18545697131 23.2082423387 1.43579283191 0.00937794239184
2.18745830554 23.2117750906 1.43516385951 0.00830122127585
2.18945963976 23.2153078425 1.43453488711 0.00722450015946
2.19146097398 23.2188405943 1.43390591471 0.00614777904318
2.19346230821 23.2223733462 1.43327694231 0.00507105792708
2.19546364243 23.2259060981 1.43264796991 0.00399433681057
2.19746497665 23.22943885 1.43201899751 0.00291761569446
2.19946631087 23.2344067638 1.43132301256 0.0023026184567
2.2014676451 23.2407313201 1.4305636814 0.00212408360846
2.20346897932 23.2470558763 1.42980435025 0.0019455487602
2.20547031354 23.2533804326 1.42904501909 0.00176701391203
2.20747164777 23.2597049889 1.42828568793 0.00158847906383
2.20947298199 23.2660295452 1.42752635678 0.00140994421575
2.21147431621 23.2723541015 1.42676702562 0.00123140936755
2.21347565043 23.2786786577 1.42600769446 0.00105287451932
2.21547698466 23.2850684054 1.42513230737 0.00103585943516
2.21747831888 23.2915989985 1.42400618214 0.00136780680397
2.2194796531 23.2981295917 1.42288005691 0.00169975417323
2.22148098732 23.3046601848 1.42175393168 0.00203170154216
2.22348232155 23.311190778 1.42062780646 0.00236364891094
2.22548365577 23.3177213712 1.41950168123 0.00269559628006
2.22748498999 23.3242519643 1.418375556 0.00302754364899
2.22948632422 23.3307825575 1.41724943077 0.00335949101797
2.23148765844 23.3371271131 1.4161400147 0.00366771623738
2.23348899266 23.3420910743 1.41515459814 0.00379989813539
2.23549032688 23.3470550354 1.41416918159 0.00393208003307
2.23749166111 23.3520189966 1.41318376504 0.00406426193112
2.23949299533 23.3569829578 1.41219834849 0.00419644382915
2.24149432955 23.361946919 1.41121293194 0.004328625727
2.24349566378 23.3669108802 1.41022751538 0.00446080762503
2.245496998 23.3718748414 1.40924209883 0.00459298952291
2.24749833222 23.3768388025 1.40825668228 0.0047251714208
2.24949966644 23.3818027637 1.40727126572 0.00485735331879
2.25150100067 23.3865633019 1.40581434278 0.00506694737624
2.25350233489 23.3912560323 1.40420025104 0.00530234548662
2.25550366911 23.3959487628 1.40258615929 0.00553774359723
2.25750500334 23.4006414932 1.40097206755 0.00577314170771
2.25950633756 23.4053342237 1.3993579758 0.00600853981826
2.26150767178 23.4100269541 1.39774388406 0.00624393792852
2.263509006 23.4147196846 1.39612979232 0.0064793360392
2.26551034023 23.4194124151 1.39451570057 0.00671473414969
2.26751167445 23.4241051455 1.39290160883 0.00695013225999
2.26951300867 23.4286594083 1.39125469397 0.00696431010567
2.2715143429 23.4329889449 1.3895545088 0.0066194583409
2.27351567712 23.4373184815 1.38785432364 0.00627460657637
2.27551701134 23.4416480181 1.38615413847 0.0059297548116
2.27751834556 23.4459775548 1.38445395331 0.00558490304695
2.27951967979 23.4503070913 1.38275376814 0.00524005128219
2.28152101401 23.454636628 1.38105358297 0.00489519951743
2.28352234823 23.4589661646 1.37935339781 0.00455034775292
2.28552368245 23.4629354884 1.37752285449 0.00417113482282
2.28752501668 23.4653030148 1.37511263345 0.00363912437017
2.2895263509 23.4676705412 1.3727024124 0.00310711391776
2.29152768512 23.4700380677 1.37029219135 0.00257510346492
2.29352901935 23.4724055941 1.3678819703 0.00204309301232
2.29553035357 23.4747731205 1.36547174925 0.00151108255988
2.29753168779 23.477140647 1.36306152821 0.000979072107114
2.29953302201 23.4795081734 1.36065130716 0.000447061654657
2.30153435624 23.4818756999 1.35824108611 -8.49487979258e-05
2.30353569046 23.4843970433 1.35614256441 -0.000286492784429
2.30553702468 23.4869205806 1.3540484885 -0.000483323302952
2.30753835891 23.489444118 1.3519544126 -0.000680153821475
2.30953969313 23.4919676553 1.34986033669 -0.000876984339903
2.31154102735 23.4944911927 1.34776626078 -0.0010738148588
2.31354236157 23.49701473 1.34567218487 -0.00127064537732
2.3155436958 23.4995382674 1.34357810897 -0.00146747589584
2.31754503002 23.5020618047 1.34148403306 -0.00166430641431
2.31954636424 23.504585342 1.33938995715 -0.00186113693283
2.32154769847 23.5066253139 1.33734396747 -0.00176849928585
2.32354903269 23.5083653528 1.33532780341 -0.00149631809287
2.32555036691 23.5101053916 1.33331163936 -0.00122413690008
2.32755170113 23.5118454305 1.3312954753 -0.000951955707104
2.32955303536 23.5135854693 1.32927931125 -0.000679774514137
2.33155436958 23.5153255082 1.32726314719 -0.000407593321344
2.3335557038 23.5170655471 1.32524698314 -0.000135412128393
2.33555703803 23.5188055859 1.32323081908 0.000136769064765
2.33755837225 23.5205456248 1.32121465503 0.000408950257572
2.33955970647 23.5222497995 1.31911258483 0.000552764521306
2.34156104069 23.5238454795 1.31675063505 0.000308248640974
2.34356237492 23.5254411596 1.31438868527 6.37327607856e-05
2.34556370914 23.5270368397 1.31202673549 -0.000180783119574
2.34756504336 23.5286325197 1.3096647857 -0.000425298999975
2.34956637759 23.5302281998 1.30730283592 -0.00066981488029
2.35156771181 23.5318238799 1.30494088614 -0.000914330760473
2.35356904603 23.5334195599 1.30257893636 -0.00115884664085
2.35557038025 23.535078229 1.30023101906 -0.00137779615901
2.35757171448 23.5379143082 1.29814540134 -0.0011188513691
2.3595730487 23.5407503874 1.29605978361 -0.000859906579301
2.36157438292 23.5435864666 1.29397416589 -0.000600961789407
2.36357571714 23.5464225459 1.29188854816 -0.00034201699948
2.36557705137 23.5492586251 1.28980293044 -8.30722097068e-05
2.36757838559 23.5520947043 1.28771731271 0.000175872580216
2.36957971981 23.5549307835 1.28563169499 0.000434817370114
2.37158105404 23.5577668627 1.28354607726 0.000693762159912
2.37358238826 23.5611629936 1.28152660063 0.00113999031491
2.37558372248 23.5646555436 1.27951851093 0.00161846139339
2.3775850567 23.5681480936 1.27751042123 0.00209693247197
2.37958639093 23.5716406436 1.27550233153 0.00257540355062
2.38158772515 23.5751331936 1.27349424183 0.00305387462922
2.38358905937 23.5786257435 1.27148615213 0.00353234570768
2.3855903936 23.5821182936 1.26947806243 0.00401081678628
2.38759172782 23.5856108436 1.26746997273 0.00448928786498
2.38959306204 23.5891033936 1.26546188303 0.0049677589435
2.39159439626 23.5931822962 1.26324086472 0.0052408230118
2.39359573049 23.5978853806 1.26079318048 0.00529522800487
2.39559706471 23.602588465 1.25834549624 0.00534963299796
2.39759839893 23.6072915494 1.255897812 0.00540403799088
2.39959973316 23.6119946337 1.25345012776 0.00545844298394
2.40160106738 23.6166977181 1.25100244352 0.00551284797694
2.4036024016 23.6214008025 1.24855475928 0.00556725296995
2.40560373582 23.6261038869 1.24610707504 0.00562165796296
2.40760507005 23.6308069713 1.24365939079 0.00567606295599
2.40960640427 23.63542458 1.24118602924 0.00575951852642
2.41160773849 23.6393884153 1.23851627095 0.00606517175702
2.41360907272 23.6433522507 1.23584651267 0.00637082498762
2.41561040694 23.647316086 1.23317675438 0.00667647821825
2.41761174116 23.6512799213 1.23050699609 0.00698213144885
2.41961307538 23.6552437566 1.2278372378 0.00728778467942
2.42161440961 23.6592075919 1.22516747951 0.00759343791007
2.42361574383 23.6631714272 1.22249772123 0.00789909114059
2.42561707805 23.6671352625 1.21982796294 0.00820474437123
2.42761841227 23.6702314934 1.21699582616 0.00816828814043
2.4296197465 23.6732501936 1.21414917897 0.00810126042576
2.43162108072 23.6762688938 1.21130253178 0.00803423271112
2.43362241494 23.6792875941 1.20845588458 0.00796720499649
2.43562374917 23.6823062943 1.20560923739 0.00790017728186
2.43762508339 23.6853249946 1.20276259019 0.00783314956719
2.43962641761 23.6883436948 1.199915943 0.00776612185256
2.44162775183 23.6913623951 1.19706929581 0.00769909413794
2.44362908606 23.6945770314 1.19448696236 0.00756777049601
2.44563042028 23.6978677469 1.19200725833 0.00741148162418
2.4476317545 23.7011584625 1.1895275543 0.00725519275223
2.44963308873 23.7044491781 1.18704785027 0.00709890388039
2.45163442295 23.7077398937 1.18456814625 0.00694261500861
2.45363575717 23.7110306093 1.18208844222 0.00678632613672
2.45563709139 23.7143213249 1.17960873819 0.00663003726483
2.45763842562 23.7176120405 1.17712903416 0.00647374839301
2.45963975984 23.7209027561 1.17464933013 0.00631745952119
2.46164109406 23.7235453661 1.1723342325 0.00620395254088
2.46364242829 23.7249925814 1.17032274223 0.00616935438282
2.46564376251 23.7264397967 1.16831125197 0.00613475622479
2.46764509673 23.727887012 1.1662997617 0.00610015806672
2.46964643095 23.7293342273 1.16428827143 0.00606555990868
2.47164776518 23.7307814426 1.16227678117 0.00603096175065
2.4736490994 23.7322286579 1.1602652909 0.00599636359255
2.47565043362 23.7336758733 1.15825380063 0.00596176543452
2.47765176785 23.7351230886 1.15624231036 0.00592716727648
2.47965310207 23.7365703039 1.1542308201 0.00589256911847
2.48165443629 23.7379104365 1.15171635163 0.00567598992164
2.48365577051 23.7392486964 1.14919308704 0.00545622822653
2.48565710474 23.7405869563 1.14666982244 0.00523646653138
2.48765843896 23.7419252162 1.14414655785 0.00501670483632
2.48965977318 23.7432634761 1.14162329326 0.00479694314117
2.4916611074 23.744601736 1.13910002866 0.00457718144604
2.49366244163 23.745939996 1.13657676407 0.00435741975094
2.49566377585 23.7472782559 1.13405349948 0.00413765805587
2.49766511007 23.7481421501 1.13154884448 0.0040341739004
2.4996664443 23.7488762427 1.12904928166 0.00396250698229
2.50166777852 23.7496103354 1.12654971884 0.00389084006413
2.50366911274 23.750344428 1.12405015603 0.003819173146
2.50567044696 23.7510785206 1.12155059321 0.00374750622779
2.50767178119 23.7518126133 1.11905103039 0.00367583930963
2.50967311541 23.7525467059 1.11655146757 0.00360417239151
2.51167444963 23.7532807986 1.11405190475 0.00353250547333
2.51367578386 23.7543587642 1.11180675869 0.00347129729469
2.51567711808 23.7556781728 1.10974024568 0.00341743248648
2.5176784523 23.7569975813 1.10767373267 0.00336356767816
2.51967978652 23.7583169898 1.10560721966 0.00330970286988
2.52168112075 23.7596363983 1.10354070664 0.00325583806162
2.52368245497 23.7609558068 1.10147419363 0.00320197325333
2.52568378919 23.7622752153 1.09940768062 0.00314810844504
2.52768512342 23.7635946238 1.09734116761 0.00309424363679
2.52968645764 23.7649140323 1.09527465459 0.00304037882851
2.53168779186 23.7663812219 1.09315595907 0.00294450786817
2.53368912608 23.7683762008 1.09085089742 0.00269861493624
2.53569046031 23.7703711798 1.08854583577 0.00245272200424
2.53769179453 23.7723661588 1.08624077413 0.00220682907233
2.53969312875 23.7743611377 1.08393571248 0.00196093614036
2.54169446298 23.7763561167 1.08163065083 0.00171504320845
2.5436957972 23.7783510957 1.07932558919 0.00146915027651
2.54569713142 23.7803460747 1.07702052754 0.00122325734455
2.54769846564 23.7823410536 1.07471546589 0.000977364412653
2.54969979987 23.7843360326 1.07241040425 0.000731471480661
2.55170113409 23.7858287902 1.07002278322 0.000622629072741
2.55370246831 23.7872329204 1.06762059289 0.000537972051324
2.55570380253 23.7886370507 1.06521840255 0.000453315029942
2.55770513676 23.7900411809 1.06281621222 0.000368658008547
2.55970647098 23.7914453112 1.06041402188 0.000284000987168
2.5617078052 23.7928494414 1.05801183155 0.000199343965783
2.56370913943 23.7942535717 1.05560964122 0.000114686944343
2.56571047365 23.7956577019 1.05320745088 3.00299229917e-05
2.56771180787 23.7975620902 1.05097053859 -5.99931586346e-05
2.56971314209 23.799733083 1.0488217086 -0.000152875996995
2.57171447632 23.8019040759 1.04667287861 -0.000245758835297
2.57371581054 23.8040750687 1.04452404862 -0.000338641673568
2.57571714476 23.8062460615 1.04237521863 -0.000431524511912
2.57771847899 23.8084170544 1.04022638865 -0.000524407350268
2.57971981321 23.8105880472 1.03807755866 -0.00061729018855
2.58172114743 23.81275904 1.03592872867 -0.000710173026832
2.58372248165 23.8148531082 1.03379247125 -0.000879333777465
2.58572381588 23.8168549195 1.03167129227 -0.00113997559813
2.5877251501 23.8188567309 1.0295501133 -0.00140061741882
2.58972648432 23.8208585422 1.02742893432 -0.00166125923944
2.59172781855 23.8228603536 1.02530775535 -0.00192190106014
2.59372915277 23.8248621649 1.02318657637 -0.00218254288084
2.59573048699 23.8268639762 1.02106539739 -0.0024431847015
2.59773182121 23.8288657876 1.01894421842 -0.00270382652221
2.59973315544 23.8308675989 1.01682303944 -0.00296446834287
2.60173448966 23.8327953525 1.01473074919 -0.00318934465827
2.60373582388 23.8339354011 1.01294572998 -0.00303380605355
2.60573715811 23.8350754497 1.01116071076 -0.00287826744884
2.60773849233 23.8362154984 1.00937569155 -0.0027227288441
2.60973982655 23.837355547 1.00759067233 -0.00256719023936
2.61174116077 23.8384955956 1.00580565311 -0.00241165163465
2.613742495 23.8396356442 1.0040206339 -0.00225611302993
2.61574382922 23.8407756928 1.00223561468 -0.0021005744252
2.61774516344 23.8419157414 1.00045059546 -0.0019450358205
2.61974649767 23.84305579 0.998665576248 -0.00178949721576
2.62174783189 23.844526834 0.996789630294 -0.0016015094487
2.62374916611 23.8461284012 0.994877828694 -0.00140072582458
2.62575050033 23.8477299684 0.992966027098 -0.00119994220046
2.62775183456 23.8493315356 0.991054225498 -0.000999158576313
2.62975316878 23.8509331029 0.989142423901 -0.000798374952216
2.631754503 23.8525346701 0.987230622305 -0.000597591328128
2.63375583722 23.8541362373 0.985318820707 -0.000396807703987
2.63575717145 23.8557378045 0.983407019108 -0.000196024079876
2.63775850567 23.8568681671 0.981531900315 -7.92384428689e-05
2.63975983989 23.8575627538 0.979690706218 -4.01351548829e-05
2.64176117412 23.8582573405 0.977849512122 -1.03186688408e-06
2.64376250834 23.8589519273 0.976008318027 3.80714211069e-05
2.64576384256 23.859646514 0.974167123932 7.71747090866e-05
2.64776517678 23.8603411008 0.972325929836 0.000116277997085
2.64976651101 23.8610356875 0.97048473574 0.000155381285077
2.65176784523 23.8617302743 0.968643541644 0.000194484573073
2.65376917945 23.8623691428 0.966865868387 0.000265306002859
2.65577051368 23.8628906243 0.965222020582 0.000402951090603
2.6577718479 23.8634121059 0.963578172778 0.000540596178331
2.65977318212 23.8639335874 0.961934324973 0.000678241266051
2.66177451634 23.864455069 0.960290477168 0.000815886353801
2.66377585057 23.8649765505 0.958646629363 0.000953531441542
2.66577718479 23.865498032 0.95700278156 0.00109117652926
2.66777851901 23.8660195136 0.955358933754 0.00122882161704
2.66977985324 23.8665409951 0.953715085951 0.00136646670476
2.67178118746 23.8670624767 0.952071238147 0.00150411179251
2.67378252168 23.8675193044 0.950422147168 0.00132407259607
2.6757838559 23.8679729524 0.948772798325 0.00112840958234
2.67778519013 23.8684266004 0.947123449485 0.000932746568651
2.67978652435 23.8688802484 0.945474100643 0.000737083554943
2.68178785857 23.8693338964 0.943824751803 0.000541420541242
2.6837891928 23.8697875445 0.94217540296 0.000345757527546
2.68579052702 23.8702411925 0.940526054121 0.000150094513831
2.68779186124 23.8706948405 0.938876705278 -4.55684998671e-05
2.68979319546 23.8711484885 0.937227356438 -0.000241231513543
2.69179452969 23.8714672391 0.935382932972 -0.000550988926109
2.69379586391 23.8716900465 0.933399766592 -0.000941893691869
2.69579719813 23.8719128539 0.931416600211 -0.00133279845761
2.69779853235 23.8721356613 0.929433433833 -0.00172370322339
2.69979986658 23.8723584687 0.927450267453 -0.00211460798914
2.7018012008 23.8725812762 0.925467101072 -0.00250551275488
2.70380253502 23.8728040836 0.923483934693 -0.00289641752063
2.70580386925 23.873026891 0.921500768312 -0.00328732228639
2.70780520347 23.8734437584 0.919551246126 -0.00362597189599
2.70980653769 23.8741683775 0.917655078876 -0.00388175221755
2.71180787191 23.8748929966 0.915758911624 -0.0041375325391
2.71380920614 23.8756176157 0.913862744372 -0.00439331286065
2.71581054036 23.8763422347 0.911966577121 -0.00464909318218
2.71781187458 23.8770668538 0.91007040987 -0.00490487350374
2.71981320881 23.8777914729 0.908174242618 -0.00516065382527
2.72181454303 23.8785160919 0.906278075367 -0.00541643414684
2.72381587725 23.8793140341 0.904434646009 -0.0056325743143
2.72581721147 23.8804264779 0.902817422989 -0.00567868770504
2.7278185457 23.8815389217 0.901200199968 -0.00572480109582
2.72981987992 23.8826513655 0.899582976949 -0.00577091448659
2.73182121414 23.8837638093 0.897965753927 -0.00581702787735
2.73382254837 23.884876253 0.896348530907 -0.00586314126812
2.73582388259 23.8859886968 0.894731307886 -0.00590925465888
2.73782521681 23.8871011406 0.893114084866 -0.00595536804965
2.73982655103 23.8882135844 0.891496861845 -0.00600148144043
2.74182788526 23.8893260282 0.889879638825 -0.00604759483119
2.74382921948 23.890469577 0.888336114619 -0.0058157078301
2.7458305537 23.8916199393 0.886808733963 -0.00552292550508
2.74783188793 23.8927703017 0.885281353306 -0.00523014318005
2.74983322215 23.893920664 0.88375397265 -0.00493736085504
2.75183455637 23.8950710263 0.882226591994 -0.00464457853001
2.75383589059 23.8962213886 0.880699211337 -0.004351796205
2.75583722482 23.8973717509 0.879171830681 -0.00405901387994
2.75783855904 23.8985221132 0.877644450024 -0.00376623155492
2.75983989326 23.8996724755 0.876117069368 -0.00347344922992
2.76184122748 23.900841215 0.874534177195 -0.00321564846051
2.76384256171 23.902032274 0.87288386446 -0.00300033394031
2.76584389593 23.9032233331 0.871233551725 -0.00278501942011
2.76784523015 23.9044143922 0.869583238989 -0.00256970489991
2.76984656438 23.9056054513 0.867932926254 -0.00235439037972
2.7718478986 23.9067965103 0.866282613519 -0.00213907585951
2.77384923282 23.9079875694 0.864632300784 -0.00192376133933
2.77585056704 23.9091786285 0.862981988049 -0.00170844681911
2.77785190127 23.9101761093 0.861380851955 -0.00144756963397
2.77985323549 23.9106047682 0.859924219533 -0.00105280831011
2.78185456971 23.911033427 0.85846758711 -0.000658046986286
2.78385590394 23.9114620858 0.857010954687 -0.00026328566246
2.78585723816 23.9118907446 0.855554322264 0.000131475661381
2.78785857238 23.9123194035 0.854097689842 0.000526236985212
2.7898599066 23.9127480623 0.852641057419 0.000920998309037
2.79186124083 23.9131767211 0.851184424996 0.00131575963288
2.79386257505 23.9135879822 0.849731346398 0.00170541499447
2.79586390927 23.9137073487 0.848337893085 0.00200940365621
2.7978652435 23.9138267151 0.846944439772 0.00231339231795
2.79986657772 23.9139460815 0.845550986459 0.00261738097968
2.80186791194 23.914065448 0.844157533146 0.00292136964142
2.80386924616 23.9141848144 0.842764079833 0.00322535830317
2.80587058039 23.9143041808 0.84137062652 0.00352934696491
2.80787191461 23.9144235472 0.839977173207 0.00383333562663
2.80987324883 23.9145429137 0.838583719894 0.00413732428839
2.81187458306 23.9146622801 0.837190266581 0.00444131295014
2.81387591728 23.9147051463 0.835852734743 0.00460452036553
2.8158772515 23.9147132397 0.834540621759 0.0047037363053
2.81787858572 23.9147213331 0.833228508773 0.00480295224508
2.81987991995 23.9147294265 0.831916395788 0.00490216818483
2.82188125417 23.9147375199 0.830604282803 0.00500138412463
2.82388258839 23.9147456133 0.829292169819 0.0051006000644
2.82588392262 23.9147537067 0.827980056833 0.00519981600417
2.82788525684 23.9147618001 0.826667943849 0.00529903194394
2.82988659106 23.9147698935 0.825355830863 0.00539824788374
2.83188792528 23.914864414 0.824032163175 0.00553625650936
2.83388925951 23.9151436513 0.822683800139 0.00575717499301
2.83589059373 23.9154228885 0.821335437103 0.00597809347663
2.83789192795 23.9157021258 0.819987074067 0.00619901196026
2.83989326217 23.915981363 0.818638711031 0.00641993044392
2.8418945964 23.9162606003 0.817290347995 0.00664084892757
2.84389593062 23.9165398375 0.815941984959 0.0068617674112
2.84589726484 23.9168190748 0.814593621923 0.00708268589484
2.84789859907 23.9171673371 0.813235757338 0.00728052892937
2.84989993329 23.9180165874 0.811808929891 0.00731088886543
2.85190126751 23.9188658377 0.810382102444 0.0073412488015
2.85390260173 23.919715088 0.808955274996 0.00737160873757
2.85590393596 23.9205643382 0.807528447549 0.00740196867361
2.85790527018 23.9214135886 0.806101620102 0.00743232860971
2.8599066044 23.9222628389 0.804674792655 0.00746268854577
2.86190793863 23.9231120892 0.803247965208 0.00749304848183
2.86390927285 23.9239613395 0.801821137761 0.00752340841789
2.86591060707 23.9247822492 0.80041314462 0.0075243089251
2.86791194129 23.9256008093 0.799006713038 0.00752276694162
2.86991327552 23.9264193693 0.797600281457 0.00752122495812
2.87191460974 23.9272379294 0.796193849874 0.00751968297464
2.87391594396 23.9280564894 0.794787418293 0.00751814099117
2.87591727819 23.9288750495 0.793380986711 0.00751659900767
2.87791861241 23.9296936095 0.791974555129 0.00751505702419
2.87991994663 23.9305121695 0.790568123547 0.0075135150407
2.88192128085 23.9313307296 0.789161691965 0.00751197305721
2.88392261508 23.9322428536 0.787736328287 0.00742476977148
2.8859239493 23.9332300924 0.786295765601 0.00726879614453
2.88792528352 23.9342173312 0.784855202916 0.00711282251757
2.88992661775 23.9352045699 0.783414640231 0.0069568488906
2.89192795197 23.9361918087 0.781974077545 0.00680087526365
2.89392928619 23.9371790475 0.78053351486 0.00664490163666
2.89593062041 23.9381662863 0.779092952175 0.00648892800971
2.89793195464 23.939153525 0.777652389489 0.00633295438275
2.89993328886 23.9401407638 0.776211826804 0.00617698075578
2.90193462308 23.9410878817 0.774771801885 0.00601925928757
2.9039359573 23.9418593445 0.773334131389 0.0058538855059
2.90593729153 23.9426308072 0.771896460893 0.00568851172425
2.90793862575 23.9434022699 0.770458790397 0.00552313794258
2.90993995997 23.9441737326 0.769021119901 0.0053577641609
2.9119412942 23.9449451953 0.767583449405 0.00519239037925
2.91394262842 23.945716658 0.766145778908 0.0050270165976
2.91594396264 23.9464881207 0.764708108412 0.00486164281593
2.91794529686 23.9472595835 0.763270437916 0.00469626903426
2.91994663109 23.9479001462 0.761925174275 0.00447836669339
2.92194796531 23.9485391567 0.760581006367 0.00425984148425
2.92394929953 23.9491781673 0.759236838459 0.00404131627509
2.92595063376 23.9498171779 0.757892670551 0.00382279106595
2.92795196798 23.9504561884 0.756548502643 0.00360426585679
2.9299533022 23.951095199 0.755204334735 0.00338574064763
2.93195463642 23.9517342096 0.753860166827 0.00316721543848
2.93395597065 23.9523732201 0.752515998919 0.00294869022933
2.93595730487 23.9532008349 0.751213959633 0.00275369552617
2.93795863909 23.9540783964 0.749923076938 0.00256493222184
2.93995997332 23.9549559578 0.748632194244 0.00237616891751
2.94196130754 23.9558335192 0.74734131155 0.00218740561318
2.94396264176 23.9567110806 0.746050428855 0.00199864230883
2.94596397598 23.957588642 0.744759546161 0.0018098790045
2.94796531021 23.9584662034 0.743468663467 0.00162111570018
2.94996664443 23.9593437648 0.742177780772 0.00143235239584
2.95196797865 23.9602213262 0.740886898078 0.0012435890915
2.95396931288 23.9610072651 0.739641392948 0.00110235119046
2.9559706471 23.9616676473 0.738458071887 0.00102624069395
2.95797198132 23.9623280294 0.737274750825 0.000950130197414
2.95997331554 23.9629884115 0.736091429764 0.000874019700905
2.96197464977 23.9636487937 0.734908108703 0.000797909204391
2.96397598399 23.9643091758 0.733724787642 0.000721798707868
2.96597731821 23.9649695579 0.73254146658 0.000645688211336
2.96797865243 23.9656299401 0.731358145519 0.000569577714797
2.96997998666 23.9662903222 0.730174824458 0.000493467218296
2.97198132088 23.9669401008 0.728987978104 0.00041621958957
2.9739826551 23.9674008879 0.727738298584 0.000318704251414
2.97598398933 23.9678616749 0.726488619065 0.000221188913261
2.97798532355 23.9683224619 0.725238939545 0.000123673575108
2.97998665777 23.968783249 0.723989260025 2.61582369505e-05
2.98198799199 23.969244036 0.722739580506 -7.13571012036e-05
2.98398932622 23.9697048231 0.721489900986 -0.000168872439356
2.98599066044 23.9701656101 0.720240221467 -0.000266387777506
2.98799199466 23.9706263971 0.718990541948 -0.000363903115662
2.98999332889 23.9708835302 0.717743835831 -0.000377436930706
2.99199466311 23.971106256 0.71649763207 -0.000376782086599
2.99399599733 23.9713289818 0.71525142831 -0.000376127242487
2.99599733155 23.9715517076 0.714005224549 -0.0003754723984
2.99799866578 23.9717744334 0.712759020788 -0.000374817554296
3.0 23.9719971592 0.711512817028 -0.000374162710188
