y u v w 
0.0 13.5577105955 -0.0014947233431 -0.00190224108897
0.00200133422282 13.5575170623 -0.00427060336978 -0.00181406205573
0.00400266844563 13.557323529 -0.00704648339645 -0.00172588302249
0.00600400266845 13.5571299958 -0.00982236342313 -0.00163770398925
0.00800533689126 13.5569364625 -0.0125982434498 -0.00154952495601
0.0100066711141 13.5567429293 -0.0153741234765 -0.00146134592277
0.0120080053369 13.556549396 -0.0181500035031 -0.00137316688953
0.0140093395597 13.5563558628 -0.0209258835298 -0.00128498785628
0.0160106737825 13.5561623295 -0.0237017635565 -0.00119680882305
0.0180120080053 13.5559687962 -0.0264776435832 -0.0011086297898
0.0200133422282 13.5557807663 -0.0295001328571 -0.00111233614407
0.022014676451 13.5555959512 -0.0326666809981 -0.00116971812073
0.0240160106738 13.5554111361 -0.0358332291392 -0.0012271000974
0.0260173448966 13.555226321 -0.0389997772803 -0.00128448207406
0.0280186791194 13.5550415059 -0.0421663254214 -0.00134186405073
0.0300200133422 13.5548566908 -0.0453328735625 -0.00139924602739
0.032021347565 13.5546718757 -0.0484994217036 -0.00145662800406
0.0340226817879 13.5544870606 -0.0516659698447 -0.00151400998073
0.0360240160107 13.5540353062 -0.054773980444 -0.00150501942179
0.0380253502335 13.5532348473 -0.0578055230834 -0.00140932600105
0.0400266844563 13.5524343884 -0.0608370657228 -0.0013136325803
0.0420280186791 13.5516339296 -0.0638686083622 -0.00121793915956
0.0440293529019 13.5508334707 -0.0669001510016 -0.00112224573881
0.0460306871247 13.5500330118 -0.0699316936411 -0.00102655231807
0.0480320213476 13.5492325529 -0.0729632362804 -0.000930858897324
0.0500333555704 13.5484320941 -0.0759947789199 -0.000835165476578
0.0520346897932 13.5476527797 -0.0789380923256 -0.000685559182546
0.054036024016 13.5469419402 -0.0815956832461 -0.000361360868373
0.0560373582388 13.5462311007 -0.0842532741666 -3.71625542033e-05
0.0580386924616 13.5455202611 -0.0869108650871 0.00028703575997
0.0600400266845 13.5448094216 -0.0895684560076 0.000611234074133
0.0620413609073 13.544098582 -0.0922260469282 0.000935432388315
0.0640426951301 13.5433877425 -0.0948836378486 0.00125963070247
0.0660440293529 13.5426769029 -0.0975412287692 0.00158382901664
0.0680453635757 13.5419660634 -0.10019881969 0.00190802733081
0.0700466977985 13.5412552239 -0.10285641061 0.00223222564497
0.0720480320213 13.540302971 -0.105323944985 0.00261677662908
0.0740493662442 13.539313745 -0.1077623716 0.00301057081491
0.076050700467 13.5383245189 -0.110200798215 0.00340436500073
0.0780520346898 13.5373352928 -0.112639224831 0.00379815918654
0.0800533689126 13.5363460667 -0.115077651446 0.00419195337236
0.0820547031354 13.5353568407 -0.117516078061 0.00458574755819
0.0840560373582 13.5343676146 -0.119954504676 0.00497954174402
0.0860573715811 13.5333783886 -0.122392931291 0.00537333592981
0.0880587058039 13.5323891625 -0.124831357906 0.00576713011565
0.0900600400267 13.5314237136 -0.127523293668 0.00592798877341
0.0920613742495 13.530482191 -0.130470327975 0.00585445149231
0.0940627084723 13.5295406683 -0.133417362283 0.00578091421122
0.0960640426951 13.5285991457 -0.136364396589 0.00570737693013
0.0980653769179 13.527657623 -0.139311430896 0.00563383964907
0.100066711141 13.5267161004 -0.142258465203 0.00556030236798
0.102068045364 13.5257745778 -0.14520549951 0.00548676508687
0.104069379586 13.5248330551 -0.148152533817 0.00541322780578
0.106070713809 13.5237696237 -0.151119921387 0.00532458120846
0.108072048032 13.522422794 -0.154134623685 0.0052008103565
0.110073382255 13.5210759642 -0.157149325982 0.00507703950458
0.112074716478 13.5197291345 -0.16016402828 0.00495326865261
0.1140760507 13.5183823048 -0.163178730577 0.00482949780066
0.116077384923 13.517035475 -0.166193432874 0.00470572694869
0.118078719146 13.5156886453 -0.169208135172 0.00458195609675
0.120080053369 13.5143418155 -0.172222837469 0.00445818524482
0.122081387592 13.5129860337 -0.175187183256 0.00433887190423
0.124082721815 13.5115523962 -0.177713579996 0.00425832540508
0.126084056037 13.5101187585 -0.180239976737 0.00417777890594
0.12808539026 13.508685121 -0.182766373477 0.00409723240678
0.130086724483 13.5072514834 -0.185292770218 0.00401668590764
0.132088058706 13.5058178458 -0.187819166958 0.00393613940846
0.134089392929 13.5043842082 -0.190345563698 0.00385559290933
0.136090727151 13.5029505706 -0.192871960438 0.00377504641018
0.138092061374 13.501516933 -0.195398357179 0.00369449991102
0.140093395597 13.5000832954 -0.197924753919 0.00361395341188
0.14209472982 13.4983871828 -0.200397804602 0.00326916968988
0.144096064043 13.4965961324 -0.202851559903 0.00282881080219
0.146097398266 13.4948050821 -0.205305315204 0.00238845191451
0.148098732488 13.4930140317 -0.207759070505 0.00194809302682
0.150100066711 13.4912229813 -0.210212825806 0.00150773413912
0.152101400934 13.489431931 -0.212666581107 0.00106737525143
0.154102735157 13.4876408806 -0.215120336408 0.000627016363763
0.15610406938 13.4858498302 -0.217574091709 0.000186657476064
0.158105403602 13.4840587798 -0.22002784701 -0.000253701411619
0.160106737825 13.4822229021 -0.222647336324 -0.000509239380111
0.162108072048 13.480309247 -0.225554381232 -0.00044410515546
0.164109406271 13.4783955919 -0.228461426141 -0.000378970930797
0.166110740494 13.4764819369 -0.23136847105 -0.000313836706126
0.168112074716 13.4745682818 -0.234275515958 -0.000248702481475
0.170113408939 13.4726546267 -0.237182560867 -0.000183568256824
0.172114743162 13.4707409716 -0.240089605776 -0.000118434032164
0.174116077385 13.4688273166 -0.242996650684 -5.32998074957e-05
0.176117411608 13.4667939469 -0.245867831113 2.36564471184e-05
0.178118745831 13.4641675724 -0.24856135726 0.00015917298963
0.180120080053 13.4615411979 -0.251254883407 0.000294689532164
0.182121414276 13.4589148235 -0.253948409553 0.000430206074677
0.184122748499 13.456288449 -0.2566419357 0.000565722617223
0.186124082722 13.4536620745 -0.259335461846 0.000701239159727
0.188125416945 13.4510357 -0.262028987993 0.000836755702249
0.190126751167 13.4484093255 -0.26472251414 0.000972272244812
0.19212808539 13.4457829511 -0.267416040286 0.00110778878732
0.194129419613 13.4433108048 -0.269611508702 0.000950150374425
0.196130753836 13.4408433773 -0.271791738636 0.000783542647269
0.198132088059 13.4383759498 -0.273971968571 0.000616934920115
0.200133422282 13.4359085223 -0.276152198505 0.000450327192915
0.202134756504 13.4334410948 -0.27833242844 0.000283719465811
0.204136090727 13.4309736673 -0.280512658374 0.000117111738708
0.20613742495 13.4285062397 -0.282692888309 -4.94959884497e-05
0.208138759173 13.4260388122 -0.284873118243 -0.0002161037156
0.210140093396 13.4235713847 -0.287053348177 -0.000382711442703
0.212141427618 13.4207044542 -0.289061083893 -0.000365028962102
0.214142761841 13.4175729178 -0.290954570191 -0.000225284136293
0.216144096064 13.4144413814 -0.292848056489 -8.55393104082e-05
0.218145430287 13.411309845 -0.294741542787 5.42055154064e-05
0.22014676451 13.4081783086 -0.296635029086 0.000193950341489
0.222148098732 13.4050467722 -0.298528515384 0.000333695167349
0.224149432955 13.4019152358 -0.300422001682 0.000473439993174
0.226150767178 13.3987836994 -0.30231548798 0.000613184819264
0.228152101401 13.395652163 -0.304208974278 0.000752929645094
0.230153435624 13.39250606 -0.306216043228 0.000893017341584
0.232154769847 13.3893119554 -0.308597401321 0.00103423490058
0.234156104069 13.3861178508 -0.310978759415 0.0011754524596
0.236157438292 13.3829237462 -0.313360117508 0.00131667001839
0.238158772515 13.3797296417 -0.3157414756 0.00145788757745
0.240160106738 13.3765355371 -0.318122833693 0.00159910513625
0.242161440961 13.3733414326 -0.320504191786 0.00174032269524
0.244162775183 13.370147328 -0.322885549879 0.00188154025406
0.246164109406 13.366936342 -0.325249432683 0.00202298056434
0.248165443629 13.3632620539 -0.327133715878 0.00217053415684
0.250166777852 13.3595877659 -0.329017999073 0.00231808774919
0.252168112075 13.3559134778 -0.330902282268 0.00246564134126
0.254169446298 13.3522391897 -0.332786565463 0.00261319493367
0.25617078052 13.3485649016 -0.334670848657 0.00276074852599
0.258172114743 13.3448906136 -0.336555131852 0.00290830211823
0.260173448966 13.3412163255 -0.338439415047 0.00305585571071
0.262174783189 13.3375420375 -0.340323698242 0.00320340930308
0.264176117412 13.3341052507 -0.341882020017 0.0033577717871
0.266177451634 13.3307145462 -0.343377095547 0.00351345539964
0.268178785857 13.3273238418 -0.344872171077 0.00366913901211
0.27018012008 13.3239331373 -0.346367246607 0.00382482262444
0.272181454303 13.3205424329 -0.347862322137 0.00398050623692
0.274182788526 13.3171517284 -0.349357397667 0.00413618984941
0.276184122748 13.313761024 -0.350852473197 0.00429187346203
0.278185456971 13.3103703196 -0.352347548727 0.00444755707433
0.280186791194 13.3069796151 -0.353842624257 0.00460324068661
0.282188125417 13.3034333905 -0.355191014768 0.00464458341201
0.28418945964 13.2997109096 -0.356373162256 0.00455633979848
0.286190793863 13.2959884287 -0.357555309744 0.00446809618487
0.288192128085 13.2922659477 -0.358737457232 0.00437985257109
0.290193462308 13.2885434668 -0.35991960472 0.0042916089576
0.292194796531 13.2848209859 -0.361101752208 0.00420336534406
0.294196130754 13.281098505 -0.362283899696 0.00411512173054
0.296197464977 13.2773760241 -0.363466047184 0.00402687811702
0.298198799199 13.2736535432 -0.364648194672 0.00393863450338
0.300200133422 13.2698622456 -0.365859136643 0.00386005321251
0.302201467645 13.2654515985 -0.367329228968 0.00386843282432
0.304202801868 13.2610409513 -0.368799321292 0.00387681243642
0.306204136091 13.2566303042 -0.370269413617 0.00388519204841
0.308205470314 13.252219657 -0.371739505941 0.00389357166033
0.310206804536 13.2478090099 -0.373209598265 0.00390195127243
0.312208138759 13.2433983627 -0.37467969059 0.00391033088452
0.314209472982 13.2389877156 -0.376149782915 0.00391871049661
0.316210807205 13.2345770684 -0.377619875239 0.00392709010838
0.318212141428 13.2296243732 -0.378690123307 0.00348271217081
0.32021347565 13.2246130148 -0.379717098187 0.00298933449841
0.322214809873 13.2196016564 -0.380744073067 0.00249595682581
0.324216144096 13.214590298 -0.381771047947 0.00200257915358
0.326217478319 13.2095789396 -0.382798022827 0.00150920148088
0.328218812542 13.2045675812 -0.383824997707 0.00101582380841
0.330220146765 13.1995562228 -0.384851972587 0.000522446135919
0.332221480987 13.1945448645 -0.385878947468 2.90684633367e-05
0.33422281521 13.1902086384 -0.386725044029 -0.00041463987168
0.336224149433 13.1861553392 -0.387495340141 -0.000837533340173
0.338225483656 13.18210204 -0.388265636253 -0.00126042680888
0.340226817879 13.1780487408 -0.389035932365 -0.00168332027752
0.342228152101 13.1739954416 -0.389806228478 -0.00210621374578
0.344229486324 13.1699421424 -0.39057652459 -0.00252910721444
0.346230820547 13.1658888432 -0.391346820702 -0.00295200068312
0.34823215477 13.161835544 -0.392117116814 -0.00337489415164
0.350233488993 13.1577822448 -0.392887412926 -0.0037977876203
0.352234823215 13.1539587479 -0.393367983161 -0.00390667399869
0.354236157438 13.1505895114 -0.393275839453 -0.00339484868741
0.356237491661 13.1472202749 -0.393183695744 -0.00288302337617
0.358238825884 13.1438510384 -0.393091552036 -0.00237119806477
0.360240160107 13.140481802 -0.392999408328 -0.0018593727535
0.36224149433 13.1371125655 -0.392907264619 -0.00134754744232
0.364242828552 13.133743329 -0.39281512091 -0.000835722130621
0.366244162775 13.1303740925 -0.392722977202 -0.000323896819531
0.368245496998 13.127004856 -0.392630833494 0.000187928491913
0.370246831221 13.1236356196 -0.392538689785 0.000699753803211
0.372248165444 13.1192055528 -0.392703046432 0.00108829859636
0.374249499666 13.1147394967 -0.39287610503 0.00147266101323
0.376250833889 13.1102734406 -0.393049163628 0.00185702343019
0.378252168112 13.1058073845 -0.393222222227 0.00224138584726
0.380253502335 13.1013413284 -0.393395280825 0.00262574826418
0.382254836558 13.0968752723 -0.393568339423 0.00301011068102
0.384256170781 13.0924092162 -0.393741398021 0.00339447309802
0.386257505003 13.0879431601 -0.393914456619 0.00377883551499
0.388258839226 13.0835956966 -0.393536171892 0.00474374866691
0.390260173449 13.0792837508 -0.392992764037 0.00588253234373
0.392261507672 13.074971805 -0.392449356182 0.00702131602052
0.394262841895 13.0706598591 -0.391905948327 0.00816009969728
0.396264176117 13.0663479133 -0.391362540473 0.00929888337393
0.39826551034 13.0620359674 -0.390819132618 0.0104376670506
0.400266844563 13.0577240216 -0.390275724763 0.0115764507272
0.402268178786 13.0534120758 -0.389732316908 0.012715234404
0.404269513009 13.0496850322 -0.389074775991 0.0137435275271
0.406270847231 13.0463958662 -0.388331791196 0.0146891036782
0.408272181454 13.0431067003 -0.387588806401 0.0156346798293
0.410273515677 13.0398175344 -0.386845821606 0.0165802559803
0.4122748499 13.0365283685 -0.386102836811 0.0175258321314
0.414276184123 13.0332392026 -0.385359852016 0.0184714082825
0.416277518346 13.0299500367 -0.384616867221 0.0194169844336
0.418278852568 13.0266608707 -0.383873882426 0.0203625605848
0.420280186791 13.0233717048 -0.383130897631 0.0213081367358
0.422281521014 13.0198165243 -0.382391211189 0.022055825892
0.424282855237 13.0152177484 -0.381664464438 0.0220271891454
0.42628418946 13.0106189726 -0.380937717688 0.0219985523987
0.428285523682 13.0060201966 -0.380210970938 0.0219699156524
0.430286857905 13.0014214207 -0.379484224188 0.0219412789058
0.432288192128 12.9968226448 -0.378757477438 0.0219126421591
0.434289526351 12.9922238689 -0.378030730687 0.0218840054124
0.436290860574 12.987625093 -0.377303983937 0.0218553686661
0.438292194797 12.9830263171 -0.376577237187 0.0218267319196
0.440293529019 12.9784275412 -0.375850490437 0.0217980951727
0.442294863242 12.9734281443 -0.374704125102 0.0215240874983
0.444296197465 12.9683492234 -0.373474464693 0.021201373235
0.446297531688 12.9632703025 -0.372244804284 0.0208786589719
0.448298865911 12.9581913815 -0.371015143875 0.020555944709
0.450300200133 12.9531124606 -0.369785483466 0.0202332304457
0.452301534356 12.9480335397 -0.368555823056 0.0199105161824
0.454302868579 12.9429546187 -0.367326162647 0.0195878019193
0.456304202802 12.9378756978 -0.366096502238 0.0192650876561
0.458305537025 12.9328102628 -0.365023598868 0.0189153557188
0.460306871248 12.9277525223 -0.364040133562 0.0185502087898
0.46230820547 12.9226947818 -0.363056668256 0.0181850618606
0.464309539693 12.9176370413 -0.36207320295 0.0178199149313
0.466310873916 12.9125793008 -0.361089737645 0.0174547680023
0.468312208139 12.9075215603 -0.360106272339 0.0170896210732
0.470313542362 12.9024638198 -0.359122807033 0.0167244741442
0.472314876584 12.8974060793 -0.358139341727 0.0163593272148
0.474316210807 12.8924884988 -0.35722390916 0.0161464366848
0.47631754503 12.887749984 -0.356395393866 0.0161280658961
0.478318879253 12.8830114692 -0.355566878571 0.0161096951075
0.480320213476 12.8782729545 -0.354738363276 0.0160913243189
0.482321547698 12.8735344397 -0.353909847981 0.0160729535303
0.484322881921 12.8687959249 -0.353081332686 0.0160545827418
0.486324216144 12.8640574101 -0.352252817391 0.0160362119532
0.488325550367 12.8593188953 -0.351424302096 0.0160178411645
0.49032688459 12.8545803805 -0.350595786801 0.015999470376
0.492328218813 12.849912981 -0.349716225498 0.015999319255
0.494329553035 12.8461858843 -0.34816172253 0.0162400726271
0.496330887258 12.8424587876 -0.346607219561 0.0164808259991
0.498332221481 12.8387316908 -0.345052716593 0.0167215793713
0.500333555704 12.8350045941 -0.343498213624 0.0169623327436
0.502334889927 12.8312774974 -0.341943710656 0.0172030861154
0.504336224149 12.8275504007 -0.340389207687 0.0174438394876
0.506337558372 12.8238233039 -0.338834704719 0.0176845928597
0.508338892595 12.8200962072 -0.33728020175 0.0179253462319
0.510340226818 12.8163691105 -0.335725698782 0.018166099604
0.512341561041 12.8122411872 -0.334368206957 0.0185548597482
0.514342895264 12.8079427563 -0.333094521655 0.0190065804571
0.516344229486 12.8036443254 -0.331820836353 0.019458301166
0.518345563709 12.7993458945 -0.330547151051 0.0199100218748
0.520346897932 12.7950474637 -0.329273465749 0.0203617425836
0.522348232155 12.7907490328 -0.327999780447 0.0208134632927
0.524349566378 12.7864506019 -0.326726095144 0.0212651840015
0.5263509006 12.782152171 -0.325452409842 0.0217169047105
0.528352234823 12.7780828656 -0.323752427286 0.0220455487363
0.530353569046 12.7742391332 -0.321632756735 0.0222530242451
0.532354903269 12.7703954009 -0.319513086184 0.0224604997537
0.534356237492 12.7665516685 -0.317393415633 0.0226679752626
0.536357571714 12.7627079362 -0.315273745081 0.0228754507714
0.538358905937 12.7588642038 -0.31315407453 0.0230829262801
0.54036024016 12.7550204714 -0.311034403979 0.0232904017889
0.542361574383 12.7511767391 -0.308914733428 0.0234978772976
0.544362908606 12.7474293076 -0.306837252613 0.0236129636996
0.546364242829 12.7439000272 -0.304855344467 0.0235187604921
0.548365577051 12.7403707467 -0.30287343632 0.0234245572846
0.550366911274 12.7368414663 -0.300891528174 0.0233303540771
0.552368245497 12.7333121858 -0.298909620027 0.0232361508699
0.55436957972 12.7297829054 -0.29692771188 0.0231419476625
0.556370913943 12.7262536249 -0.294945803734 0.0230477444549
0.558372248165 12.7227243445 -0.292963895587 0.0229535412478
0.560373582388 12.719195064 -0.290981987441 0.0228593380403
0.562374916611 12.7156657836 -0.289000079294 0.0227651348329
0.564376250834 12.7121930453 -0.286973156944 0.0226780230003
0.566377585057 12.7087240766 -0.284943233648 0.0225913839264
0.56837891928 12.7052551078 -0.282913310351 0.0225047448519
0.570380253502 12.701786139 -0.280883387054 0.022418105778
0.572381587725 12.6983171702 -0.278853463757 0.0223314667036
0.574382921948 12.6948482015 -0.276823540461 0.0222448276295
0.576384256171 12.6913792327 -0.274793617164 0.0221581885554
0.578385590394 12.687910264 -0.272763693867 0.0220715494813
0.580386924616 12.6844412952 -0.27073377057 0.0219849104071
0.582388258839 12.6807559326 -0.26854999349 0.0218856080258
0.584389593062 12.6769064913 -0.266249558047 0.0217767037963
0.586390927285 12.6730570499 -0.263949122604 0.0216677995667
0.588392261508 12.6692076085 -0.261648687161 0.0215588953371
0.59039359573 12.6653581671 -0.259348251717 0.0214499911077
0.592394929953 12.6615087257 -0.257047816274 0.021341086878
0.594396264176 12.6576592843 -0.254747380831 0.0212321826485
0.596397598399 12.6538098429 -0.252446945387 0.0211232784189
0.598398932622 12.6500964893 -0.250055444405 0.0210335869962
0.600400266845 12.6466137687 -0.247509611297 0.0209764562252
0.602401601067 12.643131048 -0.24496377819 0.0209193254547
0.60440293529 12.6396483274 -0.242417945082 0.0208621946836
0.606404269513 12.6361656067 -0.239872111975 0.020805063913
0.608405603736 12.6326828861 -0.237326278868 0.0207479331422
0.610406937959 12.6292001654 -0.23478044576 0.0206908023712
0.612408272181 12.6257174448 -0.232234612653 0.0206336716004
0.614409606404 12.6223089564 -0.229763496972 0.0206152298236
0.616410940627 12.6192542419 -0.227648467047 0.0207811707294
0.61841227485 12.6161995273 -0.225533437122 0.020947111635
0.620413609073 12.6131448127 -0.223418407197 0.0211130525405
0.622414943296 12.6100900982 -0.221303377272 0.0212789934465
0.624416277518 12.6070353836 -0.219188347347 0.0214449343522
0.626417611741 12.6039806691 -0.217073317421 0.0216108752579
0.628418945964 12.6009259545 -0.214958287496 0.0217768161637
0.630420280187 12.59787124 -0.212843257571 0.0219427570695
0.63242161441 12.5948165255 -0.210728227646 0.022108697975
0.634422948632 12.5916597188 -0.208507726715 0.022188267982
0.636424282855 12.5884781326 -0.206261626026 0.0222468741782
0.638425617078 12.5852965463 -0.204015525337 0.0223054803747
0.640426951301 12.5821149601 -0.201769424648 0.0223640865712
0.642428285524 12.5789333738 -0.199523323959 0.0224226927674
0.644429619747 12.5757517875 -0.19727722327 0.0224812989638
0.646430953969 12.5725702013 -0.195031122581 0.0225399051601
0.648432288192 12.569388615 -0.192785021892 0.0225985113564
0.650433622415 12.5662070287 -0.190538921202 0.022657117553
0.652434956638 12.5630519257 -0.188166053336 0.0227395396392
0.654436290861 12.5599310894 -0.185629160555 0.0228527772677
0.656437625083 12.5568102531 -0.183092267774 0.0229660148963
0.658438959306 12.5536894167 -0.180555374993 0.0230792525247
0.660440293529 12.5505685804 -0.178018482212 0.0231924901533
0.662441627752 12.5474477441 -0.175481589431 0.0233057277817
0.664442961975 12.5443269078 -0.17294469665 0.0234189654103
0.666444296197 12.5412060715 -0.17040780387 0.0235322030387
0.66844563042 12.5381510995 -0.167864063479 0.0236419849828
0.670446964643 12.5353066773 -0.165298433187 0.0237407200664
0.672448298866 12.5324622551 -0.162732802896 0.0238394551499
0.674449633089 12.5296178329 -0.160167172604 0.0239381902338
0.676450967312 12.5267734107 -0.157601542313 0.0240369253174
0.678452301534 12.5239289885 -0.155035912021 0.024135660401
0.680453635757 12.5210845663 -0.15247028173 0.0242343954849
0.68245496998 12.5182401441 -0.149904651438 0.0243331305686
0.684456304203 12.515397558 -0.147349859024 0.0244311374762
0.686457638426 12.5125983302 -0.14505100725 0.0245119482313
0.688458972648 12.5097991025 -0.142752155476 0.0245927589861
0.690460306871 12.5069998748 -0.140453303702 0.0246735697408
0.692461641094 12.5042006471 -0.138154451928 0.0247543804959
0.694462975317 12.5014014194 -0.135855600154 0.0248351912508
0.69646430954 12.4986021917 -0.13355674838 0.0249160020057
0.698465643763 12.495802964 -0.131257896606 0.0249968127604
0.700466977985 12.4930037363 -0.128959044832 0.0250776235153
0.702468312208 12.4902045086 -0.126660193058 0.0251584342702
0.704469646431 12.4876899173 -0.124325964453 0.0252902971511
0.704469646431 12.4876899173 -0.124325964453 0.0252902971511
0.706470980654 12.4853143347 -0.121974458792 0.0254470924655
0.706470980654 12.4853143347 -0.121974458792 0.0254470924655
0.708472314877 12.482938752 -0.119622953131 0.0256038877799
0.708472314877 12.482938752 -0.119622953131 0.0256038877799
0.710473649099 12.4805631693 -0.11727144747 0.0257606830945
0.710473649099 12.4805631693 -0.11727144747 0.0257606830945
0.712474983322 12.4781875866 -0.114919941809 0.0259174784088
0.712474983322 12.4781875866 -0.114919941809 0.0259174784088
0.714476317545 12.475812004 -0.112568436148 0.0260742737235
0.714476317545 12.475812004 -0.112568436148 0.0260742737235
0.716477651768 12.4734364213 -0.110216930487 0.0262310690379
0.716477651768 12.4734364213 -0.110216930487 0.0262310690379
0.718478985991 12.4710608386 -0.107865424825 0.0263878643523
0.718478985991 12.4710608386 -0.107865424825 0.0263878643523
0.720480320213 12.4686852559 -0.105513919164 0.0265446596668
0.720480320213 12.4686852559 -0.105513919164 0.0265446596668
0.722481654436 12.4661806442 -0.103069652727 0.0266562126219
0.722481654436 12.4661806442 -0.103069652727 0.0266562126219
0.724482988659 12.4633793985 -0.100412132132 0.0266637547922
0.724482988659 12.4633793985 -0.100412132132 0.0266637547922
0.726484322882 12.4605781529 -0.0977546115377 0.0266712969624
0.726484322882 12.4605781529 -0.0977546115377 0.0266712969624
0.728485657105 12.4577769073 -0.0950970909433 0.0266788391326
0.728485657105 12.4577769073 -0.0950970909433 0.0266788391326
0.730486991328 12.4549756617 -0.092439570349 0.0266863813026
0.730486991328 12.4549756617 -0.092439570349 0.0266863813026
0.73248832555 12.4521744161 -0.0897820497546 0.0266939234729
0.73248832555 12.4521744161 -0.0897820497546 0.0266939234729
0.734489659773 12.4493731704 -0.0871245291601 0.0267014656427
0.734489659773 12.4493731704 -0.0871245291601 0.0267014656427
0.736490993996 12.4465719248 -0.0844670085656 0.0267090078135
0.736490993996 12.4465719248 -0.0844670085656 0.0267090078135
0.738492328219 12.4437777296 -0.0818094062407 0.026715270628
0.740493662442 12.4410433329 -0.0791511107197 0.0267106826133
0.742494996664 12.438308936 -0.0764928151986 0.0267060945984
0.744496330887 12.4355745393 -0.0738345196776 0.0267015065839
0.74649766511 12.4328401424 -0.0711762241565 0.0266969185693
0.748498999333 12.4301057456 -0.0685179286356 0.0266923305542
0.750500333556 12.4273713488 -0.0658596331145 0.0266877425397
0.752501667779 12.4246369521 -0.0632013375935 0.0266831545249
0.754503002001 12.4219025553 -0.0605430420723 0.0266785665103
0.756504336224 12.4195121679 -0.0579996666074 0.0266998878853
0.758505670447 12.4171567144 -0.0554679611655 0.0267238403344
0.76050700467 12.4148012609 -0.0529362557234 0.0267477927837
0.762508338893 12.4124458073 -0.0504045502815 0.0267717452324
0.764509673115 12.4100903538 -0.0478728448395 0.0267956976812
0.766511007338 12.4077349003 -0.0453411393976 0.0268196501303
0.768512341561 12.4053794468 -0.0428094339556 0.0268436025794
0.770513675784 12.4030239933 -0.0402777285136 0.0268675550282
0.772515010007 12.4006685397 -0.0377460230716 0.0268915074771
0.774516344229 12.3984627637 -0.0352072534966 0.026910439637
0.776517678452 12.3963849728 -0.0326624435761 0.0269250790858
0.778519012675 12.3943071819 -0.0301176336553 0.0269397185343
0.780520346898 12.392229391 -0.0275728237347 0.0269543579831
0.782521681121 12.3901516001 -0.0250280138141 0.026968997432
0.784523015344 12.3880738092 -0.0224832038933 0.0269836368809
0.786524349566 12.3859960183 -0.0199383939727 0.0269982763293
0.788525683789 12.3839182274 -0.0173935840521 0.0270129157782
0.790527018012 12.3818404365 -0.0148487741314 0.0270275552268
0.792528352235 12.3796974661 -0.0122918379824 0.0270497097662
0.794529686458 12.3772369696 -0.00967582818849 0.0271084745175
0.79653102068 12.3747764732 -0.00705981839444 0.0271672392689
0.798532354903 12.3723159767 -0.00444380860029 0.0272260040206
0.800533689126 12.3698554803 -0.00182779880632 0.0272847687716
0.802535023349 12.3673949838 0.000788210987884 0.0273435335229
0.804536357572 12.3649344874 0.0034042207817 0.0274022982745
0.806537691795 12.3624739909 0.00602023057587 0.0274610630258
0.808539026017 12.3600134945 0.0086362403699 0.0275198277771
0.81054036024 12.3577695827 0.0113190180682 0.0275550331119
0.812541694463 12.3555317597 0.0140036727758 0.0275895761342
0.814543028686 12.3532939367 0.0166883274836 0.0276241191558
0.816544362909 12.3510561137 0.0193729821913 0.0276586621781
0.818545697131 12.3488182907 0.022057636899 0.0276932052001
0.820547031354 12.3465804677 0.0247422916066 0.027727748222
0.822548365577 12.3443426446 0.0274269463142 0.0277622912442
0.8245496998 12.3421048216 0.0301116010219 0.0277968342666
0.826551034023 12.339990184 0.0327120296747 0.0278086780306
0.828552368246 12.3379113099 0.0352880056019 0.0278139316875
0.830553702468 12.3358324358 0.0378639815288 0.0278191853446
0.832555036691 12.3337535617 0.0404399574559 0.0278244390017
0.834556370914 12.3316746876 0.0430159333829 0.0278296926587
0.836557705137 12.3295958135 0.0455919093101 0.0278349463162
0.83855903936 12.3275169394 0.0481678852371 0.0278401999732
0.840560373582 12.3254380653 0.0507438611641 0.0278454536302
0.842561707805 12.3233591912 0.0533198370914 0.0278507072872
0.844563042028 12.3212088123 0.0558890743188 0.0278336249393
0.846564376251 12.3189539263 0.0584484626774 0.0277838976599
0.848565710474 12.3166990403 0.0610078510361 0.0277341703811
0.850567044696 12.3144441544 0.0635672393948 0.0276844431017
0.852568378919 12.3121892684 0.0661266277535 0.0276347158223
0.854569713142 12.3099343824 0.0686860161123 0.0275849885434
0.856571047365 12.3076794964 0.0712454044708 0.0275352612643
0.858572381588 12.3054246104 0.0738047928294 0.0274855339849
0.860573715811 12.3031697244 0.0763641811882 0.027435806706
0.862575050033 12.30092625 0.0789285399573 0.0273900759642
0.864576384256 12.2989756721 0.0816204725899 0.0274469230204
0.866577718479 12.2970250942 0.0843124052227 0.0275037700759
0.868579052702 12.2950745163 0.0870043378553 0.0275606171315
0.870580386925 12.2931239385 0.089696270488 0.0276174641869
0.872581721147 12.2911733606 0.0923882031208 0.027674311243
0.87458305537 12.2892227827 0.0950801357536 0.0277311582985
0.876584389593 12.2872722048 0.0977720683863 0.0277880053539
0.878585723816 12.2853216269 0.100464001019 0.0278448524097
0.880587058039 12.2834042824 0.103170346319 0.0279046022261
0.882588392262 12.2814932754 0.105879440081 0.0279649055916
0.884589726484 12.2795822683 0.108588533843 0.0280252089578
0.886591060707 12.2776712613 0.111297627605 0.0280855123239
0.88859239493 12.2757602543 0.114006721367 0.0281458156897
0.890593729153 12.2738492472 0.116715815129 0.0282061190555
0.892595063376 12.2719382402 0.119424908891 0.0282664224215
0.894596397598 12.2700272332 0.122134002653 0.0283267257874
0.896597731821 12.2680771056 0.124781769988 0.0283483283095
0.898599066044 12.266105181 0.12739536761 0.0283483675874
0.900600400267 12.2641332564 0.130008965232 0.0283484068657
0.90260173449 12.2621613318 0.132622562853 0.0283484461439
0.904603068712 12.2601894071 0.135236160475 0.0283484854217
0.906604402935 12.2582174825 0.137849758097 0.0283485246999
0.908605737158 12.2562455578 0.140463355719 0.0283485639775
0.910607071381 12.2542736332 0.143076953341 0.0283486032559
0.912608405604 12.2523017086 0.145690550963 0.0283486425337
0.914609739827 12.2503709774 0.148308334575 0.028362355212
0.916611074049 12.2485497034 0.150937240962 0.0284124000673
0.918612408272 12.2467284293 0.153566147349 0.0284624449226
0.920613742495 12.2449071553 0.156195053735 0.0285124897782
0.922615076718 12.2430858812 0.158823960122 0.0285625346336
0.924616410941 12.2412646072 0.161452866509 0.0286125794887
0.926617745163 12.2394433331 0.164081772896 0.0286626243443
0.928619079386 12.2376220591 0.166710679282 0.0287126691998
0.930620413609 12.235800785 0.169339585669 0.0287627140549
0.932621747832 12.2339795109 0.171968492056 0.0288127589104
0.934623082055 12.232039056 0.174757729915 0.0288236098897
0.936624416278 12.2300860448 0.177563859346 0.0288303316346
0.9386257505 12.2281330337 0.180369988777 0.0288370533794
0.940627084723 12.2261800225 0.183176118208 0.0288437751242
0.942628418946 12.2242270114 0.185982247639 0.0288504968693
0.944629753169 12.2222740002 0.18878837707 0.0288572186141
0.946631087392 12.2203209891 0.191594506501 0.0288639403587
0.948632421614 12.2183679779 0.194400635932 0.0288706621038
0.950633755837 12.2163935584 0.197212312949 0.0288295225114
0.95263509006 12.2144102681 0.200026288691 0.0287685508729
0.954636424283 12.2124269778 0.202840264432 0.0287075792344
0.956637758506 12.2104436874 0.205654240173 0.0286466075962
0.958639092728 12.2084603971 0.208468215914 0.0285856359572
0.960640426951 12.2064771068 0.211282191656 0.0285246643186
0.962641761174 12.2044938164 0.214096167397 0.0284636926802
0.964643095397 12.2025105261 0.216910143138 0.0284027210417
0.96664442962 12.2006922959 0.219711111975 0.0283954501194
0.968645763843 12.19903305 0.222499552688 0.0284399032
0.970647098065 12.1973738041 0.225287993402 0.0284843562802
0.972648432288 12.1957145581 0.228076434116 0.0285288093607
0.974649766511 12.1940553122 0.23086487483 0.0285732624413
0.976651100734 12.1923960663 0.233653315543 0.0286177155217
0.978652434957 12.1907368203 0.236441756257 0.0286621686024
0.980653769179 12.1890775744 0.239230196971 0.0287066216829
0.982655103402 12.1874183285 0.242018637684 0.0287510747633
0.984656437625 12.1857679868 0.244814457794 0.0288010457545
0.986657771848 12.1841720598 0.24765537421 0.0288847373107
0.988659106071 12.1825761328 0.250496290626 0.0289684288668
0.990660440294 12.1809802059 0.253337207042 0.0290521204235
0.992661774516 12.1793842788 0.256178123458 0.0291358119796
0.994663108739 12.1777883518 0.259019039874 0.0292195035357
0.996664442962 12.1761924248 0.26185995629 0.0293031950921
0.998665777185 12.1745964978 0.264700872706 0.0293868866486
1.00066711141 12.1730005708 0.267541789122 0.0294705782045
1.00266844563 12.1714046438 0.270382705538 0.029554269761
1.00466977985 12.1695799568 0.273282586879 0.0295084253147
1.00667111408 12.1676876607 0.276199895101 0.0294242969493
1.0086724483 12.1657953645 0.279117203322 0.0293401685833
1.01067378252 12.1639030683 0.282034511543 0.0292560402171
1.01267511674 12.1620107721 0.284951819765 0.029171911851
1.01467645097 12.1601184759 0.287869127987 0.0290877834857
1.01667778519 12.1582261798 0.290786436208 0.0290036551194
1.01867911941 12.1563338836 0.293703744429 0.0289195267534
1.02068045364 12.1544349817 0.296660302798 0.0288669379297
1.02268178786 12.1525311818 0.299645965016 0.0288377355686
1.02468312208 12.1506273819 0.302631627236 0.0288085332076
1.0266844563 12.148723582 0.305617289454 0.0287793308468
1.02868579053 12.146819782 0.308602951673 0.0287501284861
1.03068712475 12.1449159821 0.311588613892 0.028720926125
1.03268845897 12.1430121822 0.314574276111 0.028691723764
1.0346897932 12.1411083823 0.31755993833 0.0286625214033
1.03669112742 12.1393560573 0.320509954473 0.0286605572466
1.03869246164 12.1378545144 0.323400954916 0.0287036887065
1.04069379586 12.1363529715 0.32629195536 0.0287468201668
1.04269513009 12.1348514286 0.329182955802 0.0287899516259
1.04469646431 12.1333498857 0.332073956245 0.028833083086
1.04669779853 12.1318483428 0.334964956689 0.0288762145452
1.04869913276 12.1303467999 0.337855957131 0.0289193460054
1.05070046698 12.128845257 0.340746957575 0.0289624774648
1.0527018012 12.1273437141 0.343637958017 0.0290056089247
1.05470313542 12.1258423599 0.346530229796 0.029048590766
1.05670446965 12.1243649729 0.349583961134 0.0290725710893
1.05870580387 12.1228875859 0.352637692473 0.0290965514123
1.06070713809 12.1214101989 0.355691423812 0.0291205317355
1.06270847231 12.1199328119 0.358745155151 0.0291445120583
1.06470980654 12.1184554248 0.361798886489 0.0291684923812
1.06671114076 12.1169780379 0.364852617828 0.029192472705
1.06871247498 12.1155006509 0.367906349167 0.0292164530281
1.07071380921 12.1140232639 0.370960080506 0.0292404333514
1.07271514343 12.1125458768 0.374013811844 0.0292644136739
1.07471647765 12.110891485 0.377067736562 0.0292831769132
1.07671781187 12.1091371221 0.3801217705 0.0292989935838
1.0787191461 12.1073827592 0.383175804437 0.0293148102545
1.08072048032 12.1056283964 0.386229838374 0.0293306269252
1.08272181454 12.1038740335 0.389283872311 0.0293464435958
1.08472314877 12.1021196706 0.392337906248 0.0293622602669
1.08672448299 12.1003653078 0.395391940186 0.0293780769372
1.08872581721 12.0986109449 0.398445974123 0.029393893608
1.09072715143 12.0969370308 0.401588635547 0.0294203099868
1.09272848566 12.0953649235 0.40484345388 0.0294601401564
1.09472981988 12.0937928161 0.408098272213 0.0294999703259
1.0967311541 12.0922207088 0.411353090546 0.0295398004946
1.09873248833 12.0906486015 0.414607908878 0.0295796306644
1.10073382255 12.0890764942 0.417862727211 0.0296194608327
1.10273515677 12.0875043869 0.421117545544 0.029659291002
1.10473649099 12.0859322796 0.424372363876 0.0296991211716
1.10673782522 12.0843473806 0.427596871374 0.0297169516647
1.10873915944 12.0827227945 0.430727337561 0.0296665267551
1.11074049366 12.0810982084 0.433857803749 0.0296161018451
1.11274182789 12.0794736224 0.436988269937 0.0295656769354
1.11474316211 12.0778490363 0.440118736125 0.0295152520249
1.11674449633 12.0762244502 0.443249202312 0.0294648271156
1.11874583055 12.0745998642 0.4463796685 0.0294144022051
1.12074716478 12.0729752781 0.449510134687 0.029363977295
1.122748499 12.0713506921 0.452640600875 0.0293135523852
1.12474983322 12.069726106 0.455771067063 0.0292631274755
1.12675116744 12.0681083685 0.459048679308 0.0292220299493
1.12875250167 12.0664916094 0.462347312419 0.0291822649069
1.13075383589 12.0648748503 0.465645945529 0.0291424998639
1.13275517011 12.0632580912 0.468944578639 0.0291027348215
1.13475650434 12.0616413321 0.47224321175 0.0290629697789
1.13675783856 12.0600245729 0.47554184486 0.0290232047365
1.13875917278 12.0584078138 0.478840477971 0.0289834396934
1.140760507 12.0567910547 0.482139111081 0.028943674651
1.14276184123 12.0551742956 0.485437744192 0.0289039096083
1.14476317545 12.0534328929 0.488742580039 0.0289782615823
1.14676450967 12.0515699244 0.492053465468 0.0291639128686
1.1487658439 12.0497069558 0.495364350898 0.0293495641551
1.15076717812 12.0478439873 0.498675236328 0.0295352154413
1.15276851234 12.0459810188 0.501986121758 0.0297208667277
1.15476984656 12.0441180502 0.505297007188 0.0299065180136
1.15677118079 12.0422550817 0.508607892617 0.0300921693007
1.15877251501 12.0403921132 0.511918778047 0.0302778205872
1.16077384923 12.0384520716 0.515278159538 0.0304660427133
1.16277518346 12.0363393476 0.518746196763 0.030660024822
1.16477651768 12.0342266236 0.522214233987 0.0308540069316
1.1667778519 12.0321138995 0.525682271212 0.0310479890409
1.16877918612 12.0300011755 0.529150308436 0.0312419711502
1.17078052035 12.0278884514 0.532618345661 0.0314359532591
1.17278185457 12.0257757274 0.536086382885 0.0316299353686
1.17478318879 12.0236630033 0.539554420109 0.0318239174778
1.17678452302 12.0216069632 0.543008296705 0.0320121341793
1.17878585724 12.020005193 0.54634868882 0.032154146413
1.18078719146 12.0184034228 0.549689080936 0.0322961586468
1.18278852568 12.0168016526 0.553029473052 0.0324381708808
1.18478985991 12.0151998824 0.556369865167 0.0325801831145
1.18679119413 12.0135981122 0.559710257283 0.0327221953483
1.18879252835 12.0119963419 0.563050649399 0.0328642075823
1.19079386258 12.0103945717 0.566391041515 0.0330062198164
1.1927951968 12.0087928015 0.56973143363 0.0331482320503
1.19479653102 12.0071910313 0.573071825746 0.0332902442841
1.19679786524 12.0059023273 0.576632663856 0.0332414328907
1.19879919947 12.0047223727 0.580270077943 0.0331263353945
1.20080053369 12.003542418 0.583907492029 0.0330112378979
1.20280186791 12.0023624633 0.587544906116 0.0328961404021
1.20480320213 12.0011825087 0.591182320203 0.0327810429062
1.20680453636 12.000002554 0.594819734289 0.03266594541
1.20880587058 11.9988225994 0.598457148376 0.0325508479141
1.2108072048 11.9976426447 0.602094562463 0.032435750418
1.21280853903 11.99646269 0.605731976549 0.032320652922
1.21480987325 11.9950566746 0.609363780294 0.0322576479221
1.21681120747 11.9932713689 0.612986170871 0.0322820449769
1.21881254169 11.9914860632 0.616608561448 0.0323064420318
1.22081387592 11.9897007575 0.620230952025 0.0323308390866
1.22281521014 11.9879154518 0.623853342602 0.0323552361416
1.22481654436 11.9861301462 0.627475733179 0.0323796331967
1.22681787859 11.9843448405 0.631098123756 0.0324040302518
1.22881921281 11.9825595348 0.634720514332 0.0324284273071
1.23082054703 11.9808770762 0.638343706114 0.0324619507206
1.23282188125 11.979676856 0.641970654658 0.0325382666196
1.23482321548 11.9784766359 0.645597603201 0.0326145825187
1.2368245497 11.9772764157 0.649224551744 0.0326908984178
1.23882588392 11.9760761955 0.652851500287 0.0327672143171
1.24082721815 11.9748759754 0.656478448831 0.0328435302161
1.24282855237 11.9736757552 0.660105397374 0.0329198461145
1.24482988659 11.9724755351 0.663732345917 0.0329961620133
1.24683122081 11.9712753149 0.66735929446 0.033072477912
1.24883255504 11.970648161 0.671218303312 0.0326917170595
1.25083388926 11.9700338232 0.675082502011 0.0323007340428
1.25283522348 11.9694194854 0.678946700709 0.0319097510262
1.25483655771 11.9688051477 0.682810899408 0.0315187680094
1.25683789193 11.9681908099 0.686675098107 0.0311277849926
1.25883922615 11.9675764722 0.690539296806 0.0307368019757
1.26084056037 11.9669621344 0.694403495505 0.0303458189593
1.2628418946 11.9663477966 0.698267694203 0.0299548359424
1.26484322882 11.9657334588 0.702131892902 0.0295638529258
1.26684456304 11.9653534048 0.705946603601 0.0292751250026
1.26884589726 11.9651235326 0.709729591224 0.0290519452157
1.27084723149 11.9648936604 0.713512578846 0.0288287654288
1.27284856571 11.9646637882 0.717295566468 0.028605585642
1.27484989993 11.964433916 0.72107855409 0.0283824058553
1.27685123416 11.9642040438 0.724861541713 0.0281592260686
1.27885256838 11.9639741716 0.728644529335 0.0279360462821
1.2808539026 11.9637442994 0.732427516957 0.0277128664952
1.28285523682 11.9635144272 0.736210504579 0.0274896867085
1.28485657105 11.9631322058 0.73997442744 0.0273639430135
1.28685790527 11.9622691939 0.743678184885 0.0275456924369
1.28885923949 11.961406182 0.747381942331 0.0277274418605
1.29086057372 11.9605431701 0.751085699776 0.0279091912835
1.29286190794 11.9596801583 0.754789457221 0.0280909407068
1.29486324216 11.9588171464 0.758493214666 0.0282726901303
1.29686457638 11.9579541345 0.762196972111 0.0284544395539
1.29886591061 11.9570911226 0.765900729556 0.0286361889774
1.30086724483 11.9562418115 0.769609675976 0.0288083752676
1.30286857905 11.9556976549 0.773434195007 0.028767564491
1.30486991328 11.9551534983 0.777258714039 0.0287267537147
1.3068712475 11.9546093417 0.78108323307 0.0286859429388
1.30887258172 11.9540651851 0.784907752101 0.0286451321626
1.31087391594 11.9535210285 0.788732271133 0.028604321386
1.31287525017 11.9529768719 0.792556790165 0.0285635106095
1.31487658439 11.9524327153 0.796381309196 0.0285226998337
1.31687791861 11.9518885587 0.800205828228 0.0284818890573
1.31887925284 11.9518978623 0.803939619804 0.0284144530594
1.32088058706 11.952008446 0.807656808758 0.028342144794
1.32288192128 11.9521190297 0.811373997713 0.0282698365282
1.3248832555 11.9522296135 0.815091186667 0.0281975282626
1.32688458973 11.9523401972 0.818808375622 0.0281252199968
1.32888592395 11.9524507809 0.822525564577 0.0280529117313
1.33088725817 11.9525613646 0.826242753532 0.0279806034659
1.33288859239 11.9526719483 0.829959942486 0.0279082952005
1.33488992662 11.952782532 0.833677131441 0.0278359869347
1.33689126084 11.9529028583 0.837440047127 0.0277445008465
1.33889259506 11.9530338854 0.841253187256 0.0276319505926
1.34089392929 11.9531649125 0.845066327385 0.0275194003391
1.34289526351 11.9532959396 0.848879467514 0.0274068500853
1.34489659773 11.9534269667 0.852692607643 0.0272942998316
1.34689793195 11.9535579938 0.856505747771 0.0271817495774
1.34889926618 11.9536890209 0.860318887901 0.0270691993242
1.3509006004 11.953820048 0.864132028029 0.0269566490698
1.35290193462 11.9539510751 0.867945168159 0.0268440988163
1.35490326885 11.9540524281 0.871784025098 0.0267131427307
1.35690460307 11.9539082174 0.875835697962 0.0264298717171
1.35890593729 11.9537640067 0.879887370827 0.0261466007036
1.36090727151 11.953619796 0.883939043692 0.0258633296903
1.36290860574 11.9534755853 0.887990716555 0.0255800586765
1.36490993996 11.9533313746 0.89204238942 0.0252967876633
1.36691127418 11.9531871639 0.896094062285 0.02501351665
1.36891260841 11.9530429532 0.900145735148 0.0247302456362
1.37091394263 11.9528987425 0.904197408014 0.0244469746224
1.37291527685 11.9530300622 0.908372727089 0.0243340445557
1.37491661107 11.9531885801 0.912560251586 0.0242379292604
1.3769179453 11.953347098 0.916747776082 0.024141813965
1.37891927952 11.953505616 0.920935300579 0.0240456986697
1.38092061374 11.9536641339 0.925122825075 0.0239495833743
1.38292194797 11.9538226518 0.929310349571 0.0238534680788
1.38492328219 11.9539811698 0.933497874069 0.0237573527835
1.38692461641 11.9541396877 0.937685398565 0.0236612374878
1.38892595063 11.9542189509 0.941692612822 0.0237321658545
1.39092728486 11.9542662342 0.945627070316 0.0238704978042
1.39292861908 11.9543135175 0.949561527811 0.0240088297534
1.3949299533 11.9543608008 0.953495985305 0.0241471617032
1.39693128753 11.9544080841 0.9574304428 0.0242854936525
1.39893262175 11.9544553674 0.961364900295 0.024423825602
1.40093395597 11.9545026507 0.965299357788 0.0245621575515
1.40293529019 11.9545499339 0.969233815283 0.0247004895009
1.40493662442 11.9545972172 0.973168272778 0.0248388214501
1.40693795864 11.9546113714 0.977072322948 0.0249177996002
1.40893929286 11.954562279 0.980918322772 0.0248834659513
1.41094062708 11.9545131867 0.984764322597 0.0248491323026
1.41294196131 11.9544640943 0.98861032242 0.0248147986538
1.41494329553 11.9544150019 0.992456322247 0.024780465005
1.41694462975 11.9543659096 0.996302322071 0.0247461313564
1.41894596398 11.9543168172 1.0001483219 0.0247117977078
1.4209472982 11.9542677249 1.00399432172 0.0246774640584
1.42294863242 11.9542186325 1.00784032154 0.0246431304101
1.42494996664 11.9541695401 1.01168632137 0.0246087967612
1.42695130087 11.9543966618 1.01581913238 0.0245127176508
1.42895263509 11.9546308658 1.01995929752 0.0244150553237
1.43095396931 11.9548650698 1.02409946266 0.0243173929967
1.43295530354 11.9550992739 1.02823962781 0.0242197306693
1.43495663776 11.9553334779 1.03237979295 0.0241220683419
1.43695797198 11.9555676819 1.03651995809 0.0240244060148
1.4389593062 11.955801886 1.04066012324 0.0239267436875
1.44096064043 11.95603609 1.04480028838 0.0238290813605
1.44296197465 11.9562381432 1.04900265105 0.0235993020645
1.44496330887 11.9564309873 1.05322282909 0.0233316802189
1.4469646431 11.9566238315 1.05744300713 0.0230640583744
1.44896597732 11.9568166756 1.06166318517 0.0227964365292
1.45096731154 11.9570095198 1.06588336321 0.0225288146838
1.45296864576 11.9572023639 1.07010354125 0.0222611928391
1.45496997999 11.957395208 1.07432371929 0.0219935709936
1.45697131421 11.9575880522 1.07854389733 0.0217259491483
1.45897264843 11.9576494943 1.08263550586 0.021500309444
1.46097398266 11.9576156611 1.08663389282 0.02130510962
1.46297531688 11.9575818279 1.09063227979 0.0211099097962
1.4649766511 11.9575479948 1.09463066676 0.0209147099724
1.46697798532 11.9575141616 1.09862905372 0.0207195101483
1.46897931955 11.9574803284 1.10262744069 0.0205243103245
1.47098065377 11.9574464952 1.10662582766 0.0203291105006
1.47298198799 11.9574126621 1.11062421463 0.0201339106769
1.47498332221 11.9573788289 1.11462260159 0.0199387108527
1.47698465644 11.9574198129 1.11863780296 0.0198253858744
1.47898599066 11.9577406689 1.12271590262 0.0200183334651
1.48098732488 11.9580615249 1.12679400229 0.0202112810565
1.48298865911 11.958382381 1.13087210195 0.0204042286469
1.48498999333 11.958703237 1.13495020162 0.0205971762379
1.48699132755 11.959024093 1.13902830128 0.020790123829
1.48899266177 11.959344949 1.14310640095 0.0209830714201
1.490993996 11.959665805 1.14718450062 0.0211760190116
1.49299533022 11.959986661 1.15126260028 0.0213689666022
1.49499666444 11.960307517 1.15534069995 0.0215619141929
1.49699799867 11.9606211429 1.15964673366 0.0216576129207
1.49899933289 11.960933414 1.16399547858 0.0217350887636
1.50100066711 11.9612456852 1.1683442235 0.0218125646059
1.50300200133 11.9615579563 1.17269296842 0.0218900404483
1.50500333556 11.9618702274 1.17704171334 0.0219675162909
1.50700466978 11.9621824986 1.18139045826 0.0220449921336
1.509006004 11.9624947697 1.18573920318 0.0221224679757
1.51100733823 11.9628070408 1.1900879481 0.0221999438181
1.51300867245 11.9633073472 1.19448902406 0.0222311325152
1.51501000667 11.9639113578 1.19891896138 0.0222367931499
1.51701134089 11.9645153684 1.2033488987 0.0222424537844
1.51901267512 11.9651193791 1.20777883602 0.022248114419
1.52101400934 11.9657233897 1.21220877335 0.0222537750537
1.52301534356 11.9663274003 1.21663871067 0.0222594356882
1.52501667779 11.9669314109 1.22106864799 0.0222650963228
1.52701801201 11.9675354215 1.22549858531 0.0222707569576
1.52901934623 11.9681470988 1.22978804063 0.0223590637154
1.53102068045 11.9687682656 1.23390361261 0.0225496667236
1.53302201468 11.9693894324 1.23801918459 0.0227402697322
1.5350233489 11.9700105992 1.24213475658 0.0229308727406
1.53702468312 11.9706317659 1.24625032856 0.0231214757492
1.53902601734 11.9712529327 1.25036590054 0.0233120787576
1.54102735157 11.9718740995 1.25448147253 0.0235026817663
1.54302868579 11.9724952663 1.25859704451 0.0236932847744
1.54503002001 11.9731164331 1.26271261649 0.0238838877829
1.54703135424 11.9737580496 1.26683352368 0.0240608640692
1.54903268846 11.9746409733 1.27101738628 0.0240770450375
1.55103402268 11.9755238969 1.27520124888 0.0240932260057
1.5530353569 11.9764068205 1.27938511148 0.0241094069739
1.55503669113 11.9772897441 1.28356897408 0.0241255879423
1.55703802535 11.9781726677 1.28775283667 0.0241417689099
1.55903935957 11.9790555914 1.29193669927 0.0241579498783
1.5610406938 11.979938515 1.29612056187 0.0241741308467
1.56304202802 11.9808214386 1.30030442447 0.0241903118147
1.56504336224 11.9817043622 1.30448828707 0.024206492783
1.56704469646 11.9825801169 1.30892969697 0.0241119846637
1.56904603069 11.9834529345 1.31347662185 0.0239721281518
1.57104736491 11.9843257522 1.31802354673 0.0238322716403
1.57304869913 11.9851985699 1.3225704716 0.0236924151291
1.57505003336 11.9860713875 1.32711739648 0.0235525586171
1.57705136758 11.9869442052 1.33166432136 0.0234127021055
1.5790527018 11.9878170228 1.33621124623 0.0232728455935
1.58105403602 11.9886898405 1.34075817111 0.0231329890821
1.58305537025 11.9896546875 1.34530922654 0.0230656559904
1.58505670447 11.9907073488 1.34986422332 0.0230675246357
1.58705803869 11.9917600102 1.35441922011 0.0230693932807
1.58905937292 11.9928126715 1.3589742169 0.0230712619258
1.59106070714 11.9938653328 1.36352921369 0.0230731305708
1.59306204136 11.9949179942 1.36808421048 0.0230749992157
1.59506337558 11.9959706555 1.37263920727 0.0230768678607
1.59706470981 11.9970233168 1.37719420405 0.0230787365057
1.59906604403 11.9980674405 1.38162991722 0.0230877454557
1.60106737825 11.9990929174 1.38580510546 0.0231123493996
1.60306871247 12.0001183942 1.38998029369 0.023136953344
1.6050700467 12.0011438711 1.39415548193 0.0231615572881
1.60707138092 12.002169348 1.39833067017 0.0231861612319
1.60907271514 12.0031948248 1.40250585841 0.0232107651758
1.61107404937 12.0042203017 1.40668104664 0.02323536912
1.61307538359 12.0052457785 1.41085623488 0.0232599730641
1.61507671781 12.0062712554 1.41503142312 0.023284577008
1.61707805203 12.0072967322 1.41920661135 0.0233091809521
1.61907938626 12.0083406649 1.42357231431 0.0230557839683
1.62108072048 12.0093856651 1.42794903879 0.0227863042862
1.6230820547 12.0104306655 1.43232576326 0.022516824604
1.62508338893 12.0114756658 1.43670248773 0.022247344922
1.62708472315 12.0125206661 1.44107921221 0.0219778652396
1.62908605737 12.0135656664 1.44545593668 0.0217083855576
1.63108739159 12.0146106667 1.44983266116 0.0214389058757
1.63308872582 12.015655667 1.45420938563 0.0211694261936
1.63509006004 12.0167006674 1.4585861101 0.0208999465113
1.63709139426 12.0179357628 1.46317783975 0.0205915044606
1.63909272849 12.0193104676 1.46792747292 0.0202544477711
1.64109406271 12.0206851723 1.4726771061 0.019917391081
1.64309539693 12.0220598769 1.47742673927 0.0195803343912
1.64509673115 12.0234345816 1.48217637245 0.0192432777014
1.64709806538 12.0248092863 1.48692600563 0.0189062210119
1.6490993996 12.026183991 1.4916756388 0.0185691643217
1.65110073382 12.0275586957 1.49642527198 0.0182321076317
1.65310206805 12.0289834347 1.50117319625 0.0179801247877
1.65510340227 12.0304901886 1.50591831934 0.0178675928852
1.65710473649 12.0319969425 1.51066344242 0.017755060984
1.65910607071 12.0335036964 1.51540856551 0.0176425290822
1.66110740494 12.0350104503 1.52015368859 0.0175299971804
1.66310873916 12.0365172042 1.52489881168 0.0174174652783
1.66511007338 12.0380239581 1.52964393477 0.0173049333765
1.66711140761 12.039530712 1.53438905785 0.0171924014747
1.66911274183 12.0410216179 1.53906165159 0.017116744041
1.67111407605 12.042440934 1.54340661279 0.0172076574795
1.67311541027 12.0438602501 1.54775157399 0.0172985709183
1.6751167445 12.0452795662 1.55209653519 0.0173894843573
1.67711807872 12.0466988823 1.55644149639 0.0174803977963
1.67911941294 12.0481181984 1.56078645759 0.0175713112346
1.68112074716 12.0495375145 1.56513141878 0.0176622246737
1.68312208139 12.0509568307 1.56947637998 0.0177531381123
1.68512341561 12.0523761468 1.57382134118 0.0178440515513
1.68712474983 12.0537954629 1.57816630238 0.0179349649903
1.68912608406 12.0555725662 1.58261868172 0.0179680499211
1.69112741828 12.0574322359 1.58709584985 0.0179877898113
1.6931287525 12.0592919055 1.59157301799 0.0180075297023
1.69513008672 12.0611515752 1.59605018613 0.0180272695927
1.69713142095 12.0630112448 1.60052735427 0.018047009483
1.69913275517 12.0648709145 1.60500452241 0.0180667493735
1.70113408939 12.0667305841 1.60948169054 0.0180864892641
1.70313542362 12.0685902538 1.61395885868 0.0181062291549
1.70513675784 12.0704499234 1.61843602682 0.0181259690452
1.70713809206 12.0722044048 1.6230180204 0.0181819460914
1.70913942628 12.0738270306 1.6277314149 0.0182833471781
1.71114076051 12.0754496564 1.6324448094 0.018384748265
1.71314209473 12.0770722821 1.6371582039 0.0184861493511
1.71514342895 12.0786949079 1.6418715984 0.0185875504382
1.71714476318 12.0803175336 1.6465849929 0.0186889515244
1.7191460974 12.0819401594 1.6512983874 0.0187903526114
1.72114743162 12.0835627851 1.6560117819 0.0188917536975
1.72314876584 12.0852878702 1.66075747373 0.0189580976068
1.72515010007 12.0873268385 1.66560210818 0.0189170441299
1.72715143429 12.0893658068 1.67044674264 0.0188759906526
1.72915276851 12.0914047752 1.67529137709 0.0188349371756
1.73115410274 12.0934437435 1.68013601154 0.0187938836985
1.73315543696 12.0954827118 1.68498064599 0.0187528302217
1.73515677118 12.0975216802 1.68982528045 0.0187117767441
1.7371581054 12.0995606485 1.6946699149 0.0186707232672
1.73915943963 12.101604183 1.69950134242 0.018619745713
1.74116077385 12.1037374199 1.70407331776 0.0183738080557
1.74316210807 12.1058706569 1.70864529308 0.0181278703993
1.74516344229 12.1080038938 1.71321726841 0.0178819327422
1.74716477652 12.1101371308 1.71778924374 0.0176359950856
1.74916611074 12.1122703677 1.72236121907 0.0173900574286
1.75116744496 12.1144036046 1.7269331944 0.0171441197719
1.75316877919 12.1165368416 1.73150516973 0.0168981821148
1.75517011341 12.1186700785 1.73607714506 0.0166522444579
1.75717144763 12.1208033155 1.74064912038 0.0164063068006
1.75917278185 12.1230706749 1.74520507094 0.0163701681687
1.76117411608 12.1254012416 1.74975346958 0.0164329003411
1.7631754503 12.1277318082 1.75430186823 0.0164956325133
1.76517678452 12.1300623749 1.75885026687 0.0165583646854
1.76717811875 12.1323929415 1.76339866551 0.0166210968574
1.76917945297 12.1347235081 1.76794706416 0.0166838290299
1.77118078719 12.1370540748 1.7724954628 0.0167465612022
1.77318212141 12.1393846414 1.77704386145 0.0168092933742
1.77518345564 12.141715208 1.78159226009 0.0168720255462
1.77718478986 12.1440595291 1.78625358136 0.016959873103
1.77918612408 12.1464343309 1.79116514825 0.0171033783698
1.78118745831 12.1488091329 1.79607671515 0.0172468836368
1.78318879253 12.1511839348 1.80098828205 0.0173903889035
1.78519012675 12.1535587366 1.80589984894 0.0175338941707
1.78719146097 12.1559335385 1.81081141583 0.0176773994377
1.7891927952 12.1583083404 1.81572298273 0.0178209047045
1.79119412942 12.1606831423 1.82063454963 0.0179644099715
1.79319546364 12.1631152426 1.8255596941 0.0180687373553
1.79519679787 12.1659958505 1.83059111822 0.0178663964805
1.79719813209 12.1688764585 1.83562254235 0.017664055606
1.79919946631 12.1717570664 1.84065396647 0.0174617147309
1.80120080053 12.1746376744 1.8456853906 0.0172593738564
1.80320213476 12.1775182823 1.85071681473 0.0170570329815
1.80520346898 12.1803988903 1.85574823885 0.0168546921073
1.8072048032 12.1832794982 1.86077966298 0.0166523512321
1.80920613742 12.1861601062 1.8658110871 0.0164500103578
1.81120747165 12.1888498815 1.87042221996 0.0162847259524
1.81320880587 12.1915220715 1.8749946229 0.0161228563076
1.81521014009 12.1941942615 1.87956702584 0.0159609866622
1.81721147432 12.1968664515 1.88413942878 0.0157991170175
1.81921280854 12.1995386416 1.88871183172 0.0156372473723
1.82121414276 12.2022108315 1.89328423465 0.0154753777277
1.82321547698 12.2048830216 1.8978566376 0.0153135080824
1.82521681121 12.2075552116 1.90242904054 0.0151516384375
1.82721814543 12.2102274016 1.90700144348 0.0149897687922
1.82921947965 12.2132478644 1.9115271483 0.0148653421191
1.83122081388 12.2165568962 1.91601416041 0.0147719396225
1.8332221481 12.219865928 1.92050117252 0.0146785371262
1.83522348232 12.2231749597 1.92498818463 0.0145851346294
1.83722481654 12.2264839914 1.92947519673 0.014491732133
1.83922615077 12.2297930231 1.93396220884 0.014398329637
1.84122748499 12.2331020549 1.93844922095 0.0143049271404
1.84322881921 12.2364110866 1.94293623306 0.0142115246438
1.84523015344 12.2397201184 1.94742324517 0.0141181221469
1.84723148766 12.2430219859 1.95199725391 0.014042887883
1.84923282188 12.2462907977 1.95697266819 0.0140514824805
1.8512341561 12.2495596095 1.96194808247 0.0140600770773
1.85323549033 12.2528284212 1.96692349675 0.014068671675
1.85523682455 12.256097233 1.97189891103 0.0140772662726
1.85723815877 12.2593660448 1.97687432531 0.0140858608699
1.859239493 12.2626348565 1.98184973959 0.0140944554678
1.86124082722 12.2659036683 1.98682515387 0.0141030500651
1.86324216144 12.26917248 1.99180056815 0.0141116446621
1.86524349566 12.2728787656 1.99671998661 0.0142881259352
1.86724482989 12.2765937658 2.00163828961 0.0144679515645
1.86924616411 12.280308766 2.00655659261 0.0146477771934
1.87124749833 12.2840237663 2.01147489561 0.0148276028222
1.87324883256 12.2877387665 2.01639319862 0.0150074284516
1.87525016678 12.2914537667 2.02131150162 0.0151872540808
1.877251501 12.2951687669 2.02622980462 0.0153670797102
1.87925283522 12.2988837671 2.03114810762 0.0155469053388
1.88125416945 12.3026922733 2.03566032961 0.0157232655248
1.88325550367 12.3065267223 2.04005988639 0.0158986642396
1.88525683789 12.3103611713 2.04445944318 0.0160740629548
1.88725817211 12.3141956204 2.04885899997 0.0162494616703
1.88925950634 12.3180300694 2.05325855676 0.0164248603855
1.89126084056 12.3218645184 2.05765811354 0.0166002591007
1.89326217478 12.3256989674 2.06205767034 0.0167756578161
1.89526350901 12.3295334164 2.06645722712 0.0169510565316
1.89726484323 12.3333678654 2.07085678391 0.0171264552464
1.89926617745 12.3373970365 2.07519186606 0.0172354574411
1.90126751167 12.3417017577 2.07943571052 0.017250502295
1.9032688459 12.3460064789 2.08367955498 0.0172655471491
1.90527018012 12.3503112 2.08792339944 0.017280592003
1.90727151434 12.3546159212 2.09216724389 0.0172956368571
1.90927284857 12.3589206424 2.09641108835 0.0173106817112
1.91127418279 12.3632253636 2.10065493281 0.0173257265649
1.91327551701 12.3675300848 2.10489877727 0.0173407714187
1.91527685123 12.371834806 2.10914262173 0.0173558162728
1.91727818546 12.3761464303 2.11341227608 0.0173670259209
1.91927951968 12.3806034959 2.11822571829 0.0172974317493
1.9212808539 12.3850605615 2.1230391605 0.0172278375777
1.92328218813 12.3895176272 2.12785260271 0.0171582434057
1.92528352235 12.3939746928 2.13266604492 0.0170886492339
1.92728485657 12.3984317585 2.13747948713 0.0170190550628
1.92928619079 12.4028888242 2.14229292934 0.0169494608906
1.93128752502 12.4073458898 2.14710637155 0.0168798667192
1.93328885924 12.4118029555 2.15191981375 0.0168102725475
1.93529019346 12.4167907205 2.15660352645 0.0167824266297
1.93729152769 12.4218738646 2.1612639237 0.016762083855
1.93929286191 12.4269570087 2.16592432094 0.0167417410797
1.94129419613 12.4320401528 2.17058471819 0.0167213983047
1.94329553035 12.437123297 2.17524511544 0.01670105553
1.94529686458 12.4422064411 2.17990551269 0.0166807127549
1.9472981988 12.4472895852 2.18456590993 0.01666036998
1.94929953302 12.4523727293 2.18922630718 0.0166400272046
1.95130086724 12.4572844487 2.19346109211 0.0165996914784
1.95330220147 12.4621038624 2.19746670118 0.0165485903171
1.95530353569 12.4669232762 2.20147231025 0.0164974891558
1.95730486991 12.4717426899 2.20547791931 0.0164463879942
1.95930620414 12.4765621036 2.20948352838 0.016395286833
1.96130753836 12.4813815174 2.21348913745 0.0163441856715
1.96330887258 12.4862009311 2.21749474652 0.01629308451
1.9653102068 12.4910203448 2.22150035558 0.0162419833487
1.96731154103 12.4958397586 2.22550596465 0.0161908821872
1.96931287525 12.5008409803 2.22944265052 0.0161258541105
1.97131420947 12.5063068225 2.23320319932 0.016025235028
1.9733155437 12.5117726647 2.23696374812 0.0159246159457
1.97531687792 12.5172385069 2.24072429692 0.0158239968636
1.97731821214 12.522704349 2.24448484573 0.0157233777811
1.97931954636 12.5281701912 2.24824539453 0.0156227586987
1.98132088059 12.5336360334 2.25200594333 0.0155221396161
1.98332221481 12.5391018756 2.25576649213 0.0154215205339
1.98532354903 12.5445677177 2.25952704093 0.0153209014519
1.98732488326 12.5500335599 2.26328758973 0.0152202823691
1.98932621748 12.5556642833 2.26765265505 0.0150376028514
1.9913275517 12.5613108171 2.2720756877 0.0148470545247
1.99332888592 12.566957351 2.27649872035 0.0146565061978
1.99533022015 12.5726038849 2.280921753 0.0144659578713
1.99733155437 12.5782504188 2.28534478565 0.0142754095444
1.99933288859 12.5838969527 2.2897678183 0.0140848612175
2.00133422282 12.5895434865 2.29419085095 0.0138943128912
2.00333555704 12.5951900204 2.2986138836 0.0137037645647
2.00533689126 12.6012699523 2.30273276111 0.0135824917536
2.00733822548 12.6075227698 2.30673030898 0.0134888534386
2.00933955971 12.6137755873 2.31072785685 0.0133952151233
2.01134089393 12.6200284048 2.31472540472 0.0133015768082
2.01334222815 12.6262812223 2.31872295258 0.0132079384927
2.01534356237 12.6325340398 2.32272050045 0.0131143001776
2.0173448966 12.6387868572 2.32671804832 0.0130206618622
2.01934623082 12.6450396747 2.33071559619 0.012927023547
2.02134756504 12.6511993689 2.33440522594 0.0128467766812
2.02334889927 12.6572721294 2.33780740343 0.0127790311985
2.02535023349 12.6633448898 2.34120958092 0.0127112857162
2.02735156771 12.6694176502 2.34461175841 0.0126435402337
2.02935290193 12.6754904107 2.3480139359 0.0125757947509
2.03135423616 12.6815631711 2.35141611339 0.0125080492687
2.03335557038 12.6876359315 2.35481829088 0.0124403037862
2.0353569046 12.6937086919 2.35822046837 0.0123725583036
2.03735823883 12.6997814524 2.36162264587 0.0123048128211
2.03935957305 12.7059129096 2.36495215965 0.0122572322397
2.04136090727 12.7123811014 2.36786481319 0.0123253345117
2.04336224149 12.7188492931 2.37077746674 0.0123934367837
2.04536357572 12.7253174849 2.37369012029 0.0124615390557
2.04736490994 12.7317856766 2.37660277384 0.0125296413278
2.04936624416 12.7382538683 2.37951542738 0.0125977435998
2.05136757839 12.7447220601 2.38242808093 0.0126658458719
2.05336891261 12.7511902518 2.38534073448 0.0127339481439
2.05537024683 12.7576584436 2.38825338802 0.012802050416
2.05737158105 12.7641266353 2.39116604157 0.012870152688
2.05937291528 12.7710373614 2.3944551446 0.0128890084256
2.0613742495 12.7780731322 2.39785061913 0.0128939488106
2.06337558372 12.7851089031 2.40124609367 0.012898889195
2.06537691795 12.7921446739 2.4046415682 0.0129038295793
2.06737825217 12.7991804447 2.40803704273 0.0129087699641
2.06937958639 12.8062162156 2.41143251726 0.0129137103486
2.07138092061 12.8132519864 2.41482799179 0.012918650733
2.07338225484 12.8202877573 2.41822346632 0.0129235911177
2.07538358906 12.8277293395 2.42126776531 0.0128421917775
2.07738492328 12.8354623434 2.42405987783 0.0126987900845
2.0793862575 12.8431953472 2.42685199035 0.0125553883916
2.08138759173 12.8509283511 2.42964410287 0.0124119866985
2.08338892595 12.858661355 2.43243621539 0.0122685850059
2.08539026017 12.8663943588 2.4352283279 0.012125183313
2.0873915944 12.8741273627 2.43802044042 0.0119817816198
2.08939292862 12.8818603666 2.44081255294 0.0118383799271
2.09139426284 12.8892181359 2.4434084391 0.0117159731713
2.09339559706 12.8959749199 2.44569004401 0.0116271924527
2.09539693129 12.902731704 2.44797164893 0.011538411734
2.09739826551 12.909488488 2.45025325384 0.0114496310157
2.09939959973 12.916245272 2.45253485875 0.0113608502968
2.10140093396 12.923002056 2.45481646366 0.0112720695781
2.10340226818 12.92975884 2.45709806857 0.0111832888597
2.1054036024 12.936515624 2.45937967349 0.0110945081411
2.10740493662 12.943272408 2.4616612784 0.0110057274227
2.10940627085 12.9500360577 2.46393292206 0.0109187546263
2.11140760507 12.95723224 2.46557700677 0.0109456809384
2.11340893929 12.9644284223 2.46722109148 0.0109726072503
2.11541027352 12.9716246047 2.46886517618 0.010999533562
2.11741160774 12.978820787 2.4705092609 0.0110264598741
2.11941294196 12.9860169693 2.4721533456 0.0110533861861
2.12141427618 12.9932131517 2.47379743031 0.0110803124982
2.12341561041 13.000409334 2.47544151502 0.01110723881
2.12541694463 13.0076055163 2.47708559973 0.0111341651221
2.12741827885 13.0148016987 2.47872968444 0.0111610914341
2.12941961308 13.0224934831 2.48056933685 0.0111595545779
2.1314209473 13.0304558137 2.48251574843 0.0111424798573
2.13342228152 13.0384181442 2.48446216002 0.0111254051368
2.13542361574 13.0463804748 2.4864085716 0.0111083304161
2.13742494997 13.0543428054 2.48835498319 0.0110912556955
2.13942628419 13.0623051359 2.49030139477 0.011074180975
2.14142761841 13.0702674665 2.49224780636 0.0110571062541
2.14342895264 13.0782297971 2.49419421794 0.0110400315336
2.14543028686 13.0863106203 2.49576732943 0.0110443578252
2.14743162108 13.094536726 2.49688274253 0.0110749236184
2.1494329553 13.1027628317 2.49799815563 0.0111054894118
2.15143428953 13.1109889374 2.49911356873 0.0111360552051
2.15343562375 13.1192150431 2.50022898183 0.0111666209986
2.15543695797 13.1274411487 2.50134439493 0.0111971867919
2.15743829219 13.1356672544 2.50245980803 0.0112277525852
2.15943962642 13.14389336 2.50357522113 0.0112583183784
2.16144096064 13.1519628664 2.50467173565 0.0112423238488
2.16344229486 13.1595664653 2.50571202396 0.0110878051277
2.16544362909 13.1671700643 2.50675231226 0.010933286407
2.16744496331 13.1747736633 2.50779260056 0.0107787676859
2.16944629753 13.1823772622 2.50883288887 0.0106242489647
2.17144763175 13.1899808612 2.50987317717 0.010469730244
2.17344896598 13.1975844602 2.51091346547 0.0103152115229
2.1754503002 13.2051880591 2.51195375378 0.0101606928018
2.17745163442 13.2127916581 2.51299404208 0.0100061740811
2.17945296865 13.2203952571 2.51403433038 0.00985165536004
2.18145430287 13.2278387976 2.51432078507 0.00975430693201
2.18345563709 13.2352610914 2.51450717334 0.00966454748067
2.18545697131 13.2426833852 2.51469356162 0.00957478802965
2.18745830554 13.250105679 2.51487994989 0.0094850285784
2.18945963976 13.2575279728 2.51506633816 0.00939526912722
2.19146097398 13.2649502666 2.51525272644 0.00930550967591
2.19346230821 13.2723725604 2.51543911471 0.00921575022476
2.19546364243 13.2797948542 2.51562550298 0.00912599077358
2.19746497665 13.287217148 2.51581189126 0.00903623132241
2.19946631087 13.2952241002 2.51600834762 0.00892129343906
2.2014676451 13.3037837234 2.51621432122 0.00878255466652
2.20346897932 13.3123433466 2.51642029483 0.00864381589408
2.20547031354 13.3209029698 2.51662626843 0.00850507712132
2.20747164777 13.329462593 2.51683224204 0.00836633834878
2.20947298199 13.3380222162 2.51703821564 0.0082275995764
2.21147431621 13.3465818394 2.51724418925 0.00808886080382
2.21347565043 13.3551414626 2.51745016285 0.00795012203137
2.21547698466 13.3636346453 2.5173425538 0.00788099120956
2.21747831888 13.3719842837 2.51655745135 0.00796224793533
2.2194796531 13.3803339222 2.5157723489 0.00804350466138
2.22148098732 13.3886835607 2.51498724645 0.00812476138732
2.22348232155 13.3970331991 2.514202144 0.00820601811324
2.22548365577 13.4053828376 2.51341704155 0.00828727483912
2.22748498999 13.413732476 2.51263193911 0.00836853156491
2.22948632422 13.4220821145 2.51184683666 0.00844978829098
2.23148765844 13.4303091642 2.51108876289 0.00852988791794
2.23348899266 13.4376264759 2.51053127038 0.00860140065286
2.23549032688 13.4449437877 2.50997377787 0.00867291338773
2.23749166111 13.4522610995 2.50941628537 0.00874442612265
2.23949299533 13.4595784113 2.50885879286 0.0088159388575
2.24149432955 13.4668957231 2.50830130035 0.00888745159217
2.24349566378 13.4742130349 2.50774380784 0.0089589643271
2.245496998 13.4815303466 2.50718631534 0.00903047706214
2.24749833222 13.4888476584 2.50662882283 0.00910198979695
2.24949966644 13.4961649702 2.50607133032 0.00917350253168
2.25150100067 13.503395018 2.50503633042 0.00908271938477
2.25350233489 13.5105959778 2.50384216137 0.00893783761073
2.25550366911 13.5177969376 2.50264799233 0.00879295583656
2.25750500334 13.5249978974 2.50145382329 0.00864807406227
2.25950633756 13.5321988572 2.50025965424 0.00850319228815
2.26150767178 13.5393998169 2.4990654852 0.00835831051395
2.263509006 13.5466007767 2.49787131616 0.00821342873971
2.26551034023 13.5538017365 2.49667714712 0.00806854696568
2.26751167445 13.5610026963 2.49548297808 0.00792366519148
2.26951300867 13.5684919063 2.49414935171 0.00788113743798
2.2715143429 13.576448932 2.49258939297 0.00800472522626
2.27351567712 13.5844059578 2.49102943423 0.00812831301467
2.27551701134 13.5923629836 2.48946947548 0.00825190080273
2.27751834556 13.6003200094 2.48790951675 0.00837548859096
2.27951967979 13.6082770352 2.486349558 0.0084990763794
2.28152101401 13.6162340609 2.48478959926 0.00862266416759
2.28352234823 13.6241910867 2.48322964051 0.0087462519559
2.28552368245 13.6320419475 2.48154632969 0.0087995103206
2.28752501668 13.6394207129 2.47931449577 0.00854002720721
2.2895263509 13.6467994784 2.47708266185 0.00828054409361
2.29152768512 13.6541782438 2.47485082793 0.00802106098003
2.29352901935 13.6615570093 2.47261899401 0.00776157786664
2.29553035357 13.6689357747 2.47038716009 0.00750209475308
2.29753168779 13.6763145402 2.46815532617 0.00724261163951
2.29953302201 13.6836933056 2.46592349224 0.00698312852609
2.30153435624 13.6910720711 2.46369165833 0.00672364541256
2.30353569046 13.6980298746 2.46181972293 0.00661217861647
2.30553702468 13.7049816739 2.4599529208 0.00650282298832
2.30753835891 13.7119334732 2.45808611867 0.00639346736007
2.30953969313 13.7188852725 2.45621931653 0.0062841117318
2.31154102735 13.7258370719 2.45435251439 0.00617475610345
2.31354236157 13.7327888711 2.45248571226 0.00606540047525
2.3155436958 13.7397406704 2.45061891013 0.00595604484709
2.31754503002 13.7466924697 2.44875210799 0.0058466892188
2.31954636424 13.753644269 2.44688530586 0.00573733359072
2.32154769847 13.7603125088 2.44470417896 0.00567869343304
2.32354903269 13.76680487 2.44232809113 0.0056515097064
2.32555036691 13.7732972311 2.43995200331 0.00562432597998
2.32755170113 13.7797895922 2.43757591548 0.00559714225333
2.32955303536 13.7862819533 2.43519982765 0.00556995852673
2.33155436958 13.7927743144 2.43282373983 0.00554277480026
2.3335557038 13.7992666755 2.430447652 0.00551559107388
2.33555703803 13.8057590366 2.42807156417 0.00548840734732
2.33755837225 13.8122513977 2.42569547634 0.00546122362082
2.33955970647 13.8188336388 2.42320230917 0.00538206635996
2.34156104069 13.8256877807 2.42035495856 0.00514568098546
2.34356237492 13.8325419226 2.41750760795 0.00490929561111
2.34556370914 13.8393960645 2.41466025734 0.00467291023661
2.34756504336 13.8462502064 2.41181290672 0.00443652486209
2.34956637759 13.8531043483 2.40896555611 0.00420013948769
2.35156771181 13.8599584902 2.4061182055 0.0039637541132
2.35356904603 13.8668126322 2.40327085489 0.0037273687388
2.35557038025 13.8736399805 2.40039790448 0.00350254837223
2.35757171448 13.8799664941 2.3970464347 0.00349390469193
2.3595730487 13.8862930077 2.39369496492 0.00348526101167
2.36157438292 13.8926195214 2.39034349514 0.0034766173315
2.36357571714 13.898946035 2.38699202537 0.00346797365118
2.36557705137 13.9052725487 2.38364055559 0.00345932997086
2.36757838559 13.9115990623 2.38028908581 0.00345068629068
2.36957971981 13.917925576 2.37693761603 0.00344204261038
2.37158105404 13.9242520896 2.37358614626 0.00343339893003
2.37358238826 13.9300830843 2.37072632082 0.00338112464523
2.37558372248 13.9358287699 2.36795113745 0.00332133886458
2.3775850567 13.9415744555 2.36517595408 0.00326155308365
2.37958639093 13.9473201411 2.36240077071 0.00320176730295
2.38158772515 13.9530658267 2.35962558735 0.00314198152207
2.38358905937 13.9588115123 2.35685040398 0.00308219574127
2.3855903936 13.9645571979 2.35407522061 0.00302240996046
2.38759172782 13.9703028835 2.35130003724 0.00296262417966
2.38959306204 13.9760485691 2.34852485387 0.00290283839885
2.39159439626 13.9815636063 2.34559475445 0.00291243917599
2.39359573049 13.9868331145 2.34249974439 0.00299590306312
2.39559706471 13.9921026228 2.33940473433 0.0030793669502
2.39759839893 13.997372131 2.33630972426 0.00316283083729
2.39959973316 14.0026416392 2.3332147142 0.00324629472445
2.40160106738 14.0079111475 2.33011970415 0.00332975861162
2.4036024016 14.0131806557 2.32702469408 0.00341322249864
2.40560373582 14.0184501639 2.32392968402 0.00349668638582
2.40760507005 14.0237196722 2.32083467396 0.00358015027293
2.40960640427 14.0290221945 2.31766952888 0.00364092737949
2.41160773849 14.0345772295 2.3139679456 0.00352818127239
2.41360907272 14.0401322645 2.31026636232 0.00341543516523
2.41561040694 14.0456872995 2.30656477905 0.00330268905811
2.41761174116 14.0512423345 2.30286319577 0.00318994295105
2.41961307538 14.0567973695 2.29916161249 0.00307719684395
2.42161440961 14.0623524045 2.29546002922 0.00296445073681
2.42361574383 14.0679074395 2.29175844594 0.00285170462966
2.42561707805 14.0734624745 2.28805686266 0.0027389585226
2.42761841227 14.0784614624 2.28413681323 0.00266154623217
2.4296197465 14.0834107611 2.28019724129 0.00258729143174
2.43162108072 14.0883600597 2.27625766936 0.00251303663128
2.43362241494 14.0933093583 2.27231809742 0.00243878183084
2.43562374917 14.098258657 2.26837852548 0.00236452703044
2.43762508339 14.1032079556 2.26443895354 0.00229027223003
2.43962641761 14.1081572542 2.2604993816 0.00221601742962
2.44162775183 14.1131065529 2.25655980966 0.00214176262918
2.44362908606 14.1179131367 2.25308190241 0.00215724575569
2.44563042028 14.1226643063 2.24978325324 0.00220757289292
2.4476317545 14.1274154759 2.24648460408 0.00225790003015
2.44963308873 14.1321666455 2.24318595491 0.00230822716731
2.45163442295 14.1369178151 2.23988730575 0.00235855430459
2.45363575717 14.1416689847 2.23658865658 0.00240888144178
2.45563709139 14.1464201543 2.23329000742 0.00245920857902
2.45763842562 14.1511713239 2.22999135825 0.00250953571625
2.45963975984 14.1559224935 2.22669270909 0.00255986285345
2.46164109406 14.1604970011 2.22334945524 0.00256307023564
2.46364242829 14.1647456656 2.21992393054 0.00247936784742
2.46564376251 14.1689943302 2.21649840584 0.0023956654591
2.46764509673 14.1732429947 2.21307288114 0.00231196307088
2.46964643095 14.1774916592 2.20964735643 0.00222826068264
2.47164776518 14.1817403237 2.20622183173 0.00214455829441
2.4736490994 14.1859889882 2.20279630703 0.00206085590614
2.47565043362 14.1902376528 2.19937078233 0.0019771535179
2.47765176785 14.1944863173 2.19594525763 0.00189345112964
2.47965310207 14.1987349818 2.19251973292 0.00180974874142
2.48165443629 14.2030418072 2.18855796944 0.00184078626005
2.48365577051 14.2073496497 2.18458682816 0.00187383035898
2.48565710474 14.2116574922 2.18061568689 0.00190687445785
2.48765843896 14.2159653347 2.17664454562 0.00193991855681
2.48965977318 14.2202731772 2.17267340434 0.00197296265568
2.4916611074 14.2245810197 2.16870226307 0.0020060067546
2.49366244163 14.2288888622 2.1647311218 0.00203905085346
2.49566377585 14.2331967047 2.16075998052 0.00207209495234
2.49766511007 14.2371318812 2.15681259233 0.00211011294316
2.4996664443 14.2409650844 2.15287170373 0.00214949194911
2.50166777852 14.2447982876 2.14893081513 0.00218887095509
2.50366911274 14.2486314908 2.14498992653 0.00222824996101
2.50567044696 14.252464694 2.14104903794 0.002267628967
2.50767178119 14.2562978973 2.13710814934 0.00230700797295
2.50967311541 14.2601311005 2.13316726074 0.00234638697892
2.51167444963 14.2639643037 2.12922637214 0.00238576598485
2.51367578386 14.2677846991 2.1255599612 0.00240842837417
2.51567711808 14.2715961017 2.12208626862 0.00241935356464
2.5176784523 14.2754075043 2.11861257602 0.00243027875506
2.51967978652 14.279218907 2.11513888344 0.0024412039455
2.52168112075 14.2830303096 2.11166519085 0.00245212913598
2.52368245497 14.2868417122 2.10819149826 0.00246305432644
2.52568378919 14.2906531148 2.10471780567 0.00247397951686
2.52768512342 14.2944645175 2.10124411308 0.00248490470731
2.52968645764 14.2982759201 2.09777042049 0.00249582989778
2.53168779186 14.3019880589 2.09429613226 0.00248303663989
2.53368912608 14.305345684 2.09081971673 0.00238553463819
2.53569046031 14.3087033091 2.08734330119 0.00228803263645
2.53769179453 14.3120609343 2.08386688566 0.00219053063476
2.53969312875 14.3154185594 2.08039047012 0.00209302863302
2.54169446298 14.3187761845 2.07691405459 0.00199552663128
2.5436957972 14.3221338096 2.07343763906 0.00189802462958
2.54569713142 14.3254914347 2.06996122352 0.00180052262784
2.54769846564 14.3288490598 2.06648480799 0.00170302062615
2.54969979987 14.3322066849 2.06300839245 0.00160551862442
2.55170113409 14.3356709301 2.05926675739 0.00161445883722
2.55370246831 14.3391539906 2.05547831888 0.00164218297025
2.55570380253 14.3426370511 2.05168988037 0.00166990710332
2.55770513676 14.3461201117 2.04790144186 0.00169763123634
2.55970647098 14.3496031721 2.04411300335 0.00172535536936
2.5617078052 14.3530862327 2.04032456484 0.0017530795024
2.56370913943 14.3565692932 2.03653612633 0.00178080363544
2.56571047365 14.3600523537 2.03274768782 0.00180852776845
2.56771180787 14.363169632 2.02904531397 0.00174397274979
2.56971314209 14.3660919725 2.02538880691 0.00163023902152
2.57171447632 14.369014313 2.02173229985 0.00151650529323
2.57371581054 14.3719366536 2.0180757928 0.00140277156499
2.57571714476 14.3748589941 2.01441928574 0.00128903783671
2.57771847899 14.3777813346 2.01076277868 0.00117530410843
2.57971981321 14.3807036752 2.00710627162 0.00106157038018
2.58172114743 14.3836260157 2.00344976456 0.000947836651882
2.58372248165 14.3866003383 1.99992477133 0.000870640381686
2.58572381588 14.3896370037 1.99655750428 0.000837263949557
2.5877251501 14.3926736692 1.99319023725 0.000803887517376
2.58972648432 14.3957103346 1.98982297021 0.000770511085235
2.59172781855 14.398747 1.98645570316 0.000737134653107
2.59372915277 14.4017836655 1.98308843612 0.000703758220948
2.59573048699 14.4048203309 1.97972116908 0.000670381788805
2.59773182121 14.4078569963 1.97635390204 0.000637005356639
2.59973315544 14.4108936618 1.972986635 0.00060362892447
2.60173448966 14.4139177628 1.96963280579 0.000582612376356
2.60373582388 14.4168082238 1.96642190618 0.000693060049174
2.60573715811 14.4196986848 1.96321100658 0.00080350772199
2.60773849233 14.4225891459 1.96000010697 0.000913955394799
2.60973982655 14.4254796069 1.95678920737 0.00102440306763
2.61174116077 14.428370068 1.95357830776 0.00113485074044
2.613742495 14.431260529 1.95036740815 0.00124529841324
2.61574382922 14.4341509901 1.94715650855 0.00135574608606
2.61774516344 14.4370414511 1.94394560894 0.00146619375888
2.61974649767 14.4399319122 1.94073470934 0.00157664143168
2.62174783189 14.4425528136 1.93724563865 0.00161735683884
2.62374916611 14.4450674182 1.93364687524 0.00163057433733
2.62575050033 14.4475820227 1.93004811182 0.00164379183581
2.62775183456 14.4500966273 1.9264493484 0.00165700933428
2.62975316878 14.4526112318 1.92285058499 0.00167022683275
2.631754503 14.4551258363 1.91925182157 0.00168344433122
2.63375583722 14.4576404409 1.91565305815 0.0016966618297
2.63575717145 14.4601550454 1.91205429474 0.00170987932818
2.63775850567 14.4626191948 1.90858080388 0.00177038816552
2.63975983989 14.4650366826 1.90522316661 0.00187463260205
2.64176117412 14.4674541703 1.90186552933 0.00197887703854
2.64376250834 14.4698716581 1.89850789206 0.00208312147503
2.64576384256 14.4722891459 1.89515025478 0.00218736591152
2.64776517678 14.4747066336 1.8917926175 0.00229161034801
2.64976651101 14.4771241214 1.88843498023 0.0023958547845
2.65176784523 14.4795416092 1.88507734295 0.00250009922102
2.65376917945 14.4820083603 1.88178989599 0.00255281385342
2.65577051368 14.4845788993 1.87865032573 0.00249696569468
2.6577718479 14.4871494383 1.87551075546 0.00244111753597
2.65977318212 14.4897199773 1.8723711852 0.00238526937722
2.66177451634 14.4922905162 1.86923161493 0.0023294212185
2.66377585057 14.4948610552 1.86609204467 0.00227357305974
2.66577718479 14.4974315942 1.8629524744 0.00221772490102
2.66777851901 14.5000021332 1.85981290414 0.00216187674231
2.66977985324 14.5025726722 1.85667333388 0.00210602858356
2.67178118746 14.5051432111 1.85353376361 0.00205018042484
2.67378252168 14.5073976386 1.85046556054 0.00201899103029
2.6757838559 14.5096365196 1.84740086733 0.0019890143619
2.67778519013 14.5118754006 1.84433617412 0.00195903769348
2.67978652435 14.5141142816 1.84127148091 0.00192906102508
2.68178785857 14.5163531626 1.8382067877 0.00189908435668
2.6837891928 14.5185920436 1.83514209449 0.00186910768824
2.68579052702 14.5208309246 1.83207740129 0.00183913101984
2.68779186124 14.5230698056 1.82901270808 0.00180915435143
2.68979319546 14.5253086866 1.82594801487 0.00177917768302
2.69179452969 14.5275198334 1.82278888128 0.00172504530226
2.69379586391 14.529711255 1.81956257886 0.00165373265549
2.69579719813 14.5319026764 1.81633627644 0.00158242000875
2.69779853235 14.534094098 1.81310997403 0.00151110736199
2.69979986658 14.5362855194 1.80988367161 0.00143979471525
2.7018012008 14.5384769409 1.80665736919 0.00136848206848
2.70380253502 14.5406683625 1.80343106677 0.00129716942173
2.70580386925 14.542859784 1.80020476436 0.00122585677499
2.70780520347 14.5449720194 1.79702248442 0.00114705187685
2.70980653769 14.5469586769 1.7939100179 0.00105636532748
2.71180787191 14.5489453344 1.79079755138 0.000965678778104
2.71380920614 14.550931992 1.78768508487 0.000874992228752
2.71581054036 14.5529186495 1.78457261835 0.000784305679397
2.71781187458 14.554905307 1.78146015183 0.000693619130016
2.71981320881 14.5568919645 1.77834768531 0.000602932580645
2.72181454303 14.5588786221 1.77523521879 0.0005122460313
2.72381587725 14.560884244 1.7721655033 0.000454447767856
2.72581721147 14.5629712094 1.76927915794 0.000537715788585
2.7278185457 14.5650581748 1.76639281257 0.000620983809327
2.72981987992 14.5671451402 1.76350646721 0.000704251830093
2.73182121414 14.5692321055 1.76062012185 0.000787519850853
2.73382254837 14.5713190709 1.75773377649 0.0008707878716
2.73582388259 14.5734060363 1.75484743112 0.000954055892326
2.73782521681 14.5754930016 1.75196108576 0.00103732391311
2.73982655103 14.577579967 1.74907474039 0.00112059193385
2.74182788526 14.5796669324 1.74618839503 0.00120385995459
2.74382921948 14.581581864 1.74335275308 0.00121409796254
2.7458305537 14.583459112 1.74052821759 0.00120833892006
2.74783188793 14.58533636 1.7377036821 0.00120257987755
2.74983322215 14.587213608 1.73487914662 0.00119682083505
2.75183455637 14.5890908561 1.73205461113 0.00119106179257
2.75383589059 14.5909681041 1.72923007564 0.00118530275007
2.75583722482 14.5928453521 1.72640554015 0.00117954370758
2.75783855904 14.5947226001 1.72358100466 0.00117378466509
2.75983989326 14.5965998481 1.72075646917 0.00116802562261
2.76184122748 14.5985099233 1.71788074001 0.00116083722548
2.76384256171 14.6004598683 1.71494283445 0.00115191283017
2.76584389593 14.6024098133 1.71200492888 0.00114298843487
2.76784523015 14.6043597582 1.70906702332 0.00113406403955
2.76984656438 14.6063097032 1.70612911775 0.00112513964423
2.7718478986 14.6082596481 1.70319121219 0.00111621524892
2.77384923282 14.6102095931 1.70025330662 0.00110729085362
2.77585056704 14.612159538 1.69731540106 0.00109836645832
2.77785190127 14.6140530319 1.69440134828 0.0011047652834
2.77985323549 14.6157806464 1.69155738601 0.00115619080225
2.78185456971 14.6175082609 1.68871342374 0.00120761632111
2.78385590394 14.6192358754 1.68586946147 0.00125904183998
2.78585723816 14.6209634899 1.68302549921 0.00131046735883
2.78785857238 14.6226911044 1.68018153693 0.00136189287769
2.7898599066 14.6244187188 1.67733757467 0.00141331839656
2.79186124083 14.6261463334 1.6744936124 0.00146474391541
2.79386257505 14.6278728465 1.67165674738 0.0015084681169
2.79586390927 14.6295808817 1.66893895862 0.00142298132669
2.7978652435 14.631288917 1.66622116985 0.00133749453649
2.79986657772 14.6329969522 1.66350338108 0.00125200774629
2.80186791194 14.6347049874 1.66078559232 0.00116652095609
2.80386924616 14.6364130226 1.65806780355 0.00108103416587
2.80587058039 14.6381210578 1.65535001478 0.000995547375665
2.80787191461 14.6398290931 1.65263222602 0.000910060585471
2.80987324883 14.6415371283 1.64991443725 0.000824573795273
2.81187458306 14.6432451635 1.64719664848 0.000739087005077
2.81387591728 14.6449007428 1.64461520489 0.000660844981904
2.8158772515 14.6465324785 1.64209573638 0.000585896034669
2.81787858572 14.6481642142 1.63957626787 0.000510947087402
2.81987991995 14.6497959498 1.63705679936 0.000435998140165
2.82188125417 14.6514276855 1.63453733085 0.000361049192897
2.82388258839 14.6530594212 1.63201786234 0.000286100245659
2.82588392262 14.6546911568 1.62949839383 0.000211151298407
2.82788525684 14.6563228925 1.62697892532 0.00013620235116
2.82988659106 14.6579546282 1.62445945681 6.12534039036e-05
2.83188792528 14.659568019 1.62186747933 3.5719421411e-05
2.83388925951 14.661142202 1.6191205317 0.00011579781459
2.83589059373 14.662716385 1.61637358408 0.000195876207767
2.83789192795 14.664290568 1.61362663646 0.000275954600955
2.83989326217 14.665864751 1.61087968883 0.000356032994148
2.8418945964 14.667438934 1.60813274121 0.00043611138733
2.84389593062 14.669013117 1.60538579358 0.000516189780505
2.84589726484 14.6705873001 1.60263884596 0.000596268173686
2.84789859907 14.6721527786 1.59991748328 0.000675783413663
2.84989993329 14.6736550799 1.5973818178 0.000751211251376
2.85190126751 14.6751573811 1.59484615231 0.000826639089121
2.85390260173 14.6766596824 1.59231048682 0.000902066926852
2.85590393596 14.6781619836 1.58977482134 0.000977494764581
2.85790527018 14.6796642849 1.58723915585 0.00105292260229
2.8599066044 14.6811665861 1.58470349037 0.00112835044005
2.86190793863 14.6826688874 1.58216782488 0.00120377827778
2.86390927285 14.6841711886 1.5796321594 0.00127920611549
2.86591060707 14.6855966061 1.57713277194 0.00122060876484
2.86791194129 14.6870156491 1.57463639231 0.00115089934272
2.86991327552 14.688434692 1.57214001268 0.00108118992061
2.87191460974 14.689853735 1.56964363304 0.00101148049848
2.87391594396 14.691272778 1.56714725341 0.000941771076341
2.87591727819 14.692691821 1.56465087378 0.00087206165423
2.87791861241 14.694110864 1.56215449415 0.000802352232107
2.87991994663 14.695529907 1.55965811451 0.000732642809999
2.88192128085 14.6969489499 1.55716173488 0.000662933387864
2.88392261508 14.6983043722 1.55468676829 0.000622066541454
2.8859239493 14.6996087186 1.55222899244 0.000604355002314
2.88792528352 14.700913065 1.5497712166 0.000586643463188
2.88992661775 14.7022174114 1.54731344075 0.000568931924036
2.89192795197 14.7035217578 1.54485566491 0.000551220384893
2.89392928619 14.7048261042 1.54239788906 0.000533508845756
2.89593062041 14.7061304506 1.53994011322 0.000515797306606
2.89793195464 14.707434797 1.53748233737 0.000498085767474
2.89993328886 14.7087391434 1.53502456153 0.00048037422834
2.90193462308 14.7100280987 1.53257926968 0.000440477193164
2.9039359573 14.7112496692 1.53018863467 0.000303448700533
2.90593729153 14.7124712396 1.52779799965 0.000166420207911
2.90793862575 14.7136928101 1.52540736464 2.9391715286e-05
2.90993995997 14.7149143806 1.52301672962 -0.000107636777324
2.9119412942 14.7161359511 1.52062609461 -0.000244665269943
2.91394262842 14.7173575215 1.51823545959 -0.000381693762574
2.91594396264 14.718579092 1.51584482458 -0.000518722255186
2.91794529686 14.7198006625 1.51345418956 -0.000655750747802
2.91994663109 14.7208589778 1.51103278782 -0.00097354632297
2.92194796531 14.7219153572 1.50861102125 -0.00129348538133
2.92394929953 14.7229717367 1.50618925468 -0.00161342443969
2.92595063376 14.7240281163 1.50376748811 -0.00193336349808
2.92795196798 14.7250844957 1.50134572154 -0.00225330255643
2.9299533022 14.7261408752 1.49892395497 -0.00257324161478
2.93195463642 14.7271972547 1.4965021884 -0.00289318067315
2.93395597065 14.7282536342 1.49408042183 -0.00321311973153
2.93595730487 14.7296066201 1.49173229953 -0.00314754464572
2.93795863909 14.731038154 1.48940367985 -0.00297987688143
2.93995997332 14.7324696879 1.48707506017 -0.00281220911712
2.94196130754 14.7339012218 1.48474644049 -0.00264454135279
2.94396264176 14.7353327557 1.48241782081 -0.0024768735885
2.94596397598 14.7367642896 1.48008920114 -0.0023092058242
2.94796531021 14.7381958235 1.47776058146 -0.00214153805989
2.94996664443 14.7396273573 1.47543196178 -0.00197387029558
2.95196797865 14.7410588912 1.4731033421 -0.00180620253126
2.95396931288 14.7424432294 1.47086345342 -0.00160303505707
2.9559706471 14.743762892 1.46874515906 -0.0013512198323
2.95797198132 14.7450825546 1.4666268647 -0.00109940460754
2.95997331554 14.7464022173 1.46450857035 -0.000847589382745
2.96197464977 14.7477218799 1.46239027599 -0.00059577415796
2.96397598399 14.7490415425 1.46027198164 -0.000343958933193
2.96597731821 14.7503612051 1.45815368728 -9.21437084136e-05
2.96797865243 14.7516808677 1.45603539292 0.000159671516363
2.96997998666 14.7530005303 1.45391709857 0.000411486741142
2.97198132088 14.7543087539 1.45178457285 0.000645108633352
2.9739826551 14.7554130934 1.44939839392 0.000554461126938
2.97598398933 14.756517433 1.447012215 0.000463813620517
2.97798532355 14.7576217725 1.44462603608 0.000373166114094
2.97998665777 14.758726112 1.44223985715 0.00028251860769
2.98198799199 14.7598304515 1.43985367823 0.000191871101283
2.98398932622 14.7609347911 1.43746749931 0.00010122359487
2.98599066044 14.7620391306 1.43508132038 1.05760884488e-05
2.98799199466 14.7631434701 1.43269514146 -8.00714179693e-05
2.98999332889 14.7643256957 1.43049147174 0.000102007439989
2.99199466311 14.7655210801 1.42831863691 0.000330163354941
2.99399599733 14.7667164646 1.42614580209 0.0005583192699
2.99599733155 14.767911849 1.42397296726 0.000786475184872
2.99799866578 14.7691072334 1.42180013243 0.00101463109982
3.0 14.7703026178 1.4196272976 0.00124278701478
